77573 50
harry 0.356087 -0.609306 -0.409764 -0.687948 -0.370186 -0.202784 0.014423 -0.215043 -0.256967 0.225155 0.105259 -0.659980 -0.099607 -0.248311 -0.172223 0.166972 -0.563397 0.435246 -0.465991 0.184923 0.307246 -0.585554 -0.507509 -0.770755 0.130551 -0.842367 -0.485504 -0.309120 -1.135288 -0.484623 -0.522485 -0.159672 0.204692 -0.646964 0.090591 -0.574351 -0.743117 -0.181174 0.315679 -0.039144 -0.524258 0.159900 -0.145322 -0.246400 0.146996 0.145240 -0.216081 -0.552327 -0.103968 0.223405
potter 0.305243 -0.103973 0.127615 -0.353056 -0.082773 0.064799 0.029264 -0.154183 -0.213624 -0.097957 0.135032 -1.061639 0.246216 0.380419 -0.255909 0.052459 -0.441940 -0.220672 -0.469326 -0.117074 0.374438 -0.522875 -0.333487 -0.200723 -0.284791 -1.021654 -0.329069 -0.405158 -0.964199 -0.166992 -0.480643 -0.518219 -0.019207 -0.408185 0.021003 0.040147 -0.488100 -0.560243 -0.031621 0.050466 -0.646845 -0.076331 0.145251 -0.302228 0.351501 0.240093 -0.624057 -0.811261 -0.708589 0.460666
and 0.242524 -0.035152 -0.424047 -0.548629 -0.295531 0.007312 -0.122368 -0.054921 -0.311753 0.091845 0.268307 -0.815702 -0.156125 -0.291299 -0.098282 0.146661 -0.449001 0.421469 -0.358867 0.317587 0.154539 -0.494444 -0.377612 -0.794807 0.191671 -0.893153 -0.436588 -0.160868 -0.883044 -0.280810 -0.555966 -0.292224 0.184631 -0.523764 0.132336 -0.202852 -0.450552 -0.331612 0.040095 0.310489 -0.337257 -0.084189 -0.054659 0.171926 0.100482 -0.102834 -0.182106 -0.574493 -0.581746 0.044854
the 0.682710 0.033713 -0.500869 -0.703999 0.012117 -0.020165 -0.084282 -0.574163 -0.227495 -0.177301 0.236384 -0.756494 -0.239997 -0.486644 -0.021393 0.212185 -0.725704 0.231206 -0.270790 0.099540 -0.000228 -0.504540 0.118197 -0.575100 0.140044 -1.001338 -0.313103 -0.252127 -0.831404 -0.298405 -0.350629 0.004618 0.431855 -0.459001 0.002261 -0.411732 -0.263142 -0.711896 -0.212635 0.376681 -0.210965 -0.257033 0.037900 -0.044612 0.304994 -0.575710 -0.790413 -0.374273 -0.451203 0.233411
sorcerers 0.490374 0.150372 -0.078949 0.341776 -0.560831 -0.242516 0.281613 0.154865 -0.343493 -0.207296 -0.082129 -0.662488 -0.238981 0.454569 -0.298062 0.435184 -0.223584 -0.096416 -0.471717 -0.324916 0.273474 0.302368 0.304582 -0.320161 -0.109662 -0.556187 -0.110670 0.170263 0.157660 0.309703 -0.342096 0.306289 -0.064838 -0.260143 -0.202492 0.242182 0.137219 0.110340 -0.249568 -0.094786 0.039946 0.425679 -0.027887 0.149121 0.356518 -0.399831 -0.526964 0.238271 -0.496608 0.466913
stone -0.087354 0.214108 -0.432884 -0.638810 -0.500923 -0.413954 0.185261 -0.061426 -0.687526 -0.273112 0.106064 -0.456991 0.255400 -0.328087 0.169939 -0.104078 0.116133 0.359256 -0.189174 -0.091496 0.458959 -0.315968 -0.230518 -0.195808 0.199707 -0.588894 -0.134651 -0.248838 -0.516140 -0.221968 -0.567479 -0.260704 0.650541 -0.798642 0.022086 -0.696690 -0.192094 -0.121086 0.022258 0.199517 -0.531194 0.380536 0.261661 0.319678 0.318660 -0.487231 -0.569582 -0.660255 -0.452267 0.001751
chapter 0.107053 -0.076838 0.087734 0.156680 -0.187183 -0.200577 0.183049 0.535028 -0.279606 -0.265475 0.021873 -0.195681 -0.127955 0.019812 0.519058 0.380384 0.101158 -0.124193 0.310924 0.528002 0.614182 -0.442943 0.566741 0.370229 0.392560 -0.317996 0.150281 0.461510 0.119521 0.181078 -0.054707 0.214142 0.183328 0.393094 -0.094200 0.018639 -0.005960 0.313342 0.406041 -0.143667 0.019684 -0.045055 0.113335 0.572718 0.172305 -0.078688 -0.081843 0.419968 -0.179689 0.446106
one 0.507770 -0.261431 -0.762941 -0.815791 -0.122840 0.232598 0.120633 0.003846 -0.431805 -0.031012 0.026702 -0.639567 -0.426090 -0.198820 -0.169755 0.316123 -0.312444 0.182118 -0.861759 0.082418 0.256775 -0.773114 -0.189751 -0.899021 0.183403 -0.573379 -0.465192 -0.060892 -0.646779 -0.188898 -0.611109 -0.526135 0.081584 -0.678533 -0.179706 -0.765408 0.050412 -0.775210 -0.417886 0.142726 -0.709830 0.018077 0.124358 -0.296086 0.320114 -0.516262 -0.654876 -0.684914 -0.734635 0.410369
boy -0.059408 -0.414783 -0.433553 -0.309219 -0.502142 0.092963 0.191122 -0.356768 -0.185281 0.145401 0.135344 -0.635850 -0.231417 -0.115045 -0.342042 0.297698 -0.482789 0.412904 -0.780131 -0.003488 -0.238851 -0.192525 0.097960 -0.368877 0.092593 -1.023366 -0.027122 -0.347688 -0.775493 -0.458916 -0.452160 -0.091715 0.429961 -0.562972 0.054282 -0.386774 -0.310521 -0.695287 0.075919 0.446132 -0.780809 0.194481 -0.038658 0.109464 0.268408 -0.171141 -0.530142 -0.696402 -0.295080 0.370573
who 0.557206 -0.500057 -0.175540 -0.515571 -0.630859 0.059757 -0.285869 -0.194450 -0.237283 -0.054316 0.178126 -0.898984 0.459111 -0.364063 0.171605 -0.005162 -0.439343 0.450889 -0.742733 0.391578 0.093654 -0.221719 -0.189682 -0.445876 0.121186 -0.646476 -0.227611 -0.138749 -1.144334 -0.234565 -0.768131 -0.547042 -0.278590 -0.703676 -0.329875 -1.031845 -0.263092 -0.306943 -0.337398 -0.046367 -0.558749 -0.061304 0.311706 0.011924 0.301750 -0.394862 -0.530384 -0.549749 -0.253440 -0.067390
lived -0.278987 -0.150517 -0.503510 -0.462696 -0.281441 -0.222108 0.272676 -0.122845 -0.415607 0.191008 -0.136221 -0.108357 0.165245 0.244092 0.211602 0.211635 -0.269984 0.333805 -0.765033 0.098941 0.056791 -0.265913 -0.124794 -0.182543 -0.392375 -0.229374 0.088637 -0.455328 -0.731988 0.211811 -0.423718 0.134507 0.279323 -0.372318 -0.128145 -0.118415 0.086781 -0.318465 -0.529769 -0.252154 0.103528 -0.404511 0.116356 -0.029959 -0.297560 0.236208 0.099223 -0.177805 -0.480832 0.624090
mr 0.374322 -0.532611 -0.540296 -0.496016 -0.197810 -0.000607 -0.508310 0.099366 -0.538600 0.444038 0.440195 -0.456641 0.459061 -0.565439 0.071862 0.149706 -0.537144 0.426496 -0.229889 -0.258596 -0.029109 -0.905722 0.109569 -0.722637 0.039246 -0.705292 -0.343402 0.015769 -0.562387 -0.015121 -0.826758 -0.427942 0.117649 -0.077338 -0.471320 -0.422281 0.020522 -0.462469 -0.130837 -0.017472 -0.585421 0.135923 0.074515 -0.124062 0.137423 -0.251697 -0.694000 -0.664749 -0.619431 0.369099
mrs 0.453275 -0.046972 0.138859 -0.346614 -0.114263 0.320433 -0.790820 -0.020150 -0.598392 -0.308449 0.284755 -0.963318 -0.018542 0.050135 0.012464 -0.306815 -0.457868 0.062771 -0.072660 -0.332964 0.504306 -0.551650 -0.394636 -0.420854 -0.117549 -0.697576 -0.171866 -0.048250 -0.404358 -0.120027 -0.576033 -0.058708 -0.107873 -0.273553 0.132710 -0.329138 -0.308235 -0.284130 0.253715 0.257274 -0.057529 0.227073 0.325282 -0.340665 0.446345 -0.303204 -0.656906 -0.846973 -0.091824 0.036475
dursley 0.648922 -0.265753 -0.537529 -0.338891 -0.417607 -0.120280 -0.157928 0.122210 -0.275710 -0.497668 -0.208787 -0.584680 0.019656 0.396092 0.138086 0.176868 -0.561057 0.160826 -0.709383 -0.034175 0.453195 -0.142142 -0.192991 -0.525140 0.053932 -0.348931 -0.190410 -0.548606 -0.767104 0.104913 -0.087474 -0.508792 -0.009534 -0.411961 -0.455977 -0.467665 -0.297275 -0.730006 0.204568 -0.065556 -0.393139 -0.014732 0.108661 -0.191744 0.465427 -0.071539 -0.215897 -0.536603 -0.230155 0.344908
of 0.612794 0.561463 -0.569245 -0.303398 0.031261 -0.129781 0.054998 -0.038001 -0.190555 -0.504441 0.399718 -0.664138 -0.244059 -0.207662 -0.055706 -0.006295 -0.657790 0.421234 -0.569994 -0.137372 0.140199 -0.403781 0.265264 -0.717621 -0.096740 -0.868842 -0.312838 -0.305206 -0.870020 0.116570 -0.524994 -0.083536 -0.059969 -0.549904 -0.271888 -0.495433 0.024892 -0.626580 -0.176497 0.351176 -0.508451 -0.036093 0.450518 0.289422 0.145730 -0.472473 -0.573555 -1.029128 -0.534237 0.187390
number 0.159189 -0.201597 -0.345863 -0.525155 -0.319007 0.024282 -0.155697 -0.354495 -0.119529 0.195386 -0.189904 -0.853451 -0.267280 -0.452298 0.055149 0.232399 -0.409950 0.434707 0.052472 0.147282 0.195444 0.138349 0.216343 0.017651 -0.206087 -0.406523 -0.018501 -0.259116 -0.959208 0.043058 -0.046882 -0.341161 0.085729 -0.333352 -0.151754 -0.476947 -0.000139 -0.574100 0.047427 0.020124 -0.165546 -0.074998 -0.105642 0.241153 -0.112925 0.474267 -0.657952 -0.546293 0.254008 0.298404
four 0.220466 -0.001747 -0.462822 -0.016365 -0.480942 -0.227629 0.259060 -0.046372 -0.188309 -0.322217 0.199105 -0.731013 0.271217 -0.139382 -0.128979 -0.173670 -0.476334 0.724130 -0.532229 -0.119445 -0.259158 -0.320958 -0.182012 -0.021589 0.331068 -0.846254 -0.659552 -0.070272 -0.735590 -0.337112 -0.392033 -0.552610 0.043548 -0.496291 0.143391 -0.745131 -0.483131 -0.446831 0.137984 0.509325 -0.145306 -0.243746 0.328903 0.130568 0.474157 0.135265 -0.481260 -0.294206 0.106560 -0.184131
privet 0.408715 -0.368741 0.168344 -0.295737 -0.210470 -0.134913 -0.287507 0.166685 -0.545179 0.140974 0.021592 -0.732815 -0.459840 0.233780 0.056948 0.212682 -0.040655 0.333210 -0.364022 -0.330189 0.555079 -0.249355 0.210689 0.070412 0.030833 -0.956212 -0.363688 0.199117 -0.151557 -0.185933 -0.531216 -0.291782 0.351444 -0.388419 -0.358105 -0.545747 0.137240 -1.010018 0.413032 -0.001630 -0.227733 -0.459762 -0.126969 -0.329482 0.273142 -0.483128 -0.866985 -0.818462 -0.411932 0.240708
drive -0.177376 0.222455 -0.022669 0.045289 -0.328747 -0.071396 -0.588693 -0.518379 -0.100012 -0.372987 0.533988 -0.733252 -0.185022 0.082804 -0.197439 0.176089 -0.295661 -0.129767 -0.718887 -0.013019 0.169889 -0.341864 0.171645 -0.060815 0.375098 -0.343697 -0.736698 -0.244293 -0.894736 0.249081 -0.273913 -0.026290 -0.045330 -0.852805 -0.048336 -0.175001 0.097372 -0.510729 0.136476 -0.167158 -0.340551 -0.175819 0.185309 -0.005027 -0.048015 -0.218009 -0.172659 -0.846866 -0.658179 0.496432
were 0.662115 0.040343 -0.370723 -0.752104 -0.069041 -0.237598 -0.297830 -0.369535 -0.792480 -0.141015 0.016681 -0.703546 0.196718 -0.321219 0.259971 0.113462 -0.508948 0.202021 -0.590902 -0.271256 0.322686 -0.519190 -0.233351 -0.567882 0.391878 -0.606935 -0.329514 0.058037 -0.421919 -0.123739 -0.555471 -0.646875 -0.050022 -0.920555 0.166590 -0.661232 -0.319478 -0.302208 -0.152226 -0.066148 -0.587090 0.204401 0.137649 -0.233487 0.089747 0.009504 -0.739166 -1.077586 -0.149482 0.515990
proud 0.433563 0.272098 -0.372552 -0.165461 -0.589863 0.182302 0.196763 -0.220803 0.220228 -0.274519 0.455711 -0.195058 0.004589 0.117833 -0.529683 -0.150418 -0.568000 -0.245239 -0.486492 0.325498 0.224769 0.165640 -0.233065 -0.345977 -0.293262 -0.668777 -0.526795 0.407787 -0.564101 0.176554 -0.446047 0.043559 0.095774 -0.059893 -0.107539 -0.645748 -0.365909 0.012781 0.315834 -0.158942 -0.239944 -0.514094 -0.220018 0.164034 0.408929 0.247279 0.115980 -0.116164 -0.173800 -0.225187
to 0.163358 -0.303693 0.048589 -0.546695 -0.502211 0.209441 -0.573846 0.166483 -0.905568 0.234160 0.243604 -0.666821 -0.403484 -0.122645 -0.355860 -0.096349 -1.047252 0.193054 -0.218200 0.167644 0.352879 -0.349677 -0.468938 -0.443446 0.332793 -1.002034 -0.346253 -0.103954 -0.857391 0.018300 -0.768588 -0.710350 0.058586 -0.580671 0.099918 -0.941166 -0.484188 -0.360807 0.186978 0.041388 -0.269895 0.182925 0.160323 -0.058944 0.085924 -0.572517 -0.337317 -0.658174 -0.496696 0.153276
say 0.191649 -0.518430 -0.071437 -0.402153 -0.222577 0.278290 -0.285688 -0.056488 -0.366879 0.096069 0.421575 -0.766398 -0.102571 -0.099629 -0.635484 0.429504 -0.708839 0.043000 -0.860403 -0.344763 0.425930 -0.624848 0.068483 -0.578807 0.461782 -0.748416 -0.654730 -0.326625 -0.822526 -0.347655 -0.224522 -0.426277 -0.227926 -0.402371 0.137228 -0.470278 -0.727504 -0.653974 0.189227 -0.374324 -0.188407 -0.029300 -0.041765 -0.311770 0.337355 -0.150321 -0.589953 -0.664045 -0.417121 0.221185
that 0.405700 -0.097814 -0.367830 -0.524048 -0.461728 -0.134776 -0.049620 -0.108103 -0.212798 0.153956 0.231320 -0.741736 0.218362 -0.188145 -0.118440 0.266504 -0.713303 0.091101 -0.617792 0.192487 0.354063 -0.455297 -0.288397 -0.618388 0.133737 -0.841746 -0.495234 -0.130532 -0.765685 -0.464654 -0.627953 -0.476814 -0.193983 -0.295682 -0.311275 -0.583530 -0.643441 -0.532783 -0.033726 -0.005020 -0.379709 0.333453 -0.047930 -0.089047 0.128096 0.099812 -0.614297 -0.630390 -0.369185 0.100512
they 0.215671 -0.447863 -0.048678 -0.887870 -0.396752 0.024008 -0.170070 -0.205876 -0.295757 0.305420 0.112084 -0.296977 0.239137 -0.362063 0.112510 -0.223149 -0.695957 0.361204 -0.676946 -0.268933 0.317433 -0.401654 -0.514746 -0.715357 -0.102693 -1.024000 -0.150546 -0.132036 -0.848833 -0.607606 -0.920852 -0.418167 0.115546 -0.672115 0.160993 -0.677160 -0.543562 -0.519085 -0.068752 0.077694 -0.461999 -0.121552 -0.072036 -0.288855 0.328539 -0.262672 -0.221428 -0.772910 -0.294422 0.574828
perfectly 0.433560 0.207812 0.027491 -0.112100 -0.403047 -0.304334 -0.442068 -0.106882 -0.024632 -0.226279 -0.080362 -0.271963 -0.034237 0.047573 -0.514112 0.093234 -0.693633 -0.473843 -0.068934 -0.508722 -0.111508 0.107283 0.154248 -0.301412 -0.506464 -0.536004 -0.530005 -0.608669 -0.470195 0.360908 -0.311003 -0.316884 0.083946 -0.375811 0.064833 -0.176977 -0.581149 0.101044 0.342204 -0.372547 -0.494681 0.002695 0.081795 0.186614 -0.041345 0.140136 -0.546891 -0.099294 0.063445 0.077524
normal 0.426956 -0.285682 0.041735 -0.181491 0.157125 -0.084828 -0.548838 -0.357932 -0.323347 -0.264017 0.242816 -0.740100 0.220102 0.083544 -0.179772 -0.206217 -0.324553 0.347015 -0.561114 -0.204214 -0.154941 -0.502146 -0.307112 -0.398941 -0.191536 -0.042406 0.243268 0.030790 -0.025131 0.314636 -0.181678 -0.208013 0.282549 0.075194 -0.382102 -0.367756 -0.340073 0.053215 0.105899 -0.437590 -0.040231 -0.459782 0.188122 0.355079 -0.392025 0.091933 -0.616440 -0.555391 -0.330984 -0.091689
thank 0.211408 0.071164 -0.490208 -0.103136 0.091138 0.009756 -0.316193 -0.182692 0.304500 0.108290 0.279516 0.258615 0.433380 0.218536 -0.267305 0.251650 -0.355994 0.241580 -0.318254 0.089543 0.316081 -0.574521 -0.044119 -0.623578 -0.222739 -0.321249 -0.039652 0.161917 -0.205349 -0.528960 -0.337213 0.052845 -0.255632 -0.418669 -0.379553 -0.736346 -0.595628 -0.017717 0.116895 -0.094526 -0.347524 0.211668 0.001156 0.295960 -0.002217 0.016843 -0.461714 0.085374 -0.349134 0.232562
you 0.167230 -0.042181 -0.172414 -0.910389 -0.891520 0.222824 -0.175607 0.197146 -0.645480 0.322939 0.091195 -0.982276 0.182047 -0.107310 -0.384115 -0.256343 -1.131327 -0.010132 -0.443673 -0.188453 0.350308 -0.647893 -0.348278 -0.949026 -0.099873 -1.088375 -0.778433 0.310304 -0.422588 -0.448742 -0.413227 -0.471165 -0.180571 -0.485912 0.034798 -0.610197 -0.288614 -0.669205 0.186416 -0.330656 -0.908809 -0.168017 0.017771 0.294259 -0.203606 -0.198172 -0.506183 -0.649246 -0.136387 0.605271
very 0.208403 0.003861 -0.342764 -0.331385 -0.125170 0.134370 -0.508450 -0.183844 -0.482719 -0.294647 0.537064 -0.456626 0.448255 0.032063 0.123239 -0.379881 -0.454833 0.288664 -0.416967 -0.145187 0.412869 -0.472616 -0.199720 -1.057757 0.019997 -0.720194 -0.131703 -0.626422 -1.171854 -0.821633 -0.655805 -0.762126 -0.004322 -0.535579 0.155313 -0.485321 -0.149033 -0.705516 -0.058684 0.219993 -0.634922 0.222653 0.138377 0.018749 0.368161 0.138365 -0.367586 -0.447335 -0.239518 -0.032649
much 0.102310 -0.182370 -0.593048 -0.788699 -0.344519 0.314613 -0.512725 -0.009689 -0.092634 -0.093131 0.400384 -0.846083 0.236451 -0.538952 -0.185831 0.037627 -0.726206 0.592404 -0.023032 -0.019370 0.131254 -0.813304 -0.051389 -0.722223 0.084044 -0.531776 -0.734991 -0.277167 -0.335733 -0.476131 -1.043636 -0.062872 0.213538 -0.454242 -0.394141 -0.635739 -0.142566 -0.545351 0.021499 -0.214880 -0.575406 -0.260451 0.392599 0.060589 0.353530 0.218027 -0.405641 -0.557721 -0.229578 0.049881
last 0.679801 -0.037603 -0.260010 -0.521899 -0.115298 -0.431782 -0.165470 -0.067460 -0.510102 0.210020 0.413714 -0.986461 0.139926 -0.124493 -0.383054 -0.018436 -0.776289 0.251886 -0.598117 -0.298219 0.110763 -0.883816 0.032879 -0.143341 -0.046690 -0.413864 -0.066828 -0.277578 -0.939979 -0.645379 -0.618700 -0.141785 0.213613 -0.818600 -0.123466 -0.607905 -0.384107 -0.520276 -0.275233 0.247625 0.017339 -0.154741 0.313281 -0.386319 0.211512 0.133978 -0.396129 -0.669072 -0.056408 0.257675
people 0.603717 -0.024871 -0.087262 -0.307119 -0.489997 0.129984 -0.226546 -0.561651 -0.477328 -0.428488 0.350250 -0.439418 0.055714 -0.220497 0.065756 0.256564 -0.496925 -0.019767 -0.291919 0.002139 0.279099 -0.377269 -0.105667 -0.438804 0.141098 -0.848825 -0.357855 0.053052 -0.898226 -0.379904 -0.292837 -0.451698 0.377439 -0.542722 0.087636 -0.664193 0.031941 -0.425686 0.041184 -0.317556 -0.568510 -0.113197 0.033891 0.299643 -0.138298 -0.153043 -0.717694 -0.905199 -0.763405 0.357768
youd -0.139246 0.310213 -0.151994 -0.387196 -0.132039 0.076402 -0.162115 -0.314088 0.078321 -0.095855 0.250661 -0.697977 0.392965 -0.142352 -0.115197 0.321775 0.117497 -0.224855 -0.140779 -0.314087 -0.198062 -0.579255 -0.313303 -0.361399 0.338904 -0.367331 -0.274488 0.027848 -1.015550 -0.045619 0.034694 -0.525021 0.379409 -0.510774 0.400822 -0.411116 -0.285764 -0.760415 -0.195414 0.371249 -0.391940 -0.351954 0.280490 0.031407 -0.272626 0.218110 -0.388801 -0.668625 -0.478466 0.492013
expect 0.082833 0.130944 0.272459 -0.429957 -0.603459 -0.252276 -0.438300 -0.125639 -0.469508 0.385511 -0.239282 -0.695185 0.196022 -0.510082 -0.392836 -0.125622 -0.076619 -0.112589 -0.057764 -0.425797 0.517246 -0.760927 -0.401181 -0.669483 -0.127559 -0.672447 0.118317 0.247626 -0.272194 -0.055361 -0.791313 -0.088786 0.449663 -0.334548 0.479994 0.113728 -0.070228 -0.097146 0.485624 -0.337964 0.062609 -0.029648 -0.026190 -0.025361 -0.110355 -0.430756 -0.072853 -0.816892 0.156248 0.575965
be 0.066047 -0.073159 -0.151036 -0.503735 -0.452272 0.078233 -0.155713 0.352310 -0.906188 0.097414 0.065155 -1.064889 0.070404 0.111853 -0.437709 0.211446 -1.105172 0.423327 -0.384144 -0.128612 0.436666 -0.607948 -0.326956 -0.459103 0.125638 -0.536707 -0.533502 0.170799 -0.589782 -0.225212 -0.623433 -0.623277 -0.285202 -0.650246 0.035283 -0.904833 -0.098064 -0.675105 0.223658 0.019705 -0.160130 -0.017331 -0.131753 -0.242623 -0.009042 -0.138150 -1.069158 -0.674381 0.161947 0.350855
involved 0.245129 -0.084696 0.277445 -0.302472 -0.083614 0.284312 -0.280988 -0.294994 -0.192752 0.419912 0.033306 0.009493 -0.043154 -0.128279 -0.186330 0.348361 -0.460348 -0.226564 0.111411 0.020551 0.477711 0.037256 -0.455192 -0.499610 0.499885 -0.065310 -0.179446 -0.378582 0.105444 0.065656 -0.608965 -0.246680 0.095816 -0.358923 -0.308391 -0.454357 0.323115 -0.356704 0.150645 0.102452 0.139625 -0.415436 -0.410529 -0.263397 -0.306329 -0.387422 -0.544687 -0.236849 -0.432270 0.104580
in 0.108276 0.108849 -0.424964 -0.464058 -0.195069 -0.049523 -0.129046 -0.032898 -0.279199 -0.131612 0.368122 -0.696856 -0.330142 -0.308801 0.038379 -0.127638 -0.526667 0.320786 -0.672807 0.215221 0.121950 -0.491341 -0.199796 -0.670351 0.420428 -0.629571 -0.351441 -0.484672 -0.805216 -0.458960 -0.694315 -0.227501 0.235682 -0.434073 0.072220 -0.472897 0.018553 -0.455259 0.172269 0.171765 -0.316961 0.153481 0.272538 0.150495 0.067277 -0.269989 -0.459570 -0.866826 -0.537502 0.317108
anything -0.247799 0.000673 -0.009075 -0.655623 -0.231207 -0.342956 -0.278713 -0.206640 -0.670129 -0.024939 0.032802 -0.839754 0.380897 -0.479336 0.266338 0.220906 -0.845048 0.201744 -0.559093 0.140348 -0.263825 -0.242755 -0.388980 -0.409407 -0.291834 -1.174194 -0.624844 0.041692 -0.890339 0.042765 -0.326958 -0.170231 0.149720 -0.489763 0.069982 -0.850327 -0.558984 -0.588138 0.116297 -0.220685 -0.021443 0.377848 0.023178 0.049583 0.082657 -0.394617 -0.803570 -0.502220 -0.274222 0.474646
strange 0.241512 0.344593 -0.511442 0.059603 -0.763127 -0.486020 -0.259835 0.036909 -0.316288 -0.004550 0.492342 -0.747602 0.397522 0.126250 0.277293 0.540636 -0.788619 0.222807 -0.763768 0.140336 -0.194900 -0.434077 -0.425322 -0.326912 0.127437 -0.447370 -0.654291 -0.413021 -0.825557 -0.303024 0.010134 -0.418246 -0.366741 -0.662462 -0.314522 -0.479586 0.119902 -0.102134 -0.374461 -0.019773 0.008678 0.211421 0.011656 -0.168079 -0.092040 0.297820 -0.600498 -0.335571 -0.245971 0.521020
or 0.403438 -0.305893 0.019620 -0.063093 -0.521427 -0.241932 -0.332775 -0.220080 -0.344006 0.055440 0.255307 -0.831245 -0.026267 -0.129459 -0.061113 -0.376173 -0.410676 0.472668 0.006228 -0.001414 0.222777 -0.192964 -0.397475 -0.506479 -0.204987 -0.897898 -0.675662 -0.095967 -0.573658 -0.214076 -0.726499 -0.500727 0.211333 -0.760811 -0.072680 -0.703920 -0.040741 -0.676876 0.130849 -0.155063 -0.259714 0.298121 0.218977 0.094927 0.137385 0.233390 -0.285961 -0.584376 -0.410222 0.646175
mysterious -0.046408 0.287418 -0.326559 0.096646 0.010761 0.095895 0.221400 -0.328942 -0.356881 -0.242491 0.378177 -0.240127 0.276397 0.300773 0.250708 -0.051053 -0.560483 0.284326 0.161031 0.113766 -0.253119 -0.496263 0.280014 -0.559226 0.167027 -0.616773 0.037907 -0.514750 -0.663562 -0.458818 -0.698090 -0.276959 0.293355 0.073211 -0.394760 -0.131438 -0.092286 0.046639 -0.295993 -0.500518 -0.075832 -0.396411 -0.145515 -0.219027 -0.254117 -0.618467 -0.705887 -0.567877 -0.428862 -0.033097
because 0.022098 -0.181812 -0.342710 -1.008526 -0.560446 -0.035674 -0.188429 -0.205201 -0.556827 -0.268542 0.384786 -0.457650 0.147183 -0.194342 -0.120306 0.031145 -0.211307 -0.187052 -0.254731 0.381862 0.147984 -0.611950 -0.046325 -0.309971 0.313189 -0.932910 -0.079151 -0.378310 -1.076212 0.056090 -0.801023 -0.419731 0.253714 -0.988234 -0.077297 -0.285804 -0.488029 -0.238494 0.164212 -0.090061 -0.357473 0.330641 0.052589 0.046521 0.101796 -0.001153 -0.492851 -0.650071 -0.528117 0.287773
just 0.056108 -0.077138 -0.047199 -0.766310 -0.371727 -0.430537 -0.285343 0.064742 -0.475697 -0.068358 0.203097 -0.527003 0.079231 -0.251392 0.200872 0.256165 -0.861944 0.306957 -0.341708 0.161129 0.489290 -0.285635 -0.087310 -0.426398 -0.013723 -0.892488 -0.340462 -0.008498 -0.902425 -0.354210 -1.094699 -0.430861 -0.028034 -0.833651 -0.477205 -0.601192 -0.320078 -0.118597 0.086457 -0.348148 -0.175647 -0.049126 -0.004175 -0.099670 -0.169452 0.032456 -0.812470 -0.852237 -0.388330 0.413131
didnt 0.659709 -0.294150 0.033626 -0.397189 -0.276760 -0.242336 -0.454912 0.171642 -0.950909 -0.067787 0.367049 -0.786251 -0.128630 0.093553 -0.050650 0.034789 -1.053579 0.089286 -0.288923 0.029444 -0.054719 -0.335403 -0.271175 -0.757622 -0.086245 -1.078740 -0.499972 0.012268 -0.629600 -0.293834 -0.716648 -0.554597 0.197471 -0.630153 0.114711 -0.453356 -0.877327 -0.820237 0.173710 -0.196883 -0.557803 -0.173237 -0.145720 0.302960 -0.128031 0.059477 -0.314732 -0.816345 -0.633624 -0.016990
hold -0.000630 -0.162758 -0.441745 -0.520595 0.126630 -0.174330 0.135271 -0.103792 -0.381201 0.435688 0.680586 -0.382121 0.242973 -0.490003 0.396067 -0.293805 -0.364352 0.275011 -0.105319 0.442187 -0.430390 -0.279305 -0.306507 -0.032950 0.021471 -0.324640 -0.514668 0.195787 -0.139862 -0.544932 0.150294 0.042248 0.438219 0.119944 0.127410 -0.212673 -0.142728 -0.612670 0.163498 0.295734 -0.213581 -0.035731 -0.256669 0.274575 -0.291637 0.188436 -0.252536 -0.224543 0.003957 -0.222663
with 0.394026 0.092894 -0.303791 -0.316050 -0.370952 0.121166 -0.271039 0.131415 -0.306588 -0.152816 0.202945 -0.828276 -0.122532 -0.396195 -0.016190 -0.217082 -0.416544 0.053826 -0.617740 0.063880 0.252531 -0.342090 -0.162671 -0.681951 0.200840 -0.849463 -0.282887 -0.120351 -0.608136 -0.263616 -0.712695 -0.205714 0.228517 -0.681532 -0.023268 -0.332500 -0.262052 -0.463562 0.179261 0.163791 -0.379813 -0.082921 0.340703 0.251785 0.208916 0.030644 -0.303814 -0.798864 -0.472665 0.138068
such 0.678804 -0.148005 -0.536920 -0.041365 -0.517696 0.375627 -0.183262 0.155444 -0.531308 -0.316624 0.043260 -0.377726 -0.089091 -0.398203 -0.330904 0.081931 -0.587825 0.564809 -0.224623 -0.102278 0.435175 -0.602478 -0.211577 -0.215188 -0.142720 -1.007345 -0.423452 -0.451298 -0.358733 0.293805 -0.381711 -0.148904 -0.137297 -0.184900 -0.032491 -0.679824 -0.098124 -0.184925 0.265076 -0.056610 -0.633229 0.008031 0.545271 -0.168901 0.095219 -0.148955 -0.490730 -0.196198 -0.530906 0.151584
nonsense -0.371744 -0.127407 0.315036 -0.432771 -0.447544 -0.016249 -0.383846 -0.107115 0.042673 -0.294365 0.359216 0.094171 0.094355 0.148483 -0.504241 -0.233389 0.299579 -0.279127 -0.335031 0.175292 0.029140 0.262746 0.399846 0.189272 -0.221317 -0.639674 0.116469 0.044995 -0.047583 -0.504438 -0.150142 -0.573910 0.495628 0.058979 0.154850 0.127331 -0.146493 -0.148784 0.199575 0.051120 -0.476742 -0.046445 0.245069 -0.055740 -0.342419 0.206221 0.227907 0.088890 -0.258036 0.275798
was 0.002782 0.307208 -0.419521 -0.348819 0.057895 -0.162884 0.231794 -0.057926 -0.472456 -0.007198 0.343963 -1.067453 0.141661 -0.031668 0.195505 0.128358 -0.642591 -0.042027 -0.586419 0.360093 -0.111712 -0.393738 -0.653162 -0.872287 0.326276 -0.575559 -0.336176 -0.135487 -0.896885 -0.234586 -0.649881 -0.405859 0.025554 -1.124187 -0.170796 -0.584766 -0.410522 -0.682883 0.054354 0.230800 -0.439944 0.378107 -0.163302 -0.003595 0.178221 -0.010447 -0.633987 -1.089732 -0.058390 -0.056434
director -0.113866 0.051861 -0.418703 -0.465689 -0.044043 -0.111355 -0.049375 -0.407421 -0.385016 -0.347169 0.213518 0.315479 -0.032355 0.450648 -0.026825 0.377130 0.343669 0.247583 0.208916 -0.355599 -0.381772 -0.113916 -0.359791 0.263093 -0.436376 -0.332192 0.252203 -0.454639 -0.461924 -0.204502 -0.324441 -0.365218 0.090276 -0.401438 -0.252802 -0.514867 -0.503374 0.488567 0.006140 0.412952 -0.381477 -0.070878 0.146712 -0.086799 0.409940 -0.092356 -0.426119 -0.468105 -0.077715 0.191330
a 0.494112 0.037495 -0.124204 -0.539169 -0.263140 -0.023956 -0.095259 -0.056389 -0.363171 -0.128295 0.381775 -0.731657 0.040256 -0.362449 0.084034 0.014159 -0.464788 0.204806 -0.399707 -0.083691 0.218572 -0.586639 -0.293863 -0.883929 0.168394 -0.778259 -0.368757 -0.341967 -0.744431 -0.081681 -0.370509 -0.293839 -0.041018 -0.618914 0.231460 -0.369812 -0.367759 -0.394356 -0.160597 0.049771 -0.411510 -0.061108 -0.245477 0.277671 0.770643 0.066073 -0.783576 -0.196268 -0.325485 0.159818
firm -0.244692 0.237672 -0.439079 -0.230575 -0.160453 0.421221 0.063865 0.431832 -0.282078 0.147537 -0.254874 0.170506 0.008503 0.035336 -0.350416 0.201568 0.263192 -0.372748 -0.326500 0.091262 -0.319338 -0.375918 -0.141789 -0.408303 0.314835 -0.386267 0.171828 0.322741 0.472712 -0.232659 -0.402310 0.129472 -0.429535 -0.243652 0.497344 -0.500577 0.119897 -0.247115 0.096679 0.329549 -0.046724 0.469912 -0.087677 0.362117 -0.386134 -0.018022 0.429758 0.301581 -0.367506 0.522220
called -0.008689 0.159596 -0.100132 -0.173776 -0.245811 -0.392163 -0.135179 0.166978 -0.628332 -0.170802 0.308191 -0.970770 0.297209 -0.369308 -0.311868 0.272532 -0.448217 0.354607 -0.119981 -0.407364 -0.252411 -0.576027 -0.491053 -0.328739 -0.278049 -0.631271 -0.087573 -0.167768 -0.719360 -0.553801 -0.909566 -0.052303 0.461768 -0.578673 0.407024 -0.154160 -0.164706 -0.566349 0.236596 0.175103 -0.796758 0.462795 -0.420071 0.360469 0.046917 0.199270 -0.569998 -0.716923 -0.518328 0.032459
grunnings -0.506752 -0.122520 0.194044 0.283856 0.285993 0.012550 -0.045792 -0.458510 0.044367 -0.162469 -0.420523 -0.271295 0.057830 0.261084 -0.524391 -0.301419 -0.391615 0.285010 -0.302715 -0.012242 -0.306631 -0.425087 -0.400743 -0.447654 -0.547351 0.264767 -0.006152 0.027025 -0.282600 -0.195579 -0.422028 -0.289926 -0.504480 -0.459050 0.294167 0.075515 -0.072804 -0.024372 -0.138640 -0.003971 -0.180182 0.168452 -0.215095 -0.480863 -0.137290 0.255950 -0.194816 -0.354695 -0.396829 -0.389539
which 0.179588 -0.295605 -0.334710 -0.553831 -0.106757 -0.313215 -0.003644 -0.273624 -0.228521 0.148248 0.554966 -0.657193 0.112848 0.106598 -0.348437 -0.106047 -0.561458 0.531910 -0.380398 -0.176869 0.460256 -0.145442 -0.066517 -0.666593 0.273131 -0.835483 -0.460650 -0.295731 -0.527930 -0.643595 -0.744958 -0.017737 -0.061875 -0.618021 0.292970 -0.478707 -0.378462 -0.452053 0.003721 0.323285 -0.506403 0.373841 -0.082899 -0.241706 0.395666 -0.249408 -0.320033 -0.772382 -0.144169 0.087761
made 0.618140 0.025346 -0.298887 -0.264554 -0.135119 -0.136110 -0.259103 -0.070296 -0.653020 0.079722 -0.177946 -0.240743 -0.246319 -0.001150 0.152855 -0.128286 -0.531562 0.390541 -0.606673 0.183188 -0.038162 -0.256583 -0.235602 -0.709856 -0.269768 -0.766708 -0.737413 -0.315500 -1.176457 -0.146251 -0.537807 -0.415530 -0.056815 -0.609462 -0.213312 -0.810715 0.031478 -0.164108 -0.047961 0.301936 -0.697369 0.056391 0.346590 0.026178 0.186261 -0.040569 -0.109228 -0.818753 -0.380308 0.523130
drills 0.154550 -0.520019 0.155600 0.092192 0.129627 0.172124 0.424400 0.056694 -0.671236 -0.590293 -0.271481 -0.467034 0.207088 -0.061496 0.345158 0.019661 0.043470 0.309332 0.055351 -0.380294 -0.612821 -0.132471 -0.131501 -0.162048 -0.575635 -0.336478 0.093521 -0.480332 -0.187433 -0.009433 -0.356312 -0.175189 0.067093 -0.318545 -0.434667 -0.598105 0.312515 -0.034388 -0.574241 -0.073382 0.151160 -0.514970 -0.212687 -0.168531 0.154072 -0.177213 -0.601139 -0.549434 -0.486482 -0.108043
he 0.055652 -0.469332 -0.491572 -0.800479 -0.427119 -0.183504 -0.049952 -0.148862 -0.135784 0.286334 0.115505 -0.554989 -0.002463 -0.093725 0.055172 0.143592 -0.722044 0.398969 -0.383443 0.262702 0.282401 -0.602361 -0.591638 -0.726893 -0.050558 -0.925453 -0.408772 -0.377721 -0.960567 -0.475902 -0.632504 -0.506389 -0.200963 -0.637024 -0.028752 -0.668739 -0.511769 -0.000593 0.206388 0.095991 -0.264938 0.183277 0.107849 -0.081993 0.206795 0.003427 -0.468146 -0.624482 -0.134525 0.422799
big 0.580743 -0.283985 -0.219447 -0.680858 -0.586997 0.143662 0.229198 -0.212984 -0.034716 -0.314731 0.074213 -0.760767 0.454208 -0.008181 0.246032 0.017581 -0.303463 0.547603 -0.383684 -0.175438 0.236183 0.028423 -0.067522 -0.418018 0.219511 -0.580154 -0.510869 0.158087 -0.605849 -0.540209 -0.273813 -0.687389 -0.051800 -0.134173 -0.028325 -0.327328 -0.385068 -0.336001 0.162161 0.361593 -0.233328 -0.278986 -0.256238 -0.207002 0.393303 0.015291 -0.851870 -0.392302 -0.799759 0.164724
beefy -0.313482 -0.353515 -0.178978 -0.296888 -0.453873 0.448794 0.131709 0.253647 0.395345 -0.385457 -0.136256 -0.439179 0.365617 0.123231 -0.329167 0.275236 -0.362921 -0.005456 0.059955 0.073361 0.263533 0.436500 -0.042570 0.344386 0.033474 -0.123802 0.080370 0.195463 0.420795 -0.316235 -0.216313 0.366532 -0.368526 0.385104 0.244028 0.233925 -0.250466 0.075178 0.105430 -0.323337 -0.008741 -0.090966 -0.118755 -0.034066 0.558626 -0.075586 -0.032808 -0.366206 -0.378649 -0.345645
man 0.602771 -0.338523 -0.153219 -0.025066 -0.656574 0.178627 -0.335029 -0.218038 -0.195149 -0.132911 -0.033328 -0.192570 0.180030 0.022939 0.069757 0.389547 -0.646143 0.048980 -0.664128 -0.551838 0.579993 -0.475684 -0.202499 -0.092142 -0.287943 -0.833006 -0.545837 -0.425185 -0.941751 -0.105088 -0.139132 -0.392813 0.114108 -0.649935 -0.042371 -0.013672 -0.328224 -0.563317 0.093329 0.266512 -0.422298 0.243700 -0.131585 0.109125 -0.100559 0.224848 -0.147862 -0.945184 -0.523164 0.171505
hardly -0.034611 0.362456 -0.381683 -0.082953 -0.370626 0.390901 -0.389697 -0.396725 0.076075 0.100608 -0.101359 -0.784876 0.116350 -0.455191 -0.437658 0.064524 -0.425455 0.198596 0.140239 -0.239102 0.359396 -0.799866 -0.534421 -0.209838 -0.047552 -0.478837 -0.159406 -0.358571 -0.622189 -0.090668 -0.454832 -0.177662 0.141059 -0.025587 0.100185 -0.522883 -0.446407 -0.758113 0.520421 0.539179 -0.447483 0.295834 0.100327 0.483202 0.346147 -0.103335 -0.406474 -0.812628 0.001722 -0.065514
any 0.620253 -0.588014 0.052001 -0.845449 -0.164658 0.254471 -0.335980 -0.231123 -0.397827 0.238745 0.439009 -0.730790 -0.333525 -0.588411 -0.078250 0.243264 -0.475229 0.360719 -0.385020 -0.197892 -0.102159 -0.125805 -0.180728 -0.791384 0.278308 -0.674738 -0.405274 -0.195162 -0.500931 -0.215212 -0.226845 -0.066658 0.223672 -0.377471 -0.301979 -0.084970 0.025037 -0.822262 -0.138897 -0.269586 -0.653198 0.277758 -0.089887 -0.424486 0.297642 -0.184407 -0.831527 -0.831192 -0.073173 0.506361
neck -0.154611 -0.356522 -0.260045 -0.489485 0.269744 -0.013404 0.375072 0.089248 0.089509 0.212387 -0.162260 -0.735409 -0.194866 0.235675 0.212045 0.509845 -0.563127 0.527285 -0.032420 -0.209495 -0.072293 -0.381013 0.187535 -0.749666 -0.198800 -0.930882 -0.408258 0.196773 -0.596112 -0.273660 -0.591969 -0.387107 -0.130505 -0.741185 0.108602 -0.333888 -0.083293 -0.344805 -0.045162 0.060352 -0.000722 0.422048 -0.231796 -0.269076 0.287446 -0.205775 -0.680317 -0.283800 -0.315396 0.115797
although -0.065676 -0.538339 -0.132300 -0.223786 -0.546396 0.465840 -0.052840 0.044053 0.174134 -0.102250 0.415039 -0.535784 0.044420 -0.112822 -0.260890 0.116721 -0.050793 -0.047907 -0.686895 0.409010 0.441439 0.105506 0.191243 -0.015080 0.060951 -0.184133 0.079209 0.168054 -0.129962 -0.672857 -0.485411 -0.040428 0.428305 -0.730885 -0.530440 -0.599368 0.005106 -0.693264 -0.513250 -0.441606 -0.250382 -0.347862 -0.220825 0.272317 -0.055498 0.085668 -0.276678 -0.634626 -0.631899 0.431978
did 0.397885 -0.184368 0.087111 -0.483383 -0.078163 0.118763 -0.213296 -0.052323 -0.516427 0.133136 0.331856 -0.617167 -0.200487 -0.542333 -0.356240 0.186251 -0.500303 -0.254558 -0.772312 -0.045052 0.262218 -0.680402 0.004489 -0.528915 -0.043201 -0.878466 -0.702655 -0.302059 -0.632781 -0.529287 -0.298890 -0.564735 0.396755 -0.366454 -0.319686 -0.392311 -0.527617 -0.300005 0.162792 -0.316544 -0.820985 -0.070125 0.373229 0.065286 0.229679 0.166064 -0.438119 -1.188963 -0.524007 0.202685
have 0.151912 -0.190527 -0.189382 -0.429422 -0.873531 -0.035422 -0.465735 0.049878 -0.719967 0.374415 -0.118700 -0.611941 0.181577 0.066482 -0.219125 0.287104 -1.145149 0.290192 -0.316382 -0.286366 0.401016 -0.416685 -0.434948 -0.533981 -0.024349 -0.568175 -0.092618 -0.091416 -1.023597 0.040037 -0.703157 -0.702359 -0.263129 -0.730971 -0.120390 -0.752066 -0.484976 -0.661431 0.319738 -0.056792 -0.547477 0.203664 0.294186 0.148947 -0.118899 -0.106225 -0.766516 -0.707025 -0.324958 0.255084
large 0.338014 0.372950 -0.475570 -0.069495 -0.507526 0.069885 -0.244579 -0.033040 -0.608613 -0.265248 0.662875 -0.073498 -0.148932 -0.312895 -0.034258 -0.291296 -0.569377 0.010604 -0.362472 0.111361 0.145344 -0.806780 -0.280950 -0.146690 0.313399 -1.048818 -0.444497 -0.471848 -0.749736 -0.305886 -0.787473 -0.289611 0.088158 -0.323851 0.195941 -0.043155 -0.511719 -0.533983 0.339752 0.033902 -0.071224 0.451500 0.215819 0.282684 0.016003 0.233907 -0.635025 -0.478575 -0.204775 0.516063
mustache -0.212950 -0.044397 -0.223391 -0.247406 -0.469984 0.402413 -0.036662 0.204588 -0.012747 -0.149391 -0.188626 -0.265191 0.269151 0.315078 -0.189661 -0.482965 -0.673013 0.030920 0.130889 -0.098773 0.043137 -0.260506 0.138849 -0.604983 0.447331 -0.252465 -0.181781 0.237435 -0.150068 -0.107331 -0.605119 -0.170498 -0.341776 -0.395914 -0.049890 -0.530482 -0.607986 -0.696987 0.310679 0.308188 -0.003867 -0.081777 -0.355979 -0.282981 0.397483 -0.418585 -0.495546 -0.181160 -0.321132 -0.192023
thin 0.093329 -0.225992 0.005232 -0.398066 -0.343710 -0.525600 -0.546130 0.027445 -0.091243 0.368213 0.308359 -0.160953 0.227437 -0.159183 -0.484142 -0.044587 -0.123319 0.082585 -0.255368 -0.097147 0.390894 0.042693 -0.011677 -0.242082 0.133572 -0.660285 -0.400978 -0.030865 -0.744400 0.000832 -0.902855 0.164803 -0.290284 -0.138093 -0.414180 -0.404212 0.106491 -0.339249 0.264232 0.047272 -0.281626 0.340341 -0.373912 -0.141652 0.450297 0.050401 -0.721800 -0.296771 -0.030841 -0.297727
blonde -0.224501 0.230819 0.082454 -0.138431 -0.384889 0.124252 0.016541 0.239860 -0.039486 0.030294 0.189513 -0.020117 0.469705 -0.506841 0.372586 0.519310 0.313307 0.382631 0.439015 0.376158 -0.174207 -0.035122 0.124834 -0.088783 0.428115 0.065172 0.482609 0.148323 -0.034946 0.128576 0.372418 0.370383 -0.433257 -0.028907 -0.339051 0.407397 -0.329385 0.025123 0.490616 -0.385961 0.403972 0.429550 -0.307405 -0.230626 0.233166 0.098535 -0.251528 0.097541 0.401928 -0.228709
had 0.208066 -0.269161 -0.282200 -0.182145 -0.077931 -0.177849 0.116713 -0.145662 -0.511520 0.240892 0.098577 -0.670913 0.422956 -0.234884 -0.313208 0.269655 -1.056753 0.500705 -0.630097 -0.058932 0.414041 -0.119361 -0.410921 -0.690180 0.135993 -0.801100 -0.311931 -0.326692 -0.927525 -0.456264 -0.725469 -0.543620 -0.136998 -0.672963 0.165164 -0.402723 -0.515512 -0.607443 0.302730 -0.349981 -0.393783 0.129315 0.008347 0.214093 -0.151494 0.243446 -0.441308 -0.955533 -0.342856 -0.000663
nearly 0.648365 0.223603 -0.340226 -0.261018 -0.619135 -0.419081 -0.310875 0.339814 -0.623483 0.158168 0.130963 -0.470884 -0.264074 -0.513837 -0.003789 0.043755 -0.574826 -0.080388 -0.586565 -0.120921 0.115871 -0.323146 0.203392 -0.737228 0.386774 -0.358041 -0.076197 -0.448188 -0.662802 -0.301008 -0.221579 -0.006928 0.474793 -0.384422 0.182273 -0.535110 -0.731874 -0.149857 -0.288816 0.020039 -0.117862 0.444059 -0.047367 0.001511 0.304652 -0.246094 -0.067578 -0.191170 -0.587249 0.578629
twice -0.003069 0.185704 -0.487403 -0.593687 -0.623582 0.201293 -0.004000 -0.055508 -0.194109 -0.209516 -0.279184 -0.107772 0.328356 -0.072333 -0.157291 0.262281 -0.294817 0.322624 -0.315113 0.132562 -0.059535 -0.353422 -0.041611 -0.727652 0.391807 -0.567816 -0.267086 -0.379853 -0.123069 0.196012 -0.225672 -0.040047 0.402130 -0.378242 0.058314 -0.102619 -0.692945 -0.474766 0.385011 -0.281039 0.087090 -0.098340 0.186881 0.100916 -0.081482 -0.303383 -0.270396 -0.778503 -0.215869 -0.168830
usual 0.479283 0.244558 -0.637476 -0.438123 0.164758 -0.258969 -0.547466 0.387113 -0.630383 -0.185849 -0.211554 -0.261853 -0.251143 -0.121629 -0.282252 0.401204 -0.580812 -0.009156 -0.351996 -0.188536 0.154777 0.059066 -0.068864 -0.189378 0.215307 -0.547283 -0.000775 -0.508282 -0.399558 -0.278963 -0.804301 -0.416603 0.426387 -0.227608 -0.223572 -0.021052 -0.121164 0.134023 -0.180481 0.266075 -0.765464 -0.187986 0.265973 0.039030 -0.062027 0.220796 -0.618580 -0.104407 -0.115941 0.347719
amount 0.028383 0.063087 0.122806 -0.202707 0.284233 -0.123549 0.542213 0.291350 -0.365301 -0.245750 -0.455704 0.358907 0.073341 0.410613 -0.348206 0.346676 -0.159960 0.270913 -0.333872 0.522970 0.035383 -0.351873 0.063385 -0.328025 0.029327 0.306232 -0.249155 0.046746 -0.398619 -0.015295 -0.287404 0.207648 0.169226 0.547328 0.633573 0.078119 0.398837 0.333709 -0.388686 -0.210640 0.362000 0.525157 0.572514 -0.015432 -0.273788 0.083605 -0.182584 -0.131891 -0.020968 -0.165271
came 0.207578 0.049507 -0.037145 -0.750902 -0.186361 -0.264065 -0.423177 0.154089 -0.757568 0.165892 0.089590 -0.573734 0.453777 -0.272838 -0.250624 -0.192953 -0.491214 -0.088780 -0.635563 -0.239064 0.170018 -0.562483 0.031663 -0.509187 0.560732 -1.175245 -0.319206 -0.250647 -0.507087 -0.266780 -0.303497 -0.091430 0.151098 -0.525815 -0.119369 -0.437588 0.132565 -0.595075 0.201833 0.493110 -0.425259 0.013667 0.032577 0.109267 0.096541 -0.147097 -0.597029 -0.601020 -0.120712 0.174897
useful 0.020985 -0.281366 0.161283 -0.384373 0.130096 0.188121 0.461692 0.050845 -0.486920 0.034147 0.083650 -0.329847 0.284479 -0.429028 -0.465064 0.358253 0.205223 -0.040790 -0.158694 0.038563 0.005548 0.342269 0.041046 -0.552647 0.016111 0.145589 -0.048903 0.214868 -0.396968 -0.058230 0.031342 -0.223555 0.264228 -0.589524 0.474793 0.193329 -0.432018 -0.045445 0.511526 0.432389 0.024185 -0.119600 0.400607 0.262777 -0.212412 0.327632 -0.559082 -0.289068 0.215471 0.268505
as 0.176543 -0.136379 -0.360804 -0.360978 0.132856 0.206138 -0.008172 0.001376 -0.200596 0.133684 -0.158802 -0.772615 0.342337 -0.314286 0.034571 -0.155703 -0.918139 0.147290 -0.407309 -0.138605 0.375165 -0.207294 -0.003032 -1.005840 0.212213 -1.145592 -0.274906 -0.485717 -0.908802 -0.841377 -0.777811 -0.789550 0.176943 -1.141767 -0.097705 -0.239664 -0.665598 -0.003651 0.197777 -0.098557 -0.118072 0.231526 0.210017 -0.460897 0.339308 0.001263 -0.712507 -0.661217 -0.197747 0.103246
she 0.242403 -0.467592 -0.408968 -0.732487 -0.608098 -0.084120 -0.170912 -0.165167 -0.392887 -0.126845 0.468998 -0.604125 0.182253 0.020310 0.092342 0.232387 -0.477295 0.383272 -0.694795 0.108938 0.352352 -0.664329 -0.603706 -0.478986 -0.138791 -1.296865 -0.115443 -0.064331 -0.731866 -0.369083 -0.357753 -0.259527 -0.085650 -0.565259 -0.225972 -0.540603 -0.549668 -0.655464 0.380784 0.080057 -0.585852 -0.016407 0.257137 -0.417283 0.017272 0.189235 -0.333480 -0.528130 0.001333 0.303016
spent 0.112582 -0.127756 -0.287298 -0.716493 -0.651335 -0.438909 0.062032 -0.096076 -0.246014 0.436230 0.104956 -0.346542 0.300155 -0.474140 0.424192 0.343505 -0.010481 0.362640 -0.441963 -0.474678 0.445146 -0.255973 -0.158982 -0.123568 0.007644 -0.697056 -0.330507 -0.226966 -0.270276 -0.359130 -0.037966 -0.545010 0.563861 -0.705210 -0.323788 0.076356 -0.264702 -0.430481 -0.381764 0.202939 0.022058 -0.121435 -0.230224 -0.365940 -0.235778 0.246576 -0.220500 -0.054508 0.093944 0.327715
so 0.362367 -0.252850 -0.290090 -0.676863 -0.663713 -0.096540 -0.340774 0.218263 -0.588911 0.382278 0.097124 -0.380084 0.397472 -0.426703 0.057245 0.029628 -0.759589 0.226888 -0.760523 -0.184849 0.319104 -0.302396 -0.307144 -0.975288 -0.034369 -0.989437 -0.520913 -0.302358 -0.750901 -0.355681 -0.780658 -0.370708 -0.218592 -0.435586 -0.266045 -0.739185 -0.488771 -0.181093 -0.034621 -0.236477 -0.309402 0.240633 0.089307 0.108893 -0.217567 0.113916 -0.348206 -0.682624 -0.577748 0.456092
her 0.613500 -0.286463 -0.309570 -0.809326 -0.246519 -0.382124 0.014692 0.208874 -0.115758 0.061267 0.074810 -1.072954 0.175111 -0.144440 0.054041 0.258101 -0.302294 0.181406 -0.459151 0.081353 0.139353 -0.833000 0.083426 -0.485205 0.271023 -0.829075 -0.054681 0.055448 -0.812137 -0.451083 -0.836413 -0.380590 0.243928 -0.322970 -0.205707 -0.663959 -0.509059 -0.327897 0.160035 -0.032854 -0.240672 0.082446 -0.203171 0.289756 0.033292 -0.495428 -0.660778 -0.568549 -0.184686 -0.070062
time 0.578878 -0.416831 -0.539845 -0.580312 -0.070918 -0.151541 0.059842 0.202755 -0.735353 -0.394393 0.209808 -0.890111 0.137158 0.070747 -0.009461 0.026215 -0.751937 0.208476 -0.247372 -0.196511 -0.115088 -0.267595 -0.331550 -0.555719 0.174368 -0.550371 -0.805546 -0.184433 -0.902238 -0.652674 -0.883777 -0.101024 -0.084198 -0.604585 -0.176664 -0.277867 -0.097491 -0.727746 -0.208146 0.042246 -0.096287 0.384627 -0.285866 0.024817 0.187461 -0.388830 -0.636950 -1.113473 -0.797744 0.424251
craning 0.259962 -0.353177 0.342465 0.338055 0.291854 0.367966 -0.164528 0.585352 0.146587 -0.013421 0.068254 0.315023 -0.039285 0.024289 0.419334 0.494703 0.102184 0.150037 0.206463 0.121593 0.302560 0.485758 -0.200206 -0.403802 0.420707 0.256372 0.061046 0.021699 0.187468 -0.236622 -0.419086 0.359657 0.123620 -0.314197 0.059971 -0.175495 -0.185214 -0.185997 -0.167999 -0.212100 -0.122814 0.097982 -0.059638 -0.496645 0.296108 -0.294251 -0.430346 0.292126 -0.000950 -0.162626
over 0.567960 0.123625 -0.338270 -0.710576 -0.530557 -0.386472 -0.455545 0.196762 -0.170892 0.000127 0.405951 -0.835997 -0.581857 -0.145550 -0.040416 0.217309 -0.711144 0.365926 -0.479912 0.124013 0.369275 -0.279865 -0.019769 -0.495782 0.171889 -0.717254 -0.438904 0.161069 -0.634555 -0.319742 -0.530759 -0.524832 0.411232 -0.556556 0.040295 -0.367470 -0.502286 -0.184141 0.035343 0.485351 -0.302268 -0.384813 0.223984 0.076702 -0.041177 -0.377920 -0.625116 -0.870072 -0.514519 -0.098468
garden -0.016989 -0.211194 -0.117016 0.199532 -0.644384 -0.299058 0.156245 0.100548 -0.696445 -0.451121 -0.431931 -0.558617 -0.275149 -0.406476 -0.091811 -0.223012 -0.480454 -0.187431 -0.468455 -0.058513 -0.283526 -0.499088 -0.327317 -0.092482 0.215196 -0.624209 -0.087832 -0.406121 -0.168390 0.181892 -0.316600 -0.232606 0.259854 -0.381241 0.085059 -0.535285 -0.588321 -0.048300 -0.277454 0.111563 0.066394 0.406144 -0.043643 0.198830 0.144064 -0.035625 -0.320891 0.114282 -0.044095 0.418015
fences 0.229026 0.446662 -0.315018 0.111181 -0.238569 0.494260 -0.118735 -0.371198 0.380498 -0.256842 0.135944 0.516504 0.502768 0.372140 0.170879 -0.342627 0.183011 0.271026 0.308525 0.109444 0.096808 0.553973 -0.151685 0.215589 0.042663 0.539724 -0.483276 0.481001 0.237741 -0.443139 -0.430494 0.180123 0.387620 -0.090697 0.450472 0.183206 0.376817 0.054445 -0.199044 0.362532 0.306066 -0.169512 0.357497 0.097764 -0.370334 -0.164363 0.262566 0.198548 0.153236 -0.129836
spying 0.220079 0.468108 0.367177 -0.207676 0.228800 0.386423 -0.424178 0.338222 -0.133302 -0.288810 -0.232781 -0.209192 0.234083 0.296569 -0.261651 -0.000855 0.059447 0.088079 0.054741 0.191727 -0.171760 -0.479818 0.419466 -0.117764 0.331168 -0.392521 -0.480157 0.181429 -0.166167 0.075561 0.185091 0.017399 -0.101942 0.324647 0.374157 0.112091 -0.317583 -0.431042 0.310128 -0.297955 -0.033758 0.284560 -0.434164 0.027604 0.408174 0.373168 0.302913 -0.006883 0.018981 -0.046595
on 0.299114 -0.031995 -0.403623 -0.365067 -0.187743 -0.065184 -0.103927 -0.096442 -0.165788 0.170979 0.398724 -0.598082 -0.230222 -0.199540 -0.111939 0.005066 -0.726742 0.107245 -0.497676 0.402000 -0.083994 -0.403460 -0.210851 -0.523150 0.360519 -1.091508 -0.499925 0.026699 -0.924051 -0.377623 -0.673532 -0.321770 0.049850 -0.402347 0.000528 -0.416520 -0.150277 -0.329837 0.060187 0.413650 -0.276062 -0.096368 0.194348 0.210808 -0.030659 -0.277053 -0.377840 -0.885062 -0.822449 0.157655
neighbors -0.600729 -0.219869 -0.427876 -0.348437 -0.379889 0.076182 -0.174089 -0.092850 -0.287298 -0.042403 -0.345410 -0.493406 -0.365066 0.269026 -0.566153 0.141202 -0.358694 -0.214253 -0.448301 -0.681194 -0.179550 -0.336169 0.041185 -0.374576 -0.283122 -0.386395 0.118832 0.014301 -0.089090 0.316842 -0.534080 -0.604864 -0.212870 -0.458033 0.036978 0.036870 0.166616 -0.424465 0.060868 -0.124580 -0.431675 -0.085635 0.350849 0.211906 -0.555024 0.153531 0.156325 -0.350149 -0.293927 -0.007783
dursleys 0.506147 -0.115577 -0.488146 -0.568691 -0.598288 -0.524771 -0.200103 -0.492991 -0.067915 -0.081044 0.405904 -0.640742 -0.420358 -0.023476 -0.171737 -0.284551 -0.737778 0.550920 -0.368067 -0.282177 -0.062986 -0.132062 -0.492152 -0.245381 0.118705 -0.519654 -0.695029 -0.507958 -0.436978 -0.083295 -0.452640 -0.295774 0.537986 -0.711676 0.037372 -0.382142 -0.336684 -0.732224 0.282768 0.049380 -0.590421 0.363327 0.150377 -0.251424 -0.110346 0.019031 -0.469194 -0.704021 -0.657296 0.729853
small 0.210366 0.140756 -0.430730 -0.062214 -0.136226 -0.261931 0.011186 -0.093313 -0.358734 0.129267 0.070699 -0.883697 0.219539 -0.194095 -0.379463 -0.180659 -0.585634 0.521707 -0.953096 0.167793 -0.018636 -0.753926 -0.080778 -0.811162 0.300578 -0.349601 -0.278628 -0.083834 -0.535693 0.246122 -0.294578 -0.023044 0.129043 -0.675945 0.107411 -0.532039 -0.043970 -0.550397 -0.335425 0.280428 -0.179472 0.272403 -0.206938 0.151008 0.013972 0.046072 -0.664484 -0.717833 -0.472840 0.402887
son -0.293839 -0.499782 -0.103291 -0.750819 0.179675 -0.094334 -0.405808 0.172365 0.188569 -0.273285 -0.219102 -0.154876 0.276884 0.276183 -0.574889 -0.143110 -0.223171 0.347953 0.017657 -0.426012 -0.054010 -0.271094 0.237571 -0.082514 -0.152321 -0.649520 0.056202 -0.575955 -0.675441 -0.377277 -0.390308 -0.698908 0.134919 -0.138401 -0.065429 -0.018511 -0.000787 -0.733573 -0.425582 0.287760 -0.320225 0.373952 0.062463 -0.211317 0.097931 -0.139469 0.004829 -0.776146 -0.534222 -0.285860
dudley 0.632687 0.061545 -0.103289 -0.445838 -0.522714 -0.252829 0.014054 -0.288281 -0.652564 -0.197550 0.387117 -0.706643 -0.066410 -0.253208 0.077781 0.164314 -0.217407 0.211361 -0.812866 0.216567 0.024113 -0.390336 -0.238122 -0.430820 0.162713 -1.104508 -0.593061 0.039015 -0.845766 -0.720753 -0.387622 -0.273199 0.053638 -0.564755 -0.006484 -0.390301 -0.147855 -0.406535 -0.303900 -0.217131 -0.129862 0.006616 -0.188914 -0.148262 0.588700 -0.255283 -0.374866 -0.545711 0.006518 0.323646
their 0.367385 0.074085 -0.402682 -0.364143 -0.148921 -0.394734 -0.024852 -0.381546 -0.479933 0.106150 0.106594 -0.647849 -0.204747 -0.184592 0.452739 0.602000 -1.002773 0.506138 -0.351616 -0.319864 0.394126 -0.488436 -0.247164 -0.580085 0.236440 -0.828791 -0.157532 0.075890 -0.944476 -0.267388 -0.375945 0.014302 0.094137 -0.571402 0.246927 -0.708464 -0.545847 -0.010588 -0.105332 0.370333 -0.280359 -0.190608 0.016561 -0.234786 0.481824 -0.262772 -0.728846 -0.299171 -0.194823 0.313836
opinion 0.240696 -0.288894 0.288923 -0.551900 -0.350785 -0.265953 0.111928 -0.096766 -0.122609 -0.420104 0.125522 -0.023067 0.275736 -0.417154 -0.043926 0.241104 -0.001643 0.168285 -0.354784 0.204293 -0.055906 -0.052506 -0.158687 0.233183 -0.189878 -0.395624 -0.090872 -0.036795 0.208434 -0.349438 0.164771 0.087558 -0.110428 -0.470230 -0.419292 0.005182 0.236277 0.218750 -0.144663 0.510693 0.216589 -0.441469 0.016660 0.348768 -0.132796 -0.068804 0.170865 -0.125775 0.283479 -0.285436
there 0.418355 0.112030 -0.577160 -0.501343 -0.609886 0.141568 -0.191097 -0.130302 -0.311853 -0.390537 0.178791 -0.746572 0.252353 -0.464406 -0.016461 -0.031394 -0.443454 -0.094272 -1.032449 0.298832 0.181061 -0.550570 -0.702289 -0.811786 0.272528 -0.826600 -0.366645 -0.211218 -0.478220 -0.585963 -0.914821 -0.785883 -0.011769 -0.458952 -0.084922 -0.929069 -0.414517 -0.597842 0.118532 0.052584 -0.556545 0.083047 0.127139 0.203475 0.375063 -0.157831 -0.158711 -0.706783 -0.548788 0.195433
no 0.388389 -0.228113 -0.434007 -0.578862 -0.227301 -0.471143 -0.317925 0.072855 -0.340336 0.163630 -0.078877 -0.937207 0.193676 -0.078054 0.491782 0.440048 -0.483106 0.119257 -0.565414 0.057872 -0.157886 -0.478573 -0.524944 -0.959698 -0.207637 -0.758473 -0.458232 0.111877 -0.869902 -0.216727 -0.314960 -0.657558 0.308683 -0.457862 -0.088188 -1.031426 -0.203648 -0.778478 -0.121755 -0.160571 -0.241562 0.185158 -0.055558 -0.173860 0.457224 0.218091 -0.284748 -0.733872 -0.449868 0.387837
finer 0.234277 -0.454045 -0.036572 0.311055 -0.048165 -0.273055 -0.161806 -0.352571 0.164936 0.417242 -0.334509 -0.325544 -0.077693 0.026558 0.005358 0.075428 0.425329 0.397916 -0.043430 -0.448898 0.143570 -0.297741 -0.424209 -0.472987 0.255768 0.356620 -0.438310 0.045729 0.231919 -0.341395 -0.095546 0.374985 -0.103147 -0.228156 0.382532 0.351629 -0.265633 0.232066 0.205560 -0.310179 0.082247 -0.340621 0.370983 0.564504 0.355063 -0.198712 0.012283 0.136277 -0.111349 -0.003946
anywhere 0.334722 -0.058287 -0.027979 -0.068615 0.594198 0.047314 0.521318 0.015057 -0.207181 -0.129834 0.183307 -0.244652 0.214030 0.099024 0.424677 0.075939 -0.191063 0.644112 -0.284072 0.088898 0.096107 -0.270765 -0.207423 0.452312 0.136456 0.335340 0.307334 0.053789 0.241646 0.519098 -0.101301 0.341366 0.188236 -0.305216 -0.149369 0.272404 0.588770 -0.056525 -0.260576 0.280702 -0.154879 -0.158027 0.614132 0.182678 0.523212 0.000398 0.126224 -0.294127 0.588283 -0.208400
everything 0.266459 0.186133 -0.280853 -0.343686 -0.439052 -0.311770 -0.254042 0.230455 -0.546941 -0.074663 0.541277 -0.590526 -0.057961 -0.472534 0.010714 -0.044550 -0.761082 0.032027 -0.305861 0.387299 -0.264561 -0.520736 -0.353328 -0.177837 0.289562 -0.610034 -0.067116 -0.136190 -0.690330 -0.208403 -0.488987 -0.459554 0.169849 -0.262372 0.156315 -0.738268 -0.633657 -0.591715 -0.080817 0.184599 0.055178 0.210535 -0.004146 -0.113708 -0.147706 -0.119721 -0.117662 -0.619484 0.151096 0.137168
wanted -0.012181 -0.342420 -0.133225 -0.526505 -0.749912 0.082435 0.196733 -0.081674 -0.248283 -0.088928 0.036815 -0.723156 0.219974 0.136290 -0.013917 -0.013296 -0.865093 0.467785 -0.732536 -0.046516 -0.286627 -0.500590 -0.386633 -0.125371 0.380929 -0.968942 -0.095066 0.096213 -1.023131 -0.007222 -0.660356 -0.462690 0.489896 -0.616569 -0.058235 -0.090059 -0.228222 -0.727482 0.160992 0.143643 -0.406633 -0.132893 0.102436 -0.188989 -0.083425 0.025100 -0.820432 -0.341522 0.054770 -0.104124
but -0.064041 -0.129670 -0.263345 -0.694889 -0.472428 -0.133574 -0.177470 -0.078951 -0.368582 0.056467 0.162431 -0.685802 0.107074 -0.144325 0.032504 -0.020763 -0.598951 0.116609 -0.740250 0.125840 0.295943 -0.267706 -0.572549 -0.920162 0.059828 -0.890640 -0.331771 -0.191656 -0.701180 -0.531256 -0.670754 -0.065825 -0.044922 -0.878691 -0.058756 -0.410106 -0.571479 -0.540476 0.121494 -0.063356 -0.250551 0.164414 0.309944 0.057352 -0.005223 0.347250 -0.352432 -0.815205 -0.544483 0.345152
also 0.599634 -0.193542 0.045090 -0.736529 -0.501754 -0.248822 -0.064911 0.086403 -0.635586 -0.497487 0.123917 -0.509662 -0.449543 -0.432670 -0.095976 0.445907 -0.078991 0.073222 -0.164947 -0.202451 0.311157 0.053086 -0.467958 -0.406052 -0.190959 -0.680447 0.028252 0.080793 -0.819461 -0.083547 -0.736527 -0.473975 -0.375786 -0.142378 0.045953 -0.028705 -0.426885 -0.184104 0.228308 0.234082 0.031920 -0.062472 0.513816 0.152868 0.021711 -0.108836 -0.048845 -0.720005 0.089110 0.472862
secret 0.736643 -0.130689 -0.109537 0.022994 0.105618 0.266811 -0.362423 0.267701 -0.542745 -0.111308 -0.008201 -0.443088 -0.484339 -0.362016 0.253338 -0.058145 -0.504083 0.311603 -0.710139 0.061730 -0.028809 -0.083694 -0.488654 -0.378117 -0.253621 -0.225746 -0.660619 0.252521 -0.660996 0.039696 -0.251250 -0.516338 0.074575 -0.261901 -0.219138 0.135101 -0.533676 -0.234450 0.200771 0.409671 -0.138004 0.307565 -0.240724 0.058939 -0.264606 0.065483 0.144092 -0.317939 -0.605560 0.524112
greatest 0.144510 -0.354267 0.081418 -0.015002 0.202057 0.154236 0.152276 -0.581685 -0.243365 0.429979 0.328873 -0.606422 0.156193 -0.278629 0.166273 -0.170377 -0.503849 0.405243 0.283040 0.112530 -0.066791 0.335182 -0.518300 0.226349 -0.109591 -0.074236 -0.270837 -0.442571 -0.416035 -0.454808 0.236104 0.248712 -0.357588 0.059419 0.285158 0.286003 -0.285323 0.293183 -0.288388 0.004207 0.319816 0.449880 -0.231123 0.362581 0.121536 0.034182 -0.636368 -0.497538 -0.109018 0.304888
fear -0.205126 -0.220614 0.081374 -0.490667 -0.063271 0.351905 -0.288632 -0.233055 -0.535516 -0.190294 0.407119 -0.685970 -0.171330 -0.327034 -0.574731 0.066260 -0.558444 0.029060 0.142527 -0.379341 0.354535 -0.617169 -0.393761 -0.582214 -0.129697 0.064211 0.202067 -0.132647 -0.177340 -0.518552 -0.756666 0.167271 -0.281728 0.206668 0.298288 -0.223955 -0.182794 0.142734 -0.270804 0.026523 -0.582456 0.279041 -0.459199 0.442957 0.077391 0.174946 0.101960 -0.532863 0.064065 0.270318
somebody -0.129100 -0.023857 -0.139501 -0.240831 -0.209115 -0.381296 -0.245807 -0.317504 0.299976 -0.357468 -0.029244 -0.162993 0.073111 0.371394 -0.185466 0.317401 0.019705 0.134010 0.301958 0.043718 -0.268428 0.116892 0.115472 0.180017 -0.228628 0.159676 -0.340069 -0.044968 0.076676 0.198526 -0.336579 -0.604060 0.064338 -0.605783 0.245347 0.066022 -0.061242 -0.071561 -0.155789 0.325464 -0.083049 -0.388178 -0.417832 0.041855 -0.035542 -0.553372 0.293556 -0.181520 -0.193845 -0.217934
would 0.102840 0.274628 0.028947 -0.751786 -0.287969 0.281080 -0.261495 0.263593 -0.384934 0.311925 0.211099 -0.476330 0.161438 -0.398001 -0.516370 0.295330 -0.820935 -0.000941 -0.646829 -0.077034 0.181859 -0.705272 -0.636742 -0.374557 0.337814 -0.813211 -0.342624 -0.111328 -0.670487 0.009370 -0.728231 -0.755770 0.244177 -0.796645 0.001818 -0.385064 -0.068010 -0.206863 -0.202025 -0.233061 -0.881480 -0.143650 -0.123735 -0.118657 0.199894 -0.206634 -0.618063 -0.874603 -0.036722 0.478765
discover -0.297911 -0.179588 -0.120244 0.138747 0.392694 -0.117068 0.353068 0.041076 -0.259607 0.432653 -0.346639 0.522304 0.377269 0.319727 0.605821 -0.283699 -0.154541 0.167620 -0.046123 0.638579 0.330948 0.103672 -0.340023 -0.019602 0.017639 0.458823 0.001781 0.304097 0.239311 0.080557 -0.079268 -0.235716 0.046344 -0.253537 -0.056413 0.092121 0.001474 0.287598 -0.271889 0.065306 -0.313663 0.267373 -0.044690 0.388647 0.339739 -0.031970 -0.196179 0.537074 0.263744 -0.126419
it 0.147060 -0.068261 -0.381297 -0.583490 -0.501933 -0.134032 -0.107724 -0.181477 -0.310167 0.073063 0.205541 -0.683376 0.130538 -0.247408 0.022771 0.157893 -0.607097 0.137773 -0.512452 0.253330 0.403280 -0.630362 -0.575464 -0.640762 0.132737 -1.101512 -0.319968 -0.199554 -0.846572 -0.545921 -0.727509 -0.568205 -0.113750 -0.414058 -0.159937 -0.700185 -0.410827 -0.522820 0.103388 -0.122940 -0.372795 0.096380 0.019108 0.086880 0.468955 0.026923 -0.592436 -0.373813 -0.204778 0.130558
think -0.243206 -0.149317 -0.241824 -0.779591 -0.502047 0.349654 -0.179989 0.219388 -0.552220 -0.278273 0.181738 -0.602294 -0.076979 0.015657 -0.351474 -0.123739 -0.750162 0.061577 -0.327583 -0.154157 0.499304 -0.929918 -0.119789 -0.647561 0.152419 -1.097813 -0.245073 -0.060440 -0.460909 -0.310704 -0.794255 -0.045712 0.251664 -0.437204 -0.230313 -0.272202 -0.998380 -0.753668 0.092502 -0.292931 -0.535092 0.206297 -0.340505 0.063626 0.425162 -0.042952 -0.938641 -1.123619 -0.158834 0.152662
could -0.068101 -0.196969 -0.127486 -0.568331 -0.034386 0.156801 -0.219226 -0.128221 -0.743794 0.334624 0.515549 -0.747897 -0.057129 0.229713 -0.339769 0.298562 -0.838920 -0.069468 -0.287167 -0.378605 0.389061 -0.669985 -0.301685 -0.403147 0.151565 -0.804314 -0.484840 -0.078599 -0.461073 -0.552088 -0.939238 -1.009664 0.005139 -0.839790 -0.051645 -0.522499 -0.191392 -0.211829 0.280251 -0.133838 -0.587169 -0.240693 -0.003291 -0.184822 0.304772 0.103280 -0.713159 -0.800892 -0.730710 0.428212
bear 0.191079 -0.378305 -0.377156 -0.349616 -0.443975 -0.162060 -0.477333 -0.134022 -0.546092 0.343601 -0.044554 -0.583783 -0.544626 -0.277484 -0.369143 0.193966 0.062753 -0.017534 -0.175397 0.187484 -0.582310 -0.002463 -0.419997 -0.454439 0.135449 -0.033169 -0.214711 -0.059948 -0.335201 -0.172923 -0.253083 -0.415055 -0.077002 0.099636 0.066457 -0.335886 -0.335079 -0.278411 -0.574846 0.076492 -0.263498 0.280705 -0.387428 0.216110 0.374104 -0.045458 -0.106805 -0.151024 -0.157606 -0.301355
if 0.065723 -0.141942 -0.428307 -0.321713 -0.302343 0.093609 -0.202368 0.163690 -0.775970 -0.031472 0.214743 -0.501992 0.461889 -0.470039 -0.095534 0.004615 -0.847294 -0.085352 -0.484253 -0.090526 0.403049 -0.648639 -0.239084 -0.629821 0.181441 -1.252812 -0.298373 -0.478207 -0.859012 -0.360629 -0.857358 -0.822574 0.068341 -0.671859 -0.226298 -0.660250 -0.947646 -0.157550 -0.120142 -0.099530 -0.416882 0.111941 0.150353 0.187975 -0.190696 0.022204 -0.481686 -0.663583 -0.046168 0.430370
anyone 0.277071 -0.451843 -0.008341 -0.662339 0.083177 -0.158855 -0.285816 0.142013 -0.110285 -0.002536 0.144801 -0.227031 0.077239 -0.597028 -0.086040 0.382019 -0.686082 0.217915 -0.479773 -0.090454 0.351463 0.029017 -0.011555 -0.579256 -0.082972 -0.710847 -0.303023 -0.022045 -0.835624 -0.531465 -0.264359 -0.425264 0.089736 -0.425805 0.324832 -0.534513 -0.503464 -0.658025 -0.295653 0.002341 -0.484297 0.275802 -0.464248 0.039487 0.177588 -0.273478 -0.823082 -0.415890 0.301075 0.437130
found 0.587125 -0.180389 -0.440972 -0.227604 -0.404918 -0.087584 -0.232296 0.227615 -0.268627 -0.280004 0.101710 -0.511496 0.052597 0.235476 0.029283 0.162880 -0.833993 -0.058330 -0.551324 -0.257410 0.185206 -0.738683 -0.500569 -0.129011 0.183211 -1.020345 -0.314935 -0.332143 -0.649387 -0.479506 -0.907792 -0.349463 0.158249 -0.372523 -0.416805 -0.072421 -0.261001 -0.564175 -0.318250 0.240732 -0.532837 -0.211589 -0.099543 0.134708 0.355638 -0.342713 -0.467401 -0.677382 -0.412541 0.275859
out 0.736010 -0.278052 -0.424071 -0.399567 -0.185083 0.081160 -0.492907 0.021583 -0.040757 -0.419528 0.163409 -0.427689 -0.167193 -0.210404 0.074876 -0.095061 -0.638279 -0.097635 -0.477526 -0.409264 0.224671 -0.523591 -0.312615 -0.850047 0.172355 -1.183626 -0.724216 -0.295579 -1.053416 -0.042908 -0.371471 -0.439634 -0.011299 -0.819463 0.013972 -0.555871 -0.202837 -0.858731 0.040035 0.312235 -0.102688 0.183527 0.149571 0.359433 0.268792 -0.335121 -0.757927 -0.683275 -0.514586 0.099861
about 0.383987 -0.051619 -0.525657 -0.491293 -0.550614 -0.026197 -0.039450 0.371288 -0.641699 -0.218305 0.078275 -1.053145 0.054109 0.120149 -0.009103 0.022351 -0.642574 0.185776 -0.836598 -0.140856 0.556137 -0.353700 -0.367071 -0.805126 0.196188 -0.877792 -0.193251 -0.291115 -0.504500 -0.273644 -0.384525 -0.512874 0.028970 -0.551038 -0.136524 -0.308307 -0.443283 -0.678085 0.284752 -0.092932 -0.485139 0.183479 -0.142809 0.083581 0.233437 0.047005 -0.251408 -0.812155 -0.456085 -0.065248
potters -0.025533 0.182658 -0.254978 -0.739929 -0.649441 -0.543340 0.169617 0.185332 -0.027132 0.137464 -0.163089 -0.687048 0.197422 -0.460631 -0.053846 -0.222159 -0.296864 0.291317 -0.457838 0.118085 -0.010472 0.175693 0.310692 -0.674793 -0.487602 -0.047163 0.021535 0.276709 -0.615082 -0.151286 -0.813368 -0.266039 0.111069 -0.348041 -0.056785 -0.208247 -0.011149 -0.188744 -0.393940 0.430593 -0.467061 -0.197275 -0.323417 -0.089327 0.244350 -0.567153 -0.055629 -0.954152 -0.466302 0.015258
sister 0.175071 -0.641096 -0.490665 0.169389 -0.007820 -0.251068 -0.542544 0.405814 -0.256077 -0.186262 0.243891 -0.378912 -0.416935 0.334714 0.129061 -0.058199 -0.511332 -0.127692 -0.445993 -0.305632 0.082353 -0.475940 0.050600 -0.686181 -0.472926 -0.929527 0.254955 -0.234836 -0.201887 -0.694002 -0.065959 -0.266785 0.234779 -0.391396 0.365063 -0.402739 0.009222 -0.464521 -0.446939 -0.291676 -0.168301 0.093351 0.154542 0.029013 0.433746 -0.409533 -0.665229 -0.944981 0.028936 -0.020639
hadnt 0.418477 -0.308691 -0.614467 -0.821328 0.016841 0.180368 -0.372047 0.279170 -0.103302 0.265790 -0.080295 -0.659170 0.251041 -0.346222 0.121174 0.195304 -0.875205 -0.265075 -0.747926 0.109081 -0.166902 -0.066066 0.061291 -0.450732 -0.287358 -0.911962 -0.527311 -0.273424 -1.117149 -0.594332 -0.590485 -0.674147 -0.018466 -0.749853 0.314958 -0.218639 -0.579689 -0.355216 -0.198774 0.270463 -0.317597 0.219681 0.319241 0.135772 0.070911 0.286154 -0.264152 -0.511998 -0.165113 0.023135
met 0.132384 0.275798 -0.159362 -0.519279 0.138155 -0.532363 -0.037899 -0.198781 -0.481328 0.020392 0.477325 -0.104329 -0.193809 -0.162027 -0.104621 0.219800 -0.376009 -0.037823 0.016474 -0.296202 0.025697 -0.523029 -0.546199 -0.555304 -0.228374 -0.455825 -0.005653 0.411232 -0.456653 0.077622 -0.158087 -0.038246 -0.009653 -0.523622 -0.373282 -0.146404 -0.492184 -0.227777 -0.137515 0.389176 -0.104126 0.348064 0.397798 -0.216391 0.159107 0.341862 -0.040665 -0.720529 -0.041379 0.592626
for 0.298496 0.181737 -0.212073 -0.422556 -0.528471 0.109482 -0.009801 -0.190558 -0.392535 -0.047651 0.258417 -0.676092 -0.081292 -0.520062 -0.160156 -0.169564 -0.713277 0.170483 -0.404502 -0.130315 0.080611 -0.426013 -0.196745 -0.546167 0.009372 -0.929448 -0.533951 -0.096984 -0.656821 -0.278854 -0.563596 -0.051152 0.013867 -0.563271 -0.100580 -0.364554 -0.285181 -0.717908 0.165896 -0.102293 -0.316245 0.174706 0.531366 0.052225 0.132548 0.063581 -0.616951 -1.078668 -0.372267 0.038031
several 0.351277 -0.481984 0.059085 0.040758 -0.333482 0.118550 -0.335543 -0.208197 -0.522429 0.147491 0.291870 -0.143706 -0.055813 0.208772 0.348835 0.317770 -0.543043 0.358803 -0.421404 -0.338178 -0.005866 -0.327489 0.208890 -0.574600 0.143395 -0.496956 -0.525744 0.029561 -0.767811 -0.085449 0.076024 -0.101053 0.482160 -0.548940 0.041427 -0.010122 -0.515290 -0.059063 -0.295560 -0.460579 0.088670 -0.185764 -0.400875 0.124998 0.159542 -0.623418 -0.600221 -0.141099 -0.492553 0.538228
years 0.139449 -0.270835 -0.443261 -0.476119 -0.357201 -0.156229 0.093814 -0.047488 -0.789184 -0.315869 0.028391 -0.708307 -0.312292 -0.042933 -0.177255 0.080194 -0.594220 0.157019 -0.465118 -0.011679 0.220824 -0.638900 0.183287 -0.581340 0.120282 -0.285135 -0.286224 0.140118 -1.049848 -0.608883 -0.158323 -0.060347 -0.088775 -0.706982 0.284896 -0.664918 -0.694848 -0.147037 -0.080963 0.472907 -0.390973 0.095476 0.392333 -0.138308 0.240766 0.090503 -0.848991 -0.823462 -0.138623 -0.061509
fact 0.500422 0.132777 0.105596 -0.209370 0.229195 0.341645 -0.565341 0.246133 -0.005905 -0.339660 0.443172 -0.758052 -0.022369 0.280138 -0.305238 -0.135539 -0.321743 0.240436 -0.486055 -0.135192 0.376254 -0.462169 -0.499845 -0.494908 -0.409425 -0.406821 -0.534139 -0.458471 -0.360735 -0.467014 0.067450 -0.206051 0.409816 -0.360059 -0.150441 -0.261680 -0.101693 -0.447788 -0.128284 -0.283283 -0.675539 -0.231165 0.259687 -0.237471 -0.100396 0.025383 -0.678528 -0.056794 -0.456203 0.277957
pretended -0.207869 -0.304443 0.193285 -0.187587 -0.362548 0.269927 0.166626 -0.285432 -0.434738 -0.118508 0.009133 -0.432472 0.150928 -0.131448 -0.067412 -0.148792 -0.126429 0.011926 -0.193053 0.189262 0.053091 0.119947 -0.067142 -0.561275 -0.126171 -0.577592 -0.395364 -0.422153 0.316746 -0.318453 -0.603642 0.068894 -0.248161 -0.333704 -0.459275 -0.277351 0.039109 0.115505 0.225434 0.102188 -0.062693 -0.164892 0.174749 -0.149043 -0.274759 -0.274514 -0.639443 0.048942 -0.445614 0.093538
goodfornothing 0.346981 -0.236429 -0.065339 0.336188 -0.157889 0.421758 0.069551 0.633958 0.499201 0.035779 -0.003788 0.414565 -0.139923 -0.032276 0.529338 0.089193 -0.232293 -0.395603 -0.396405 -0.406920 0.364361 0.041476 0.445319 0.482250 0.240340 0.057817 -0.405151 -0.231428 -0.192626 0.453083 0.068920 -0.279479 -0.090347 0.460828 0.293350 0.134752 0.183711 -0.045180 -0.283860 -0.235579 0.209324 -0.297184 -0.217359 0.100977 -0.169083 -0.236533 0.117477 -0.115066 0.233291 0.527349
husband 0.511775 -0.202295 -0.394662 0.355724 0.343888 0.151357 0.281118 0.204265 0.079827 -0.130930 -0.157778 -0.128034 -0.245676 0.419185 -0.343273 -0.160230 0.226162 0.388769 -0.223499 0.155020 0.301952 0.004767 0.275090 -0.098318 0.200907 0.255646 -0.121818 -0.055087 -0.113244 -0.168653 -0.002697 0.338460 0.288036 0.241593 -0.309634 0.133761 -0.274722 -0.264485 0.440235 -0.296525 -0.099476 0.097083 0.171167 -0.339944 -0.277614 0.220552 0.325669 -0.078335 -0.032587 0.398957
undursleyish -0.338558 0.364418 0.051633 0.293207 -0.444067 0.525550 0.530930 -0.117144 -0.300498 -0.364841 0.215518 -0.066936 0.558718 -0.322852 0.596126 0.435647 -0.362405 -0.276777 0.155862 -0.334879 0.207570 0.359608 0.339786 -0.043509 -0.197709 0.224694 -0.233695 -0.091954 -0.086271 0.468547 -0.284323 0.299263 0.042865 0.242946 0.289247 0.550679 0.230278 0.224979 0.632879 -0.157622 0.418603 0.273250 0.087226 0.363865 -0.132047 0.510285 0.418419 0.006245 -0.186330 -0.077243
possible 0.034439 0.196948 -0.183772 -0.682637 -0.524198 0.141197 0.210487 -0.110254 0.140630 -0.220849 -0.339296 -0.139593 -0.029476 -0.209678 0.102880 0.355209 -0.345940 -0.229618 -0.254607 -0.493181 -0.380502 -0.012669 -0.066614 -0.674391 0.051752 -0.561609 -0.650600 -0.259874 -0.834110 -0.188372 -0.176397 0.067918 0.263797 0.032017 -0.123741 -0.063811 -0.171060 0.043270 0.306780 0.050237 -0.016257 0.364559 0.092835 0.304046 0.207665 0.349625 0.088104 -0.707611 -0.607591 0.468325
shuddered 0.425662 -0.393828 0.341706 -0.176235 -0.223500 0.504765 0.212889 -0.256288 0.248835 0.337105 0.461255 -0.306684 -0.204129 -0.144881 0.255985 0.321384 0.404945 0.429848 0.343547 -0.449602 -0.013971 0.054962 -0.136790 0.446591 -0.259856 0.330761 -0.096977 -0.236885 -0.504235 0.270834 -0.077548 -0.276015 0.570977 0.337482 0.336040 0.151638 0.141285 -0.139919 0.121591 0.416695 -0.196920 0.083269 0.048845 -0.276628 -0.417580 -0.086044 -0.508087 -0.165062 -0.356331 0.281997
what 0.452630 -0.000301 -0.195116 -0.640924 -0.564399 0.119327 0.020844 -0.191314 -0.491338 0.277616 -0.079280 -0.531568 0.567448 0.079144 -0.373690 0.064538 -0.808437 0.017261 -0.462003 0.110165 0.348139 -1.058079 -0.498540 -0.906196 0.347866 -0.680838 -0.391794 0.038492 -0.454678 -0.393358 -0.809542 -0.229414 0.078363 -0.402307 -0.424857 -1.007244 -0.692684 -0.486428 0.234106 -0.194793 -0.670066 -0.294973 -0.230355 0.116101 -0.262728 0.019725 -0.388834 -0.983829 -0.411334 0.551636
arrived 0.376917 0.031810 0.033919 -0.427344 -0.588587 -0.161964 0.231087 -0.431534 -0.568621 0.052530 0.272349 -0.560670 -0.180467 -0.539553 0.199360 -0.336839 -0.619597 0.310541 -0.814890 0.303686 0.316188 -0.381382 -0.315166 -0.208671 0.248000 -0.194189 -0.057292 -0.145135 -0.925438 -0.496038 -0.290035 -0.096790 0.077913 0.046629 0.425236 -0.240224 -0.347081 -0.426080 -0.198530 0.079947 -0.138132 0.210018 -0.384871 -0.013056 0.145584 0.142736 -0.196378 -0.424289 -0.160664 -0.396809
street 0.162077 -0.301305 0.130339 -0.584975 -0.175754 0.169986 -0.044105 0.203457 -0.441520 -0.180092 0.014307 -0.480000 -0.531902 -0.295077 0.016223 -0.016423 -0.693054 -0.205541 -0.408188 0.127164 -0.056287 -0.041160 0.103678 -0.682012 -0.024946 -0.421416 -0.059557 0.013157 -0.079742 -0.652968 -0.855731 -0.215332 0.277406 -0.464574 -0.019549 -0.403383 -0.082208 -0.719209 -0.165741 0.485971 -0.620195 0.201303 0.530955 0.205401 -0.285187 -0.413349 -0.396269 -0.509025 -0.595281 0.075699
knew 0.275653 0.132330 -0.505147 -0.774025 -0.092076 0.196571 -0.287277 -0.158289 -0.458303 -0.260181 0.447556 -0.741042 -0.204136 -0.288775 -0.445975 0.196264 -0.846541 0.471836 -0.311301 -0.365418 0.205925 -0.444467 -0.212558 -0.791388 -0.338800 -0.880133 -0.199149 -0.201681 -0.580833 -0.544050 -0.970711 0.083434 -0.168754 -0.402316 -0.290384 -0.664040 -0.825278 -0.049042 -0.078026 0.099335 -0.307255 -0.183286 -0.166900 0.354127 0.456098 0.079651 -0.129975 -0.433976 -0.393054 0.539271
too 0.469553 -0.462237 -0.503919 -0.126821 -0.475190 0.364580 -0.082052 -0.216858 -0.525960 -0.282231 0.493328 -0.406690 0.467735 -0.156683 -0.237221 -0.194448 -0.719894 -0.162871 -0.885841 0.028532 0.326874 -0.489130 -0.123408 -0.256874 0.093736 -0.862036 -0.379458 -0.216583 -0.987409 -0.089622 -0.713920 -0.316329 0.294401 -0.851276 0.177125 -0.742236 -0.562745 -0.416172 -0.288186 0.231058 -0.776368 -0.133581 -0.217355 0.176698 0.108554 -0.291770 -0.130757 -0.587541 -0.087248 0.409801
never 0.430971 -0.458581 -0.023452 -0.358828 -0.539845 -0.182679 -0.030960 0.098230 -0.300339 -0.257116 0.495003 -0.885558 0.031649 -0.606667 -0.215314 0.240663 -0.915846 0.250682 -0.277605 0.163398 0.311660 -0.506964 -0.161920 -1.048478 0.092289 -0.704180 -0.049894 -0.236724 -1.180692 -0.034686 -0.891237 -0.836837 -0.194802 -0.485504 -0.029595 -0.437010 -0.633209 -0.734368 0.062736 -0.301536 -0.206643 -0.360626 -0.024192 0.227113 -0.129201 -0.038998 -0.444199 -0.694633 -0.475782 0.001077
even 0.097075 -0.035952 -0.058737 -0.345328 -0.192490 -0.320217 -0.520845 0.001898 -0.490150 -0.247131 0.066404 -0.776038 0.084633 -0.162098 -0.119295 0.443427 -0.950611 0.281866 -0.670368 0.111272 -0.137078 -0.686529 -0.087715 -0.662229 0.159692 -1.113831 -0.215649 0.035975 -0.574136 -0.350676 -0.331610 -0.504460 0.384905 -0.325870 -0.307052 -0.114581 -0.466785 -0.772911 -0.193704 -0.227169 -0.200718 0.104640 0.146698 0.257747 0.158572 0.223512 -0.240625 -0.751987 -0.725529 0.266303
seen 0.057280 -0.416023 -0.081724 -0.639712 -0.304427 -0.460912 0.120528 -0.409311 -0.559588 0.309342 0.489894 -0.623827 0.504237 -0.225902 -0.158057 -0.139796 -0.282975 0.187268 -0.627396 -0.452755 0.071451 -0.511554 -0.436574 -0.277058 0.231279 -0.659191 -0.062019 -0.489012 -0.482081 -0.098141 -0.815587 -0.544116 0.369939 -0.287319 0.256487 -0.428845 -0.381681 -0.721346 -0.439702 0.228368 -0.681140 -0.044104 0.019540 -0.139826 0.217014 0.047073 -0.541981 -0.710026 -0.039756 0.624256
him 0.478105 -0.123086 -0.276415 -0.482714 -0.116346 -0.026878 -0.280388 -0.158467 -0.278086 0.027157 0.274351 -0.886095 -0.100907 -0.067219 -0.194584 0.339583 -0.788564 0.269336 -0.417291 -0.340859 0.275084 -0.553160 -0.556537 -0.502570 0.159123 -1.055588 -0.326204 -0.108164 -0.969676 -0.110032 -0.301833 -0.390188 0.092883 -0.675123 0.031890 -0.669055 -0.718605 -0.436872 -0.078839 -0.155415 -0.436992 -0.075699 -0.118116 -0.105051 0.258391 0.173461 -0.586056 -0.291561 -0.285357 0.350292
this 0.309948 0.118339 -0.450689 -0.872981 -0.587675 -0.289676 -0.017747 0.017436 -0.468994 0.052399 0.030828 -0.749023 -0.054230 -0.121582 0.137545 -0.048402 -0.622491 0.215344 -0.590515 0.107784 0.017320 -0.737021 -0.285904 -1.116924 0.043286 -0.848321 -0.205629 0.134526 -0.795820 -0.366142 -0.479909 -0.058269 -0.162257 -0.622076 -0.359983 -0.588369 -0.756125 -0.502625 -0.167792 0.192287 -0.465020 -0.011423 0.121919 0.088329 0.300509 0.090991 -0.493599 -0.567315 -0.414725 0.109064
another 0.174695 -0.389766 -0.474101 -0.199341 -0.228240 0.013623 -0.279891 -0.352952 -0.097641 -0.260085 -0.189441 -0.708860 -0.005454 -0.195772 0.335730 0.026218 -0.178287 0.138759 -0.753198 0.196087 0.373907 -0.259748 -0.250844 -0.823574 0.332733 -0.827078 -0.826420 0.159599 -0.900741 -0.180206 -0.326840 0.062978 -0.098130 -0.768395 -0.170354 -0.527935 -0.198465 -0.648733 -0.217524 -0.112730 -0.430117 -0.084755 0.094642 -0.016307 0.508338 0.123289 -0.306955 -0.869422 -0.160119 0.521247
good 0.501185 -0.138250 0.018356 -0.728061 -0.169586 -0.115152 -0.120040 0.061711 -0.307548 -0.006982 0.260086 -0.468748 -0.144386 0.038617 -0.224187 0.002354 -0.404034 0.273433 -0.858654 -0.175679 0.015986 -0.183112 -0.684266 -0.518455 -0.115790 -1.017701 -0.567420 0.173890 -0.946914 -0.335582 -0.292466 0.008745 -0.114751 -0.473552 0.076104 -0.558436 -0.272572 -0.289632 0.110057 -0.164942 -0.879713 0.169158 -0.039964 -0.039012 -0.119228 0.249073 -0.275833 -1.012633 -0.438440 0.622763
reason -0.034129 -0.320247 0.149363 -0.575283 0.031174 -0.252443 -0.435585 0.307505 -0.578629 -0.294603 0.295933 -0.537429 0.267347 -0.124279 -0.420025 0.118886 -0.403186 0.111772 0.024956 -0.276283 -0.173693 -0.236523 -0.010459 -0.227068 0.078685 -0.915556 -0.246862 -0.161992 -0.397959 -0.371684 -0.417808 -0.488753 0.362895 -0.114651 -0.128741 -0.462609 0.046129 -0.610511 -0.059822 0.367873 -0.345609 0.179030 0.296381 -0.267857 0.434743 0.109129 -0.719168 -0.519280 -0.496646 0.068608
keeping 0.220788 0.010620 0.114698 0.272377 0.134278 -0.079167 -0.440189 -0.082108 0.042541 0.133753 0.492695 -0.091434 0.399380 0.391030 0.405315 -0.456303 -0.451944 -0.301539 -0.199647 0.033535 0.329459 -0.320437 0.141641 -0.456740 -0.232363 -0.630072 -0.023572 0.212518 0.148405 0.108812 0.103643 -0.507191 0.433877 -0.665450 0.043271 0.145336 -0.070671 -0.220293 0.197167 -0.233176 0.208974 -0.308854 0.390907 0.046551 -0.299446 -0.261299 -0.444252 0.091566 -0.157614 0.367715
away -0.085406 -0.128097 -0.549040 -0.670109 -0.347389 -0.037343 -0.023697 -0.341822 -0.302877 0.224535 0.365071 -0.879787 -0.084595 0.421536 -0.059931 0.032399 -0.752079 0.452901 -0.202392 0.010076 0.303858 -0.278446 -0.458798 -0.161495 -0.179538 -1.112568 -0.489249 -0.122863 -0.781770 -0.616086 -0.653263 -0.350786 0.517998 -0.047332 0.325036 -0.789551 -0.103405 -0.405624 -0.288044 -0.000456 0.030052 0.331749 0.180923 0.341651 -0.021390 0.161361 -0.145396 -0.832174 -0.598663 -0.210317
want 0.169203 0.260332 -0.445855 -0.232690 -0.898903 0.353527 -0.075933 0.211422 -0.413076 0.066305 0.112906 -1.028202 -0.223757 -0.155149 -0.443282 0.446798 -0.705957 0.248814 -0.440709 -0.296046 0.046718 -0.964776 -0.071825 -0.272923 -0.116962 -0.638845 -0.745196 -0.123882 -1.065367 0.173079 -0.709064 -0.056329 -0.012979 -0.953908 -0.288921 -0.556251 -0.075339 -0.228001 0.253077 -0.432055 -0.023710 -0.442916 -0.090932 0.416427 0.086242 -0.182790 -0.116027 -0.840995 -0.529309 0.355617
mixing 0.172693 0.486592 0.418967 0.474591 -0.030678 -0.394602 0.001869 0.091751 0.319219 0.358254 0.143592 0.449287 0.287514 0.283070 -0.313342 0.224992 -0.076511 -0.325837 0.013174 -0.411997 0.002424 -0.451758 0.406329 -0.416607 0.371233 0.439629 0.096033 -0.123114 0.396588 -0.463803 -0.383308 0.128764 -0.104560 -0.059318 -0.107048 -0.085049 0.130856 -0.031367 -0.021611 -0.299074 0.247508 -0.148430 0.176376 0.509807 0.484244 -0.293067 0.113270 -0.051052 -0.445251 0.058151
child 0.112561 -0.271908 0.121686 -0.432164 -0.419474 -0.487678 -0.525907 0.394521 0.112097 0.107108 0.322263 -0.094674 -0.300534 0.107894 0.275926 -0.047288 -0.316536 -0.337927 -0.075823 -0.052705 -0.326549 0.179182 -0.294077 -0.289948 -0.142918 -0.331970 0.005285 0.172992 -0.426829 0.380199 -0.312753 0.337451 -0.141594 -0.615070 0.149507 -0.410101 0.197945 -0.216738 -0.254176 0.035514 -0.288056 -0.456062 0.021953 -0.364999 -0.226852 0.138002 -0.258943 -0.447585 -0.082111 -0.003850
like 0.074765 -0.139964 -0.382497 -0.457936 -0.128589 0.115497 0.114343 0.338102 -0.549602 -0.046333 0.082714 -0.319157 0.211592 -0.007879 0.119787 -0.080529 -0.685267 0.719621 -0.764359 -0.246977 0.392898 -0.781194 -0.559962 -0.448010 0.130212 -0.777355 -0.319000 -0.102967 -1.019664 -0.129525 -0.702797 -0.373046 -0.194325 -0.350035 0.014664 -0.040520 -0.530192 -0.317005 0.225784 -0.188746 -0.313484 -0.050041 0.035525 0.226369 0.313033 -0.159743 -0.330931 -0.804101 -0.440072 0.234681
when 0.174300 -0.280786 -0.413364 -0.844127 -0.027210 0.131659 -0.242521 0.077880 -0.656499 0.005934 0.220576 -0.683201 0.032324 -0.371617 -0.107553 0.249477 -0.369867 -0.009302 -0.464141 -0.013342 0.512962 -0.191228 -0.453311 -0.745319 -0.014206 -0.901163 -0.529269 -0.286533 -0.491314 -0.576523 -0.540331 -0.338904 0.293154 -0.835055 -0.262940 -0.842406 -0.307520 -0.301898 -0.106017 0.176067 -0.190572 -0.067683 0.293541 0.206100 0.177255 -0.140087 -0.057900 -0.995830 -0.429056 0.386085
woke 0.045214 0.194428 -0.364492 -0.495669 -0.229028 0.485942 -0.162634 0.439269 -0.313640 -0.318802 0.067290 -0.185765 0.410883 -0.429899 -0.326950 -0.076853 0.110993 0.310394 -0.584997 -0.162389 0.202849 -0.339094 0.267089 -0.280461 0.470983 -0.622174 -0.044850 -0.181827 -0.563948 -0.052811 0.195034 -0.320758 0.048426 0.257128 0.113444 -0.352248 -0.310108 -0.582176 0.036781 -0.426892 -0.000851 0.475698 0.092608 -0.171577 -0.218004 0.220580 -0.342904 -0.530338 -0.241901 -0.176825
up 0.311573 -0.168986 -0.549634 -0.362639 0.224515 -0.023743 -0.549367 -0.159390 -0.343723 -0.254566 0.143232 -0.746513 -0.035507 -0.280326 -0.101884 -0.047542 -0.556318 0.416100 -0.557422 0.216311 0.117847 -0.594989 -0.594423 -0.441336 0.282854 -0.862964 -0.698363 -0.051804 -1.172496 -0.412172 -0.499518 -0.332819 0.547137 -0.611402 0.083491 -0.602943 -0.145283 -0.329594 0.363120 -0.057513 -0.267046 -0.205705 0.235189 0.075973 0.011150 -0.025295 -0.318480 -0.455689 -0.596623 0.316585
dull 0.079662 0.079755 0.480345 -0.300788 0.581382 0.013743 0.581242 -0.187240 -0.372863 0.384221 0.497910 0.100754 0.465807 0.176267 -0.221348 -0.322725 0.584626 0.451258 -0.102361 0.029427 -0.273534 -0.144741 0.325442 0.163333 0.415755 -0.118988 0.163983 0.456219 0.292807 -0.455264 -0.211248 -0.152401 0.576137 -0.324100 -0.300707 0.490536 -0.076058 -0.251890 -0.288411 0.438937 -0.145246 0.086451 -0.087813 0.194918 -0.234052 0.328747 0.502767 0.016148 0.349130 0.426335
gray -0.254715 0.113916 0.020149 0.156808 -0.540210 -0.409986 -0.490149 -0.314603 0.106624 0.077962 0.499340 0.105621 0.332290 -0.019919 0.284768 0.113623 -0.350221 0.309179 -0.204015 0.194823 -0.355202 -0.306631 -0.016355 -0.632435 0.378483 -0.397989 0.173725 -0.431922 -0.686450 -0.483927 -0.618790 -0.229342 0.468685 -0.227958 -0.074824 -0.189963 -0.332482 -0.226209 0.126955 0.189756 -0.090785 0.210150 -0.133177 0.228091 0.212014 -0.156329 -0.235923 -0.510126 -0.382353 0.083476
tuesday 0.404189 -0.189071 -0.383076 0.198434 -0.497141 0.152211 0.338824 0.369508 -0.116978 0.260007 -0.003666 0.304423 0.033674 -0.026085 -0.415242 -0.235349 0.150727 0.116111 0.084414 -0.434374 0.365925 -0.413478 0.124252 -0.464398 0.085562 0.009441 0.136564 0.181457 -0.484418 -0.117241 0.244449 -0.049302 -0.465575 -0.027111 -0.496754 0.249623 -0.182975 -0.449697 -0.085854 -0.008289 -0.346443 0.109611 -0.435455 0.131639 -0.346345 -0.289102 -0.077363 -0.287168 0.039074 0.383042
our 0.375440 -0.418471 0.004340 -0.674956 -0.049847 -0.009602 -0.166967 -0.089105 -0.089614 -0.222844 0.639467 -0.749000 -0.150258 -0.236146 -0.155813 0.281054 -0.500710 0.173960 -0.428627 -0.192659 0.538678 -0.856613 -0.214721 -0.151545 0.043364 -0.431841 -0.624337 0.319963 -0.408918 -0.459506 -0.351005 -0.029317 0.189459 -0.498868 0.094690 -0.298120 -0.773020 -0.480174 0.303178 0.577913 -0.261812 0.121403 -0.144074 0.126352 -0.038895 0.323446 -0.785805 -0.367364 -0.257474 -0.071004
story 0.096115 0.226984 0.221517 -0.489493 -0.075673 0.333264 -0.394639 0.385198 0.251301 0.181718 -0.240127 -0.066744 0.422324 0.076924 -0.240807 -0.359376 -0.504653 -0.193077 -0.519159 0.347542 -0.047574 -0.235812 -0.205507 -0.044126 0.409103 -0.120101 -0.549015 0.076513 -0.628286 -0.133579 -0.195969 0.037848 -0.275516 0.095223 0.098941 -0.198955 0.138650 -0.626123 -0.223621 0.113281 -0.114136 0.464558 0.604280 -0.171647 -0.159104 -0.097939 -0.170864 -0.722454 -0.233440 -0.122748
starts 0.134785 0.577320 0.388705 -0.033926 0.144696 0.033867 0.294501 -0.208166 -0.418945 0.064734 0.030739 -0.137962 0.409307 0.167704 0.220959 0.348833 0.058486 0.432226 0.189776 -0.463109 0.416370 0.029792 0.464021 0.131129 -0.229441 0.054402 0.522928 0.348461 -0.115902 -0.369608 -0.175650 0.177842 0.054050 -0.006908 0.096649 0.101339 -0.157125 -0.260544 0.250558 -0.092414 0.383951 -0.098901 0.050515 0.028617 -0.165136 -0.043748 -0.115613 0.090834 0.427238 0.228390
nothing -0.054806 0.300116 -0.333249 -0.546643 0.087902 -0.060286 -0.305738 -0.079913 0.026290 -0.286598 -0.021469 -0.786957 -0.248836 0.197351 0.028326 0.470507 -0.619993 0.188365 -0.986675 -0.289978 0.222040 -0.744632 -0.494430 -0.905498 -0.137941 -0.974244 -0.307218 -0.325710 -0.691206 -0.159918 -0.837015 -0.158569 0.472928 -0.697915 0.577960 -0.232953 -0.509465 -0.267320 0.061946 0.332184 -0.248005 -0.023989 -0.225952 -0.205163 -0.180582 0.188714 -0.717447 -0.224688 0.020715 0.564580
cloudy 0.360766 -0.386529 0.424053 -0.002415 0.220339 -0.029803 -0.218336 0.004380 0.156850 0.471736 0.140484 -0.409745 0.365687 -0.349810 -0.332922 -0.267213 0.161683 0.010830 -0.234708 0.576527 0.528192 -0.133828 -0.261609 0.447276 0.499114 0.485092 -0.003346 -0.096187 0.138205 -0.005529 0.187114 0.103871 0.566234 0.182665 0.559604 -0.332152 0.278877 0.340009 0.133928 -0.099884 -0.262591 0.284411 0.047065 -0.086768 -0.060607 -0.080838 -0.074733 0.087571 0.206913 -0.251559
sky 0.491563 0.253314 -0.007163 -0.014659 -0.119805 -0.040945 -0.297857 0.007440 0.036557 -0.074780 -0.171618 -0.601574 0.082596 -0.036776 0.389533 0.017260 -0.466860 0.559815 0.008879 -0.055738 -0.283626 0.032861 -0.329687 -0.565421 -0.144662 -0.466767 -0.403365 0.061332 -0.673929 -0.231934 0.013405 0.072257 -0.327506 -0.497412 -0.404321 0.034386 -0.282576 -0.320778 -0.037625 0.110983 0.084283 0.387983 0.166054 0.011168 0.306661 -0.246693 -0.397727 -0.994682 0.089612 -0.139429
outside 0.218259 0.078264 0.069419 -0.032109 0.023094 0.044302 -0.444059 0.169576 -0.505028 -0.236970 0.442004 -0.410631 0.000900 -0.163531 0.000997 0.447639 -0.358467 0.221346 -0.266560 0.284891 0.096608 -0.193928 0.135805 0.120602 0.255919 -1.028679 0.046078 0.006283 -0.989769 -0.092143 -0.197092 -0.228896 -0.314329 -0.398700 -0.444888 -0.825686 -0.655546 -0.755332 -0.147127 0.298012 -0.690988 0.113844 0.434164 0.316076 0.215710 -0.286982 -0.790989 -0.390294 -0.756586 0.063180
suggest -0.410950 0.489186 -0.302863 0.087024 0.328156 -0.209173 0.407251 0.296999 -0.141768 0.378802 -0.158082 0.332367 0.464359 0.369494 -0.169785 0.380198 0.270006 0.066130 0.135929 0.056084 0.077616 0.401483 -0.406544 0.186239 -0.171038 -0.347686 0.513143 0.211971 -0.385160 0.463062 0.101299 -0.180252 -0.088166 -0.253246 0.048802 -0.065810 0.142440 -0.412230 -0.266626 0.265745 0.394880 0.427266 -0.049109 -0.491836 0.376223 0.486954 0.303513 0.187747 -0.027078 0.117383
things 0.600117 -0.059000 -0.641917 -0.424014 -0.015127 0.058416 -0.307072 -0.050844 -0.178590 -0.210183 0.317519 -0.523296 0.080821 0.209994 -0.221923 0.289515 -0.564349 0.118350 -0.184555 -0.324497 0.589659 -0.776547 -0.428700 -0.309017 0.102493 -0.725987 -0.668272 -0.482608 -0.360590 -0.712410 -0.840457 -0.571915 0.052674 -0.453930 0.106761 -0.380061 0.028523 -0.009079 -0.020097 0.004020 -0.463891 0.160322 -0.242827 0.331417 -0.113541 -0.360878 -0.314061 -0.916424 -0.227318 0.588537
soon 0.471212 -0.103634 0.324277 -0.697206 -0.457819 -0.441794 0.154240 0.276141 -0.519049 0.347059 0.348493 -0.732615 0.099851 -0.078839 -0.412583 -0.280027 -0.315515 -0.097051 -0.516704 0.124109 0.028151 -0.102516 -0.239468 0.009928 0.207634 -0.119550 -0.183983 0.325627 -0.217561 -0.311883 -0.256262 -0.135476 0.442291 0.177603 -0.440618 -0.283872 -0.625829 -0.712782 0.328731 -0.163748 -0.276584 0.222519 0.269515 -0.419910 0.303903 -0.183500 -0.390949 -0.482967 -0.590342 -0.179201
happening -0.303099 0.130401 -0.290841 -0.151568 -0.286606 0.453391 0.028186 -0.445964 -0.426658 -0.239609 0.035104 -0.011616 0.302387 0.294319 -0.167779 -0.295336 0.078092 -0.390913 -0.169688 0.443037 -0.047611 0.086865 -0.158273 -0.218431 -0.321965 -0.754744 -0.041592 0.196346 -0.400381 -0.042800 -0.504062 0.275864 0.068205 0.224251 -0.535915 -0.139238 0.083734 0.112613 -0.317408 0.107984 -0.159914 -0.096283 -0.206382 0.374773 0.046793 -0.423640 -0.090463 0.084817 0.246681 0.353533
all 0.505568 0.330238 -0.342997 -0.882091 -0.267525 -0.275573 -0.446517 0.143430 -0.313796 -0.294889 0.487791 -0.690048 0.017447 -0.559588 -0.227752 0.121640 -0.653132 0.043893 -0.925342 -0.382917 0.422543 -0.385986 -0.399031 -0.640339 0.328327 -0.961878 -0.466826 0.003350 -0.619082 -0.246085 -0.505391 -0.381309 0.119763 -0.642119 -0.080460 -0.668178 -0.483273 -0.488600 0.160424 -0.077650 -0.331319 -0.026120 -0.012083 -0.023786 0.191014 -0.159520 -0.568626 -0.482660 -0.408763 0.063626
country 0.065740 0.334472 -0.285546 -0.120500 -0.162407 -0.216948 0.304167 0.306784 0.101323 -0.231125 -0.226781 -0.412894 -0.112299 0.404791 -0.370236 -0.411812 -0.063872 0.069919 -0.618221 0.075895 -0.287085 -0.564423 -0.056130 0.164885 -0.031604 -0.437081 -0.656325 0.083397 -0.170117 0.204881 -0.036618 -0.051993 0.125586 -0.489849 0.136035 -0.352160 -0.363250 -0.569574 0.117323 -0.212291 0.085514 -0.095778 0.400236 0.033711 0.105115 -0.272893 -0.396725 0.276804 -0.210966 -0.128982
hummed -0.009017 0.411377 0.354883 0.333851 0.361866 0.354672 -0.193442 0.362331 0.142710 -0.185137 -0.498260 -0.518893 -0.298973 0.266645 -0.442896 -0.028038 -0.006679 0.194825 0.229239 0.409671 -0.349920 -0.021115 0.336121 -0.141840 -0.409153 -0.177549 0.274024 0.092613 0.035197 0.342258 -0.130331 -0.106330 -0.002561 -0.275643 -0.498003 -0.077733 -0.435704 -0.435702 0.151909 -0.125784 -0.588126 -0.208201 -0.338533 0.269916 0.203225 0.509712 -0.415705 0.176253 -0.337223 -0.149987
picked 0.309057 -0.231449 -0.019067 -0.676351 -0.413734 0.291066 0.248695 -0.339747 -0.175010 -0.249183 -0.134377 -1.047026 0.098259 -0.024942 0.110342 0.291604 -0.340151 0.156379 -0.150245 0.273197 -0.168659 -0.637166 -0.069217 -0.281075 0.236671 -0.376004 -0.100971 -0.369830 -1.056955 -0.449847 -0.913302 -0.063652 -0.031172 -0.546725 -0.134883 -0.258868 0.039929 -0.606822 0.154464 -0.020259 -0.076688 -0.079304 0.252802 -0.523249 -0.105208 -0.183965 -0.383265 -1.001641 0.174006 0.087697
his 0.478491 -0.317586 -0.640529 -0.482359 -0.136549 -0.223430 -0.267714 -0.246111 -0.174117 0.384025 0.251879 -1.157551 -0.087950 -0.535321 0.172413 0.169736 -0.555713 0.351284 -0.191581 0.163438 0.267838 -0.623330 0.101707 -0.526436 0.033629 -0.762462 -0.526057 0.141902 -1.021835 -0.456815 -0.620174 -0.235769 0.031097 -0.656675 0.163918 -0.388620 -0.232904 -0.283538 0.333717 0.217669 -0.288474 -0.128308 -0.216841 0.169668 0.542833 -0.409842 -0.509031 -0.111906 -0.396427 -0.019875
most 0.512243 -0.464488 0.022197 0.098195 -0.314001 -0.092313 -0.019576 -0.193200 -0.124607 -0.226018 0.673708 -0.470185 -0.119806 -0.054374 -0.298924 -0.197280 -0.703431 0.370801 -0.682779 0.084744 0.312957 -0.646161 -0.292028 -0.231060 0.064363 -0.254768 -0.317635 -0.384563 -0.505620 -0.366498 -0.382703 -0.376763 0.408616 -0.418990 -0.130502 -0.386562 -0.232187 -0.376684 -0.254475 0.599010 0.168056 0.002173 0.001398 -0.049020 0.607145 -0.110031 -0.743455 -0.141683 -0.249532 0.331333
boring -0.372178 0.192678 -0.383232 0.019914 0.214519 0.111520 0.080773 -0.511028 -0.287086 0.181992 -0.341186 -0.393195 -0.172201 -0.402314 -0.288561 0.411359 -0.222902 0.215854 -0.223757 0.099213 0.439052 -0.077682 -0.020848 0.324367 -0.481331 -0.191554 -0.584090 0.300832 0.192176 -0.527947 -0.668178 0.248874 -0.307381 -0.287348 -0.053554 0.285933 0.270916 -0.118655 0.054216 -0.187112 -0.211349 0.111397 -0.076304 -0.185374 -0.166748 0.177624 0.159476 -0.351780 -0.109636 -0.301824
tie -0.184416 0.017499 0.271760 0.057944 0.335642 0.454392 0.210842 -0.383037 -0.382482 0.294529 -0.055073 0.368011 0.334469 0.421081 0.281985 -0.021124 0.163569 -0.168449 -0.175427 -0.254636 0.438011 0.497772 0.133122 0.140704 -0.347719 0.136000 0.125845 0.027716 -0.153968 -0.162710 0.434456 0.213826 -0.384647 -0.051243 -0.373955 0.244910 -0.035353 -0.139961 0.574055 0.509668 -0.126255 0.137156 -0.269942 0.516969 0.235027 -0.362363 0.161847 0.550330 0.230954 -0.080198
work 0.272642 -0.155258 -0.150337 -0.088821 -0.538250 0.177961 -0.157559 0.242437 -0.603993 0.245456 0.044069 -0.821599 0.350975 0.270941 -0.258252 0.263655 -0.757344 -0.064893 -0.206224 0.187348 0.512770 -0.759282 -0.431225 0.038812 0.086795 -0.285032 -0.512807 -0.178792 -0.377005 0.220555 -0.820444 0.153062 0.138476 -0.466933 0.122700 -0.684654 0.055529 -0.529951 -0.041292 -0.036518 -0.362545 -0.250053 -0.447184 0.093710 0.519125 0.206624 -0.374382 -0.664571 -0.676193 -0.135754
gossiped -0.004828 0.118404 -0.098634 -0.024481 -0.220788 -0.279044 0.125724 0.453549 -0.250485 -0.016820 -0.176942 -0.440347 0.497968 -0.372118 0.446657 0.601368 0.215659 0.443733 0.527911 -0.149750 -0.102486 0.058040 -0.002501 0.468409 0.515419 0.424153 0.149127 0.526411 0.572857 0.245011 -0.179439 0.308698 0.291289 -0.433561 -0.242967 -0.336133 -0.246419 0.238754 0.525720 0.242156 0.330229 0.161268 -0.018480 0.218396 0.540518 -0.303316 0.015897 0.016337 0.271072 0.116196
happily 0.644554 -0.005052 0.195816 -0.114199 -0.322190 -0.261491 0.461529 0.342700 -0.363244 0.145717 0.335964 0.276542 0.174333 -0.150445 0.506566 -0.018058 0.387923 0.422095 0.346681 0.036666 -0.229344 0.322935 0.280682 -0.384486 -0.335071 -0.325280 0.311145 0.112415 0.319732 0.215438 -0.203915 0.327311 -0.278223 -0.481535 -0.423179 -0.165019 -0.267111 0.422364 0.083840 -0.190116 0.047148 -0.177579 0.510274 0.175063 0.569692 0.341793 0.195192 -0.433234 0.133639 0.547506
wrestled -0.345661 -0.352226 0.518389 -0.352573 0.243651 0.012144 0.382248 0.081732 -0.157173 0.403255 -0.141200 -0.006080 -0.356138 0.300247 -0.229369 0.615767 0.156676 0.002651 -0.076887 0.062523 -0.038298 -0.162483 0.481883 0.044543 -0.222432 0.411721 0.064378 0.339426 0.561670 -0.076188 -0.402027 -0.040259 -0.037422 -0.098120 0.237827 -0.287037 0.296175 -0.050832 -0.175194 -0.118602 0.013580 0.486802 -0.236510 -0.204334 -0.361322 0.220041 -0.327673 0.246289 0.437911 0.089046
screaming -0.215296 0.090376 -0.507486 0.178885 -0.569561 0.089756 -0.350818 -0.300819 -0.418244 0.172224 0.513883 -0.160183 -0.128108 0.142299 -0.357360 0.081431 -0.025528 0.381171 0.291965 -0.384092 0.282911 -0.470747 0.410018 -0.349223 0.177661 -0.294285 0.155529 -0.514490 0.112750 -0.070289 -0.514336 0.075168 -0.347644 0.167580 0.070615 0.115143 0.121666 -0.161905 0.233735 0.498463 0.276512 -0.387309 -0.258511 0.354294 -0.209064 -0.322589 -0.073038 0.037999 -0.298809 -0.225916
into 0.079377 0.194733 -0.297597 -0.261054 -0.085776 0.236547 -0.107263 -0.130058 -0.028147 -0.321918 0.292196 -0.474881 0.023031 -0.528955 -0.304437 0.185015 -0.448525 0.263097 -0.470873 0.096599 0.065345 -0.023755 -0.159281 -0.197781 0.367887 -1.274433 -0.499026 -0.357150 -1.103809 0.039957 -0.745924 -0.537615 0.200554 -0.792427 0.237040 -0.228191 -0.443687 -0.183400 0.000502 0.437603 -0.302774 -0.154114 0.097415 0.075266 0.309438 -0.456102 -0.631274 -0.937282 -0.482371 0.351626
high 0.801123 -0.364113 -0.203467 -0.022744 -0.311493 -0.202072 -0.346399 -0.373236 0.054351 0.223450 0.249162 -0.688571 -0.166529 0.313535 -0.207951 0.349587 -0.871603 -0.280440 -0.516755 0.141489 0.308835 -0.648045 -0.289425 -0.259148 -0.010280 -0.485547 -0.273515 -0.522699 -0.887377 -0.468635 -0.495622 -0.243679 0.316655 -0.625548 0.029798 -0.276029 -0.543059 -0.206785 0.288672 0.117040 0.118361 -0.163676 0.091909 0.183392 0.487392 -0.289777 -0.699139 -0.450226 -0.078372 0.276085
chair 0.551452 -0.352377 0.292890 0.013355 0.176173 -0.090869 0.115170 -0.074154 -0.404163 0.024212 0.189383 0.057154 -0.393337 -0.442100 -0.010902 -0.232908 -0.669418 0.503243 0.170529 -0.256732 -0.077388 -0.078102 -0.124927 0.004760 -0.418446 -0.090256 -0.100350 -0.517637 -0.342573 0.089136 -0.805026 -0.098267 0.539340 -0.644462 0.125297 -0.107833 0.112178 -0.559461 0.307468 0.049977 -0.465552 0.204124 -0.095017 0.136043 0.613763 -0.468256 -0.128528 -0.577998 0.107086 0.054850
none 0.163097 0.316634 -0.088358 -0.548776 0.345587 0.316389 -0.072457 0.336570 0.195035 0.095597 -0.078892 0.032017 -0.230853 -0.051452 -0.021117 -0.017964 0.169150 0.450557 -0.137935 0.438180 0.606395 0.046479 -0.052235 -0.398026 -0.230031 -0.508683 0.323376 -0.201343 0.195221 -0.511996 -0.507152 -0.290406 -0.371038 -0.069918 0.079159 -0.541770 -0.557853 -0.088622 0.330633 -0.275782 -0.530873 0.349604 0.399682 -0.012913 0.331867 0.078316 0.045245 -0.578913 0.074457 -0.080272
them 0.849208 -0.165714 -0.092725 -0.433216 -0.053852 -0.196300 -0.042573 -0.019289 -0.105323 0.068315 0.568858 -0.427299 -0.140572 -0.259025 0.086725 0.248543 -0.867201 0.266009 -0.477125 -0.069894 0.234750 -0.724569 -0.532005 -0.804050 0.231467 -0.988460 -0.568529 0.136022 -0.658683 -0.334733 -0.675541 -0.367799 0.016881 -0.888712 -0.197149 -0.332021 -0.317289 -0.599980 -0.313851 -0.296484 -0.318229 0.054402 -0.233563 -0.099651 0.089546 -0.429726 -0.446836 -0.466667 -0.303997 0.416188
noticed 0.620327 -0.206759 -0.659553 -0.747596 -0.465575 -0.112876 -0.106598 -0.022779 -0.259605 0.391173 0.427377 -0.100791 -0.263756 -0.284744 0.297485 0.238562 -0.966497 0.603949 -0.073267 0.021961 0.223465 -0.760931 -0.613549 -0.245319 0.182065 -0.986286 -0.653187 0.130209 -0.134127 -0.103598 -0.117438 -0.121703 0.068532 -0.234308 -0.441018 -0.879790 -0.436985 -0.644465 -0.008477 -0.229901 -0.348436 -0.340237 0.441016 0.045086 -0.344662 0.250074 -0.774899 -0.759278 -0.130145 -0.168661
tawny -0.294106 0.477550 0.049038 -0.075210 0.191504 0.163469 -0.228023 -0.374341 0.271288 0.008288 -0.007177 0.201356 0.138817 0.359809 -0.020024 0.421060 -0.544036 0.321477 0.280302 0.304707 0.111269 -0.194856 0.315748 0.221591 -0.344146 -0.245044 -0.065103 0.351033 0.333029 -0.406769 -0.107387 0.451392 0.449898 -0.332349 0.091304 0.020674 -0.407197 0.200618 -0.486136 -0.326481 -0.144218 -0.204663 -0.149441 0.291841 -0.323319 -0.158914 0.421217 -0.022003 0.209240 -0.164856
owl 0.302584 -0.223275 -0.357996 -0.269767 -0.384143 0.051210 0.061754 0.026309 -0.034144 -0.181804 -0.203369 -0.946645 0.248858 -0.069019 -0.068053 -0.193043 -0.310282 0.126090 -0.612162 -0.302274 0.427772 -0.570199 -0.143113 -0.776344 0.142800 -0.816340 -0.451927 -0.374068 -0.199153 -0.546310 -0.642429 -0.509169 -0.038163 -0.727948 0.254838 0.243101 -0.273254 -0.476677 -0.214144 0.193137 -0.278077 -0.093886 0.005832 0.164965 0.590790 0.323327 -0.465852 -0.556670 -0.479602 0.410220
flutter -0.234714 -0.217308 -0.346946 0.303495 0.078136 0.014978 0.144869 -0.047237 -0.101210 0.215251 0.070842 -0.419784 0.055534 0.167035 0.210917 -0.245037 -0.369946 -0.125364 -0.058428 0.462580 -0.266155 0.454719 -0.388855 0.130890 0.002560 0.430612 0.240682 0.542971 0.484768 0.062986 -0.214085 -0.018920 0.183742 -0.443022 0.358010 -0.302217 -0.328451 -0.479683 0.512780 -0.333697 -0.106556 0.291313 0.125519 -0.357295 0.515401 -0.413139 0.075800 -0.025769 -0.380223 -0.213108
past 0.190064 -0.451974 0.051559 -0.376035 0.148039 0.348179 -0.167445 0.247379 -0.734736 -0.325114 0.045958 -0.795501 -0.331576 -0.374659 0.124465 0.276344 -0.128797 0.582239 -0.818448 -0.119191 -0.253098 -0.113745 -0.307268 -0.709839 0.474829 -0.448346 -0.313883 -0.477857 -0.962324 -0.405874 -0.401531 0.060674 0.185786 -0.135775 -0.139929 -0.760517 0.153028 0.020264 -0.147820 0.408778 -0.137494 0.337520 -0.116851 0.052392 0.513143 -0.383418 -0.744923 -0.785698 0.014320 0.175988
window 0.858891 -0.140463 -0.575960 -0.227164 -0.095897 0.220059 -0.331970 0.300461 -0.395813 -0.424192 0.361405 -0.520458 -0.603356 -0.016615 -0.347848 -0.135821 -0.641587 0.149458 -0.250559 0.284580 0.389296 -0.356573 -0.120268 -0.113807 -0.340630 -0.558776 -0.299849 0.077174 -0.884703 -0.439003 -0.679708 -0.722920 -0.090786 -0.399458 -0.125111 -0.305845 -0.623059 -0.216170 -0.012163 -0.268520 -0.111382 -0.190462 0.561773 -0.158872 0.126788 -0.259913 -0.734780 -0.175925 -0.366633 0.659393
at 0.402994 0.368698 -0.737263 -0.718886 -0.315457 -0.154322 0.168595 -0.107185 -0.720881 -0.021279 0.493113 -0.397265 -0.051449 -0.261143 0.006833 -0.205228 -0.872244 0.386510 -0.296998 0.284799 0.105198 -0.505132 -0.572609 -0.516725 0.033333 -0.957539 -0.470019 -0.369394 -1.150058 -0.622773 -0.809724 -0.030325 0.172828 -0.694642 -0.099498 -0.036134 -0.446779 -0.517618 0.086695 0.168060 -0.217436 -0.118164 0.109281 0.060780 0.018637 -0.471758 0.014622 -0.750468 -0.639132 0.139317
half 0.289390 -0.404487 -0.461533 -0.503500 -0.267481 -0.097788 -0.131137 0.359438 -0.345793 0.315563 -0.186598 -0.632248 0.312666 0.225892 -0.191327 -0.116183 -0.097197 0.634013 -0.352131 0.308783 -0.023432 -0.528811 -0.083320 -0.099517 -0.218928 -0.593279 -0.055786 0.135619 -0.338580 0.024357 -0.678445 -0.730283 0.122554 -0.825422 -0.058511 -0.551930 -0.282678 -0.736199 0.379714 -0.156577 -0.632333 -0.089331 0.314366 0.070784 0.419758 0.278730 -0.445444 -0.357434 -0.235002 0.052635
eight 0.244420 0.440935 0.196678 -0.004288 0.304718 0.236455 0.145531 -0.314409 -0.469953 -0.469255 -0.023406 -0.348201 0.188657 -0.501720 0.036216 0.101660 -0.493633 -0.227234 0.339284 0.290663 -0.300737 -0.373597 -0.158119 0.395954 0.035031 -0.378249 -0.404752 0.242628 -0.071342 -0.141877 -0.120870 0.279124 0.466114 -0.094930 0.138153 0.058445 -0.023765 0.069317 0.256052 -0.499195 0.254344 -0.031029 -0.369371 -0.393231 0.315432 0.083124 -0.004718 -0.579174 -0.229415 0.323715
briefcase 0.083234 0.420687 0.462729 0.326541 0.346491 0.090541 -0.348085 0.193173 -0.083080 0.260545 0.080666 -0.264108 -0.033315 0.136523 0.375232 0.171602 -0.177435 -0.117535 -0.231984 -0.354032 0.602496 0.017173 0.408051 0.611724 0.531184 -0.137222 -0.348408 0.135050 0.172022 0.126439 -0.248445 0.011770 0.333988 0.034307 0.626164 -0.366940 -0.262571 0.195678 -0.310571 -0.285084 -0.028617 0.357814 -0.243167 0.701641 0.570576 0.315854 -0.233362 0.387163 0.421696 0.644930
pecked 0.257175 0.384168 -0.391906 -0.269446 0.503675 0.101176 -0.100444 -0.295422 0.194394 0.521830 -0.376384 -0.134362 0.036914 0.389264 0.416591 -0.089145 0.049491 -0.034830 -0.320160 0.463476 -0.283197 -0.082908 -0.154071 0.050210 -0.132588 0.694316 -0.038379 -0.080096 -0.246856 -0.400582 0.492595 -0.208345 0.018008 0.168970 0.100950 0.604988 -0.110847 0.338661 0.454380 0.104034 0.556006 -0.094503 -0.087450 -0.317589 0.004103 0.184386 0.065557 -0.067980 -0.105436 0.258201
cheek 0.141515 0.364561 0.420588 -0.307500 -0.412121 -0.329980 0.156384 0.152006 -0.467964 -0.009070 0.556437 -0.008711 -0.057707 0.453738 0.256867 0.014728 0.241144 -0.160981 0.057862 -0.470065 0.094450 -0.117135 -0.123154 0.096247 -0.208858 -0.529063 -0.116662 0.401345 -0.322905 -0.178963 -0.278604 0.282490 0.222604 0.293844 -0.405685 0.366945 -0.218226 -0.480681 0.000745 0.049116 0.393477 0.043436 0.262991 -0.095255 0.060097 0.033612 0.308574 -0.115047 -0.459473 -0.268882
tried 0.288178 -0.337926 -0.496012 -0.706122 -0.250897 0.428039 0.219411 -0.252592 -0.707376 -0.181998 -0.031794 -0.906946 -0.313524 0.135323 -0.355682 0.156361 -0.844651 -0.264486 -0.684380 0.003856 0.515389 -0.692891 -0.350464 -0.547735 0.453070 -0.425690 -0.255051 0.075978 -1.260695 -0.291283 -0.490850 -0.762933 -0.002465 -0.735991 0.324594 -0.505905 -0.665993 0.036821 0.039018 0.168846 -0.181965 -0.291076 0.354543 0.050503 0.559469 0.349039 -0.586670 -0.195606 0.007127 0.208713
kiss 0.063910 -0.360137 0.362307 0.395405 -0.248172 0.322079 -0.424551 -0.444097 -0.524793 0.357928 0.007762 0.212111 -0.096860 -0.041786 0.224313 0.358052 -0.331487 0.384742 0.102555 -0.456400 0.057103 -0.305376 -0.182205 0.256439 -0.118681 -0.470536 0.193831 -0.005005 -0.282911 0.010200 -0.184129 -0.504214 -0.303465 0.084828 -0.379522 0.338263 -0.220060 -0.016487 -0.028127 -0.491275 -0.135903 -0.219442 0.391952 0.310451 -0.071006 0.221186 -0.199946 -0.084585 -0.440250 0.475204
goodbye 0.225364 -0.242443 -0.223834 0.019044 0.382604 -0.049128 0.382375 -0.366696 0.001375 -0.160054 0.539046 -0.243100 -0.108634 -0.226209 -0.198339 -0.192797 -0.299022 0.297222 -0.352333 -0.116911 -0.200764 -0.125928 -0.235288 -0.110649 -0.415699 -0.442623 -0.487544 0.308268 -0.394764 -0.517594 0.224907 -0.473197 -0.280259 -0.654887 -0.203933 -0.106804 0.191551 -0.118708 -0.464829 0.425935 0.138772 0.423135 0.176117 -0.043481 0.612115 -0.452180 0.007543 -0.522551 0.107343 0.054442
missed 0.143932 0.375088 0.057224 -0.503835 0.140706 -0.219242 -0.098373 -0.062957 0.098069 -0.364811 -0.034364 0.086456 0.056578 0.102820 0.104078 -0.087827 -0.273358 0.298380 -0.591337 -0.133081 -0.277273 0.420560 -0.419631 0.288386 0.487410 -0.534972 -0.147221 -0.092322 -0.162522 -0.332706 0.268941 0.499499 -0.191603 -0.096558 0.094607 -0.343693 0.447672 -0.283408 -0.116585 -0.125366 0.173714 -0.136225 -0.342420 -0.197598 0.517607 -0.337175 0.324567 0.066044 -0.310671 0.313820
