6022 50
harry -0.977606 -0.192350 -0.604984 0.136957 -0.245494 -0.735321 -0.514988 -0.121209 0.527943 0.415298 -0.495451 -0.451096 -1.085872 0.255817 -0.450658 -0.500383 -0.502497 0.425158 -0.350352 -0.828994 -0.021547 -0.361092 0.150292 0.252206 -0.091536 0.414244 -0.223033 -0.396386 0.316500 -0.541950 -0.690884 -0.482097 -0.189636 -0.951894 -0.174057 -0.176601 -0.359940 0.338195 -0.800766 -0.006474 -0.257278 0.267261 -0.478290 -0.366220 0.507266 0.063050 -0.640324 0.133639 -0.355257 0.155440
potter -0.472908 0.060577 -0.211465 -0.160495 -0.088309 -0.251375 -0.340162 0.253434 0.355966 0.339379 -0.156561 -0.504513 -0.935639 0.369008 -1.448666 -0.330863 -0.755660 -0.085977 -0.169974 -0.982060 -0.110718 -0.761632 -0.052665 0.127652 -0.446742 0.854029 -0.416938 -0.551859 0.395426 0.053674 -0.305702 -0.095624 -0.510078 -0.749732 -1.109041 -0.388647 -0.140662 0.156976 -0.862274 0.078993 -0.862532 0.094182 -0.803281 -0.524856 0.388535 0.116372 -0.263526 -0.051784 -0.202888 0.639105
and -0.536504 0.208799 -0.551248 -0.500633 -0.186187 -0.223545 -0.077592 0.297563 -0.227018 -0.004170 -0.590036 -0.443831 -0.862182 0.490941 -0.175460 -0.357535 -0.424987 0.276531 -0.514108 -0.408514 0.235894 -0.336117 -0.517828 0.222781 -0.018314 0.513049 -0.332622 -0.414614 0.251608 -0.051386 -0.468773 -0.238881 -0.111926 -1.148241 -0.003510 -0.331669 -0.498491 0.260860 -0.552490 -0.065666 -0.574020 0.562620 -0.442676 -0.582145 0.218179 -0.001436 0.195458 0.240902 -0.401893 0.255624
the -0.676087 0.432642 -0.563220 -0.354011 0.123561 0.222758 -0.361172 -0.113495 -0.039332 0.617957 -0.538208 -0.341447 -1.581232 -0.069384 -0.077945 -0.049705 -0.641981 -0.124761 -0.053933 -0.255114 0.212353 -0.299553 0.071057 -0.069264 -0.506848 0.802597 -0.645107 0.337831 -0.329654 -0.131192 -0.945286 -0.729607 0.298105 -0.693868 -0.831345 -0.393306 0.441784 -0.018935 -0.534555 -0.447403 -0.587955 0.008479 -0.121654 -0.767887 0.161859 0.163122 0.225797 -0.147229 -0.469690 0.482962
sorcerers -0.533375 0.385684 -0.150306 -0.533204 -0.317410 0.365114 0.189787 -0.504528 0.317309 0.327288 0.301563 -0.292790 -1.001657 -0.135651 -0.469323 -0.409131 -0.360472 0.187795 -0.174840 -0.258493 -0.110959 -0.601068 -0.073901 0.335478 -0.529050 0.621685 -0.721980 -0.022082 0.702485 -0.802666 -1.002164 -0.535428 0.456869 -0.723923 -0.308512 -0.220141 0.017173 0.073642 -0.187167 0.094501 -0.503034 -0.072769 -0.465901 -0.229321 0.669551 -0.471552 -0.282882 0.348696 0.111617 -0.103055
stone -1.044705 0.194878 -0.176959 -0.158591 0.182750 0.756483 -0.338423 -0.113484 -0.419336 0.499745 -0.150563 -0.200350 -1.229518 0.371606 -0.601001 -0.196733 -0.910759 -0.546166 -0.080622 -0.942292 0.165166 0.000015 -0.261609 0.203872 -0.014924 0.466424 -0.681869 -0.118702 0.341032 -0.600107 -1.002004 -0.398476 -0.107847 -0.962844 -0.597962 -0.499692 -0.165687 -0.197101 -0.596561 -0.224064 -0.477739 0.234856 -0.676348 -0.408858 0.393457 -0.623907 -0.341155 -0.024243 -0.154952 0.316405
chapter 0.185476 0.108221 0.088512 -0.311473 0.352410 0.049611 0.036268 0.638821 -0.072946 0.557660 -0.237841 -0.396207 -0.804059 0.505225 -0.463849 -0.254705 -0.208988 0.228429 0.169390 -0.124876 -0.042403 -0.132068 -0.273561 0.270785 0.224825 0.218536 0.010571 -0.317914 0.377439 -0.140437 -0.397520 -0.351535 -0.169717 -0.075085 -0.110516 0.042514 -0.170701 0.345323 -0.208273 0.263504 -0.457416 0.244374 -0.097405 -0.540348 0.282842 -0.275873 -0.410326 -0.166735 -0.289814 0.169261
one -0.550086 -0.490108 -0.653618 -0.271488 -0.600878 -0.043569 0.018297 -0.217819 0.119600 -0.015898 -0.302941 -0.649086 -1.206081 -0.260393 -1.031051 -0.332453 -0.484840 0.038915 -0.421440 -0.089219 0.281554 -0.518355 -0.327280 -0.169611 -0.322982 0.889009 -0.175393 -0.558988 0.312998 -0.177791 -1.038010 -0.214715 -0.091723 -1.089689 -0.471266 -0.655951 0.123198 0.390459 -0.608224 -0.090533 0.061675 0.171396 -0.677106 -0.798296 0.358583 -0.583273 -0.344532 0.078084 0.314776 0.372892
boy -0.525005 -0.508762 -0.263428 0.083317 0.176179 -0.174715 -0.702530 0.243404 -0.249577 0.194572 -0.112400 -0.644249 -1.721624 0.031030 -0.832291 -0.757723 -0.598003 -0.219829 -0.143007 -0.384232 0.068215 -0.443513 -0.341797 0.264112 0.019366 0.833057 -0.489601 0.091998 0.703928 -0.747247 -0.527316 -0.281860 -0.013699 -0.374130 -0.427828 -0.105646 -0.210973 0.134058 -0.265554 -0.074258 -0.262710 0.073449 -0.232094 -0.613159 0.572627 -0.247073 -0.530995 0.345840 -0.229628 -0.168856
who -0.709648 -0.065428 -0.419224 0.233000 -0.662948 -0.314356 -0.481735 0.251084 0.398870 0.343302 0.267552 -0.744461 -1.144326 0.116174 -0.939744 -0.413790 -0.734031 -0.146065 0.238867 -0.857344 -0.185493 -0.324633 0.097858 0.024895 -0.156926 0.402232 0.035024 -0.232056 0.740221 -0.741067 -0.422494 -0.262250 0.072979 -0.782396 -0.867841 -0.563476 -0.320629 0.358407 -0.801090 -0.110108 -0.654354 -0.480039 -0.456939 -0.247748 0.383694 -0.213939 -0.626593 0.267591 -0.290092 0.245442
lived -0.680710 0.159287 -0.344354 0.035998 -0.114081 0.218652 0.169907 -0.131948 0.419541 0.562204 -0.195945 -0.639501 -1.404654 -0.022658 -0.835523 -0.379875 -0.097447 0.094580 0.227505 0.117435 -0.184911 -0.189711 -0.330311 -0.113129 0.194587 -0.105362 -0.351526 -0.355350 0.130094 -0.482760 -0.569154 -0.657331 0.314639 -0.941857 -0.052065 -0.280008 0.010199 0.328046 -0.396650 -0.121963 -0.261297 0.513940 -0.295583 -0.262330 0.339041 -0.552124 0.161879 -0.248431 -0.348958 -0.074509
mr -0.733380 0.098226 -0.607394 -0.005831 0.316543 -0.138071 0.046064 0.187249 0.465493 0.421583 -0.288786 -0.290068 -1.393626 -0.041502 -1.005875 -0.937263 -0.302246 0.436006 0.185102 -0.075249 -0.073455 -0.785331 -0.680800 -0.369865 0.045876 0.369010 -0.522543 -0.616874 -0.156132 -0.699345 -0.416202 0.205822 -0.464573 -0.939024 -0.496324 -0.534685 -0.493002 1.054069 -1.214746 0.045191 -0.590076 0.125714 -0.415494 -0.323024 0.682747 0.113114 -0.167053 0.227930 -0.240783 -0.020554
mrs -1.132999 0.394831 -0.595882 -0.240333 -0.343931 -0.707653 0.037621 0.242172 0.050913 0.452195 0.418030 -0.402930 -1.383839 -0.236793 -0.827585 -0.570963 -0.363581 0.818383 -0.069849 -0.530109 -0.359778 -0.259801 -0.762959 0.012535 -0.208039 0.099451 -0.171120 0.096909 0.450364 -0.535603 -0.511503 -0.024895 -0.495812 -0.253049 -0.527530 -0.345150 -0.500205 1.049746 -0.577521 0.012371 -0.398397 0.282185 -0.278084 -0.598020 0.480613 -0.064374 0.283786 0.206625 -0.605495 0.119169
dursley -0.723208 0.157532 -0.472425 -0.016326 -0.323423 -0.221816 0.257267 0.478956 0.392026 0.299703 -0.343380 -0.257275 -1.419186 0.156911 -1.345466 -0.623378 -0.640892 0.265406 0.190420 -0.844890 -0.171258 -0.158214 -0.352680 -0.277202 -0.243593 0.074866 -0.357724 -0.526801 0.182564 -0.402124 -0.355362 -0.167301 -0.225891 -0.513478 -0.086724 -0.516424 -0.320208 1.112293 -0.726812 -0.495428 -1.104679 0.697617 -0.252408 -0.285821 0.125081 -0.314445 -0.409499 -0.113788 -0.300873 0.564804
of 0.216346 -0.012234 -0.458942 -0.420830 -0.284645 0.703360 -0.286153 -0.033150 -0.426137 0.703289 -0.386305 -0.447013 -1.102298 0.116462 0.301459 -0.013192 -0.438181 -0.135090 -0.186256 0.236274 0.638926 -0.126733 -0.571957 -0.198458 -0.720105 0.977004 -0.420237 0.465550 0.496993 0.223345 -1.409998 -0.401133 0.232016 -0.973879 -0.547471 -0.644964 -0.183686 0.312851 -0.464371 -0.518517 -0.336322 -0.124637 -1.018290 -0.625618 0.300631 -0.486062 0.190131 -0.583622 -0.236013 0.221472
number -0.579207 0.618064 -0.296262 -0.348761 -0.048640 0.172093 -0.504234 -0.453539 -0.339407 -0.040631 -0.226831 -0.580277 -1.287140 -0.078748 -0.374983 -0.531283 -0.367934 0.004474 -0.300780 -0.107849 0.518181 -0.300203 -0.064552 0.303991 -0.450224 0.342293 0.082877 0.062807 0.595169 -0.137228 -0.619054 -0.734730 0.074980 -0.416131 -0.034475 -0.907057 -0.145239 0.318408 -0.435171 0.002130 -0.296327 -0.051976 -0.868619 -0.978190 0.301901 0.224778 -0.053344 0.134063 0.036073 0.100751
four -0.708469 -0.066663 -0.097625 -0.525229 -0.417528 -0.118919 0.026695 -0.396832 0.348086 0.208000 -0.002718 -1.140270 -1.146574 0.272147 -0.511642 -0.142759 -0.562125 0.169116 -0.009239 -0.296171 -0.007368 -0.331504 -0.947786 -0.310565 -0.191379 0.515389 -0.224843 0.015767 0.657129 -0.289377 -0.289512 -0.156616 0.149552 -0.970697 -0.334598 -0.264538 -0.147402 0.526895 -0.603363 0.382186 -0.364954 -0.018638 -0.394363 -0.927967 -0.160164 -0.320997 0.422619 -0.263861 -0.367223 0.388261
privet -0.829736 -0.255809 -0.919524 0.228490 -0.262039 0.020721 0.476697 -0.287177 0.229955 0.749068 -0.214806 -0.912738 -1.325192 -0.329573 -0.582531 -0.579341 -0.425618 -0.280703 -0.278121 -0.185762 0.033727 -0.481773 0.195472 -0.304083 -0.530389 0.714344 -0.191165 0.034267 0.438519 -0.508420 -0.354031 -0.649101 -0.049998 -0.500404 0.272147 -0.112429 -0.676400 0.192573 -0.722841 -0.216094 -0.527303 0.519981 -0.332030 -0.595239 -0.194620 -0.285030 -0.079906 -0.018595 0.022932 0.427446
drive -0.412606 0.497879 -0.149326 -0.225199 -0.518578 -0.114654 -0.076647 -0.318339 0.183236 0.294246 0.379308 -1.118138 -0.757528 -0.678405 -0.495355 0.056291 -0.403993 0.322298 -0.618314 -0.215382 0.290024 -0.660640 0.313239 0.012703 -0.401414 0.397480 -0.656704 -0.404777 0.794051 -0.608027 -0.827812 -0.430146 0.145470 -0.755170 -0.408984 -0.900169 -0.310554 0.393128 -0.759016 -0.079082 -0.705787 0.428734 -0.845516 -0.571434 -0.181684 0.124943 -0.303753 0.101406 -0.065217 0.519713
were -0.405796 -0.048830 -1.283094 -0.411335 0.219249 0.135956 -0.153527 0.054992 0.312653 0.337908 0.021421 -1.266599 -1.034596 0.394696 -0.565248 -0.679657 -0.419378 0.430416 -0.501002 -0.066889 -0.067537 -0.166486 -0.267360 -0.145359 -0.416237 0.279847 -0.892224 -0.651277 0.601448 -0.459460 -0.436864 0.182356 0.073563 -0.859145 -0.797554 -1.105516 -0.330135 0.338514 -0.461509 -0.115208 -0.119585 0.951369 -0.062226 -0.551807 -0.393075 -0.225594 0.130202 -0.228385 -0.187028 0.127055
proud -0.075162 0.322021 -0.506434 0.273453 0.068695 -0.477288 -0.085392 -0.286879 0.301175 0.536234 0.363322 -0.346486 -1.198859 0.181124 -0.005363 0.252658 -0.571206 0.408950 -0.378709 -0.011056 -0.349282 -0.029575 -0.093151 -0.199087 -0.435444 0.122411 -0.093963 -0.333657 0.621519 -0.725281 -0.464841 -0.410117 0.477391 -0.588784 -0.556722 -0.625160 -0.260553 0.011525 -0.428988 -0.268163 0.169125 0.068271 -0.662078 -0.482204 0.258074 -0.495421 -0.388183 -0.373671 0.253155 0.064998
to -0.927577 0.433927 -1.141736 -0.359855 0.168142 -0.040573 -0.861681 0.423178 -0.429081 0.356783 -0.129778 -0.158912 -0.781928 0.140617 -0.829944 -0.347376 -0.594729 0.177341 0.704367 -0.837933 -0.632015 -0.602475 0.145290 -0.728745 -0.029535 0.639761 -0.131544 -0.137667 0.384533 -0.657231 -0.140976 -0.694947 -0.139058 -0.788179 -0.341153 -0.239242 -0.272257 0.370634 -0.736219 -0.446644 0.287452 0.906712 -1.005324 -1.148867 0.232273 -0.756523 -0.433862 -0.090191 -0.000549 -0.068889
say -0.420749 0.142283 -0.451747 -0.149323 -0.119373 -0.817864 -0.136080 0.274107 -0.378521 0.507941 -0.091491 -0.886698 -0.589282 0.503589 -1.276087 -0.501767 -0.911837 0.146334 0.192932 -0.153126 -0.046828 -0.605618 -0.614402 0.397730 -0.330507 0.427143 -0.489584 -0.315983 0.479060 -0.998805 -0.530827 -0.763209 0.052386 -0.959919 -1.010314 -0.418192 -0.442597 -0.111760 -1.030849 -0.116846 -0.110834 0.665599 -0.986628 -0.453347 0.366210 -0.455040 -0.219600 -0.321291 0.163538 0.385255
that -0.669177 0.022449 -0.012940 -0.107308 -0.145239 -0.552579 -0.353010 0.253749 0.051639 0.334822 -0.214434 -0.626874 -1.073554 0.221208 -0.909387 -0.621490 -0.344957 0.199838 -0.078918 -0.098020 -0.149974 -0.220108 -0.020726 0.517922 -0.745551 0.274947 -0.126784 -0.045421 0.417878 -0.571378 -1.142983 -0.937419 0.238183 -1.096442 -0.609585 -0.468520 -0.243644 -0.048708 -0.573125 -0.348817 -0.259779 -0.044827 -0.806038 -0.407100 0.318452 -0.156002 0.150977 0.052219 0.141328 0.085717
they -0.679685 -0.547632 -1.381153 -0.254333 0.365286 -0.476391 -0.008896 -0.091505 0.589584 0.327463 -0.251790 -0.638483 -1.206692 0.317584 -0.005410 -0.268441 -0.616113 0.339326 0.033593 -0.606130 -0.254544 -0.034291 -0.029852 0.228798 -0.502515 -0.163970 -0.215992 -0.228775 0.481216 -0.699784 -0.886941 -1.106210 0.007503 -0.434944 -0.795474 -0.434152 -0.286351 0.677363 -1.289760 -0.210664 -0.282453 0.919800 -0.875431 -0.434319 -0.226168 0.035835 -0.179941 -0.004743 -0.768466 0.493240
perfectly -0.247892 0.512214 0.128699 -0.016748 -0.116947 0.044934 -0.259441 -0.201009 -0.170870 0.587803 -0.208426 -0.477545 -0.746309 -0.247857 0.128359 -0.440508 -0.546531 0.069650 -0.552941 0.036814 0.331122 0.131541 0.018373 0.411470 -0.377578 0.533607 -0.453596 -0.242479 0.607696 -0.216543 -0.616509 -0.156987 -0.004260 -0.512200 -0.230240 -0.666769 -0.541564 -0.065734 -0.460003 -0.455098 -0.531541 0.499570 -0.518255 -0.697517 0.154714 0.054467 0.138122 -0.013425 -0.465874 -0.003806
normal -0.998147 -0.102163 -0.212468 -0.348244 0.012920 -0.084519 -0.469274 0.433723 0.056960 0.973826 -0.264169 -0.470027 -0.796700 -0.239020 -0.240168 -0.150726 -0.681331 -0.127132 -0.285661 0.157589 0.248436 0.013758 -0.426991 -0.086956 -0.098612 0.315862 0.251682 0.141396 0.282214 -0.260050 -0.207981 -0.553213 0.372867 -0.853090 -0.148276 -0.407689 -0.216036 0.433947 -0.868912 -0.521000 -0.288928 0.348137 -0.606640 -0.328806 0.128742 -0.022754 0.002786 0.198779 -0.460823 0.025014
thank -0.374194 0.480601 -0.002169 0.027151 -0.368367 -0.343964 -0.157615 0.172868 0.088541 0.067719 -0.233062 -0.103843 -0.707312 0.315016 -0.360751 -0.919335 -0.276217 0.218712 -0.264950 0.067163 0.640280 -0.374708 0.242628 -0.286236 -0.392781 0.798743 -0.201965 -0.208716 0.114207 -0.091050 -0.438186 0.239145 0.225255 -0.526646 -0.321929 -0.438338 -0.487184 0.302563 -0.532027 -0.117742 -0.068477 0.498873 -0.782291 -0.725018 0.434436 0.167826 -0.400066 -0.273562 0.239390 -0.015111
you -0.192960 -0.335707 -0.479516 0.383344 0.248438 0.019813 -0.253569 0.130492 0.072080 0.712735 0.064260 -0.264940 -1.337024 0.040703 -1.165997 -0.282493 -0.461869 -0.019729 0.154490 -0.863023 0.112963 0.027862 0.054581 0.343301 -0.705498 0.608952 -0.411892 -0.584353 0.399984 -0.610447 -0.383086 -0.778018 -0.236928 -0.941356 -0.693399 -0.370165 -0.936686 -0.290213 -1.323624 0.173713 -0.266903 0.519536 -1.333150 -0.436634 0.062707 -0.546831 -0.133328 -0.222865 0.077710 -0.139397
very -0.597018 0.508659 -0.298627 -0.702957 -0.586346 -0.281995 -0.828547 0.069835 0.250768 0.184761 0.298906 -0.350308 -1.219057 -0.013988 -0.817235 -0.704709 -0.021042 0.109734 -0.545135 -0.393237 0.197254 -0.174047 -0.187884 0.072503 -0.388895 0.153667 -0.234420 0.159349 0.769318 -0.707738 -0.873845 -0.547837 0.736197 -0.586658 -0.183233 -0.498700 -0.786038 0.302684 -0.705142 -0.576792 -0.173534 0.506501 0.018507 -0.161845 0.233390 -0.690184 -0.178662 -0.033902 -0.059580 0.005903
much -1.139020 0.124537 -0.746186 0.011144 -0.186342 -0.631816 -0.378811 0.187982 0.479609 0.847903 -0.081010 -0.971283 -0.927989 0.029389 -0.295337 -0.446426 -0.036543 -0.378452 0.115395 -0.760713 0.043494 -0.548244 -0.213592 0.018577 -0.466506 0.232239 -0.322456 -0.382113 1.251497 -1.019156 -0.634003 -0.515936 0.026771 -0.489266 -0.293822 -0.782740 -0.564007 0.286159 -1.261408 -0.601858 -0.311586 0.263919 -0.467843 -0.676137 -0.308113 -0.463726 -0.199058 -0.423926 0.141980 0.106178
last -0.725223 0.013854 -0.680031 -0.809039 -0.420668 0.005965 -1.075064 -0.103532 0.374032 0.016008 0.074408 -0.529963 -1.807931 -0.367156 -0.866893 -0.403819 -0.675181 -0.111181 -0.583316 -0.577292 0.513108 -0.222326 -0.146709 -0.158742 0.122141 0.643159 -0.362644 -0.100560 0.260704 -0.206655 -0.439867 -0.258101 0.723103 -0.832853 -0.275833 -0.927574 -0.141873 0.081746 -0.948502 -0.608979 0.142638 0.138492 0.169753 -0.978863 0.203016 0.044127 -0.194929 0.058488 -0.244836 0.016288
people -0.638929 -0.558319 -0.493240 -0.271751 -0.457739 0.111790 -0.260040 -0.187046 -0.139947 0.899088 0.037169 -0.499421 -1.343746 0.088745 -0.791452 -0.004924 -0.694086 0.138970 -0.283834 -0.276761 -0.429049 -0.051621 -0.484214 0.039273 -0.491516 0.757005 -0.332666 -0.235023 0.401386 -0.817887 -0.814740 -0.620134 0.292711 -0.588468 -0.185094 -0.236258 -0.521179 0.149066 -0.746472 0.321342 -0.117118 0.508441 -0.380918 -0.296048 -0.168769 -0.017199 -0.140470 -0.390446 -0.221264 -0.085334
youd -0.182541 0.036748 -0.102325 -0.635408 -0.496562 -0.466196 -0.179507 0.193066 0.086132 0.789581 -0.397399 -0.146871 -1.201604 -0.023733 -1.002719 -0.265635 -0.250700 -0.272580 0.587101 -0.402412 0.242420 -0.321829 0.172929 0.083607 -0.060310 0.395281 -0.350943 -0.071139 0.690910 -0.665436 -0.766360 -0.371973 0.012263 -0.712607 -0.217426 -0.644832 -0.034208 0.069985 -0.633022 -0.025310 -0.643044 0.371672 -1.328468 -0.447569 0.004794 -0.618015 -0.513715 -0.047479 0.119123 -0.011123
expect -0.176364 -0.037305 -0.408501 -0.134195 -0.139124 -0.176117 0.050630 0.581818 -0.060477 0.428131 -0.015807 0.024570 -0.674970 0.288549 -0.318762 -0.635006 -0.259829 0.041398 -0.300869 -0.326170 0.135539 -0.194621 -0.477490 0.200516 -0.319026 0.507452 -0.470027 -0.675220 0.283037 -0.604466 -0.544160 -0.453420 0.361225 -1.192401 -0.521954 -0.393484 -0.335400 0.201280 -1.156105 -0.195644 -0.062058 0.159414 -0.864170 -0.774481 -0.090084 -0.228160 -0.546309 -0.129177 0.255074 0.443187
be -0.280684 -0.109852 -0.154612 0.157097 -0.439509 0.022865 -0.004906 -0.306890 0.486848 0.908916 0.612143 -0.178005 -0.991627 0.124408 -1.035618 -0.942711 -1.465715 0.522897 0.172792 -0.108346 -0.421713 0.089829 -0.026525 -0.488189 -0.804769 0.283485 -0.853449 -0.542635 0.023865 -0.903161 -0.515402 -0.101868 -0.252255 -1.040291 0.064982 -0.641071 -0.772845 0.011604 -0.578137 -0.077469 0.051099 1.319888 -1.230585 -0.833283 -0.249235 -0.349534 -0.315651 -0.074113 0.220270 0.344392
involved -0.627923 0.296296 -0.455335 -0.438219 -0.238427 0.053595 -0.587801 -0.058273 0.329856 -0.127896 0.104661 -0.866720 -0.711763 0.339998 -0.161688 -0.394752 -0.327158 0.011809 0.025812 -0.382741 0.377003 0.357605 0.050879 -0.063915 -0.031993 0.451789 -0.060702 -0.296518 0.092936 -0.736039 -0.354728 -0.601701 0.186706 -0.567596 -0.576592 -0.580101 -0.078351 0.342563 -0.139624 0.224905 -0.020183 0.347463 -0.470079 -0.588623 0.270069 -0.654058 0.300999 -0.349921 -0.366086 0.411769
in -0.188996 0.096965 -0.709534 -0.496944 -0.516284 0.127666 -0.680769 0.238713 -0.336891 0.906397 0.202038 -0.223997 -1.398848 0.279169 -0.661847 -0.658440 -0.549746 0.081726 -0.245005 -0.020363 0.164163 -0.179193 -0.547970 -0.272833 -0.571685 0.609304 -0.543428 0.134587 0.294163 -0.048847 -0.987996 -0.367592 -0.111844 -0.584142 -0.195785 0.290131 -0.033504 0.433909 -0.205577 0.019828 -0.233468 -0.029309 -0.150878 -0.755099 -0.168349 -0.342046 -0.414028 -0.352324 -0.575962 0.551204
anything -0.850638 -0.029391 -0.657105 -0.227494 -0.416037 -0.026664 -0.428142 -0.323286 0.293542 1.112908 -0.105271 -0.347084 -1.269527 -0.290677 -1.033811 -0.387945 -0.898098 0.006419 0.393257 -0.592921 -0.056428 -0.162709 0.204766 0.215832 -0.475369 0.431592 -0.141804 -0.839187 0.457838 -1.310505 -0.411277 -0.599657 0.158008 -0.939403 -0.253647 -0.923475 -0.258108 -0.234455 -1.113809 -0.204689 -0.144172 0.228789 -0.842560 -0.604853 -0.264819 -0.277744 -0.535728 -0.599144 0.471766 0.213487
strange -0.707347 -0.000301 -0.272412 -0.504342 0.161684 -0.242794 -0.255868 0.244142 -0.084078 0.220174 0.231678 -0.686182 -1.327212 -0.051933 -0.091388 -0.108561 -0.613127 0.268247 -0.427109 -0.270551 0.643849 0.196608 -0.451061 0.038460 -0.685949 0.677512 0.349530 -0.042888 0.679085 -0.079791 -0.849863 -0.121529 -0.196947 -0.561800 0.054585 -0.232587 -0.649015 -0.034285 -0.731840 0.150992 -0.270578 0.114106 -0.732788 -0.660397 -0.161768 -0.617244 0.102920 -0.025310 0.290494 0.069154
or -0.518807 -0.325075 -0.561671 -0.135898 -0.170737 -0.126547 -0.541525 0.254773 0.314807 0.630188 0.358080 -0.438654 -0.979163 -0.163008 -0.402052 -0.743762 -0.627355 0.210798 0.175941 -0.170506 0.112041 -0.054145 -0.287607 0.255546 -0.247525 0.360483 -0.268132 -0.152234 0.786156 -0.361755 -0.739655 -0.333155 0.055727 -0.743931 -0.423211 -0.372426 -0.212603 -0.003722 -0.787738 0.346373 -0.359234 0.101095 -0.438083 -0.398465 -0.116632 -0.540085 0.538677 -0.419879 -0.409035 0.157392
mysterious -0.344526 -0.241570 -0.271511 -0.501578 0.278437 0.203075 -0.284317 0.370700 0.028109 0.184550 0.281533 -0.352619 -0.944866 0.329046 -0.648787 0.170641 -0.050155 0.389631 -0.065162 -0.428209 -0.146901 0.012292 0.063808 0.170802 -0.106698 0.220706 -0.409876 -0.314789 0.240212 -0.337717 -0.570471 0.017399 0.049615 -0.999455 0.200784 -0.555558 0.103909 0.415292 -0.931115 -0.116325 -0.378469 0.453220 -0.749556 -0.033670 0.115950 -0.655707 -0.398306 -0.014324 -0.485174 0.119269
because -0.442352 -0.089510 -0.412374 -0.128463 -0.707290 -0.041384 -0.418877 0.360583 0.248753 0.161823 -0.264442 -0.926669 -1.076622 0.033100 -0.565724 -0.566294 -0.593044 -0.025857 -0.230065 0.152521 0.130619 -0.147121 -0.099952 0.148575 -0.074153 0.401918 -0.147201 -0.376339 0.910360 -0.862858 -0.550010 -0.523062 -0.048981 -0.891702 -0.496214 -0.956387 -0.306036 -0.066541 -0.783385 -0.005089 -0.339545 0.492150 0.081640 -0.736746 0.062848 -0.308491 -0.789709 -0.171274 -0.173937 0.089641
just -0.536468 -0.368382 -0.444339 -0.339989 -0.402581 -0.527448 -0.387432 0.500588 0.438285 0.557555 0.055517 -0.613552 -1.175203 -0.100036 -0.715831 -0.434930 -0.367052 0.280799 -0.062215 -0.318391 -0.040634 -0.394060 -0.360339 0.001304 -0.003650 0.360553 -0.268767 -0.010389 0.433570 -0.554338 -0.642241 -0.532780 -0.288339 -0.914273 -0.428481 -0.064309 -0.499490 -0.327826 -0.911261 -0.354966 -0.192172 0.198036 -0.834052 -0.584780 -0.052105 -0.447231 -0.455354 0.148694 0.008168 0.679136
didnt -0.932013 0.003900 -0.186067 -0.001625 -0.160816 -0.640956 -0.635088 0.113970 0.629635 0.437078 0.107749 -0.556949 -1.126508 0.392036 -0.464047 -0.422445 -0.601091 -0.575965 -0.218428 -0.648852 -0.294650 -0.651274 0.407242 0.448820 0.013454 0.795953 -0.018617 -0.092415 0.427988 -0.842227 -0.807644 -0.416075 -0.153118 -0.830796 -0.869708 -0.443675 -0.996715 0.100047 -1.107335 0.105578 -0.139754 0.537111 -0.968409 -1.095995 -0.137255 -0.588608 0.063228 -0.939732 -0.307297 0.205744
hold -0.501681 0.617462 -0.213643 -0.010325 -0.148144 -0.221030 -0.564492 -0.089784 -0.086455 0.454464 0.223550 -0.603644 -0.672946 0.008187 -0.660326 -0.112214 -0.535889 -0.074486 -0.160499 -0.380924 0.382987 -0.384659 -0.198030 0.072003 0.194694 0.515870 -0.507836 -0.487656 0.592667 -0.303073 -0.511305 -0.417065 0.487949 -0.375896 -0.179997 -0.496800 -0.118631 -0.001744 -0.435531 0.094590 -0.260905 0.423457 -0.603702 -0.370186 -0.091680 -0.473372 -0.440573 0.186116 0.118659 0.221792
with -0.390132 0.463273 -0.645715 -0.217470 -0.374519 0.324957 -0.651863 0.430380 -0.551712 0.693233 0.148041 -0.474893 -0.886650 0.324252 -0.257043 -0.397914 -0.330287 0.076096 -0.253595 0.043688 0.206003 -0.225942 -0.204106 -0.049291 -0.512016 0.406257 -0.400430 -0.259241 0.615263 0.039581 -0.696107 -0.502531 -0.088034 -0.886999 -0.451728 -0.356767 -0.334028 0.169575 -0.326533 -0.156116 -0.637461 -0.010504 -0.109060 -0.880982 0.398215 -0.108955 -0.029615 -0.324509 -0.057747 0.007257
such -0.890110 -0.223663 -0.375939 0.087993 -0.479352 0.169496 -0.110344 0.269733 -0.120735 0.323809 0.385474 -0.317578 -1.211572 0.229357 -0.484024 -0.319523 -0.114678 -0.083814 0.404953 -0.377758 0.528139 -0.250247 -0.473187 -0.217771 0.088974 0.398923 -0.533566 -0.502720 0.583289 -0.067566 -0.677909 -0.125915 -0.011572 -0.593003 -0.207297 -0.735108 -0.684543 -0.015497 -0.567565 -0.184136 -0.172374 0.520377 -0.680175 -0.407566 0.247648 -0.379123 -0.247322 -0.389187 -0.288238 0.307225
nonsense -0.315911 0.148041 0.172805 -0.151633 -0.535065 0.025413 0.048888 0.333003 0.037448 -0.153920 0.284701 -0.458912 -0.758327 -0.132216 -0.047764 0.091418 -0.565656 0.380687 0.108306 -0.499016 -0.022507 0.018405 -0.066134 -0.219650 0.110110 0.321092 0.255049 0.079814 0.182720 -0.000104 -0.473127 0.082954 0.017043 -0.531383 0.216458 -0.280022 -0.588211 0.109085 -0.575431 -0.076249 -0.082286 0.505305 -0.391364 -0.243010 0.564162 -0.461070 -0.134457 -0.193031 0.311846 0.258915
was -0.728630 0.322547 -0.398961 -0.598059 -0.496026 -0.313375 -0.357599 -0.156228 0.248646 0.054560 -0.047605 -1.146536 -1.496497 0.286627 -1.001516 -0.761485 -0.520835 0.754197 -0.662232 0.113062 0.561755 -0.610919 0.061648 0.118068 -0.409005 0.126012 -0.276891 0.467313 0.839163 -0.056669 -0.743186 -0.119937 0.063469 -0.887714 -0.384023 0.046052 -0.305657 -0.030030 -0.570613 -0.579726 -0.373362 0.550656 -0.201400 -0.524577 -0.102842 -0.487722 -0.090306 -0.428452 0.363791 -0.342125
director -0.650580 0.511262 -0.010506 0.011573 -0.007300 0.414836 -0.086394 0.454921 -0.324116 -0.033632 -0.176467 -0.369107 -0.284031 0.011843 0.138482 -0.036011 0.156047 -0.186763 -0.293021 0.087049 0.196814 -0.196166 0.210624 -0.078814 -0.199550 0.684844 0.470392 -0.060678 0.806480 -0.540430 -0.344611 -0.282628 -0.056601 -0.606479 -0.427694 -0.273719 0.117227 -0.209708 -0.328665 0.212716 -0.244701 0.386566 -0.559569 -0.636558 -0.194503 -0.050499 -0.037457 0.360498 -0.313575 0.316267
a -0.844883 0.338592 -0.448106 -0.104544 -0.871561 -0.067555 -0.633496 0.515023 -0.130009 0.543689 0.130483 -0.497397 -0.732975 0.200730 -0.399215 0.018027 -0.062094 0.192524 0.060119 -0.131533 0.918367 -0.703381 -0.439171 0.274567 -0.826816 0.456963 -0.705087 0.179263 0.423086 -0.060573 -0.917337 -0.656762 0.336554 -0.498327 0.249484 -0.521633 -0.483399 0.346400 -0.836482 -0.104765 -0.396604 0.086966 -0.384302 -0.565621 -0.348662 -0.606377 0.301874 0.146482 -0.229654 -0.213796
firm -0.368637 -0.106552 0.294934 -0.302991 -0.160600 -0.339304 0.150891 -0.327507 -0.161022 -0.099385 -0.198660 -0.510037 -0.053573 0.470009 -0.343067 -0.206579 -0.656043 0.322761 0.306230 -0.224218 0.346773 -0.074002 0.358632 0.528146 -0.025399 0.564810 0.385625 0.431841 0.654567 0.013731 -0.477183 -0.112272 0.404772 -0.585810 -0.142674 -0.205552 0.096209 0.040339 -0.083208 0.084430 0.194944 0.119172 -0.257654 -0.653933 -0.105175 0.109181 0.241578 0.192566 -0.066838 0.395805
called -0.552530 0.303884 -0.590216 -0.269267 -0.259965 -0.036536 -0.273893 0.259897 0.080914 0.192493 -0.220887 -0.698854 -0.960254 0.489261 -0.776859 -0.261875 -0.658745 -0.055201 -0.228502 -0.448466 0.136906 -0.390387 -0.509330 0.213816 -0.467253 0.557144 0.397553 -0.385780 0.350231 -0.305306 -0.556166 -0.238371 0.010588 -0.699758 -0.327074 -0.272834 -0.384646 0.293879 -0.853990 -0.238524 -0.160076 0.140080 -0.331013 -0.443786 0.233214 -0.581897 -0.228476 -0.008901 -0.636305 0.036238
grunnings -0.147715 0.017402 -0.705505 -0.404018 -0.312458 0.150133 0.066389 -0.118043 -0.178086 0.551893 0.178349 -0.796166 -0.620358 -0.429340 -0.537483 -0.412827 0.165151 -0.022290 -0.261988 0.235979 0.247483 -0.295299 -0.011456 0.343755 -0.498767 0.621143 -0.403921 0.078295 0.379940 -0.661775 -0.627761 -0.520011 0.525480 0.102836 0.302301 -0.189139 -0.600752 0.396034 -0.218564 -0.281421 0.363848 0.512619 -0.568590 -0.300461 -0.067214 -0.397517 0.113676 0.255779 -0.573473 -0.348969
which -0.570709 0.122682 -0.124337 -0.509458 -0.364999 0.034424 0.076709 0.700031 -0.265511 0.192182 -0.257558 -0.484393 -1.037120 0.202902 -0.524416 -0.497934 -0.391522 0.061086 -0.230842 0.050442 -0.041602 0.094440 -0.127898 -0.160174 -0.648246 0.350366 -0.317508 0.241610 0.700015 -0.574065 -0.447112 -0.901399 0.210075 -0.748586 0.006602 -0.270661 -0.135765 0.446592 -0.624679 -0.464816 -0.181748 0.001508 -0.891071 -0.519118 -0.042364 -0.490236 -0.451964 -0.056096 -0.280052 0.429331
made -0.322955 0.303872 -0.388874 -0.376690 -0.575743 0.109586 -0.748684 -0.006584 -0.305409 0.493256 -0.293956 -0.470193 -1.056456 0.227242 -0.790647 -0.406669 -0.802981 0.054333 -0.167354 -0.224729 -0.080036 -0.571188 -0.442760 0.061965 0.049284 -0.111160 0.005869 0.071065 1.063154 -0.163786 -0.654101 -0.384322 0.256515 -0.990895 0.034520 -0.378565 -0.461331 -0.158536 -1.012109 -0.166046 -0.431668 0.686345 -0.315910 -0.438603 0.212375 -0.553663 0.157121 -0.427711 -0.454242 0.060482
drills -0.275449 0.557878 -0.206901 0.204595 -0.631353 -0.056042 -0.232526 -0.075403 0.411479 0.094603 0.099270 -0.221990 -1.014649 -0.006566 -0.452940 -0.223585 0.088745 -0.081386 -0.404746 -0.514312 0.258415 -0.433959 -0.234930 0.194454 -0.125430 0.788556 -0.604976 -0.487973 0.652850 -0.615448 -0.007025 -0.525937 0.122104 -0.807029 0.137347 0.081144 0.220803 0.255478 -0.590664 -0.641328 -0.398162 0.215619 -0.741876 -0.347571 0.060481 -0.086320 -0.106690 0.234422 0.022601 -0.166300
he -0.774957 -0.220857 -0.538349 0.008545 -0.386302 -0.457347 -0.268729 0.052740 0.462182 0.316738 -0.721693 -0.390773 -1.290440 0.371872 -0.438147 -0.528411 -0.298464 0.390784 0.090694 -0.192732 0.166852 -0.242136 0.162894 0.201377 -0.224697 0.140877 -0.166038 -0.138989 0.543727 -0.681099 -0.899861 -0.814514 -0.167727 -0.818465 -0.149737 -0.199828 -0.326858 0.265917 -0.891727 -0.582747 -0.114886 0.377741 -0.804565 -0.362419 0.083029 -0.057900 -0.845004 -0.056604 -0.380334 0.216084
big -0.321015 0.277306 -0.037419 -0.093742 -0.342671 -0.119645 0.100190 -0.048958 -0.167913 0.337101 0.308017 -0.766355 -1.174167 -0.218329 -0.690427 -0.489748 -0.444844 0.261148 -0.291337 0.131216 -0.175093 -0.102753 -0.188385 -0.096118 -0.080229 0.152775 -0.365785 0.087475 0.896017 -0.288308 -0.541185 -0.938433 0.155558 -0.461160 0.151732 -0.177406 -0.381123 0.367738 -0.826806 -0.305672 -0.267483 0.495272 -0.838824 -0.420665 0.252809 -0.455803 -0.510077 0.118453 -0.266633 0.103198
beefy 0.071585 0.260893 -0.023693 0.368750 0.435877 -0.146349 0.215772 0.131535 0.374706 0.476251 0.345958 0.289923 -0.442074 0.074812 -0.354363 0.181352 -0.161851 -0.346025 0.316794 -0.286732 0.479112 0.099356 0.033982 -0.076779 0.428983 0.142138 0.289527 0.154355 0.559677 0.081382 -0.486600 -0.540708 0.260724 0.376158 -0.005541 -0.645158 -0.531526 0.140978 0.156259 0.321308 -0.307398 0.532638 -0.071948 -0.304987 -0.020917 -0.533101 -0.205523 0.234469 -0.466076 -0.181369
man -0.900870 0.198768 -0.697049 -0.411557 -0.436331 0.165395 -0.153760 -0.148986 -0.364964 0.579689 0.181091 -0.697830 -1.293157 0.071748 -0.662786 -0.883916 -0.362749 0.103485 -0.120414 -0.380957 0.373243 -0.157379 0.148019 0.037015 -0.036056 0.180263 -0.215848 0.078260 0.788628 -0.204530 -0.881639 -0.256014 0.046243 -0.571951 -0.361638 -0.752170 -0.657133 0.384566 -0.543195 -0.494173 -0.466739 0.131630 -0.283006 -0.392638 0.351226 -0.403544 0.015003 -0.113642 -0.574331 -0.172510
hardly -0.788315 0.173432 -0.049597 -0.546433 -0.574328 -0.609921 0.033065 -0.072679 0.526505 0.556522 -0.200492 -0.588105 -0.696406 -0.220024 -0.083414 -0.111816 -1.169329 0.360504 -0.356915 -0.327587 0.355784 -0.512278 -0.141423 -0.059942 -0.424140 0.497166 -0.114931 -0.319564 0.435438 -0.700875 -0.825162 -0.320074 -0.071374 -0.696229 -0.216997 -0.152668 -0.438981 0.413692 -0.813572 -0.216716 -0.214643 0.275779 -0.686952 -0.310486 0.443717 -0.695553 -0.271664 0.110264 0.352482 0.205756
any -0.786149 -0.089042 -0.957488 0.122775 -0.393709 -0.104487 -0.294353 0.067885 0.091517 0.596808 0.162877 -0.596632 -1.335404 0.144787 -0.271998 -0.043547 -0.065426 0.054180 0.407091 -0.728276 -0.138003 -0.328540 -0.050555 0.023974 -0.337105 0.073327 -0.640019 -0.702399 0.116924 -0.613130 -0.958702 -0.730944 0.240754 -0.921468 -0.356452 -0.809064 -0.507688 0.036998 -0.636396 -0.065327 -0.230551 -0.279356 -0.647203 -1.090776 0.468007 -0.366703 0.002723 -0.334866 0.513086 0.415689
neck -0.388839 0.361571 -0.425956 -0.132493 -0.334665 0.190675 -0.267651 -0.130339 -0.072147 0.487111 -0.199141 -0.941987 -1.342685 -0.033734 -0.448344 -0.146024 -0.206566 0.053422 -0.554898 -0.235308 -0.337864 -0.272054 -0.767857 0.427709 -0.780910 0.406826 -0.157081 0.413072 0.190915 -0.598147 -0.747144 0.220874 -0.030484 -0.937192 0.017561 -0.551887 -0.908058 0.179389 -0.310919 -0.310281 -0.132611 0.435721 -0.259070 -0.688246 0.605868 -0.063814 -0.478543 0.054400 0.221786 0.369743
although -0.749655 -0.110683 -0.442800 -0.414816 -0.427840 -0.243843 -0.451460 0.419252 -0.182908 0.504905 -0.314059 -0.086480 -1.282863 0.167678 -0.398871 -0.227410 -0.590357 0.092671 0.048692 0.173747 0.309965 -0.316022 0.090940 0.024374 -0.401668 0.357960 -0.017212 -0.479048 0.186942 -0.532383 -0.480765 -0.336411 0.151763 -0.479207 -0.558765 -0.016773 0.160520 0.423748 -0.581480 -0.465815 0.098833 0.093103 -0.259123 -0.301455 0.366296 -0.466504 -0.246936 -0.081189 0.236431 0.568401
did -0.288968 0.347251 -0.760940 -0.466859 0.143208 -0.487044 -0.330683 -0.016643 -0.209813 0.462839 -0.280783 -0.721245 -1.286692 0.237406 -0.787713 -0.642967 -0.308595 -0.276338 -0.418176 -0.175939 0.559246 -0.605739 0.163668 0.350853 -0.585269 0.480582 0.249025 -0.649571 0.402148 -0.466418 -0.495308 -0.427032 0.147829 -0.798659 -0.981699 -0.576134 -0.441789 -0.364282 -1.252061 -0.547492 0.117463 0.455730 -0.787712 -0.502900 0.516628 -0.991158 -0.211585 -0.552743 -0.166491 0.430510
have -0.072467 0.129126 -0.311580 0.212940 -0.222923 0.081016 -0.091160 0.542762 0.579381 0.950868 -0.025041 -0.424692 -1.037390 0.145204 -0.477791 -0.822276 -1.476078 0.004100 0.079529 0.260857 -0.240257 0.165577 -0.380009 0.169467 -0.042387 -0.212564 -0.600618 -0.926123 0.266676 -0.790370 -0.782899 -0.653642 0.565556 -1.049515 -0.090580 -0.402325 -0.787463 -0.279094 -1.436355 -0.323088 -0.015404 0.623779 -0.747425 -0.587881 0.203930 -0.654643 -0.451158 -0.358258 -0.270931 -0.034207
large -0.843120 -0.089227 -0.577834 -0.499099 -0.358478 0.345192 -0.067746 -0.294867 -0.098025 0.551918 0.325173 -0.268591 -1.347054 0.122452 -0.381342 -0.459827 -0.207768 -0.202811 -0.076849 0.472514 0.400047 -0.555111 -0.739651 0.336978 -0.368749 0.265357 -0.711300 0.126135 0.525294 -0.031876 -0.764198 -0.144909 0.131161 -0.366553 0.406004 -0.453867 -0.706637 0.611538 -0.555603 -0.161035 -0.544979 0.508214 -0.248784 -0.792034 0.161789 -0.479523 -0.070041 0.098382 0.043229 0.212706
mustache -0.964799 0.366427 -0.535518 0.048313 -0.297017 0.422506 -0.155306 -0.121853 -0.358203 0.573638 0.143954 -0.677741 -1.135686 0.384570 -0.306070 -0.089868 -0.174627 0.385983 0.093065 -0.618125 -0.301328 0.197190 0.037684 0.139159 0.003129 -0.109727 -0.031920 0.015376 0.657041 -0.059739 -0.750699 -0.057542 0.058123 -1.058856 -0.605244 -0.006646 -0.541193 0.541096 -0.299216 0.126843 -0.065868 0.064054 -0.006912 -0.789707 -0.191650 -0.189615 -0.584731 -0.137701 -0.138828 -0.146742
thin -0.671980 -0.045311 -0.547829 -0.246498 -0.083543 0.427586 -0.443238 -0.095254 0.282683 0.181926 0.521810 -0.316894 -0.759731 -0.165937 -0.145912 -0.700817 -0.730799 -0.247539 -0.406972 0.060299 0.257523 -0.546847 0.016949 0.731597 0.057994 0.667488 -0.271020 -0.235570 0.158677 -0.880829 -0.389114 -0.668065 0.274878 -0.660172 0.294249 -0.083888 -0.147897 0.360985 -0.499415 -0.356703 -0.492521 0.084785 -0.470904 -0.589737 0.724803 -0.031523 -0.487178 -0.023810 -0.081075 0.101751
blonde -0.428647 0.016605 -0.101398 -0.268620 -0.220572 -0.005217 -0.321024 0.246014 -0.281791 0.622045 0.300517 0.196954 -0.806659 -0.363593 -0.090869 -0.020763 -0.308855 0.204611 -0.279179 -0.497932 0.167612 0.071893 0.136721 0.113479 -0.270270 0.009333 0.066987 -0.082872 0.361749 0.051009 -0.141757 0.296900 0.279296 -0.774620 -0.009622 0.188433 0.265535 0.527845 0.197147 0.110113 -0.537324 0.589354 -0.395361 -0.384735 0.579768 0.210788 0.397082 -0.253508 -0.407154 -0.156976
had -0.627622 -0.303232 -0.564815 -0.017259 0.035378 -0.313863 -0.780175 0.650216 0.573045 0.184268 -0.291690 -0.783290 -1.537064 0.312981 -0.302129 -0.513868 -1.208651 0.126863 -0.257506 -0.097509 -0.242263 -0.491277 -0.143760 0.062624 -0.696544 -0.222579 -0.299534 -0.413255 0.543133 -0.244569 -1.145493 0.028652 0.230265 -0.507629 0.310780 -0.372496 -0.356181 -0.145897 -1.092194 -0.245500 -0.131434 0.202058 -0.213131 -0.746943 0.673158 -0.878366 -0.273801 -0.178450 0.090747 0.395965
nearly -0.006869 0.155850 -0.613161 0.090541 -0.108476 0.152053 -0.334070 -0.239742 -0.019502 0.414149 -0.402575 -0.513011 -0.893034 -0.266549 -0.584508 -0.855153 -0.619922 0.526115 -0.290057 -0.865155 0.115290 0.160990 0.008951 0.326433 -0.352340 0.162698 0.133367 -0.004062 0.647398 -0.570265 -0.501547 0.107612 -0.216319 -0.603089 -0.370556 -0.806412 -0.666931 0.604367 -1.190733 -0.223755 -0.507463 0.347454 -0.284084 -0.979496 -0.191253 -0.219066 -0.023305 0.113229 -0.641218 0.338806
twice -0.346286 0.016748 -0.337851 0.081762 -0.065979 -0.147335 -0.051298 -0.166004 0.113477 0.438945 -0.231606 -0.480221 -1.601235 0.382384 -0.568967 -0.655353 -0.274051 -0.163197 -0.166848 -0.130191 -0.405588 0.278080 -0.386332 0.017671 -0.161125 0.161426 -0.515329 -0.264677 0.195869 -0.381314 -0.277454 -0.419000 0.446030 -0.860177 -0.139745 -0.144513 -0.270431 0.218736 -0.891050 -0.382960 -0.437391 0.364250 -0.283659 -0.641833 -0.313516 -0.306925 -0.165985 0.145248 0.112064 0.284563
usual -0.415457 0.421683 -0.213193 -0.519388 -0.741741 -0.109722 -0.746588 0.119948 0.053322 0.104508 -0.248810 -0.521725 -1.876893 0.396573 -0.050592 -0.054284 -0.539098 0.291387 -0.131505 -0.051317 0.283130 -0.136096 -0.348395 0.140106 -0.669177 0.089344 -0.197814 -0.056938 0.653839 -0.655311 -0.228899 0.110623 -0.113888 -0.359628 -0.308894 -0.599672 -0.258811 -0.174888 -0.413487 -0.370985 0.122908 0.308637 -0.450228 -0.329526 0.342573 -0.044067 -0.137791 0.142731 -0.274792 0.425367
amount -0.358303 -0.244977 0.170702 0.380243 -0.047562 0.238824 -0.043312 0.578297 -0.009293 0.254080 0.339963 -0.488560 -0.021525 0.431653 0.108322 0.059896 -0.508875 0.249370 -0.399757 -0.132732 0.501981 0.106037 0.200439 -0.272887 -0.129587 0.394714 -0.414699 0.479237 0.158039 -0.472908 -0.011681 0.257549 -0.031930 0.229743 -0.221073 -0.124347 -0.332914 0.062328 0.415072 0.242529 -0.187298 -0.099355 -0.280770 -0.454867 -0.281253 0.259895 0.343870 0.545574 0.250684 0.059655
came -0.606155 0.166571 -0.906408 0.278542 0.006373 -0.055737 -0.796449 -0.345945 0.348310 -0.068662 -0.156373 -0.715406 -1.113769 0.018851 -0.633416 -0.269514 -0.303412 0.360487 -0.127831 -0.099694 0.058709 -0.427110 -0.728608 0.311692 -0.306543 0.579239 -0.483544 -0.118315 0.514755 -0.127922 -0.429927 -0.222966 -0.261810 -0.263349 -0.079863 -0.176329 -0.426461 0.159120 -0.498696 -0.364984 -0.303248 0.239894 -0.768098 -1.204558 0.433779 -0.316698 -0.078603 0.306830 -0.480543 0.510677
useful -0.310723 0.061444 -0.251963 -0.104549 -0.152970 -0.167116 -0.163230 0.443260 -0.212265 0.000440 -0.252086 -0.278989 -0.913359 0.312240 -0.212640 -0.105699 0.004725 0.170840 -0.264969 -0.102983 0.255226 0.059944 0.298585 0.340251 -0.193999 0.405754 -0.381574 -0.536977 0.108238 -0.252729 -0.601990 -0.337540 -0.233522 -0.583414 -0.240654 -0.306266 -0.093446 0.286237 -0.439803 -0.405307 0.133936 0.753861 -0.508698 -0.411237 0.564838 0.143871 -0.517638 0.033064 -0.078139 0.328793
as -0.797260 0.350102 -0.266089 -0.214938 -0.833496 -0.621829 -0.173667 0.353652 0.069588 0.914688 0.332194 -0.463856 -1.681178 0.648707 0.059324 -0.416630 -0.688164 -0.306733 -0.591614 -0.525165 0.048657 -0.802880 -0.007261 0.145991 -0.817218 -0.022699 0.119845 0.314710 0.664783 -0.716745 -0.446208 -0.857376 -0.345012 -0.070188 -0.509494 -0.132577 -0.629701 0.645172 -1.147143 -0.669144 -0.168278 0.473813 -0.388384 -0.346128 -0.433448 0.292489 -0.544676 -0.456626 -0.427396 0.670172
she -0.838130 -0.264668 -0.749874 -0.279555 -0.383422 -0.491840 -0.563592 0.150924 0.321778 0.265012 -0.498891 -0.412061 -1.307906 0.481307 -0.490117 -0.640613 -0.528161 0.207401 0.258723 -0.456359 0.078872 -0.234452 0.199981 0.231738 -0.219816 0.309688 -0.405283 -0.358084 0.592092 -0.802841 -0.374993 -0.473500 -0.209596 -0.891466 -0.416183 -0.232259 -0.063288 0.517158 -0.904799 -0.237914 -0.310725 0.271566 -0.431119 -0.012875 0.611123 0.023009 -0.705702 0.082915 -0.404727 -0.225545
spent -0.051726 -0.018810 -0.019125 -0.323476 -0.591860 0.081663 -0.264571 0.058077 0.394141 0.583165 -0.076640 -0.485861 -1.213853 0.228109 0.067325 -0.438019 -0.172430 -0.164064 0.018962 -0.501442 0.160016 -0.062042 -0.390008 -0.272959 -0.050530 0.771798 -0.083872 -0.548560 0.543174 -0.041314 -0.640514 -0.417497 -0.167710 -0.453434 -0.086399 -0.543983 -0.643078 -0.342508 -0.806197 0.060019 0.049091 0.393603 -0.445651 -0.846226 -0.072368 -0.280447 -0.515103 -0.135205 -0.463495 0.424042
so -0.361597 0.390444 -0.446461 -0.338869 -0.552504 -0.419496 -0.225847 0.343581 0.406709 -0.048400 0.219362 -0.581441 -0.988617 -0.006446 -0.791268 -0.102783 -0.649944 -0.143672 -0.204013 -0.650805 -0.214930 0.023813 -0.020093 0.160025 -0.084512 -0.050024 -0.271054 -0.444499 0.945896 -1.094029 -0.559474 -0.713461 0.297384 -0.890123 -0.645286 -0.542808 -0.458670 0.081661 -1.237133 0.043738 -0.663201 0.598114 -0.435451 -0.401103 0.170251 -0.361145 -0.738991 -0.380239 0.128169 0.479603
her -0.663264 0.665605 -0.984575 -0.007973 -0.702057 -0.714187 -0.265081 -0.053054 0.260369 0.156498 -0.608462 -0.946486 -1.010710 0.541562 -0.431460 -0.488409 -0.619164 -0.254167 0.229086 -0.034934 0.011869 -0.227422 -0.459955 0.211976 -0.953455 0.633826 -0.208849 -0.069376 0.020772 -0.242531 -0.193320 -0.806179 0.401157 -1.099030 0.247759 -0.206196 -0.233164 0.172532 -0.412316 0.560084 -0.100290 -0.024925 -0.212167 -0.805584 0.286310 -0.440193 -0.101881 0.276451 -0.099417 0.141510
time -0.022008 -0.080980 -0.571023 -0.333618 -0.801610 -0.164908 -0.605733 -0.000076 -0.318393 0.621395 0.304696 -1.066714 -1.413006 -0.043346 -1.016264 -0.364593 -0.662254 0.061631 -0.624752 0.112896 -0.060543 -0.144317 -0.135053 0.039099 -0.209616 0.201007 -0.368364 0.022212 0.091564 -1.222883 -0.806855 -1.032007 0.247736 -0.449621 -0.472097 -0.184437 -0.655794 0.442035 -0.768237 -0.235382 -0.116711 0.246681 -0.765604 -0.986179 0.112657 -0.607418 -0.132013 0.144622 0.209572 0.323098
craning -0.236170 -0.131349 -0.468971 0.181249 -0.264983 -0.159660 -0.204921 0.186458 0.228335 0.180248 0.521994 0.133368 -0.384079 0.525975 -0.262177 -0.200147 -0.240006 -0.159020 -0.325789 0.108324 -0.003225 0.464359 -0.124952 -0.265058 -0.420497 0.788351 0.100717 0.280396 0.453820 -0.305927 0.242557 0.077209 0.179384 -0.536152 0.166786 0.032386 -0.517132 -0.098991 0.329842 0.438937 -0.256067 -0.009738 -0.361345 -0.651583 0.118703 0.348092 0.521038 -0.311375 -0.025782 0.518947
over -0.253359 0.114546 -0.595417 -0.651393 -0.460517 -0.069605 -0.109745 -0.145106 -0.435166 -0.075523 -0.711238 -0.603333 -1.369043 0.941691 -0.412539 -0.385672 -0.429497 0.043781 -0.249359 -0.381325 -0.470256 -0.190170 -0.317156 -0.213581 -0.420224 0.832363 -0.196783 0.031169 0.918204 -0.175600 -0.502980 -0.711414 0.434564 -0.732812 -0.216261 -0.203547 0.340889 0.301981 -0.362388 -0.413413 -0.367082 0.463057 -0.519202 -0.919974 0.214845 0.238956 -0.604600 -0.282644 -0.535837 0.131652
garden -0.460414 0.517250 -0.373316 -0.268825 0.124233 0.613433 -0.409076 -0.234009 0.408006 0.727878 0.089843 -0.511871 -0.638135 0.084496 -0.328430 -0.257563 -0.566989 -0.185020 -0.672416 -0.402316 -0.198588 0.140231 -0.328934 -0.299675 -0.601197 0.669219 -0.411648 0.365119 0.117316 -0.330050 -0.837226 -0.558404 -0.176792 -0.551981 0.013947 0.069409 -0.504313 0.444385 -0.798770 -0.047968 -0.449939 -0.085131 -0.264455 -0.507207 0.326355 -0.309389 0.076915 0.287602 -0.038954 0.429457
fences -0.491767 0.508176 -0.188530 0.521703 -0.279168 -0.103610 0.109193 -0.430597 -0.427508 0.393942 0.378845 0.219984 -0.665668 0.479676 0.028372 -0.183258 -0.319667 0.069922 0.486483 0.374505 0.417041 0.317867 0.265085 -0.224965 0.087981 0.371327 0.002391 -0.029555 0.583820 -0.420573 -0.314062 0.262363 -0.293422 -0.231520 -0.072224 0.348911 0.295281 -0.290265 -0.351050 0.475753 -0.034875 -0.219803 0.441637 -0.462981 0.246545 0.182708 0.244275 -0.279820 -0.036262 -0.279323
spying -0.410047 0.567457 0.197073 0.091877 -0.060857 0.136974 -0.192822 0.130696 -0.112094 0.125309 -0.094829 -0.550465 -0.875679 -0.092896 -0.173876 0.321553 -0.650404 -0.299780 -0.407679 0.403455 0.185303 -0.382560 -0.431188 0.463357 -0.345133 0.018911 -0.060832 -0.395409 -0.050686 -0.492584 -0.514090 0.108054 0.192114 -0.434481 0.331656 0.203131 -0.136417 0.035132 -0.363984 -0.340106 -0.220839 0.577894 -0.114252 -0.739827 0.713513 0.264354 -0.504936 0.209928 0.408494 0.314299
on -0.320620 0.478268 -0.774082 -0.625874 -0.370694 0.153842 -0.201778 0.459046 -0.219551 0.486577 -0.670223 -0.240897 -0.974777 0.122236 -0.571582 -0.441463 -0.511635 -0.208716 0.080947 0.128993 -0.004437 0.015269 -0.156844 -0.293369 -0.006312 0.332695 -0.132258 0.478467 0.366848 0.117898 -0.391837 -0.326631 0.383120 -1.396269 -0.460334 -0.070241 0.195792 0.380689 -0.754361 -0.309533 -0.515598 0.486975 -0.527487 -1.167816 -0.035132 -0.007253 -0.733397 -0.507922 -0.776766 0.221491
neighbors -0.513818 0.351759 -0.268883 -0.890806 -0.470395 0.229912 -0.615539 -0.104006 -0.186026 0.478876 0.109501 -0.469833 -0.506725 0.399815 -0.964260 -0.667620 -0.477847 0.014677 0.058098 -0.655653 0.169308 -0.082682 -0.022628 0.032611 -0.327112 0.309768 -0.678796 0.356692 0.482554 -0.565454 -0.817522 -0.336513 0.254358 -0.248791 0.020667 -0.245830 -0.050019 0.044549 -0.195449 0.059681 -0.467871 0.362000 -0.722947 -0.680287 0.156167 -0.194279 -0.423723 -0.205565 -0.373514 -0.326969
dursleys -0.774856 -0.159042 -0.493525 -0.388512 -0.360435 0.336479 -0.369380 -0.110735 0.098309 0.650170 -0.132528 -0.976571 -1.408268 -0.286369 -0.342214 -0.177616 -0.542000 -0.014635 0.033110 -0.228350 -0.143972 -0.524457 0.206068 0.112173 -0.418367 0.507631 -0.438168 -0.572351 -0.104276 -0.691071 -0.391610 -0.644115 0.021729 -0.933513 -0.170662 -0.382663 0.057759 0.118754 -0.529649 -0.439095 -0.183767 0.221035 -0.659104 -0.822623 0.331594 -0.489778 -0.476521 0.205235 -0.556727 0.747416
small -0.573496 0.174246 -0.286312 -0.844748 -0.236979 -0.110635 0.008815 0.425209 -0.034924 0.724785 0.044529 -0.801416 -0.731947 0.016967 -0.618940 -0.170015 -0.220396 0.361630 -0.395171 -0.126325 0.287575 -0.023032 -0.393749 0.347037 -0.410639 0.527822 -0.393615 0.153279 0.204882 -0.035654 -0.967315 -0.180420 0.277758 -0.766742 -0.212678 -0.528858 -0.797352 0.110583 -0.769035 -0.172470 0.096097 0.192181 -0.187683 -0.851729 0.206682 -0.263380 -0.082313 0.510279 -0.615144 -0.190804
son -0.511811 -0.301860 -0.598671 0.092220 -0.102146 -0.065472 -0.266024 0.401548 -0.205614 0.230955 0.414234 -0.819406 -1.087948 0.145305 -0.485517 -0.455278 -0.391718 -0.375566 -0.061812 -0.392352 0.188093 0.120473 -0.436812 0.001810 -0.300083 0.762043 -0.458675 -0.484926 0.406940 -0.598327 -0.218012 -0.128693 -0.036519 -0.516518 -0.291024 -0.599131 -0.082646 0.072573 -0.420944 -0.501434 -0.200420 0.120289 -0.575369 -0.626804 0.447235 0.113726 -0.651891 0.363356 0.002512 0.110027
dudley -0.484843 -0.357408 -0.819626 -0.356264 -0.512386 -0.446703 -0.174835 0.059132 0.267802 0.048139 -0.333475 -0.505638 -1.289981 0.060750 -0.658229 -0.392555 -0.350085 0.470210 -0.051711 -0.573756 0.081082 -0.358660 -0.126617 0.167331 -0.006536 0.475802 -0.063721 -0.348006 0.235259 -0.791998 -0.574594 -0.394900 -0.328289 -0.668642 0.328796 -0.526419 -0.292157 0.173213 -0.502032 -0.231744 -0.166007 0.793168 -0.459856 -0.326740 0.478777 -0.247719 -0.470031 0.411949 -0.503861 0.370961
their -0.361946 0.185262 -1.426552 -0.412251 -0.587567 -0.312446 0.038626 -0.135729 0.053353 0.243967 -0.574675 -0.615249 -1.592047 0.600673 0.032746 0.585633 -0.217120 0.175995 0.587433 -0.040436 0.090016 0.000844 -0.014139 0.308606 -0.249972 0.361516 -0.764842 0.056731 0.011322 -0.033536 -0.155684 -0.762533 0.161708 -0.845272 0.063057 -0.503770 -0.110776 0.446596 -1.072112 0.104688 -0.440615 0.464295 -0.332767 -0.583127 -0.153748 -0.281330 0.010677 -0.170249 -0.511011 0.027363
opinion 0.011768 -0.181991 -0.845975 -0.457295 0.020559 0.399840 -0.146303 0.015875 -0.132339 0.173190 0.406611 -0.747932 -0.653907 0.387629 -0.052758 -0.101663 -0.045267 0.379920 -0.419000 -0.362124 0.427293 -0.474627 -0.275532 0.087417 0.216577 0.332619 -0.060223 -0.278905 0.747695 -0.213517 -0.619934 0.240196 -0.128663 -0.615470 -0.122821 -0.599229 -0.327616 -0.023297 -0.605463 0.365352 -0.160265 0.318494 -0.202621 -0.181736 -0.009344 -0.243471 -0.330997 0.114611 0.147525 0.282681
there -0.477837 -0.229929 -0.500216 -0.754775 0.091570 -0.134747 -0.686800 0.517691 0.044915 0.382420 -0.114776 -0.925340 -1.075030 -0.078569 -1.339840 -0.690123 -0.321571 0.234035 -0.262411 -0.841908 0.191173 -0.130147 -0.336411 0.001006 -0.271322 0.637166 0.002630 -0.446681 1.124013 -0.634101 -1.269913 -0.747196 0.082930 -0.859263 -0.203144 -0.931934 -0.403539 -0.046904 -0.285652 -0.069364 -0.281731 0.189355 -0.768499 -0.498317 -0.394301 -0.425920 -0.339352 0.269509 -0.470225 0.070055
no -0.256533 -0.486882 -0.093688 0.033682 0.038492 -0.220020 -0.206401 0.517238 0.155836 0.145118 0.156970 -0.872382 -1.011849 -0.126597 -1.454698 -0.257371 -0.339921 0.669652 -0.359150 -0.495545 0.720962 -0.094884 -0.198334 -0.633916 -0.719479 0.824392 0.352885 -0.860686 0.634953 -0.873391 -0.983790 -0.644284 -0.055387 -1.431032 -0.035438 -0.895718 -0.437039 0.191761 -0.714689 -0.103916 0.019836 0.291322 -0.019521 -0.967035 -0.168002 -0.317698 -0.150054 -0.147202 0.139303 -0.008885
finer -0.661710 0.162316 -0.188471 -0.314927 0.015749 -0.076166 0.004165 0.019425 0.520539 -0.017572 -0.279365 -0.001564 -0.525796 -0.040437 0.220950 0.007366 0.146024 0.085362 -0.374040 0.064359 0.167804 -0.224132 0.150359 0.332497 0.282820 0.355006 -0.297598 0.396576 0.052870 -0.236373 -0.108041 0.084648 0.142284 -0.134860 -0.010200 -0.324578 0.435223 -0.010963 -0.028214 -0.006606 -0.065688 0.168781 -0.680646 -0.552731 0.619276 0.147194 -0.308159 0.441536 0.510086 0.196688
anywhere -0.485297 0.106920 0.143171 -0.402454 -0.446713 0.054858 -0.487448 -0.114492 -0.158414 0.272972 0.269557 -0.144789 -1.212886 -0.057278 -0.034159 -0.221250 -0.465289 0.602497 0.445781 0.291341 0.555365 -0.236505 -0.383732 0.029903 -0.034541 0.818103 -0.152161 -0.167376 0.177480 -0.395128 -0.330433 -0.094537 -0.058175 -0.196714 -0.390685 0.267815 -0.408695 -0.087729 -0.388641 -0.401327 -0.178778 0.154210 -0.760438 -0.466688 0.185856 0.129897 -0.479189 -0.146207 0.084143 0.248564
everything -0.585837 0.119510 -0.559124 -0.190230 -0.246894 -0.358243 -0.183968 -0.418219 0.037025 0.297841 0.102838 -0.258577 -1.003772 -0.074371 -0.458553 -0.531557 -0.524488 0.228079 -0.351458 0.160425 -0.169804 -0.407842 -0.257814 0.201452 -0.290204 0.463186 -0.259561 -0.299790 0.207698 -0.967555 -1.032866 -0.565636 -0.265002 -0.425947 -0.333732 -0.554425 -0.630430 0.325843 -1.104100 -0.123379 -0.013501 0.265410 -0.835484 -0.917703 0.234121 -0.413377 -0.068578 0.109443 0.210818 0.499359
wanted -0.142483 0.517574 -0.997322 -0.308616 -0.127913 -0.721711 -0.571465 0.503156 0.171524 0.226755 -0.040512 -0.652072 -1.378796 0.169018 -0.770725 -0.212001 -0.820905 -0.104494 0.378094 -0.337140 0.050867 -0.096781 -0.279292 -0.283451 -0.203017 0.589881 -0.287156 -0.549855 0.679214 -0.709823 -0.208504 -0.210325 -0.062249 -0.822662 -0.510757 -0.680090 0.018948 -0.455214 -0.772975 -0.460625 0.042197 0.132962 -0.894606 -1.173167 0.132926 -1.017138 -0.503822 -0.280533 0.294079 0.458615
but -0.406388 -0.149327 -0.462907 -0.197176 -0.800430 0.015659 -0.181594 -0.244370 0.362305 0.516743 -0.065008 -0.769641 -1.036021 0.398255 -0.531485 -0.804537 -0.452318 -0.033233 -0.044892 -0.951921 -0.039342 -0.415622 -0.221897 0.217395 0.019018 0.347455 -0.056898 -0.680531 0.569496 -0.397592 -0.736391 -0.313409 -0.009824 -1.063113 -0.562191 -0.407720 -0.029091 0.288202 -0.826808 -0.130383 -0.455247 0.186899 -0.297521 -0.409493 -0.205582 -0.457172 -0.455258 -0.018998 0.195313 0.425852
also -0.392460 0.344280 -0.225260 -0.224922 -0.104234 -0.232722 -0.274606 0.243315 0.110154 0.374212 -0.262114 -0.443536 -1.248920 0.102022 -0.218174 -0.687480 -0.805741 0.343602 0.181756 0.178260 0.037363 -0.286605 -0.371434 0.383056 0.021514 0.130104 -0.390940 -0.621911 0.509133 -0.305917 -0.687975 -0.402834 0.028358 -0.902501 -0.038880 -0.198917 -0.156623 -0.267140 -0.498588 0.098972 -0.428507 0.215294 -0.062685 -0.516055 -0.126780 -0.576262 -0.331465 0.436684 -0.190971 0.397982
secret -0.541106 0.014269 -0.202998 -0.252186 -0.089027 0.209561 -0.261641 -0.404801 0.316097 -0.059441 0.090644 -0.365096 -0.899411 0.095452 -0.492181 -0.654873 -0.357779 0.188907 -0.638246 0.040888 0.020885 0.080758 0.061151 -0.051913 -0.497772 0.353812 -0.304436 -0.387259 0.300340 -0.225511 -0.743822 -0.215825 0.459110 -0.755548 -0.460056 -0.481587 -0.268872 0.310609 -0.654784 0.172647 -0.258047 0.522288 -0.659703 -0.627125 0.614591 -0.580848 0.020647 0.392940 0.161635 0.069915
greatest 0.143252 0.215333 -0.332592 0.285209 -0.454938 0.488046 0.331169 -0.286493 0.254689 0.561402 -0.441159 -0.303068 -1.175124 -0.508412 -0.647083 -0.043473 -0.061554 -0.244260 0.101906 0.052541 -0.367641 -0.279027 0.152287 0.248241 -0.287274 0.573935 -0.215908 -0.208845 0.646346 -0.390983 -0.292163 -0.198944 0.220705 -0.590259 0.150015 -0.610870 0.012256 -0.275676 -0.297995 -0.241667 -0.279333 0.356168 -0.580705 -0.599811 0.171302 -0.491095 0.121471 0.186820 0.253899 0.381670
fear -0.559022 0.564043 -0.267455 -0.404582 -0.515935 -0.192608 0.221022 -0.078030 -0.364229 0.276900 0.166997 0.100680 -1.367295 -0.280668 -0.288076 -0.224607 -0.348026 0.104082 -0.274664 0.048726 0.201280 0.076413 -0.134746 0.138877 -0.555735 0.877046 -0.212491 -0.236872 0.305517 -0.074493 -0.202328 -0.508106 0.313688 -0.307546 -0.025438 -0.147238 -0.325103 0.202713 -0.592750 -0.471357 -0.342180 0.521221 -0.761882 -0.655611 0.261072 -0.266343 -0.417614 0.085351 0.195592 0.034266
somebody -0.147485 0.061421 -0.427528 0.084576 -0.447507 0.439842 -0.246143 0.259458 -0.026170 0.561985 -0.328378 -0.574097 -0.264299 -0.027539 -0.511383 0.047586 -0.328050 -0.189897 0.186249 0.179476 -0.176881 -0.322627 0.231130 0.367666 0.284708 0.688913 -0.224638 -0.107753 0.441841 -0.445959 0.170939 0.143555 0.532478 -0.532938 0.242722 -0.319611 0.073988 0.104667 -0.379140 -0.106731 -0.264379 0.357927 -0.256138 -0.158650 -0.166512 -0.435242 -0.147948 -0.170817 -0.226672 0.320169
would -0.453651 0.172895 -0.969119 -0.161324 0.159644 -0.305887 -0.907391 -0.095862 0.429290 0.464621 0.200011 -0.042509 -1.418541 0.046605 -0.696393 -0.592518 -0.667375 -0.341109 0.228406 -0.077479 0.367788 -0.472885 -0.011533 -0.155563 -0.049629 0.167610 -0.038844 -0.421241 0.623563 -0.280681 -0.665735 -0.250336 -0.230059 -1.216713 -0.462727 0.108022 -0.481124 -0.346993 -0.978865 0.026171 0.031040 0.237256 -0.940913 -0.480567 -0.100903 -0.616775 -0.286119 -0.486902 0.422666 0.864960
discover -0.035266 0.069781 -0.160802 -0.406694 -0.144444 0.197473 -0.165487 -0.350105 0.065509 0.145264 -0.087302 -0.365397 -0.315360 -0.128114 0.048642 -0.073235 -0.407676 0.500028 -0.181994 -0.034060 0.198507 -0.423836 0.554311 0.295261 0.083332 0.354357 -0.054027 0.280691 0.230993 -0.310272 0.298683 0.188218 -0.201170 0.195931 0.150382 0.104453 -0.223080 0.067630 -0.176677 -0.487378 0.267650 0.169324 -0.058792 -0.613672 0.418620 -0.470323 -0.341810 0.227184 0.078423 0.006630
it -0.868969 0.105605 -0.409824 -0.316441 -0.214864 -0.411647 -0.214464 -0.019625 0.512137 0.596619 -0.358704 -0.313995 -1.177244 0.221281 -0.813520 -0.402080 -0.293033 0.114184 0.178923 -0.255627 -0.003458 -0.122020 -0.145585 0.026396 -0.492235 0.412576 -0.073742 -0.020472 0.589824 -0.934366 -0.526100 -0.560880 -0.018263 -0.949597 -0.046811 -0.310810 -0.109228 -0.180679 -0.795453 -0.167114 -0.493104 0.222426 -0.933188 -0.391523 -0.107347 -0.402535 -0.767335 0.158767 -0.410584 -0.060482
think -0.580557 0.244576 0.081082 0.142187 -0.060349 -0.463434 -0.175883 0.176177 0.311317 0.283640 0.196404 -0.342093 -0.859433 -0.089782 -1.451983 -1.033373 -0.475101 -0.326091 0.202200 -0.617870 0.082661 0.134673 -0.718725 0.628199 -0.631196 0.704478 -0.295193 -0.749913 0.577126 -0.962964 -0.573797 -0.670364 0.379317 -1.303377 -0.884766 -0.370615 -0.679831 -0.387800 -1.153520 -0.430113 -0.086708 0.626657 -1.056948 -0.752909 0.067844 -0.415832 -0.215343 -0.569072 0.209644 0.630376
could -0.153733 0.032761 -0.924807 -0.321028 0.033362 -0.174454 -0.361707 0.056184 0.192117 0.602706 -0.170971 -0.501221 -1.150338 0.265852 -0.299890 -0.352597 -0.513887 -0.344336 -0.244041 -0.156390 0.270569 -0.652644 0.152947 0.321794 -0.357571 0.467526 0.468918 -0.867885 0.303343 -0.683285 -0.906280 -0.653897 -0.109461 -0.452753 -0.734479 -0.368820 -0.697190 -0.448847 -0.924729 -0.053343 -0.345792 0.740072 -1.279308 -0.890580 0.218564 -0.794304 -0.098249 -0.539001 0.129251 0.634192
bear -0.143247 -0.148512 -0.514450 -0.321309 0.064040 0.336870 -0.208048 -0.340300 0.577245 0.420742 -0.014287 -0.683712 -0.948773 0.402215 0.005690 -0.319165 -0.598558 0.551679 -0.109978 -0.494112 -0.095481 -0.410876 -0.141400 0.473673 0.212223 0.600561 0.085716 -0.176636 0.093786 -0.468753 -0.263071 -0.014776 -0.166990 -0.216601 -0.531653 -0.214563 -0.584086 -0.327856 -0.782070 -0.410991 -0.469822 0.682886 -0.589645 -0.471096 0.046097 -0.271437 -0.135521 -0.014724 -0.348989 0.110646
if -0.300335 0.089517 -0.455333 0.317770 -0.650406 -0.675128 -0.094001 0.322480 -0.224421 0.015543 0.303136 -0.622913 -1.248081 0.262453 -0.279890 -0.719739 -0.185938 -0.021215 0.108091 -0.218252 0.305466 -0.067356 -0.278552 -0.050387 -0.422587 0.635708 0.013383 -0.728647 0.786848 -1.223260 -0.719061 -0.539511 -0.020419 -0.780052 -1.082252 -0.290539 -0.301126 0.291214 -1.268024 -0.075494 -0.415892 0.600792 -1.001225 -0.289265 -0.153366 -0.597122 -0.471876 -0.225351 -0.458389 0.482958
anyone -0.918378 0.003514 -0.548718 -0.011902 -0.015591 -0.071394 0.059781 0.334949 0.119427 0.450921 -0.203778 -0.391975 -1.166200 0.307004 -0.864001 -0.486018 -0.990118 0.269372 0.394227 -0.192456 0.043968 -0.511661 0.112121 0.063224 -0.062759 -0.056003 -0.138562 -0.343392 0.681528 -0.995352 -0.531849 -0.891488 0.312259 -0.610550 -0.353874 -0.623812 -0.728990 -0.251788 -0.787750 -0.336568 -0.770016 0.085570 -1.091248 -0.703374 -0.467627 -0.247286 -0.553613 0.080963 -0.205545 0.216733
found -0.633580 0.256675 -0.648526 -0.731150 -0.560522 -0.428043 -1.053939 -0.273007 -0.066788 0.189901 -0.030818 -0.741922 -1.137285 0.553733 -0.271981 -0.382810 -0.665094 0.326640 -0.207302 -0.261637 0.468709 -0.314030 -0.724827 -0.039869 -0.167448 0.236000 -0.014281 0.304727 0.202185 -0.900496 -0.696017 -0.230067 0.072343 -0.649015 -0.474059 -0.617827 -0.532950 -0.438853 -0.999604 -0.241543 -0.443225 0.520663 -1.170051 -0.510018 0.692392 -0.843580 -0.270836 -0.024774 0.085165 0.334799
out -1.065492 0.263064 -0.158719 0.062010 -0.581716 0.034213 -0.060765 -0.146919 -0.525304 0.073134 -0.724885 0.209267 -1.292606 0.533728 -0.122303 -0.146927 -0.464380 0.085149 -0.351452 -0.095149 0.062858 -0.014431 -0.866899 -0.341293 -0.532644 0.528969 -0.046363 -0.091486 0.864269 -0.305530 -0.802626 -0.147871 -0.131101 -0.834782 -0.213857 -0.822136 -0.033751 -0.151788 -1.099072 0.179284 -0.256724 0.414878 -1.096063 -0.984120 0.503051 -0.940968 -0.071200 0.110867 -1.029440 0.143140
about -0.341924 0.106542 -0.319333 -0.089225 -0.647957 -0.094718 -0.822283 0.400792 -0.368579 -0.041134 0.227385 -0.701062 -1.458679 0.266078 -0.531211 -0.481627 -0.501787 0.447668 0.154852 -0.700199 0.030687 0.463885 0.044773 0.223809 -0.321085 0.328401 -0.306853 -0.081029 0.438436 -0.588382 -0.538681 -0.332883 0.196286 -0.729757 -0.730811 -0.416608 -0.341730 0.203101 -0.506862 0.177832 -0.236339 0.173432 -0.906435 -0.553228 0.046514 -0.867019 -0.088725 -0.458597 -0.001771 0.137094
potters -0.715278 -0.442148 -0.247141 -0.555542 -0.023162 -0.120833 -0.546326 -0.002647 -0.343132 0.734136 0.031857 -0.071390 -1.037166 0.360109 -0.945053 -0.249296 -1.082743 0.126284 -0.251065 -0.226859 -0.058190 -0.334190 0.131761 -0.462415 -0.431020 0.196424 -0.246369 -0.120399 0.347995 -0.485193 -0.724307 0.196675 0.106550 -1.113886 -0.472370 -0.800269 -0.359898 -0.093218 -0.490656 0.041355 -0.543725 0.604932 -0.231517 -0.732507 0.304360 -0.099532 -0.257324 0.296701 -0.351873 0.418718
sister -0.753461 -0.312335 -0.432217 0.235484 0.002119 -0.194358 -0.655646 0.296177 0.103863 0.169679 -0.070911 -0.933918 -1.211444 0.140239 -0.784473 -0.519390 -0.575755 -0.037846 -0.724093 0.222758 0.078119 -0.420425 -0.159569 0.098069 -0.120627 0.226898 -0.012131 -0.513646 0.678498 -0.291095 -0.114356 0.077104 0.241290 -0.563353 -0.044017 -0.662520 -0.656678 0.404687 -0.979904 -0.296564 -0.030371 0.039597 -0.256333 -0.492181 0.548123 -0.574357 -0.273356 0.283752 0.261986 0.216765
hadnt -0.406272 -0.133971 -0.834500 -0.352147 -0.158311 -0.366817 -0.995367 0.209227 0.530226 0.364444 -0.271932 -0.712561 -1.538709 0.369154 -0.240818 -0.249858 -1.359828 -0.117169 -0.422397 0.024421 0.140640 -0.067873 -0.122105 -0.022261 0.222915 -0.118822 -0.009034 -0.553060 0.760554 -0.740186 -0.996216 -0.158804 0.028649 -0.716383 -0.580706 -0.328665 -0.323580 -0.086989 -1.337618 -0.322346 -0.388402 0.121605 -0.658704 -0.657696 0.037219 -0.610882 -0.120180 -0.174338 -0.174489 0.561490
met -0.186857 0.100207 -0.741988 -0.167020 0.077651 -0.399558 -0.458158 -0.103853 0.243859 0.263121 0.259923 -0.785739 -0.978558 0.065162 -0.405443 -0.248106 -0.268932 -0.139622 0.064209 0.134579 0.281450 0.099129 -0.098872 0.322431 0.157053 -0.009510 -0.129546 -0.381940 0.192437 -0.531005 -0.828584 -0.187870 -0.059071 -1.040360 -0.421948 -0.557047 -0.177536 0.366959 -0.886433 0.169547 -0.163284 0.475272 -0.618018 -0.928338 0.215020 -0.159789 -0.282239 -0.002030 -0.277954 0.235866
for -0.077825 0.173489 -0.780878 -0.060023 -0.365468 0.403370 -0.413687 0.440778 -0.365318 0.009824 0.356973 -0.519521 -1.260407 0.017236 -0.132720 -0.428198 -0.907166 0.311246 -0.030199 -0.277124 0.161964 -0.387213 0.066358 0.048703 -0.554860 0.552702 -0.569683 -0.324416 0.536045 -0.264562 -0.988912 -0.800645 -0.415923 -0.952116 -0.341204 -0.431373 -0.556622 0.205391 -0.506683 0.200931 -0.198152 -0.091225 -0.292626 -0.746736 0.181219 -0.305963 -0.078438 -0.310996 0.069342 -0.007676
several -0.286785 0.318446 -0.664360 -0.181115 0.045951 0.109646 -0.470927 -0.544375 0.385341 0.494081 0.051017 -0.358963 -0.906162 0.163709 -0.433296 -0.150342 -0.405035 -0.346617 -0.500952 -0.067220 0.072701 -0.335551 -0.089724 -0.121799 -0.244967 0.544546 -0.078957 -0.161611 0.274206 0.037719 -0.234010 -0.441513 0.439851 -0.897793 0.200444 -0.130807 -0.317180 0.044770 -0.372527 -0.479057 0.046291 0.622472 -0.248884 -0.684523 0.326228 -0.227314 -0.301043 0.205905 -0.482515 0.347892
years 0.303881 -0.113811 -0.315023 -0.338432 -0.678331 0.276771 -0.545178 -0.041997 0.316808 0.931105 0.385987 -0.731668 -1.491252 -0.202345 -0.704406 0.024059 -1.137198 -0.009465 -0.589982 -0.543121 0.219018 -0.560142 -0.185899 -0.559045 -0.209667 0.711492 -0.670465 0.175219 0.141813 -0.877692 -1.010949 -0.755853 -0.175621 -0.743913 -0.454182 -0.564155 -0.142495 0.420396 -0.724121 0.320208 -0.354034 0.583148 -0.760951 -0.348453 -0.191915 -0.474135 -0.327335 -0.419555 -0.024960 -0.221609
fact -0.388105 0.238393 -0.355592 -0.302476 -0.352640 -0.159537 -0.234976 0.233910 0.116914 0.411269 -0.169221 -0.780050 -1.357734 0.206541 -1.063747 -0.384939 -0.820364 -0.184493 -0.326992 -0.047778 0.199754 0.131156 -0.280543 0.081901 -0.128846 0.440414 -0.545054 -0.305974 0.351140 -0.447377 -0.294363 -0.130944 0.150693 -0.896263 0.061291 -0.366658 -0.254093 0.230102 -0.271776 -0.298145 -0.005044 0.155913 -0.738361 -0.359852 -0.303452 -0.210572 -0.050353 0.273331 -0.558757 0.092164
pretended -0.327617 0.460028 -0.483998 -0.178747 -0.129486 0.172920 -0.274575 0.078906 0.104249 0.310427 0.414402 -0.344746 -1.024277 0.082474 -0.401106 -0.095392 -0.210206 -0.201313 -0.444175 -0.423982 -0.492757 -0.479012 0.099090 0.245376 -0.025500 0.136395 0.225828 -0.536368 0.302149 -0.191385 -0.235025 -0.367233 -0.383246 -0.730173 0.303956 -0.575091 0.065828 0.110836 -0.157863 -0.225342 -0.185081 0.164064 -0.748796 -0.036188 0.062389 -0.229727 -0.185169 0.428366 0.242605 0.493382
goodfornothing -0.487176 -0.012661 -0.146030 0.225356 -0.446340 0.213535 -0.152231 0.459389 0.089407 0.235343 -0.314391 0.254715 0.088704 0.224530 -0.160710 0.163864 0.052456 0.293477 -0.345156 0.247961 0.277474 -0.281184 0.095364 0.490223 0.343540 0.112183 0.301791 0.384575 -0.096452 0.080737 0.171790 -0.408717 -0.215524 -0.074009 0.475898 -0.167273 -0.203620 0.442697 0.283849 0.433872 -0.307322 0.213684 0.145963 -0.615859 0.590698 -0.059301 -0.267720 0.475653 -0.305084 0.193792
husband -0.416794 -0.192646 0.205510 -0.073143 0.503527 0.498563 -0.399870 -0.017117 -0.190632 0.459892 0.473325 -0.123290 -0.554024 0.168869 0.275050 0.390197 -0.268841 -0.287677 0.512134 -0.177610 -0.364885 -0.188116 -0.306138 0.384284 0.408217 0.583360 -0.018428 -0.239147 -0.095025 -0.333036 0.130681 -0.209438 0.641232 -0.341847 -0.026949 -0.189237 0.021670 0.646506 0.073354 0.479412 -0.462620 -0.238117 0.309063 0.017308 0.023767 -0.301542 0.365960 0.023504 0.345567 0.063555
undursleyish -0.027872 -0.018405 -0.393316 -0.196559 0.081759 0.235553 0.288006 0.017131 0.640021 0.461716 -0.036750 0.086534 -0.353146 -0.035645 -0.290643 0.414628 0.216549 0.325637 -0.414253 0.204600 0.287073 -0.397427 -0.080507 -0.070310 0.195619 0.323183 0.578456 -0.330103 -0.010261 -0.104853 -0.449738 0.306567 0.470078 -0.042070 0.314285 0.217336 0.230866 -0.306559 -0.380457 0.216656 -0.157989 0.064241 0.028768 0.140480 -0.006888 -0.399484 0.430594 0.281465 -0.231336 0.538874
possible -0.172854 -0.086445 -0.589549 -0.144134 -0.405074 -0.482201 0.253938 -0.062028 0.319535 0.005023 0.109275 -0.787835 -1.277119 0.309170 0.081606 -0.042955 -0.491970 0.348137 -0.471385 -0.039569 0.261310 -0.639370 -0.280645 0.085765 -0.221889 0.379630 0.010548 -0.008405 0.249420 -0.521097 -0.826950 -0.377357 0.533110 -0.104294 -0.469725 -0.450041 -0.166799 0.135850 -0.617131 -0.480654 -0.511103 0.479675 -0.364427 -0.542778 0.182978 -0.539489 -0.667156 0.200097 -0.348518 0.792515
shuddered 0.137237 -0.173285 -0.490993 0.054517 0.033804 0.077635 -0.396542 0.270532 0.148307 0.302597 -0.455874 -0.443045 -0.886688 0.174816 -0.649718 -0.042462 0.053829 0.462036 0.027076 -0.006379 0.310274 -0.235769 -0.264862 0.243231 -0.334088 0.241646 -0.090090 -0.118781 0.054917 -0.619854 -0.309046 0.186738 0.311923 -0.659696 -0.534028 0.111997 0.011333 0.093126 0.128231 -0.115973 -0.197257 0.308590 -0.108370 -0.075721 0.362440 -0.021827 -0.357716 0.247672 -0.405627 0.119499
what -0.680991 -0.115457 -0.031042 -0.031781 -0.289904 -0.508526 -0.160203 0.483132 0.338296 0.481155 0.054637 -0.831455 -1.154681 0.305072 -1.224763 -0.409071 -0.217507 0.101271 0.055683 -0.705207 -0.196039 0.122064 -0.119683 0.561642 -0.223212 0.381946 -0.143039 -0.467961 0.458322 -1.172618 -0.642186 -0.173426 0.287822 -0.523327 -1.219841 -0.652927 -0.284914 0.018778 -1.039693 -0.178602 -0.553558 0.021623 -1.120512 -0.299329 0.002056 -0.601935 -0.412274 0.412148 0.227513 0.146029
arrived -0.179159 0.406805 -0.242350 -0.348938 -0.740208 0.296403 -0.715864 -0.243749 0.673794 0.421866 -0.047954 -0.534579 -1.163426 -0.425641 -0.247061 -0.317709 -0.769033 0.336864 -0.226624 -0.621663 0.022153 -0.295158 -0.399085 0.069921 -0.294003 0.055466 -0.170451 -0.274963 0.279337 -0.276454 -0.899299 -0.468272 0.069260 -0.910082 -0.026586 -0.528584 -0.093103 -0.000746 -0.961559 -0.258665 0.072526 0.153867 -0.486931 -0.900942 0.036465 -0.114655 -0.387382 0.262423 -0.403461 0.782822
street -0.540182 0.083473 -0.957581 -0.317233 -0.174921 0.597312 0.016468 0.146163 -0.247629 0.554350 0.082299 -0.586904 -1.383903 -0.156345 -0.388047 -0.280396 -1.078449 0.512769 -0.667562 -0.162931 -0.336740 0.069975 -0.488271 -0.264505 -0.495509 0.336797 -0.260711 0.242812 0.277242 -0.604388 -0.325697 -0.761457 0.288806 -0.309206 -0.456083 -0.511795 -0.011494 0.233154 -0.819456 -0.624919 -0.066427 0.163511 -0.388847 -1.313751 0.310070 -0.022457 0.140630 -0.130615 -0.138825 0.310634
knew -0.184549 0.258878 0.044593 -0.641916 -0.403941 -0.055601 -0.512461 0.187269 0.225730 0.040704 -0.156419 -0.900682 -1.451372 0.409629 -0.833209 -0.328404 -0.954503 -0.150195 -0.097868 -0.323238 0.122093 -0.120974 0.001124 0.327433 -0.427398 0.475444 0.027111 -0.532779 0.848725 -0.856952 -1.136764 -0.538475 -0.287477 -0.825409 -0.529442 -0.769982 -0.395719 -0.215635 -1.351996 -0.486533 -0.080895 0.106587 -0.728832 -0.229210 -0.036586 -0.745333 -0.315990 -0.384311 0.215172 0.527754
too -0.250654 0.251796 -0.697439 -0.439876 -1.076334 -0.002080 -0.444880 0.478802 0.245689 0.200123 0.353775 -0.651683 -1.010744 0.403287 -0.903529 -0.475158 -0.852310 0.000408 -0.037607 -0.408245 0.168508 0.005314 0.069027 -0.366613 -0.074025 0.382384 -0.463065 -0.563875 0.617471 -0.710301 -0.418117 -0.536037 0.287421 -0.571365 -0.677044 -0.600119 -0.756510 0.543083 -0.823838 -0.317191 -0.584690 0.183043 -0.221749 -0.549427 -0.435498 -0.532237 -0.196007 0.128197 -0.213850 0.183439
never -0.293059 -0.361852 -0.210223 -0.094998 -0.617164 -0.570650 -0.581590 0.215614 0.539361 0.524653 -0.137933 -0.806642 -1.353811 -0.034926 -0.514676 -0.585187 -0.979853 -0.098607 0.432493 -0.292027 0.175784 0.345623 0.047032 -0.048904 -1.069620 0.223755 0.191972 -0.640158 0.413358 -0.944612 -0.890196 -0.524261 0.149343 -1.128080 -0.312872 -0.354265 -0.408358 -0.428669 -1.083386 -0.208236 -0.790720 0.287564 -1.400452 -0.602549 0.416025 -0.384354 -0.366933 -0.255890 0.417573 0.562412
even -0.590801 -0.342704 -0.435340 -0.157669 -0.718314 -0.016425 -0.378270 0.122687 0.174575 0.615152 0.262198 -0.536999 -1.314933 0.160283 -0.517344 -0.283307 -0.516458 0.336742 0.318994 0.133737 0.145850 -0.441346 -0.236783 0.006204 -0.154458 0.134665 -0.078662 -0.815790 0.439604 -1.126030 -0.522006 -0.625381 -0.385634 -0.946954 -0.180690 -0.788898 -0.307516 0.001905 -0.879645 -0.019532 -0.431147 0.003360 -0.636694 -0.552304 0.054380 -0.475820 -0.066993 -0.220074 0.069012 0.464877
seen -0.740135 -0.321478 -0.535460 0.156885 -0.509385 -0.186684 -0.776252 0.270105 0.199418 0.307841 -0.025690 -1.176021 -1.131054 -0.005843 -0.366257 -0.106636 -0.754314 -0.100759 0.603785 -0.149014 -0.289892 -0.302207 -0.216133 -0.109731 -0.372654 0.241872 -0.266648 -0.597679 0.356006 -0.962647 -1.077072 -0.103855 -0.486872 -1.193818 -0.485809 -0.552919 -0.472703 0.020359 -1.337652 -0.010286 -0.521543 0.462638 -0.805494 -0.541893 0.699769 -0.708381 -0.166384 -0.020532 0.301716 0.402990
him -1.206475 -0.038156 -0.531329 0.286337 0.058919 -0.417419 -0.640383 -0.008063 0.292860 -0.002979 -0.059044 -0.798811 -1.087544 0.060061 -0.636168 0.020724 -0.092750 -0.355859 -0.166331 -0.169473 -0.646542 -0.125177 -0.377014 0.024001 -0.322867 0.696235 -0.186666 -0.486889 0.346202 -0.579896 -0.409624 -0.460993 0.185747 -0.969071 -0.003052 -0.465991 -0.611939 0.502236 -1.344150 -0.014771 0.042597 0.328294 -1.053578 -0.634297 0.017891 -0.023372 -0.132580 0.194075 0.053639 0.200695
this -0.242896 0.337078 -0.259440 -0.589851 -0.364299 -0.222580 -1.002148 -0.228633 0.036186 0.552167 -0.329425 -0.563193 -1.686297 0.108050 -1.153066 -0.404131 -0.294788 0.159552 0.137633 -0.430075 0.351448 -0.180307 -0.425162 0.085971 -0.733840 0.298312 -0.274823 -0.153352 0.486421 -0.895352 -0.566036 -0.967322 -0.179461 -0.873682 -0.489875 -0.644620 -0.151887 0.219095 -0.703171 0.004227 -0.442728 -0.096269 -0.336232 -0.248487 0.198926 -0.481523 -0.287392 -0.346437 0.292207 0.287472
another -0.618539 0.154070 -0.641478 -0.313874 -0.101191 -0.290262 -0.506194 0.401452 0.425619 0.142975 0.042632 -0.555618 -1.374066 -0.052710 -0.717206 -0.411249 -0.026908 -0.080528 -0.291641 -0.582415 0.086642 -0.427922 -0.222641 -0.391969 -0.621070 0.306840 -0.804431 -0.478439 0.331576 -0.521601 -0.264673 -0.592402 -0.009347 -0.822244 0.066410 -0.783910 -0.107941 0.246510 -1.183010 -0.243624 -0.507177 0.139184 -0.406905 -0.874164 0.363043 -0.245296 -0.250642 0.093110 -0.183856 0.191489
good -0.634192 -0.094595 -0.533066 -0.349926 -0.182859 0.111370 -0.454712 0.098749 0.250494 0.363478 0.085757 -0.358164 -1.266022 0.212018 -1.225388 -0.591124 -0.661082 0.097392 -0.174924 -0.264915 0.100470 -0.369654 -0.697149 -0.051566 -0.615010 0.035742 0.294411 -0.397653 0.800845 -0.466413 -0.836788 -0.228518 0.089356 -0.845820 -0.423251 -0.820445 -0.528216 0.155696 -1.055501 0.133320 0.017537 0.127060 -0.009410 -0.600112 0.045656 -0.743305 -0.121482 0.118573 0.317698 -0.137894
reason -0.325430 0.105380 -0.752262 -0.503616 -0.508503 -0.194971 -0.124828 0.331325 0.200986 -0.046266 0.468161 -0.375842 -1.267415 -0.298445 -0.644757 -0.430553 -0.771081 0.471761 -0.115006 -0.295234 0.023874 -0.517789 0.001684 -0.036867 0.037790 0.703591 -0.429071 -0.323276 0.535594 -0.788557 -0.899380 -0.541062 0.099086 -0.962450 -0.205339 -0.703153 -0.175211 -0.082416 -0.678288 -0.250886 -0.299668 -0.246477 -1.006038 -0.248068 0.022164 -0.301912 -0.150910 0.384278 0.018506 0.141333
keeping -0.277907 0.131781 -0.855092 0.073748 0.096682 0.278537 -0.534419 0.086609 0.175160 0.352751 -0.096254 -0.237823 -0.716168 0.121397 -0.474604 -0.571516 0.008954 0.456540 0.204820 -0.360470 -0.140286 -0.290991 0.295440 0.219247 -0.387700 0.414317 -0.107426 -0.209364 0.340578 -0.423162 -0.635639 -0.171400 -0.042093 -0.809679 0.117771 -0.794786 -0.407338 0.213719 -0.076251 -0.100478 -0.275536 0.084676 -0.350168 -1.027823 0.524235 -0.253634 -0.131378 -0.238446 -0.370094 -0.106516
away -0.702009 0.520801 -0.294231 0.036669 -0.052411 0.228555 -0.342034 0.240648 -0.051408 0.342141 -0.587796 -0.641454 -1.057872 0.303733 -0.051211 -0.741733 -0.501486 0.163284 0.181105 -0.765097 -0.369532 -0.652890 -0.061130 -0.181022 -1.025331 0.731238 -0.214915 -0.144597 0.446460 -0.513799 -0.439089 0.061139 -0.276935 -0.592073 0.005222 -0.717522 0.029703 0.038252 -0.709494 0.498443 -0.474886 0.019732 -0.603143 -0.711715 0.264276 -0.442012 -0.332404 -0.330609 -0.363007 0.520115
want -0.489022 0.389211 -0.518597 0.203621 -0.156811 -0.081330 -0.037424 0.271190 0.337608 0.242322 -0.138559 -0.588353 -0.906425 0.060783 -1.003834 -0.889747 -0.940189 -0.416548 -0.010691 -0.168113 0.174691 -0.119304 0.003286 -0.094591 -0.049470 0.915381 -0.436081 -0.592704 0.784304 -0.984204 -0.288822 -0.880770 -0.324988 -0.989567 -0.520702 -0.603592 -0.717326 0.203916 -1.003506 -0.038298 0.399167 0.219218 -2.076030 -1.189982 -0.195424 -0.554378 -0.268369 -0.792478 0.454241 0.314221
mixing -0.225782 0.431722 0.210582 -0.256524 -0.489640 -0.255935 0.290404 0.455159 -0.000087 0.163063 0.407761 -0.314373 -0.630733 0.357821 -0.426916 -0.140163 -0.463650 0.280408 -0.133429 -0.446848 0.279839 -0.427412 0.231020 0.328821 -0.132327 0.046401 -0.208639 -0.377931 0.016175 0.304622 -0.099857 -0.161296 0.384840 -0.587599 -0.212376 -0.483842 0.380835 0.285091 0.058195 0.153962 -0.324153 -0.164593 -0.305609 -0.407577 0.004247 -0.524938 -0.356877 0.402313 0.234408 0.373854
child 0.058133 -0.260648 -0.389154 0.087911 -0.526056 -0.392390 -0.370236 -0.167456 0.364504 0.481812 -0.337527 -0.006809 -0.149176 0.027899 0.186676 -0.136344 -0.393856 -0.137643 -0.249749 -0.377281 0.113450 0.344553 -0.505012 -0.217842 -0.230069 0.493486 -0.349743 -0.000991 0.684519 0.193263 -0.629707 -0.024356 0.601506 -0.438703 -0.424342 0.228861 -0.584815 0.077941 -0.239784 -0.138033 -0.461990 0.474724 -0.589213 -0.336780 0.030467 -0.377620 -0.333861 0.477419 -0.027937 0.433231
like -0.841080 0.473942 -0.004806 -0.278654 -0.327571 -0.290832 -0.366372 0.231410 0.057245 0.538349 0.338240 -0.517233 -0.684357 0.360315 -0.110877 -0.750846 -0.110620 0.061410 -0.094259 0.253136 0.072851 -0.280498 -0.473903 1.004899 -0.334417 0.373922 -0.362044 -0.056045 0.697382 -0.464846 -0.939120 -0.453644 0.494085 -0.696980 -0.869242 -0.097621 -0.318746 0.366975 -0.710420 -0.132559 -0.339346 -0.283573 -0.715719 -0.721144 0.032389 -0.373010 -0.244894 -0.274929 -0.279841 -0.158347
when -0.506716 -0.029899 0.030330 -0.289637 -0.335292 -0.427394 -0.293852 0.499071 -0.110075 -0.095776 -0.070133 -0.820175 -0.920778 0.090044 -0.287513 -0.938152 -0.215197 -0.062685 -0.264741 -0.503789 -0.391089 -0.568240 -0.218831 0.299587 -0.690894 0.724779 -0.293621 -0.379571 0.370494 -0.505585 -0.900012 -0.838116 -0.104973 -0.618436 -0.336289 -0.794125 -0.270705 0.376062 -1.012508 0.176769 -0.096629 0.720218 -0.246939 -0.894710 0.294538 -0.074980 -0.492529 -0.179695 -0.143040 0.666703
woke -0.738449 0.658563 -0.632224 -0.027986 0.040157 0.061197 -0.211266 -0.018996 -0.183585 0.434273 -0.382684 -0.511261 -0.971143 0.626120 -0.691498 -0.378756 -0.328282 0.436171 -0.100566 -0.216010 -0.299565 0.347529 0.120690 0.130410 0.200031 0.148354 0.179115 -0.172071 -0.045483 -0.126965 -0.550930 -0.458887 -0.018189 -0.925030 -0.662923 -0.363523 -0.477909 0.123402 -0.507090 -0.518579 -0.387861 0.402718 0.126606 -0.659994 0.298120 -0.489143 0.016628 -0.094070 0.380385 0.295350
up -0.733557 0.408860 -0.696434 -0.300684 -0.449265 -0.177338 -0.270009 0.601519 -0.345520 0.289011 -0.042737 -0.507595 -1.406039 0.674617 -0.672092 0.137004 -0.404185 -0.160868 -0.039779 -0.375024 -0.339166 -0.464114 0.185505 0.099067 -0.107390 0.188185 -0.265101 -0.222215 0.289944 -0.305531 0.032408 -0.352632 -0.069437 -1.077567 -0.216512 -0.223909 -0.616929 0.150505 -0.825683 -0.390337 -0.258698 -0.053958 -0.776704 -0.704101 0.319196 -0.160714 0.308913 0.290318 -0.948308 0.079503
dull 0.019740 -0.056821 -0.516961 -0.152016 -0.425568 0.583901 -0.001959 0.154479 -0.348993 0.231362 -0.231071 -0.147440 -0.920699 0.418243 0.213074 -0.138624 -0.453696 -0.286686 0.266371 -0.195262 0.527571 -0.123077 0.385420 0.252243 0.290945 0.321356 -0.360140 0.171864 0.108990 -0.471921 -0.338607 0.070482 0.009542 0.167335 -0.259737 0.071963 0.054668 0.141022 -0.253598 -0.350725 -0.146806 0.426030 -0.013681 -0.431718 -0.123464 0.271778 0.008310 0.715401 0.202412 0.235285
gray -0.681604 0.037416 -0.395324 -0.043529 -0.073224 -0.025095 -0.549388 0.347589 0.332214 0.067867 0.202335 -0.521468 -1.070114 0.549636 -0.281758 0.034867 -0.449310 0.271596 -0.446885 -0.054457 -0.063469 0.240127 0.104518 0.189384 -0.047344 0.600626 -0.391711 0.311490 0.144193 -0.287858 -0.298069 -0.389289 0.014707 -0.519601 -0.215203 -0.318514 -0.271991 0.575771 -0.448300 -0.215199 -0.138209 0.420323 -0.418207 -0.478006 0.196234 -0.477511 -0.264834 -0.054022 -0.231495 -0.089401
tuesday -0.515928 0.170129 0.036067 -0.370059 0.088263 -0.279313 -0.145214 0.171050 0.392543 0.071325 -0.133818 -0.390695 -0.369633 0.342368 -0.752406 0.088995 -0.494905 0.431733 -0.498435 -0.131460 0.523031 -0.343045 -0.464148 0.127030 -0.172106 0.645897 -0.091741 0.160538 0.211858 -0.645431 -0.420012 -0.126652 0.052881 -0.185998 0.035169 -0.474896 0.252470 -0.205070 -0.070887 0.264277 -0.039715 0.585026 -0.355625 -0.455258 0.318518 -0.561790 0.180741 -0.286255 0.281880 -0.132235
our -0.141665 0.210529 -0.560195 -0.527911 -0.127468 -0.613270 -0.359903 0.056623 0.311953 0.812176 -0.134717 -0.259353 -1.186819 0.009269 -0.575471 -0.024713 -0.709928 0.315926 0.188629 -0.132859 0.219479 -0.007171 -0.072509 -0.147101 0.059220 0.682247 -0.979724 -0.284353 0.296161 -0.328784 -0.492485 -1.001355 0.362612 -0.477316 -0.457123 -0.826447 -0.625769 0.200266 -0.183697 -0.146108 -0.284687 -0.009843 -0.424804 -0.678802 0.252569 -0.667725 0.047240 0.038947 -0.224861 -0.034943
story -0.620731 -0.151853 -0.403352 -0.106748 -0.295290 0.057445 -0.120286 -0.150584 0.075517 0.386226 -0.040867 -0.128545 -0.808764 0.358002 -0.383971 -0.120097 -0.373893 0.517427 -0.701145 -0.330320 -0.172341 -0.301271 -0.360444 0.031928 0.147103 0.832657 -0.224387 -0.404695 0.360237 -0.713014 -0.300191 -0.460515 0.329726 -0.510409 -0.583482 0.133694 -0.134006 0.112149 -0.549376 -0.100832 -0.195315 0.098631 -0.622925 -0.538095 -0.016330 0.006869 -0.674675 0.199003 0.144614 0.561369
starts 0.235186 0.590686 -0.100731 -0.511007 -0.517717 0.553375 0.382592 0.285538 0.511911 0.158310 -0.147281 -0.444628 -0.448430 0.402671 -0.270180 -0.245921 -0.157305 0.173474 -0.200094 0.166590 0.548889 0.177762 0.203848 -0.020235 0.121816 0.250735 0.077905 0.129688 -0.104310 -0.467228 -0.372592 -0.410860 0.135279 -0.532168 -0.017107 0.152560 -0.346254 0.307968 -0.080693 0.159398 0.213129 0.205881 -0.246374 -0.210848 0.209953 -0.160133 -0.080256 -0.071985 -0.167889 -0.190398
nothing -0.641923 -0.227207 -0.119199 0.060839 -0.662994 -0.411271 -0.168626 -0.133963 0.319348 0.560431 -0.088537 -0.668864 -1.109009 -0.005144 -0.995231 -0.312869 -0.717640 0.222954 -0.108501 -0.323406 0.194870 -0.442756 0.222628 0.346328 -0.043024 0.248081 -0.272087 -0.313182 0.771882 -0.997791 -0.808526 -0.534712 0.240409 -0.993723 -0.881384 -0.981101 -0.773447 0.227755 -0.595840 -0.377730 -0.363221 0.154622 -0.416483 -0.714626 -0.267032 -0.334150 -0.092331 0.021685 -0.144983 -0.017532
cloudy 0.072269 -0.264478 -0.299678 0.121264 0.027131 -0.250137 -0.195478 0.136597 -0.271911 0.589736 -0.127298 0.072893 -0.006949 0.281204 -0.654758 0.082352 0.176514 0.258855 -0.022526 -0.408508 0.546310 0.109710 -0.048050 0.190600 0.260345 0.311938 0.018061 -0.226028 0.117105 -0.491976 0.091772 0.330992 -0.154017 0.090850 -0.016130 0.149927 -0.177409 0.407242 -0.572340 0.044441 0.356626 0.700057 0.086051 -0.205135 0.250121 -0.002917 0.190537 0.130379 0.153337 0.503340
sky -0.703542 -0.272938 -0.652151 -0.204227 -0.108069 0.030009 0.060038 -0.248817 0.332572 0.420816 0.227388 -0.754966 -1.564536 0.211566 -0.256395 -0.386144 -0.149458 0.170125 -0.269068 -0.126004 0.036996 -0.290456 -0.485964 0.428584 0.285404 0.395950 -0.399669 0.262342 0.535164 -0.333231 -0.303987 -0.752948 0.160393 -0.543567 -0.371477 -0.461198 -0.021776 -0.008989 -0.341931 -0.586543 0.020874 -0.039283 -0.379641 -0.848853 -0.072837 0.090411 0.057089 0.301766 -0.152708 0.468257
outside -0.858331 -0.217116 -0.555496 -0.635781 0.025131 0.741497 -0.143236 -0.070566 -0.119407 0.456324 0.127842 -0.872858 -1.409078 0.254143 -0.440072 0.043475 -0.809208 0.102330 -0.178465 0.123663 0.043975 -0.455148 -0.129042 0.233272 -0.061530 0.689556 0.149851 -0.375828 0.178692 0.062225 -0.506271 -0.710631 0.055773 -0.418327 -0.797495 -0.489708 -0.256396 -0.079424 -0.749430 -0.686558 -0.113381 0.254436 -0.108802 -0.471473 0.595744 -0.081624 -0.407209 0.028935 -0.483491 -0.090472
suggest 0.355460 0.446747 -0.257795 0.146250 0.274442 0.314432 -0.412848 0.201833 0.031017 0.441327 0.064228 -0.111196 -0.765940 0.175369 -0.306300 -0.057742 -0.619088 -0.049927 -0.099127 -0.407861 0.455517 0.061255 0.287279 -0.223593 0.177078 0.098898 -0.052903 0.293613 0.403127 -0.391850 -0.565116 -0.137124 -0.071520 -0.454633 -0.396344 -0.440473 0.148551 0.323820 -0.310758 0.179729 0.010908 -0.240918 -0.660941 -0.527869 0.396623 -0.469688 -0.375775 -0.348288 0.027357 0.414876
things -0.240310 -0.138944 -0.501683 -0.511071 -0.233088 0.180919 -0.364823 -0.134466 0.206200 0.725622 -0.054139 -0.788390 -0.674508 0.033331 -0.793587 -0.089582 -0.420023 0.066183 0.460463 -0.156352 -0.203153 -0.375280 -0.174081 -0.018548 -0.097389 0.903934 -0.613667 -0.289803 0.589215 -0.652690 -0.392865 -0.699146 0.116889 -0.765619 -0.961543 -0.939643 -0.475936 -0.165191 -0.672805 -0.349392 -0.463146 0.017756 -0.492620 -0.511187 0.261992 -0.368906 -0.132741 -0.085197 0.188985 0.213417
soon -0.595374 0.433963 -0.766755 -0.239493 -0.580770 -0.357211 0.083820 0.125763 -0.170617 -0.064907 -0.127285 -0.641659 -1.329426 0.356333 -0.277652 -0.735294 -0.281622 0.157724 -0.020716 -0.516927 -0.123282 0.085652 0.122513 0.297697 -0.449682 0.762961 0.034201 -0.323943 0.253704 -0.671918 -0.238122 -0.062353 0.328527 -0.328922 -0.675052 -0.045725 -0.612420 -0.327117 -0.437085 -0.492133 -0.354822 0.769272 -0.704922 -0.454337 -0.316253 -0.724770 -0.159890 0.330248 0.247800 0.126706
happening -0.249744 0.222271 -0.718750 -0.707993 -0.192029 -0.063033 0.089862 0.284178 0.123197 0.306960 0.198209 -0.051083 -0.936304 -0.134547 -0.027129 -0.007113 -0.195656 0.391228 -0.200939 -0.299479 0.274864 -0.335363 0.163485 -0.033985 -0.007675 0.192879 -0.351346 -0.361452 0.608629 -0.720977 -0.336241 -0.104025 0.503759 -1.048517 -0.501292 -0.657382 0.132064 0.411310 -0.743026 0.195536 0.288203 0.416466 -0.502511 -0.042967 -0.160691 0.107493 -0.275536 -0.312598 -0.215895 -0.105015
all 0.003629 -0.295055 -0.615235 -0.450655 -0.099617 -0.016053 -0.463453 -0.657508 -0.558491 0.659014 0.209971 -0.754280 -1.780973 0.539232 -0.751344 -0.577102 -0.509505 0.096779 0.130590 -0.843226 -0.075385 0.351711 -0.309754 -0.183279 -0.782962 0.575470 0.547095 -0.316320 0.198426 -0.514484 -0.099304 -0.532785 0.475108 -1.097898 -0.544852 -0.869009 -0.327781 -0.075795 -0.851244 -0.095038 -0.191296 0.102763 -0.631421 -0.485016 -0.046850 0.245938 -0.091857 -0.116179 0.022512 0.284124
country -0.044849 0.176161 -0.017774 -0.415974 -0.645127 0.380699 -0.104050 0.112080 -0.173359 0.489287 -0.161183 -0.879207 -0.610373 0.381956 -0.693001 -0.611111 -0.539230 0.020036 -0.259283 0.099608 0.058334 -0.403316 -0.093544 -0.022195 -0.105047 0.417260 0.236120 -0.248299 0.487562 -0.104925 -0.674839 -0.384184 -0.201522 -0.199871 0.086291 0.241841 -0.173928 -0.075388 -0.014610 0.264843 0.039864 0.394130 0.063955 -0.864305 0.166886 -0.078342 -0.194595 0.186927 -0.130531 0.418991
hummed -0.550705 0.255895 -0.432094 0.348733 -0.057326 0.355390 -0.283731 0.128871 -0.026996 0.606181 -0.505332 0.081399 -0.420143 -0.054927 -0.195204 -0.243384 -0.461901 -0.027093 -0.470468 -0.135166 -0.388987 -0.073893 -0.258883 0.193241 -0.444643 0.692511 -0.283919 -0.321412 0.292644 -0.026553 -0.482022 -0.099233 -0.290482 -0.261861 -0.166708 0.016268 -0.355711 0.459406 -0.227483 0.080093 0.143245 0.454836 -0.510788 -0.546853 -0.023955 -0.237287 0.301792 0.447113 0.011259 0.220753
picked -0.974838 0.112988 -0.591742 -0.304478 -0.740994 -0.114772 -0.157949 -0.081444 0.339115 0.688619 -0.337610 -0.235752 -0.793625 0.421328 -0.111963 -0.440925 -0.871246 0.437862 -0.457714 -0.449412 -0.137964 0.080622 0.044341 0.337684 -0.485689 0.407290 0.190223 -0.149182 0.456409 -0.096878 -0.215314 -0.423571 -0.444430 -0.844168 -0.441738 -0.330708 -0.879907 -0.219590 -0.345509 -0.627836 -0.288880 0.704544 -0.384347 -1.031851 0.650953 -0.526604 0.075623 -0.258138 -0.651943 0.483039
his -0.424692 0.521805 -1.347228 0.089942 -0.870264 -0.676455 -0.497982 -0.333537 0.259983 0.392224 -1.004555 -0.712719 -1.373746 0.551875 -0.230655 -0.104336 -0.373719 0.316588 0.019509 0.405776 0.121544 -0.026900 -0.471269 -0.054457 -0.796591 0.605762 -0.361296 -0.233604 0.553292 0.295470 -0.084172 -0.810693 0.390617 -0.714993 0.480773 -0.419628 -0.305846 0.424600 -0.398074 -0.102173 -0.638166 0.054739 -0.241242 -1.048967 -0.003517 -0.490050 -0.840601 0.069927 -0.071833 0.374684
most 0.070429 0.443999 -0.383923 0.124885 -0.497860 0.028846 0.172633 0.353969 -0.538572 0.880386 -0.470792 -0.562095 -0.888826 -0.029298 -0.306587 -0.354262 -0.303685 0.190384 -0.292085 -0.453925 0.283209 -0.184499 -0.069532 0.150225 -0.173423 0.641057 0.182658 0.062350 0.206438 -0.819769 -0.815105 -0.033287 0.214916 -0.952593 0.166887 -0.721128 -0.504117 -0.142126 -0.576622 -0.104153 -0.065019 -0.160126 -0.340987 -0.598681 0.511457 -0.475887 -0.205059 -0.154400 -0.261409 0.645152
boring -0.547950 0.365890 -0.633390 0.132021 0.083088 -0.172973 -0.245326 0.246568 0.125389 0.017685 0.380193 -0.138161 -0.481431 -0.152063 -0.076596 -0.282003 -0.769268 -0.123508 0.066183 -0.287947 -0.062841 0.048556 -0.001426 0.484484 0.055262 0.318480 -0.271209 -0.267899 0.430772 -0.112369 -0.124392 -0.270790 0.356752 -0.458768 -0.425000 -0.054644 0.043982 0.091447 -0.214378 0.037427 -0.087867 0.075700 -0.415979 -0.219667 0.624307 0.052826 0.189350 -0.174008 0.064318 0.366561
tie -0.446162 0.277932 -0.147174 -0.387905 -0.183856 -0.320850 0.121358 0.320310 0.102560 0.359811 0.465613 -0.474686 -0.479338 -0.212858 0.407360 -0.065580 0.057517 -0.115853 0.446072 0.402139 0.503484 -0.065308 -0.046824 0.381812 -0.410454 -0.207921 0.004403 0.417257 0.268054 -0.062030 -0.366935 -0.072694 0.477275 -0.281799 -0.325173 -0.394026 -0.133725 -0.054782 0.007427 0.451290 0.421172 0.144166 0.266576 -0.169065 0.524508 0.073095 -0.135975 -0.172902 0.289518 0.620954
work -0.521768 0.282009 -0.363572 -0.153695 -0.038613 -0.275975 0.211697 -0.013873 -0.145385 0.578338 -0.318756 -0.245409 -0.879832 0.290695 -0.681897 -0.544920 -0.712657 -0.032652 0.017315 -0.498573 -0.028957 -0.306688 -0.515344 0.094155 -0.516144 0.570730 -0.441436 -0.075961 0.566322 -0.681888 -0.153749 -0.465418 0.452643 -0.969929 -0.509882 -0.325367 -0.591807 0.097953 -0.448491 -0.191877 0.022115 0.171598 -0.475981 -0.811406 -0.162211 -0.741037 -0.543112 -0.121444 -0.029663 0.341104
gossiped -0.065091 0.150614 0.128835 -0.083265 0.201268 -0.100320 0.315683 0.371633 -0.100585 0.419018 0.477606 0.387160 0.101550 0.120819 0.272257 -0.316787 -0.367705 0.607519 0.228359 0.024490 0.196880 0.462126 0.083264 0.400108 -0.206222 0.186648 0.114744 0.008815 0.389563 0.429680 0.306013 0.240445 0.362601 -0.630292 -0.119400 0.090451 0.476957 0.254993 -0.523716 -0.470103 0.341748 0.103777 0.150094 0.409399 0.511036 0.048916 -0.248947 0.467681 0.124188 -0.058841
happily 0.120709 0.080245 -0.080132 -0.001263 -0.071568 0.155733 -0.259498 -0.001263 0.342532 0.218622 -0.164155 -0.028606 -1.058647 0.435628 0.043292 -0.279903 -0.093934 -0.290198 -0.074748 -0.630273 0.427217 -0.484263 -0.034513 0.167483 -0.168529 0.499232 0.111325 -0.134137 0.565897 -0.529544 0.090186 -0.607878 -0.096298 -0.648153 -0.047207 -0.060114 -0.070801 -0.084648 -0.609590 0.013604 -0.000193 0.424688 -0.281039 -0.156888 0.125433 0.335202 0.255334 -0.126992 -0.290674 0.674886
wrestled -0.520233 0.417338 -0.317473 -0.008724 -0.128447 -0.181239 -0.192204 0.457036 0.517534 0.160274 -0.130665 0.091992 0.131846 -0.285720 -0.381361 0.370676 -0.371643 -0.005541 0.206344 -0.003966 0.077621 -0.414620 -0.269005 0.415904 -0.486925 0.066139 0.273553 0.453553 0.542501 0.050366 0.145084 -0.140831 0.154164 0.314956 0.434369 0.055107 0.044868 0.337580 -0.020297 -0.504668 0.402718 0.134359 0.085862 -0.612817 0.447817 -0.547988 0.045029 -0.268662 0.142094 0.629696
screaming 0.052795 0.136760 0.017453 -0.190739 -0.183054 -0.494558 0.235326 0.015769 -0.375662 0.325812 -0.452041 0.015931 -1.219700 0.014849 -0.318079 -0.671446 -0.460168 0.135924 -0.324825 -0.161232 0.501487 -0.146712 -0.200989 0.313598 0.127312 0.550514 -0.523775 0.422600 0.573566 -0.254246 -0.151188 -0.052591 0.395859 -0.202824 -0.253246 -0.093779 -0.175126 0.438658 -0.124368 -0.520250 0.133190 0.566810 -0.364528 -0.204361 -0.130156 0.110654 -0.446848 0.292471 0.019040 0.221866
into -0.501654 0.249778 -0.797688 -0.347859 0.001951 0.360917 -0.718513 0.260217 -0.722727 0.825174 -0.258013 -0.273153 -1.223650 0.603620 0.312842 -0.384937 -0.669923 0.040287 -0.274216 -0.032662 0.285977 -0.564923 -0.578867 0.042277 -0.342341 0.281993 -0.118501 -0.187064 0.502231 0.213924 -0.891063 -0.373733 -0.067102 -0.534281 -0.246670 -0.107289 0.072732 0.115306 -0.442385 -0.667356 -0.598713 0.674733 -0.396599 -1.002199 0.030031 0.058592 -0.161998 -0.074327 -1.062446 0.370494
high -1.149760 0.143427 -1.201008 -0.239434 -0.108837 -0.004045 0.211248 0.201265 0.343424 0.379205 -0.040047 -0.845175 -1.293548 0.125221 -0.598626 -0.401842 -0.211130 -0.240545 -0.184989 -0.155009 0.382386 -0.603683 -0.464559 -0.043417 -0.699995 0.815358 -0.180675 0.195689 0.319202 -0.284721 -0.169174 -0.484036 -0.000879 -0.549109 0.090465 0.232583 0.079155 0.103225 -0.230019 -0.564122 -0.266058 0.334424 0.008214 -1.224073 -0.182566 -0.380938 -0.143889 -0.036921 -0.394837 0.219989
chair -0.031675 0.143821 -0.500947 -0.376137 -0.011659 -0.267530 -0.526341 0.278084 -0.344256 0.307748 -0.233769 -0.334201 -0.549116 0.348245 -0.037507 -0.402526 -0.808121 -0.450260 -0.510132 -0.441405 0.356935 0.005269 -0.248923 0.367503 -0.525523 0.340694 -0.197493 0.381507 0.280351 -0.281025 -0.138613 -0.485146 0.374115 -0.760570 0.220444 -0.094712 -0.105520 0.043412 -0.662625 0.137437 -0.342427 0.455985 -0.454237 -0.968402 0.458031 -0.604212 -0.481049 0.420511 -0.162766 0.532982
none -0.119369 0.049643 -0.423368 -0.074770 -0.209235 0.009490 -0.323647 -0.052322 0.376110 0.865805 0.137855 -0.738939 -1.027081 -0.375309 -0.431184 -0.140163 -0.157594 -0.315183 -0.104569 -0.705562 0.016637 -0.033461 0.000804 0.010825 -0.536416 0.356015 -0.477083 -0.456159 0.516767 -0.209455 -0.297486 0.134428 0.330082 -0.621629 -0.684073 -0.184992 -0.067329 0.280758 -0.598311 -0.540601 0.101345 0.106324 -0.363323 -0.983242 0.349665 -0.609910 0.291220 -0.047078 0.156614 0.301413
them -0.607802 0.062695 -0.699940 0.175963 -0.580451 -0.080165 -0.192623 -0.142975 0.391425 0.126359 -0.176007 -0.250777 -1.281015 0.225951 -0.159421 -0.140416 -0.120929 -0.285711 -0.297819 -0.554764 -0.512221 0.020972 -0.147147 0.287968 -0.636037 0.721609 -0.224790 0.030636 0.483137 -0.330356 -0.378969 -0.729303 -0.031734 -1.119967 -0.215145 -0.748636 -0.274349 0.187219 -1.230531 -0.133641 0.115124 0.147216 -0.920871 -0.517440 0.244768 -0.364767 0.146535 0.182344 -0.224058 -0.282198
noticed -0.511292 -0.169525 -0.171105 -0.715799 -0.803552 -0.328608 -0.095659 0.122728 0.399639 0.616897 -0.155648 -0.622440 -1.095191 0.398438 -0.448484 -0.243744 -1.155691 -0.041292 -0.315747 -0.425527 -0.176709 -0.206262 -0.384264 -0.103901 -0.204863 -0.080447 0.056574 -0.236399 0.730988 -0.863154 -0.873703 -0.544223 -0.188006 -1.038439 -0.082169 -0.336600 -0.049768 0.040500 -0.982959 -0.216794 0.047227 0.169693 -0.212272 -0.932526 0.485074 -0.581447 -0.238345 -0.182479 0.040854 0.380650
tawny 0.165319 -0.152005 0.164092 -0.298256 -0.096102 -0.262145 0.000936 0.105101 0.003249 0.667841 -0.187330 0.028286 -0.582587 0.601607 -0.327893 -0.045075 -0.376272 0.105263 0.354880 -0.322033 0.022366 -0.504377 0.012001 0.348345 0.001182 0.494153 -0.153215 0.276728 0.235782 0.160633 -0.578457 0.045695 -0.397227 0.037117 0.017990 0.318135 0.234730 0.418321 -0.407431 0.301738 -0.081662 -0.033460 -0.067404 -0.550399 0.122442 0.228569 0.329066 0.145412 0.444379 0.346340
owl -0.334159 -0.462757 -0.231116 -0.467430 -0.047296 0.569220 -0.112140 0.458638 -0.296010 0.095333 0.202831 -0.387900 -1.206277 0.723935 -0.035810 -0.680992 -0.318071 0.065523 -0.298878 -0.310232 0.453445 -0.383085 0.152427 -0.225009 -0.489875 0.619201 -1.078764 -0.273763 0.699171 -0.269478 -0.502631 -0.832124 -0.061361 -0.592551 -0.205889 -0.569621 -0.254755 0.649281 -0.517974 -0.350236 -0.311082 0.248902 -1.006167 -0.887731 -0.045865 -0.063558 -0.237576 0.062736 -0.087429 -0.119919
flutter 0.191715 0.347125 0.004989 0.124025 0.099528 0.545877 -0.285839 0.155582 0.375228 0.186585 0.330870 0.077806 -0.341603 -0.316566 0.252286 -0.136013 -0.389806 -0.123828 -0.142336 -0.424477 0.205072 0.266406 -0.037291 0.289244 -0.316770 0.666075 -0.161253 -0.385208 0.476514 -0.249157 -0.332000 -0.118398 0.372937 -0.489032 0.180284 -0.431603 -0.209287 0.296066 -0.397061 0.094630 -0.348789 -0.177476 -0.154666 -0.571769 0.519648 0.040902 0.139139 0.067117 0.178622 -0.243134
past -0.352623 0.157800 -0.724480 -0.537409 -0.524966 -0.440179 -0.109857 0.466275 -0.195060 0.745502 -0.122177 -0.293741 -1.159542 0.243917 -0.216689 -0.359170 -0.473354 0.203299 0.070279 -0.403947 -0.384803 -0.268874 -0.722254 0.303649 -0.273154 0.661114 0.058804 -0.157613 0.368864 -0.565040 -0.639259 -0.391978 -0.100596 -0.598195 -0.250812 -0.332051 -0.065702 0.472893 -0.418989 -0.499002 0.231747 0.426638 -1.072010 -1.004780 -0.216006 -0.204992 0.288237 -0.610842 -0.593278 0.051462
window -0.992189 0.177618 -0.389137 -0.385950 -0.713776 0.119748 0.081942 0.126265 -0.459217 0.387399 -0.025940 -0.703327 -1.462385 -0.448220 -0.610168 -0.314231 -0.327202 0.076715 -0.639625 0.039693 0.186121 -0.147558 0.250164 0.176295 -0.053717 0.573330 -0.619243 0.220683 0.355648 -0.537325 -0.692087 -0.327443 -0.264017 -0.766077 -0.541268 -0.286106 0.011502 -0.006582 -0.985441 -0.264158 -0.356914 0.101775 -0.630256 -1.043872 0.252729 -0.158613 -0.132974 0.347303 -0.183512 0.290014
at -0.250154 0.297952 -0.741420 -0.240711 -1.235882 0.270780 -0.835239 0.206130 -0.064623 0.321951 -0.566001 -0.608716 -1.724915 0.814802 -0.321182 -0.791095 -0.852484 -0.117471 -0.188114 -0.365233 -0.321300 0.282542 -0.060627 0.006147 0.602103 0.640973 -0.572517 -0.019361 0.428841 -0.229656 -1.307433 -0.588147 0.159018 -0.561060 -0.871078 -0.216079 -0.321256 0.686527 -0.787687 -0.206983 -0.683500 0.064569 0.144574 -0.438735 0.095164 0.021460 -0.041731 -0.245564 -0.209063 -0.472301
half -0.680545 0.208967 -0.188956 -0.572951 -0.029009 -0.006818 -0.202032 0.568172 0.075606 0.149276 0.288225 -0.782904 -0.930993 0.303027 -0.757990 0.048258 -0.114237 -0.137588 -0.241797 -0.401861 0.323033 -0.408213 -0.323008 -0.323000 -0.011895 0.379444 -0.287832 -0.492907 0.229763 -0.175003 -0.383252 -0.370599 -0.403447 -0.536264 -0.325716 -0.442837 0.066635 0.587946 -0.702582 0.191353 -0.464374 0.183337 -0.610100 -1.358585 -0.033494 -0.150570 -0.265822 0.096178 -0.233809 0.543182
eight -0.221864 -0.196364 -0.644404 -0.028513 -0.463200 -0.305730 -0.510725 0.527926 0.317215 0.334106 0.083185 -0.732574 -0.794182 -0.112543 -0.527119 0.168901 0.039896 0.315430 -0.153448 -0.541099 0.068958 -0.119078 -0.278463 0.375204 0.218254 0.281667 -0.118514 0.311618 0.016965 -0.351170 -0.124893 -0.230039 0.001642 -0.330621 -0.312336 -0.463804 0.103968 0.093256 -0.206935 -0.151392 -0.228568 0.648733 -0.556108 -0.473204 0.374220 -0.456643 -0.271457 0.114191 0.097337 0.099970
briefcase -0.435253 0.366999 -0.208071 -0.314447 -0.075618 0.348863 -0.391364 -0.071197 0.081850 0.006313 0.278375 0.055696 0.013976 -0.016597 -0.261964 -0.004075 0.053572 -0.135298 -0.185355 0.519596 -0.150762 -0.304776 -0.312618 0.154948 -0.362196 0.709901 0.252209 0.003205 0.115125 -0.035838 0.402442 0.514356 -0.206715 -0.299545 -0.108983 0.058535 0.419434 0.159893 -0.173420 -0.000501 0.019029 0.794960 0.530156 -0.174430 0.592419 -0.285972 -0.291875 0.397246 0.583638 0.500231
pecked -0.135468 0.603110 0.428920 0.332910 0.512568 -0.143281 -0.139302 0.193547 0.039012 0.083383 0.438344 -0.235988 0.061945 0.286820 0.196498 -0.237263 -0.025189 0.129508 0.242031 0.244164 0.652484 -0.357340 0.323334 0.491814 -0.313562 0.412814 0.008802 0.557575 -0.059594 -0.205363 -0.168883 -0.052025 0.570657 -0.444085 -0.130991 -0.301143 0.064576 -0.270810 0.436389 0.481924 0.228582 -0.119578 0.111316 -0.269948 0.050929 0.033131 -0.122380 0.590434 -0.080412 -0.203070
cheek -0.532872 0.043421 -0.057547 -0.415145 0.034614 -0.252050 -0.161364 0.026008 -0.209767 0.154713 0.324783 -0.326907 -0.892872 -0.152180 -0.312229 -0.224913 -0.771002 0.241268 -0.388598 -0.103697 -0.342472 -0.483615 0.103376 0.400292 0.437942 0.618685 0.151825 0.477253 0.502308 -0.008192 0.092721 -0.310585 0.088088 -0.513874 -0.458952 0.152441 -0.161717 -0.174757 -0.650505 0.188920 -0.131388 -0.002941 -0.564287 -0.233690 0.754557 -0.002740 -0.411572 0.618269 -0.130018 0.029887
tried -0.727760 0.504208 -0.920638 0.057388 -0.677801 -0.837929 -0.810036 0.171473 0.128756 0.326211 -0.193076 -0.417314 -0.495133 0.163248 -1.159496 -0.561589 -0.940173 0.644054 0.242590 -0.847751 -0.438385 -0.540207 -0.513345 0.101099 -0.095972 0.977061 -0.088693 -0.387889 0.445481 -0.474603 -1.142678 -0.619872 -0.151858 -0.415409 -0.032882 -0.601422 -0.225835 -0.187464 -0.689686 -0.709886 0.043222 0.494732 -0.448391 -0.930210 0.449085 -0.509214 0.061839 -0.167189 0.280507 0.657552
kiss -0.216803 0.414970 -0.249141 0.230780 0.212372 -0.353070 0.028998 0.111053 -0.088353 0.511224 0.335843 -0.328544 -0.547138 0.086111 -0.034610 0.069543 -0.405698 0.306902 -0.444610 0.050472 0.081509 0.001652 -0.564449 0.497908 -0.144151 0.140237 0.209523 0.153831 0.726761 -0.105268 -0.503802 -0.031093 0.085868 0.003709 -0.376113 -0.504450 0.079711 0.261065 -0.682534 -0.089387 0.238695 0.138549 -0.232379 -0.772770 0.369284 -0.287651 -0.398318 -0.311733 0.247006 -0.302202
goodbye 0.013992 0.669480 -0.769552 -0.446368 -0.447857 0.140211 -0.352332 -0.110922 -0.080990 0.885075 -0.055596 -0.319113 -0.653865 0.158887 -0.392485 0.092623 -0.780415 0.212904 0.351287 0.062853 0.377207 -0.493490 0.172460 -0.162041 0.207937 0.387771 0.260123 -0.494213 0.535784 -0.678556 -0.062281 -0.260864 0.295125 -0.410976 -0.316754 -0.601459 -0.557555 0.486625 -0.293955 -0.452209 -0.282995 0.171306 -0.492557 -0.250765 -0.143502 0.035389 -0.374788 0.256464 -0.294888 -0.194251
