77573 50
Harry -0.187113 -0.239025 0.006052 -0.315531 0.249606 -0.085943 -0.155481 0.060521 0.019144 -0.053246 0.077717 -0.083036 0.218952 -0.145683 -0.070997 -0.128234 0.064311 0.009554 -0.084448 0.141253 0.085842 -0.264937 -0.013783 -0.005614 -0.076645 -0.090088 -0.344749 -0.127673 0.029488 0.303448 0.182731 -0.169859 0.171801 -0.014159 -0.134604 0.041368 -0.242506 0.024147 -0.135055 -0.017570 -0.001509 -0.386573 -0.308091 0.175967 -0.288108 -0.035266 0.249524 0.136306 -0.202743 -0.146997
Potter 0.102018 -0.250653 -0.142381 -0.212101 0.173276 -0.041500 0.031276 -0.230830 0.005170 -0.095310 -0.222011 -0.011499 0.054016 0.059875 -0.247249 -0.053165 0.050269 -0.008802 -0.081069 0.161040 -0.157329 -0.143138 0.164497 0.021859 0.019959 -0.079402 -0.061313 -0.010313 -0.071728 0.175804 0.163666 -0.155377 0.053181 -0.161111 -0.073305 -0.041694 -0.272436 0.138147 0.107024 -0.129405 -0.000987 0.102681 -0.053659 0.216321 -0.129927 -0.087360 0.129358 0.082131 0.071416 -0.071228
and 1.202351 0.124409 -1.839011 0.760077 0.429608 1.358084 2.880843 0.988506 0.298306 -0.149182 -0.069009 -0.719160 -0.735067 -0.457022 1.126712 1.572235 -1.248568 1.491965 -1.622765 -0.259958 -1.073064 -0.949735 -1.941717 0.885732 -0.436192 1.271364 -0.553073 -3.398353 2.144676 0.688686 -0.194349 0.191977 -0.845180 -0.258163 -2.850727 1.306667 0.116671 -1.595587 -0.186790 -0.269533 -0.191435 2.129048 0.435777 -2.065153 -2.201886 0.151998 0.275681 -0.459692 -3.016653 -0.001799
the -4.539069 3.013599 3.429434 4.312833 -2.640052 0.439727 0.189983 -1.912181 1.474781 2.067143 -4.297723 1.465360 2.298427 -3.242495 -1.019572 3.132810 -0.945528 -0.829603 -2.910377 2.712837 -1.655490 1.124557 -0.824075 -3.463141 -0.004967 5.506230 -0.335822 1.930662 -4.400432 -0.575516 -3.209571 -1.175816 1.345565 0.859604 -0.561774 0.008716 2.538437 0.679119 2.721912 -1.352380 -5.068488 -0.369177 0.556322 0.356207 -0.729944 0.922683 -0.149494 3.539349 -4.174192 -5.519597
Sorcerers -0.227720 0.298436 0.115827 -0.131157 -0.104089 0.106149 -0.532380 0.013184 0.272828 -0.363800 0.099435 0.544161 -0.336120 -0.092005 -0.419282 0.011964 -0.141133 0.182478 0.130557 0.040884 0.049169 0.036822 0.030720 -0.141576 0.278475 -0.037593 0.325397 -0.209129 0.209436 0.003581 -0.050136 -0.356897 -0.226561 -0.105112 -0.193436 -0.089470 -0.191763 -0.018789 0.238321 0.066128 0.139081 0.381771 0.224902 0.189442 0.095029 0.146548 0.003248 -0.040994 0.028141 0.019879
Stone -0.164381 0.191845 -0.062026 -0.111367 -0.057078 -0.108042 -0.091124 -0.117582 0.044275 -0.210123 0.024578 0.113559 -0.089382 -0.034347 -0.200459 0.058702 -0.038795 0.186228 0.086776 0.053020 -0.102726 0.074191 -0.120683 -0.071161 0.037304 -0.270316 0.054529 0.107317 0.108688 -0.053189 -0.125345 -0.182864 0.029913 -0.009131 -0.094771 -0.020180 -0.067670 0.229999 -0.000312 -0.035034 -0.066993 0.162905 -0.046716 0.025465 0.009878 0.056690 0.002368 0.015179 0.080178 -0.112164
CHAPTER 0.091841 0.220861 -0.127025 0.151716 0.373517 0.070008 -0.035703 0.178149 0.272169 0.025687 0.153907 0.344394 -0.313467 0.215502 0.066455 0.166631 -0.012834 -0.014603 0.249962 0.178710 -0.347957 0.283377 0.192378 0.079940 -0.005692 -0.428845 0.339339 0.222847 0.122364 0.102271 -0.101125 0.335855 0.332705 -0.058779 0.094901 -0.330873 -0.093146 -0.094517 -0.145756 -0.024351 -0.131362 0.169525 0.193653 0.206913 -0.067169 -0.234101 0.016438 0.244631 0.038880 -0.022546
ONE 0.036058 -0.235115 0.342224 -0.136502 0.342149 0.566873 0.046449 -0.174450 -0.285981 0.024683 0.364908 0.253256 0.019822 -0.081771 0.372266 -0.021592 0.102119 0.447854 0.670965 0.402197 0.365518 0.240014 0.352263 -0.003730 -0.066905 -0.142495 0.304330 0.227067 0.008592 -0.108775 0.442556 0.479253 0.471972 0.108650 -0.089141 0.279984 -0.200407 0.547731 -0.141979 0.131267 -0.276251 0.123525 0.021602 0.539082 0.312508 0.259368 0.501441 0.451327 0.043341 -0.218445
THE 0.062666 0.116642 -0.125384 -0.138730 0.155261 0.116114 -0.035926 0.032060 0.316762 0.200362 -0.210192 0.369340 0.250750 0.419887 -0.139878 -0.001784 0.061212 0.074485 0.112704 0.262121 -0.166118 0.004846 -0.011993 -0.145580 -0.102144 0.229222 -0.135062 0.016601 0.146477 -0.066447 0.098531 0.579417 -0.011166 -0.209302 0.238612 0.143294 -0.088634 -0.018284 -0.201807 0.223010 0.037780 0.250850 -0.097932 0.154122 0.394512 -0.190483 0.075512 -0.011416 0.241504 0.136299
BOY 0.120074 -0.450737 0.537068 0.284410 0.417380 -0.196167 0.179229 0.419738 -0.036061 0.264051 -0.254027 0.086715 -0.316736 0.548496 0.166189 0.202749 0.280525 -0.000066 -0.043609 0.156947 0.160794 0.229199 -0.231723 0.386528 -0.060609 0.062717 -0.025772 0.377370 0.365200 -0.331796 0.482793 0.210329 -0.022574 0.217094 -0.262704 -0.153285 0.248915 0.504586 0.312619 0.345998 -0.193145 0.115211 -0.112847 0.314466 -0.014151 -0.179278 0.180488 0.216136 0.401145 0.115970
WHO -0.089083 0.197821 -0.350823 -0.392501 -0.003862 0.342743 0.259683 0.295158 0.240257 0.163180 0.450001 0.566467 -0.044852 0.290129 -0.464905 -0.391255 0.525951 0.562735 -0.328859 -0.325773 0.292846 0.064807 -0.132083 0.114703 -0.002385 0.422700 0.254454 0.343054 0.364000 -0.102270 -0.149613 0.630179 0.394354 0.123893 0.287054 -0.169883 0.583836 0.234633 -0.010933 -0.107709 -0.088449 0.045534 -0.238762 0.227215 -0.231954 0.289473 -0.467187 -0.042199 0.091475 0.157056
LIVED -0.054365 0.457617 -0.102386 0.228036 -0.044736 0.073385 -0.196573 -0.147005 0.393322 0.301171 0.323958 -0.135227 -0.339445 -0.062509 0.255655 0.124229 0.216336 0.523931 0.079024 0.005108 0.362486 0.458670 0.459510 -0.076372 0.127834 0.234899 0.597396 0.366238 0.339859 -0.314828 0.400788 0.246535 0.002726 0.010569 0.532201 0.140082 0.065206 0.120751 0.414726 0.044162 0.333691 -0.115819 0.491261 0.433297 0.586363 0.440124 0.176931 0.113160 -0.054762 0.466271
Mr 0.178407 -0.276703 -0.242438 -0.156696 0.371548 -0.110421 -0.145016 -0.232993 0.147036 -0.213651 -0.359703 -0.026158 -0.211825 -0.123010 -0.159224 0.070276 0.121109 0.081105 0.010807 0.134500 -0.280608 -0.116901 0.137590 0.182996 -0.003571 -0.100548 0.250859 -0.001066 -0.136900 0.216172 -0.003770 -0.279059 0.267186 -0.072870 0.213847 0.035992 -0.209488 0.037627 0.183891 -0.197287 0.067309 0.064397 0.084768 0.059459 -0.150707 -0.128822 0.179178 -0.006635 0.239585 -0.124258
Mrs 0.053842 -0.247328 -0.068776 0.006618 0.088791 -0.017291 -0.210750 0.010831 0.055471 -0.182530 -0.367374 -0.057234 -0.122921 -0.335918 0.035105 -0.094403 0.128857 0.230768 0.117515 0.040417 -0.250177 -0.076893 0.192784 -0.001288 -0.206936 0.014374 0.325053 -0.025684 0.070917 0.138237 -0.086249 -0.305929 0.042328 0.063073 0.179065 -0.081026 -0.050927 -0.151294 0.129870 -0.328172 -0.016121 0.009491 -0.062564 -0.097941 -0.029220 -0.106091 0.160371 -0.127408 0.157471 0.364023
Dursley 0.178518 -0.352886 -0.134781 0.033527 0.315242 0.040368 -0.283011 -0.066473 0.257040 -0.109828 -0.338891 -0.205152 -0.153363 -0.343312 -0.097407 0.189296 0.222300 -0.045115 0.095781 0.250950 -0.372769 -0.048004 0.185905 -0.031725 0.002957 -0.237262 0.278658 0.153866 -0.023846 0.125269 0.042556 -0.333450 0.185306 0.021421 0.230927 -0.143366 -0.151618 -0.152880 0.080920 -0.259097 0.093434 0.157657 0.000048 -0.067019 -0.034983 0.086894 0.155096 -0.188165 0.248381 0.103682
of -0.644548 -0.091456 0.309890 -0.039238 0.422016 -0.129604 -0.164067 0.174510 -0.703312 -0.167983 -0.071000 -0.054580 0.044485 0.326321 0.052254 -0.156125 0.351151 0.043332 -0.228899 -0.955684 -0.324457 0.042510 0.436797 0.358667 0.350907 0.082234 -0.239733 0.008794 -0.038853 -0.197003 -0.150480 -0.148361 0.146646 -0.291812 0.359334 0.001358 0.004197 -0.642489 -0.249639 0.773891 -0.437415 -0.084402 0.531860 -0.147359 -0.536306 0.172002 -0.276633 0.182601 -0.081171 -0.046261
number -0.050783 -0.310200 0.260762 -0.067194 0.016038 0.150901 -0.023374 0.147101 0.034129 0.040327 0.035802 0.106728 0.108533 -0.041469 0.157047 0.036169 0.186014 0.174180 0.325638 -0.010847 -0.038486 0.097850 -0.283359 0.043470 0.219267 0.002796 0.163655 -0.225621 -0.237594 -0.502831 -0.124598 0.075862 -0.036357 -0.049959 0.460836 -0.155939 -0.323180 -0.155974 -0.237616 0.027524 -0.019834 0.297502 0.097441 0.000207 0.287364 -0.268904 -0.035958 0.124167 -0.280895 0.269701
four 0.175966 -0.134732 0.167882 -0.168239 0.168630 -0.145234 -0.216439 -0.087274 -0.222181 0.024891 -0.184421 0.037472 -0.056676 0.012712 -0.121969 0.038878 0.234380 0.113815 0.121850 -0.149461 0.021986 -0.009207 -0.082368 0.008879 -0.033562 0.036310 0.172146 -0.163436 -0.041169 -0.202371 -0.007505 0.021407 0.139230 0.154631 0.322947 -0.061653 -0.202522 -0.181169 -0.108451 -0.314863 -0.181796 0.385142 0.094203 -0.169437 0.152183 -0.110818 0.054486 -0.024702 -0.248726 0.182586
Privet -0.049919 0.099031 -0.075646 0.223703 -0.210346 -0.102559 -0.005370 0.032205 -0.085208 0.082717 0.255736 -0.164418 -0.271407 0.202616 -0.511749 -0.054699 0.458824 -0.014252 -0.037520 -0.046264 -0.307466 0.146928 -0.213411 -0.102704 -0.113925 0.077137 -0.104886 0.077466 0.081739 0.000922 0.385244 -0.059089 0.170066 0.019058 -0.028934 -0.495475 -0.471288 0.092042 -0.179757 -0.219632 -0.084976 -0.035212 0.205824 0.146241 -0.272041 -0.055821 0.259175 0.213030 -0.079704 0.426691
Drive -0.032004 -0.049735 -0.091931 0.304898 0.035942 -0.101383 0.156704 0.236032 -0.105946 0.039433 0.333590 -0.167897 -0.185499 0.167274 -0.478914 -0.016437 0.222824 -0.061555 0.048911 0.046257 -0.077995 0.176827 -0.121499 -0.339833 -0.209753 0.024093 -0.112857 -0.262701 0.063733 0.043070 0.256904 -0.035339 0.082479 -0.171103 0.047869 -0.436112 -0.402799 0.093982 0.134058 -0.149754 -0.126303 0.052790 0.014124 0.104843 -0.115883 0.112509 0.122223 0.271410 0.156199 0.284165
were -0.054510 -0.105820 0.011034 -0.115681 -0.170815 -0.014087 -0.036365 -0.137879 0.102820 -0.041411 0.223273 -0.198899 0.001681 -0.097187 -0.078264 0.069360 0.073177 -0.052318 -0.005413 -0.019743 -0.129810 -0.114932 0.088409 -0.058877 -0.216277 -0.198934 -0.080968 -0.048200 -0.065956 -0.049625 -0.115535 0.245734 0.004048 -0.172115 0.120123 -0.069053 -0.063241 -0.245208 0.026351 -0.106268 -0.115826 -0.010873 0.072695 -0.122399 0.087101 0.196269 -0.100184 -0.098573 0.021575 0.040174
proud 0.182464 0.140875 -0.406586 -0.362188 0.372353 -0.311310 0.095833 -0.357918 0.322959 -0.194820 -0.294683 0.304760 -0.231816 0.095567 -0.003144 -0.164621 -0.041327 -0.096956 0.101434 0.172405 -0.505046 -0.194937 -0.034052 -0.116521 -0.086055 -0.289613 -0.132364 -0.187769 0.015845 0.004894 0.153306 0.340213 0.035151 -0.343920 0.147284 0.150083 0.098980 0.107021 0.100134 -0.284634 -0.068271 0.047564 0.370365 0.323077 -0.087053 -0.345184 0.020203 0.345695 0.251867 -0.194643
to 0.905899 1.751255 0.096955 -0.428260 0.950774 -1.604388 -0.073882 -0.770388 -2.219408 0.508358 1.135156 0.869318 -0.112879 -0.140652 4.621238 3.139153 -0.391036 -0.543294 -2.042660 -1.202886 1.797509 1.563908 -2.270730 -2.136062 1.535247 1.752025 1.079036 -0.850722 -2.902982 1.313457 0.150918 0.701476 -2.081629 -2.744501 -0.752811 -0.455586 -0.995254 1.032584 -1.397291 -2.921812 -1.863396 -3.062156 -0.034043 3.122655 -2.206030 0.032425 -1.233113 -6.598222 2.394548 0.347228
say -0.084561 -0.129733 0.116794 -0.044018 -0.076447 -0.012987 -0.095721 -0.000621 -0.048771 0.078963 0.036250 0.065414 -0.306973 0.113030 0.015589 -0.056338 0.094097 -0.061070 0.092417 0.046414 -0.152589 -0.065332 0.101914 -0.052295 -0.014831 -0.109924 -0.085913 0.129316 -0.017212 -0.086415 0.080851 -0.097329 -0.344741 -0.126083 -0.241075 -0.257288 0.049185 0.315157 -0.124746 -0.175825 0.081579 -0.010347 0.177105 -0.206559 0.174008 0.000710 -0.092681 -0.031484 -0.024163 0.046826
that 0.003176 0.002163 0.093410 -0.072256 0.044234 0.106026 -0.215981 0.153226 -0.030558 0.201675 0.040917 -0.074571 -0.056923 0.037108 -0.209352 -0.131734 0.134331 -0.016080 -0.026161 0.020064 0.004074 -0.127367 0.075690 -0.016651 0.079209 -0.135574 -0.328610 -0.120321 -0.059729 0.024299 -0.159563 -0.096658 -0.044754 0.083984 -0.216629 -0.177028 -0.087635 -0.124519 -0.141752 0.079539 0.037609 -0.142899 -0.277374 -0.044263 -0.038444 0.004362 -0.148266 -0.094593 0.021799 -0.116895
they -0.194638 -0.004503 -0.028471 -0.156503 -0.190784 0.136160 -0.079761 -0.148334 -0.141305 0.034707 0.183377 0.081652 0.125795 -0.214660 -0.023721 -0.021988 0.166118 -0.119619 0.054582 0.013753 -0.305242 -0.260779 0.040721 -0.050887 -0.156831 -0.231096 -0.216359 -0.124273 -0.059499 -0.037070 -0.009502 -0.029948 -0.226574 0.160060 0.071491 0.023231 -0.062974 -0.130467 -0.142429 0.057365 0.003613 -0.013234 -0.064646 -0.161708 0.087678 0.068363 0.021763 -0.220164 -0.006031 -0.032143
perfectly -0.227569 -0.066556 0.110199 -0.055066 -0.161271 0.219689 -0.221296 0.141262 0.041395 0.327468 0.265318 0.350206 0.026214 -0.091544 -0.215071 -0.107474 0.348082 -0.407366 -0.116038 0.212616 0.099110 -0.108235 -0.166739 -0.076056 0.250648 -0.384274 0.369177 0.377620 0.103089 0.354761 -0.212335 0.392035 -0.121106 -0.054930 -0.066693 -0.322856 -0.304013 -0.341919 0.012988 -0.024216 0.061136 0.117375 -0.137026 -0.269692 -0.155306 -0.093563 -0.165345 0.162199 -0.124123 0.500001
normal 0.291550 -0.121337 0.292244 -0.125111 0.098134 -0.004948 -0.152717 -0.197508 -0.086943 0.389093 0.068365 -0.123397 -0.242508 -0.284430 -0.188740 -0.257837 -0.116855 -0.144975 0.195333 0.145741 -0.180137 0.341023 -0.257613 -0.184147 -0.145068 -0.133687 0.400313 -0.103235 0.106894 0.235743 -0.259389 0.187220 -0.080919 0.233544 0.304974 -0.075609 0.122918 -0.029997 -0.047153 -0.154816 0.013422 0.266205 -0.321309 -0.234573 -0.148480 -0.042678 0.060633 0.057832 -0.026478 0.437632
thank -0.177425 0.033855 -0.028483 0.197911 0.014257 0.394657 -0.152452 -0.155678 -0.157494 -0.451045 -0.269456 -0.176471 -0.512289 0.008187 -0.002790 0.112274 0.200594 -0.429599 0.195882 0.015858 0.007056 0.262538 -0.086853 0.168980 0.088699 -0.185697 0.196350 0.274526 0.121434 0.382908 0.089836 0.000706 -0.016412 -0.248856 0.081885 -0.039206 -0.173367 -0.159286 -0.302617 0.058529 -0.261670 0.178304 -0.023334 -0.203664 0.200812 0.375607 0.223700 -0.119561 -0.187647 0.250852
you -0.079057 -0.098242 -0.130929 -0.267147 -0.072949 0.183196 -0.123451 -0.016237 -0.245789 0.174923 -0.007806 -0.153101 -0.044537 -0.180806 0.100975 -0.237831 -0.052224 -0.318924 -0.206970 0.001170 -0.128647 -0.069746 0.150142 0.048047 -0.105600 -0.225799 -0.010897 0.181342 -0.123019 0.211772 -0.241825 -0.246941 -0.326162 -0.248394 -0.061121 -0.131835 0.131554 0.064795 -0.280368 -0.130478 -0.016597 0.244881 -0.186114 -0.065670 -0.020459 0.256657 -0.163648 0.151705 0.055587 0.151919
very 0.024571 -0.078759 -0.012393 -0.060286 0.072434 -0.007132 -0.026281 -0.012625 -0.038404 0.005245 0.146310 -0.207446 -0.017281 0.091683 -0.099602 -0.138605 -0.151559 0.021807 0.065108 0.003023 -0.095422 0.001855 0.049401 -0.018580 -0.050289 -0.266598 0.232091 -0.186256 0.030543 -0.161515 -0.031832 0.089974 0.003889 0.128655 -0.080670 -0.059001 0.043072 -0.229405 0.001789 0.049162 -0.151209 -0.235389 0.138258 0.024039 0.117183 0.038517 0.017493 -0.017799 0.016304 -0.286249
much -0.031413 -0.038776 -0.211262 -0.107867 -0.016747 0.064789 -0.014876 -0.052370 0.048264 0.149757 0.128746 -0.018001 0.138092 0.069798 0.116983 -0.206878 0.077264 -0.092690 0.067468 -0.111119 -0.077746 -0.298227 -0.069787 -0.077954 -0.246388 -0.066281 0.031829 0.151502 -0.114783 -0.173332 -0.136464 -0.018768 -0.164156 -0.001189 0.061706 0.036958 -0.003691 -0.166862 -0.048072 -0.005958 -0.020424 -0.062383 0.025698 -0.137883 0.164243 0.179467 0.133549 -0.105936 0.137671 -0.118711
They -0.113898 -0.110694 -0.021172 0.012513 -0.137840 0.006199 -0.057413 -0.075926 0.099557 -0.140474 0.063621 0.117501 -0.135281 -0.118444 -0.035983 0.047545 0.003349 -0.174221 0.081334 -0.099802 -0.117125 -0.035206 -0.220461 -0.077332 -0.135247 -0.159197 -0.069950 0.122750 0.051987 0.071883 0.034057 0.222681 -0.058643 0.280973 0.088918 -0.106508 -0.151057 -0.123780 -0.166233 0.004277 0.161810 -0.098656 -0.012617 -0.045905 -0.017099 0.136665 0.027616 -0.056228 -0.052136 -0.104912
last -0.115903 -0.085844 -0.148778 -0.011973 0.083311 0.079992 0.122677 -0.100340 -0.004465 -0.004164 -0.167808 -0.105364 -0.001826 -0.115323 -0.203656 -0.012703 -0.033244 -0.136825 -0.017276 -0.144739 0.029216 -0.208741 -0.039676 0.281822 -0.054656 -0.025651 -0.012799 -0.088232 -0.023435 0.001428 0.078341 -0.047638 -0.001087 -0.157366 0.089843 -0.362406 -0.125086 -0.041756 0.179035 0.110749 -0.139268 -0.001212 0.100062 0.171423 0.327192 -0.281076 -0.009681 -0.046010 0.072450 -0.085708
people -0.077565 0.070556 0.099047 -0.061003 0.093250 -0.148942 0.040664 -0.034913 0.069684 0.077452 0.055010 0.180607 -0.237432 0.000219 -0.193218 -0.223765 -0.031252 -0.005475 0.043616 -0.136947 -0.100746 -0.068029 0.076379 -0.101149 -0.037036 -0.144747 -0.094956 0.025372 0.027091 -0.011882 0.200585 0.157926 -0.052275 -0.115244 0.077445 -0.259845 -0.045434 -0.277683 0.087527 -0.060293 0.039329 -0.076641 0.189117 -0.123728 -0.004426 0.218042 -0.088083 -0.032000 -0.092607 -0.013501
youd -0.315957 0.244184 -0.373506 -0.190495 -0.000225 0.302293 0.013719 -0.047763 0.121407 0.124182 -0.155373 -0.167027 -0.108082 -0.026374 -0.100257 -0.051703 -0.092788 -0.150568 0.150381 0.018337 -0.018908 -0.218108 0.038893 0.070767 -0.173123 0.084648 0.093906 0.158464 0.106044 -0.218019 -0.164379 0.204114 -0.048867 -0.299666 -0.135495 -0.109944 0.026138 0.169840 -0.059254 -0.022497 0.360688 0.024303 -0.221573 0.056366 0.120205 -0.196027 -0.033680 -0.166657 0.202373 -0.169003
expect 0.007603 0.133033 0.256585 -0.081404 -0.042355 0.396146 -0.230288 -0.274031 -0.092942 0.066442 0.004435 0.075362 -0.094844 0.277123 -0.010603 -0.344684 -0.022258 -0.106252 -0.162701 0.004025 0.168562 -0.140431 -0.160518 0.019905 0.143518 -0.246402 0.011131 0.179504 0.094675 0.138837 -0.244618 -0.163346 -0.016672 0.165403 -0.208070 -0.180675 -0.171779 -0.006348 -0.272456 -0.219030 -0.204035 0.402216 -0.073436 -0.155238 0.188972 0.253895 -0.084172 -0.049731 0.043492 0.288364
be 0.131953 -0.181142 0.040027 0.032334 0.024622 0.113543 -0.039835 0.001257 0.214159 0.044218 -0.026230 0.005321 -0.027976 -0.070164 -0.078188 -0.212411 0.176347 -0.292904 -0.161888 0.043570 -0.316089 -0.046267 -0.080638 -0.129202 -0.111273 -0.111554 -0.038748 0.086425 0.016939 0.040003 -0.167807 -0.102464 -0.117663 -0.320475 -0.065152 -0.086556 0.045109 0.128139 -0.005351 0.126712 0.078913 -0.090281 -0.125882 -0.217450 0.053311 0.103164 -0.298727 -0.170488 0.104519 0.201079
involved -0.002001 -0.192360 0.275199 -0.238148 -0.089347 0.268938 -0.370819 0.047530 0.553516 0.265870 -0.119996 0.165341 -0.545213 -0.008010 -0.047753 0.033582 -0.106244 0.258937 0.146707 0.008434 0.090623 -0.449247 0.207715 -0.424487 -0.107264 -0.400676 0.090810 0.148681 -0.009772 -0.406582 0.106337 -0.121585 0.302640 -0.418565 0.305280 0.031574 0.340636 0.029549 -0.351802 0.431636 -0.202389 -0.199185 0.012319 0.056251 -0.253003 0.406810 -0.031684 -0.141185 0.121730 0.147134
in 0.085856 0.119168 0.039823 0.221378 -0.185372 -0.135158 -0.103316 -0.079576 0.086835 0.025262 -0.050429 -0.335355 -0.000097 -0.199389 -0.137082 0.076407 -0.200976 -0.031746 0.158854 -0.326681 -0.076150 0.077926 0.341652 -0.243526 0.066719 -0.146927 -0.079998 -0.152642 -0.113826 -0.023532 0.306659 -0.182862 0.073910 -0.363646 0.125919 -0.008392 -0.137587 -0.224530 0.032819 0.001337 0.359629 -0.131543 -0.189298 -0.047055 0.160944 0.228690 -0.247276 -0.071223 -0.384548 -0.008441
anything -0.032825 -0.036517 0.070236 -0.112840 0.013383 0.092708 -0.236732 0.092860 -0.036014 0.001964 -0.052515 -0.048213 -0.173706 -0.029279 0.063454 0.081580 0.188061 -0.076600 0.066307 0.024048 -0.034466 -0.104930 -0.108289 -0.115475 -0.220271 -0.325436 -0.070943 0.069305 -0.174086 -0.041520 -0.202234 -0.147994 -0.161760 0.071967 -0.135534 -0.090571 -0.046719 0.064170 0.081280 0.111813 0.147392 -0.010922 -0.128870 -0.120157 -0.032361 0.042103 -0.116020 0.032350 0.120728 0.010677
strange 0.085357 -0.054521 0.237969 0.134145 0.180934 0.041838 -0.005171 -0.010230 -0.020836 -0.092848 0.076360 -0.219224 0.110722 -0.067141 0.129820 -0.330733 0.069994 -0.015802 0.090220 -0.226374 -0.114693 0.050976 0.073349 -0.055026 -0.233712 -0.080194 0.159894 -0.023537 -0.113760 -0.098868 -0.083145 0.145798 0.014531 -0.002345 -0.101805 0.183103 -0.003469 0.060502 -0.113024 -0.093801 0.080685 0.034322 -0.220350 -0.153946 0.050753 0.040771 -0.128122 0.093474 -0.043645 -0.004503
or -0.017294 -0.190058 0.087896 -0.229365 -0.030983 0.237852 0.005301 0.142969 0.052994 -0.131203 -0.292258 0.050515 -0.133217 -0.017464 -0.213867 0.010412 0.017404 0.023797 0.119375 0.018215 0.096749 -0.112703 -0.036104 0.088716 -0.143363 -0.129432 0.166195 0.215887 -0.101322 -0.071736 -0.059278 -0.057299 -0.183158 0.160938 -0.060960 -0.057929 -0.164281 0.119226 0.088853 -0.155796 0.006650 -0.063949 -0.022560 0.056722 -0.024969 -0.020979 -0.139837 -0.060707 -0.130547 0.187165
mysterious 0.062187 0.268507 0.097898 -0.003227 0.090675 0.315176 -0.048633 0.254777 -0.311011 -0.397697 0.031327 0.168137 0.103298 -0.006262 -0.375950 -0.297394 0.342747 0.241963 0.057799 0.265400 -0.436965 0.064361 0.254119 0.081975 -0.180121 0.141497 0.323255 -0.133901 -0.249915 0.139062 0.185088 -0.044352 -0.075059 -0.195308 -0.117841 -0.038345 -0.480000 0.116137 0.246231 0.003216 0.111324 -0.161110 -0.242147 0.279175 0.247487 -0.329829 0.135955 -0.294498 -0.377393 0.057646
because -0.089155 -0.092088 -0.032855 -0.109195 -0.081012 0.103112 -0.011144 -0.130372 -0.066068 0.034551 0.070560 0.023934 -0.040377 -0.041763 -0.054545 -0.054289 -0.013610 -0.140310 0.089758 -0.000769 -0.026691 -0.077868 -0.063211 -0.055647 -0.012584 -0.174251 0.070856 0.014269 -0.049479 -0.196648 0.037045 0.031091 0.029482 0.164420 -0.092816 0.022480 -0.113605 -0.163589 -0.076240 0.029376 0.063044 -0.131502 -0.083788 0.040260 -0.061840 0.044987 0.052754 0.046990 0.051421 -0.089798
just 0.001668 -0.278984 0.034592 -0.094671 0.036997 0.015393 -0.029678 -0.115857 0.039809 0.048444 -0.112944 -0.047109 -0.023880 0.074469 0.031766 0.009810 0.152233 0.059240 0.059468 0.046117 -0.108841 0.114095 -0.055525 -0.074062 -0.054223 -0.201181 -0.268760 0.032285 0.009808 -0.019641 -0.036216 -0.092262 -0.109639 -0.071131 0.045645 -0.067751 -0.059282 -0.111778 -0.125203 -0.189036 0.267036 -0.109396 -0.103740 -0.039039 0.019598 -0.052836 0.059520 0.016555 0.022092 -0.209502
didnt -0.016664 -0.163560 0.032994 -0.086402 0.071045 -0.019827 0.082587 -0.017042 0.004597 0.022040 0.007179 0.061712 -0.149468 -0.206896 0.013414 0.064656 -0.212765 -0.075643 0.142094 0.017767 -0.137488 -0.191291 -0.120066 -0.185860 -0.098461 -0.209858 -0.225128 -0.021842 0.043305 -0.152262 -0.302705 -0.099412 -0.221823 0.066206 0.028931 -0.024374 -0.001937 0.216179 -0.091588 0.119699 0.131724 -0.305983 -0.141290 -0.149974 0.017911 0.087775 0.113937 0.053810 -0.007331 0.146078
hold 0.264820 -0.199511 0.280514 -0.327379 0.112933 0.015379 -0.013041 -0.095508 0.394736 -0.123139 0.045318 0.136548 -0.261472 0.236251 0.143197 0.093854 -0.284099 -0.128527 -0.044612 -0.219753 -0.101201 -0.119960 0.039161 0.046207 -0.312807 0.184938 -0.098289 0.128221 0.087761 -0.281613 -0.339483 -0.059037 0.271045 0.023972 -0.137502 0.080104 0.104945 -0.079786 -0.192959 -0.269092 0.218220 -0.239271 -0.233599 0.407151 -0.072293 0.000031 -0.046094 0.342168 0.145538 0.060973
with -0.228149 -0.130896 -0.003289 0.029133 -0.032896 -0.052740 -0.220129 -0.022368 0.023048 -0.049521 0.090621 -0.052840 0.065974 -0.107241 -0.066080 -0.122066 -0.222746 -0.093496 -0.010264 -0.021277 0.022635 -0.070516 -0.024680 0.035119 0.065833 -0.162710 -0.089411 -0.063739 -0.000576 -0.135124 0.095676 0.198395 0.081449 -0.066994 -0.022599 0.154951 -0.123477 -0.135264 -0.016339 -0.171053 -0.079515 0.082928 0.044063 -0.142748 0.108632 0.056091 -0.013140 -0.004497 0.033451 0.012162
such -0.070077 -0.066122 -0.173528 0.307695 0.123322 0.121040 -0.132365 0.102373 -0.025449 -0.106105 0.166246 -0.075111 -0.189985 0.080702 -0.103443 -0.281590 0.071889 0.012467 -0.061785 0.121643 0.221951 0.115573 0.119710 -0.088317 -0.268126 -0.182126 -0.004009 0.097196 -0.224715 -0.262277 0.070017 0.288196 -0.305760 -0.043933 -0.369432 -0.140186 -0.075008 -0.118215 0.122576 0.076565 0.033358 0.071639 -0.083431 0.195549 0.061648 0.032712 0.117272 0.102770 0.114413 -0.073460
nonsense -0.331993 -0.126246 -0.087810 -0.170406 0.123401 0.009671 0.150534 0.113098 -0.031203 0.266531 0.343243 0.034215 -0.016740 -0.337446 0.348638 -0.017969 -0.313839 0.095295 0.366160 0.066828 0.108196 0.256732 0.121586 0.249533 -0.016697 -0.125332 0.230754 0.503272 0.001404 0.026931 0.234610 -0.297314 0.122426 0.382145 -0.192587 -0.063409 -0.232812 -0.267432 -0.120776 -0.187716 0.273203 0.112069 0.175493 -0.103385 -0.156394 -0.330698 -0.280815 0.300357 0.101025 -0.112006
was 0.164005 -0.016433 -0.032462 0.078861 0.105333 -0.010260 0.030213 0.038447 -0.010924 0.229797 0.178533 -0.921051 -0.057416 0.331980 -0.175173 -0.201721 -0.063395 0.045309 -0.113646 0.004787 0.215611 -0.097940 0.244641 -0.012309 0.046675 0.131942 -0.184868 0.053118 0.453979 -0.272964 -0.139988 -0.096093 0.018630 0.118191 -0.249775 -0.492709 -0.149421 -0.188746 0.067420 0.015505 -0.350375 -0.690758 -0.288069 0.021249 0.076196 0.213497 -0.011318 -0.059418 0.003615 -0.404441
director -0.054080 0.035929 -0.469987 0.068639 0.302623 -0.472276 -0.267107 0.295222 -0.219618 0.162278 0.404469 0.013630 -0.173124 -0.167780 -0.610873 -0.146702 0.013229 0.129107 -0.201576 0.284903 0.155512 -0.048250 0.070598 0.129866 0.261698 -0.222269 0.352185 0.230274 -0.266302 -0.132657 0.070482 0.323564 0.242301 0.225396 0.269084 -0.132249 0.019371 0.287175 0.285514 -0.149390 0.305297 -0.069163 -0.158825 -0.204669 0.283532 0.291470 -0.123977 -0.315382 -0.260644 -0.305170
a 0.409903 -0.963812 -0.345917 0.344215 -0.142600 -1.193922 0.092560 -0.795413 0.972112 -0.050425 0.897462 -0.164121 1.005036 -0.617063 -1.139660 -0.937008 -1.356499 -0.684195 -0.490079 -0.688828 1.162719 2.567122 1.902628 0.610450 -0.406250 0.182804 -0.635986 -0.258124 -0.510102 -0.940339 -0.761411 -0.591855 -1.419952 1.033665 -0.278021 0.576808 0.529116 0.092765 0.040743 0.685557 -0.038995 0.429944 0.490343 0.023274 -1.249373 -1.230961 0.755127 -1.286023 -0.619952 0.401226
firm -0.111371 -0.257999 0.037238 -0.278244 0.307631 0.135420 0.200014 -0.373272 -0.264808 0.233293 -0.145627 -0.369288 -0.158917 -0.167229 -0.438607 0.173213 0.380236 0.363740 0.320991 -0.302827 0.251639 0.335436 -0.004173 0.347531 0.024512 0.019608 -0.061863 0.380165 0.216932 0.076024 -0.060809 -0.197489 0.033171 0.174077 0.276583 -0.437643 -0.499317 0.154287 -0.067072 0.243151 -0.128947 -0.138263 0.118741 0.128632 -0.370887 0.280063 -0.025855 0.012192 -0.039633 -0.064140
called -0.181407 -0.166861 -0.184479 -0.001728 0.063656 -0.173827 0.013943 -0.122949 0.050681 0.003817 -0.014015 -0.082795 -0.003869 0.211582 -0.056366 -0.105165 0.143120 -0.088424 -0.013573 0.061131 -0.092101 0.075039 -0.189796 0.089946 -0.094381 -0.094752 0.167534 -0.018097 0.096600 -0.085082 0.058459 0.060385 -0.052566 -0.052972 0.067367 -0.037512 -0.081124 0.027879 0.074625 -0.134665 -0.015630 0.064322 -0.302282 -0.024852 0.142906 -0.088428 0.094676 0.010155 0.011507 -0.204458
Grunnings -0.497952 -0.125703 -0.313885 0.079574 -0.147204 -0.298800 0.234418 -0.535458 0.253263 0.092151 0.206327 -0.059561 -0.569940 0.342617 0.074037 0.173994 -0.081229 -0.056265 -0.304277 0.124619 0.269324 -0.091121 0.118237 0.297381 -0.027870 -0.159617 0.410057 0.437873 0.265441 -0.001490 0.321549 -0.403611 0.320317 -0.196589 0.108481 0.422714 -0.364352 0.036270 -0.061166 0.068864 0.012394 -0.274176 -0.576501 0.123932 -0.186329 0.228177 0.274468 0.019279 -0.230704 -0.114641
which 0.016112 -0.116950 -0.005645 0.020253 0.034977 0.080116 0.021148 0.038777 -0.003067 0.061871 -0.125136 -0.131241 0.060441 -0.037718 -0.204824 0.100694 0.090083 -0.207500 0.119398 -0.038760 0.086024 0.021533 0.006821 -0.074685 -0.090172 -0.120548 0.007801 0.021828 0.117613 -0.136890 0.072264 0.122745 -0.158901 -0.004595 0.099319 -0.112547 -0.129353 -0.230047 0.042946 0.141258 -0.059831 -0.200306 -0.173073 -0.064621 0.062836 0.121610 -0.140763 -0.041697 -0.024917 -0.051856
made 0.048512 -0.228684 -0.076121 -0.054668 0.118363 -0.080270 -0.075775 0.091888 0.096150 -0.024301 0.043883 -0.004480 -0.147033 -0.098043 -0.168926 -0.053381 0.082888 -0.025243 0.069238 0.008087 -0.009126 -0.173019 -0.085707 -0.021724 -0.037507 0.147083 0.109477 0.178451 0.033650 0.014232 -0.035881 0.214850 -0.023367 0.177211 0.141860 -0.064085 -0.098088 -0.114425 -0.080851 0.207904 -0.007343 -0.158436 0.065426 -0.049769 -0.118058 -0.201850 -0.047153 -0.069915 -0.171776 0.052019
drills -0.323846 0.291279 0.373220 0.060765 0.172595 -0.030508 0.150076 0.015418 -0.059039 -0.293957 0.291525 -0.112021 0.250667 0.232470 -0.276798 -0.145764 -0.215967 0.560384 0.412590 -0.018339 0.195768 -0.107510 -0.115145 -0.296411 -0.164568 -0.384909 0.107622 0.389206 -0.177879 0.095772 0.213287 -0.014442 -0.207770 0.405934 -0.182484 -0.401269 -0.213251 -0.375090 -0.148781 -0.292826 -0.162506 -0.184954 0.041837 -0.413411 -0.097158 0.481290 0.198305 0.108919 -0.068087 0.511109
He 0.020031 -0.114145 -0.033015 0.023077 -0.134684 -0.128329 -0.069420 -0.074249 0.008260 -0.006783 -0.062373 -0.115178 0.032365 -0.033694 0.041084 -0.078072 -0.034175 0.045507 0.260713 -0.214081 -0.171922 -0.124898 -0.080455 -0.082903 -0.003649 -0.115000 -0.108376 -0.074068 0.228390 -0.112189 -0.118978 -0.062544 0.106407 0.200136 0.002154 -0.000001 0.120684 0.027951 -0.075403 -0.030475 0.045403 -0.449132 -0.112021 0.147469 0.044847 -0.134876 -0.055376 -0.061466 -0.176554 -0.029620
big -0.218687 -0.437485 -0.135052 0.124446 0.028182 -0.000578 -0.099422 -0.024740 0.152483 0.091720 0.219797 -0.149658 0.007126 -0.127812 -0.038435 -0.088056 -0.109074 0.031628 0.134559 -0.188086 0.235056 -0.075046 -0.283620 -0.026963 0.164546 -0.095420 0.202832 0.115719 -0.128177 -0.031196 0.069177 0.112589 -0.070474 0.039128 0.059998 -0.247599 0.007019 -0.103324 0.018673 -0.218441 0.072899 0.333420 0.169026 -0.097908 0.087443 -0.057133 -0.237275 0.036898 0.015356 0.019402
beefy -0.344915 0.288662 0.241775 -0.602499 0.224971 0.244703 -0.056466 0.091921 0.131822 0.215696 0.378206 0.155711 -0.056703 0.501630 -0.034293 0.404610 -0.035255 -0.454920 -0.115319 0.134235 0.262874 -0.212948 0.117941 0.122762 -0.500750 0.156495 -0.252786 0.237592 -0.193225 -0.000276 0.067999 0.440393 -0.113320 0.459027 0.165831 0.290140 -0.379164 -0.090952 0.191451 -0.453390 0.348723 0.382276 0.305164 0.264617 0.234890 -0.224755 0.012000 -0.438889 0.095260 -0.248374
man 0.032334 -0.127643 -0.101163 -0.215956 0.037602 0.148999 -0.243723 -0.173509 0.093019 -0.215459 0.095351 -0.089018 -0.083421 0.026880 -0.031698 0.087114 -0.086987 0.121877 0.003925 -0.095174 -0.168750 -0.012521 0.171208 -0.045575 -0.057202 0.002388 0.194909 0.201517 0.004691 -0.107787 -0.030796 0.018030 0.126727 0.100175 -0.000696 0.119657 -0.458047 0.025225 -0.097101 -0.024714 -0.165383 0.199288 -0.078848 0.066736 0.062528 -0.100836 -0.069373 0.043670 0.019548 -0.005506
hardly -0.239611 -0.086229 0.061443 -0.025534 0.301995 0.216514 -0.180818 0.036386 0.118199 0.016653 -0.009740 0.001870 -0.157270 -0.044824 -0.128114 -0.161421 0.006346 -0.250789 0.047543 0.012977 0.168933 -0.044383 -0.246461 -0.115374 0.062678 -0.047752 -0.256750 0.209034 0.140312 0.254860 -0.010588 0.015548 0.012461 0.091233 0.074685 0.059273 -0.375957 -0.042031 0.255501 -0.010026 0.121625 0.188647 -0.049112 -0.261561 -0.013703 -0.214197 -0.123637 -0.207499 0.114120 -0.023317
any -0.021437 -0.066266 -0.061547 -0.213707 -0.068693 0.114399 -0.029306 0.105460 -0.046526 -0.157157 -0.181635 -0.015905 -0.143881 -0.040739 0.084094 -0.150550 0.283698 -0.119311 -0.069350 -0.280617 -0.005151 -0.047445 -0.021392 -0.156043 -0.069789 -0.051054 0.025459 0.057135 -0.050797 0.128459 -0.175297 -0.192507 0.094353 0.075062 0.217137 0.031367 -0.074566 -0.294282 0.115320 0.240253 -0.008076 0.195902 -0.057213 0.078763 -0.100438 -0.080989 -0.106500 -0.143152 0.162147 -0.077180
neck -0.151910 0.019655 -0.203167 -0.093840 -0.139998 0.124661 0.024495 0.235351 -0.213953 -0.329053 -0.329036 0.049190 0.247055 0.176826 -0.094604 0.253743 -0.076161 0.120945 0.361017 -0.283652 0.264075 -0.017702 0.075655 -0.008588 -0.119427 0.123033 -0.037957 0.269158 0.213492 0.163132 -0.170122 0.033850 0.135275 -0.299367 -0.027662 0.300227 -0.176605 -0.260557 0.089318 0.114889 0.010445 -0.014753 -0.008629 -0.019162 0.174184 -0.180373 -0.312172 0.045042 0.020921 0.016071
although 0.035670 -0.291609 -0.116058 0.011421 0.098858 -0.045933 -0.013497 0.290054 0.101158 0.285604 0.152103 -0.047250 0.154098 0.347345 0.232503 -0.164248 -0.130663 0.155526 -0.059032 -0.253533 0.063049 -0.001379 -0.161972 0.291227 -0.068699 0.140222 -0.199613 0.263339 -0.136952 -0.122294 -0.179011 0.155337 0.053472 -0.046444 -0.070078 -0.355058 0.074994 -0.001001 -0.197963 -0.370362 0.098725 -0.166209 -0.117118 -0.153914 0.303869 0.011606 -0.119033 0.550295 0.186224 0.079115
he -0.137462 -0.120194 -0.160299 -0.010934 -0.160657 0.066818 -0.074741 -0.136820 -0.010218 0.191835 0.324660 -0.122580 -0.231919 -0.049386 0.063442 -0.158023 0.164477 -0.070141 0.229980 0.254509 0.025567 -0.252755 -0.166341 0.102268 0.003948 0.041955 -0.333940 -0.039497 0.062956 -0.126764 -0.002709 -0.390169 -0.212020 0.098177 0.018626 -0.102140 -0.023404 -0.068260 -0.055249 0.076481 0.156064 -0.395223 -0.155792 -0.019470 -0.303854 0.024927 -0.041995 0.066446 0.064622 -0.287196
did -0.054973 -0.178477 -0.165204 -0.136150 -0.152890 0.345932 -0.018253 -0.183155 -0.030425 -0.148954 -0.038258 0.044872 -0.024552 0.136867 0.077112 -0.053618 0.017603 -0.237113 -0.068673 -0.001559 -0.103611 -0.111098 0.037838 -0.049854 -0.013381 -0.153710 -0.123611 0.213816 0.000479 0.015349 -0.104877 -0.165851 -0.193978 0.062374 0.079010 -0.123352 0.119853 0.110253 -0.225731 -0.131175 0.026338 0.075627 -0.060078 -0.087479 0.083427 0.086221 -0.043667 0.048206 0.074543 -0.012999
have 0.034928 -0.035444 0.042541 -0.239327 -0.009298 0.092659 -0.213549 -0.066962 0.078140 0.131544 -0.193939 0.061133 0.019091 0.058030 -0.049244 0.030209 -0.104944 -0.039595 0.196942 -0.142622 -0.089096 -0.350130 -0.061996 -0.118597 -0.178786 -0.014663 -0.116473 0.264332 -0.104792 0.117974 -0.174639 -0.212673 -0.376520 0.007154 -0.065778 -0.155053 0.045080 0.131108 -0.166456 0.113347 0.129183 0.057108 -0.071806 -0.184609 -0.249027 0.148050 0.029345 -0.103336 0.126797 0.092655
large 0.187911 -0.165557 -0.005781 0.232871 0.034810 -0.049415 -0.010593 0.005004 -0.002497 -0.082375 0.045771 0.063386 0.044014 -0.268540 -0.137257 -0.106595 -0.166022 -0.036015 0.073750 -0.231189 -0.194180 -0.013246 0.163159 0.157220 0.015729 -0.042631 0.007113 -0.046203 -0.092354 -0.092026 -0.071627 0.073502 0.196018 -0.146186 0.117876 -0.081941 -0.069098 -0.143848 0.075294 0.073378 0.033317 -0.015076 0.167693 -0.154661 0.039557 -0.260811 0.003171 -0.148793 0.078634 0.042706
mustache -0.151583 -0.206772 0.204865 0.145019 -0.198992 0.442905 -0.208769 0.070252 -0.208181 -0.233229 0.286200 -0.367847 -0.475426 0.088143 -0.338045 -0.017438 -0.305544 -0.074170 -0.119736 0.270941 0.041758 0.011002 0.046095 0.017108 0.108409 -0.295181 -0.073826 -0.010074 0.031535 0.064646 -0.028128 0.129325 0.158479 -0.056094 0.315313 -0.188610 -0.247395 0.018260 0.387820 0.161328 -0.312871 0.007714 0.467709 0.060201 -0.363807 0.043912 -0.147137 -0.030253 0.043114 0.247861
thin 0.049409 -0.177719 -0.018140 0.148892 -0.146820 0.036165 -0.126187 -0.303773 0.043585 -0.260263 -0.167764 -0.028069 -0.112458 0.360926 0.073598 -0.280317 0.024612 -0.206410 -0.257957 -0.251216 -0.276992 0.161052 0.020957 0.090562 0.088771 0.019173 0.139564 -0.323472 0.107522 0.285922 0.220150 0.254747 0.195915 0.152658 0.126131 -0.225887 -0.175804 -0.085881 0.205040 0.184789 0.115393 -0.069931 -0.322255 0.290576 -0.200432 -0.220574 0.058226 0.115109 -0.138518 -0.034444
blonde -0.010346 -0.229022 0.313354 -0.289371 0.089594 -0.025113 0.217908 -0.533382 0.356642 -0.309031 -0.371572 -0.425085 -0.253964 -0.065894 0.449519 -0.103254 0.031716 0.218422 0.354072 -0.131288 -0.100099 0.270347 -0.288995 0.243677 0.019796 -0.003195 0.357872 0.131977 -0.030949 0.215645 0.217849 0.443307 -0.209269 -0.022486 0.047760 -0.366191 0.073358 0.197524 0.237320 0.326778 0.270358 0.296699 -0.303225 -0.018392 -0.199789 0.010235 -0.114069 0.305141 0.051350 -0.054094
had -0.176694 -0.208922 0.049327 -0.007147 0.028795 -0.079062 -0.366170 0.011204 -0.038181 0.126646 0.064611 -0.213040 -0.000931 -0.268181 -0.073788 0.043820 0.351976 0.046425 0.404158 -0.067408 0.052386 -0.171998 -0.134904 -0.146392 -0.216584 -0.257513 -0.197365 -0.054709 0.120628 -0.026451 0.025068 0.236522 -0.225455 0.366728 -0.113357 -0.021805 -0.138620 -0.061948 -0.069787 0.058096 0.056462 0.002128 -0.261301 0.229581 -0.191039 -0.064133 -0.101682 -0.163509 -0.172268 -0.344888
nearly -0.016242 -0.124768 -0.027179 -0.171037 0.075262 -0.165780 0.247168 -0.003242 -0.061872 -0.093670 -0.134261 0.271092 -0.104174 0.012562 0.011373 -0.270180 0.097284 0.014984 0.082482 0.116536 -0.087967 -0.129212 0.175083 -0.355868 -0.017741 -0.061105 0.070991 0.129680 0.021642 0.111851 0.042601 0.025123 0.111325 -0.152133 0.009024 -0.016282 0.077233 -0.209516 -0.121857 0.001866 0.160022 0.117661 -0.185232 0.016980 0.053214 0.043832 0.168903 -0.077606 0.000181 -0.121293
twice 0.340728 0.119399 0.061215 -0.083348 0.288772 0.325419 -0.154136 0.000153 -0.153228 -0.107548 -0.289207 0.356514 0.092237 -0.042996 -0.096026 -0.368628 -0.106575 -0.064000 0.177710 0.018396 -0.260832 -0.154348 0.002668 -0.038219 -0.237049 -0.350011 0.068271 0.014428 -0.055845 -0.029979 0.015960 0.228886 -0.093749 0.043884 -0.143318 0.047353 0.049505 -0.203819 -0.061130 -0.180162 -0.217903 0.062428 -0.028483 0.251129 0.104951 0.133060 -0.025926 0.064743 0.122065 0.030896
usual -0.080923 0.057134 0.045080 -0.024596 0.175889 -0.061047 0.146446 0.357707 -0.080893 -0.293512 -0.059573 0.106378 -0.047794 -0.027379 -0.137168 0.006163 -0.042634 -0.185569 -0.036807 -0.069102 -0.166777 0.124124 -0.223325 -0.216619 0.054366 0.053099 -0.116461 0.078835 0.124522 -0.455975 0.053527 0.024490 0.027730 0.061185 0.015376 -0.302661 0.028558 -0.206507 -0.227115 0.266745 0.248405 0.067505 -0.043400 0.263414 0.246724 -0.005028 -0.078464 -0.001194 -0.032420 -0.020261
amount -0.241254 -0.078469 0.362697 -0.137340 0.278503 0.382905 -0.226502 0.069563 -0.407230 -0.256444 -0.002470 0.458696 -0.163039 0.261322 -0.344050 -0.272794 -0.073086 0.419011 -0.124910 0.067365 -0.105317 -0.143430 0.191104 0.144160 0.424737 -0.161191 -0.308685 0.576115 -0.228076 0.153348 0.274839 0.423635 0.217490 -0.125881 -0.369177 -0.003034 -0.281131 -0.300653 -0.163621 -0.104731 -0.407139 0.246018 0.013170 -0.312502 0.048427 -0.230911 -0.318710 0.197140 0.466596 -0.382970
came -0.058755 -0.047606 -0.067776 -0.078504 -0.215234 -0.122522 0.028563 -0.007461 -0.008943 -0.252530 -0.068178 0.001872 -0.022766 -0.047721 0.033209 -0.112950 0.190131 0.102936 0.009416 -0.040837 -0.072378 0.047591 0.046798 -0.002003 0.012366 -0.019488 -0.091259 -0.125510 0.044483 -0.097976 0.005928 -0.109214 0.005772 -0.135181 0.179815 0.188641 0.016010 -0.064285 -0.007408 0.060593 0.055014 -0.118742 -0.010706 -0.008006 -0.033793 -0.045569 -0.135945 -0.002813 -0.047800 0.006568
useful -0.103140 -0.308924 0.003492 -0.194066 0.270163 0.072364 -0.156352 0.080161 -0.294427 0.111010 -0.318264 0.338982 -0.323285 0.312111 -0.344786 -0.089746 -0.070070 -0.008388 -0.065092 -0.099490 0.376216 -0.227958 0.055289 0.100349 -0.354390 0.108348 -0.024644 0.199356 -0.103899 0.184200 0.055730 0.329509 0.351762 0.284732 0.119796 -0.230845 0.165067 0.227084 -0.039754 -0.382696 -0.033782 0.192613 0.212925 -0.153801 0.116673 -0.023588 -0.366617 -0.265655 -0.002091 0.101487
as -0.304070 -0.162855 -0.128940 0.166156 0.073216 0.034900 0.014476 -0.096799 -0.063954 0.034682 0.312688 0.086750 0.077089 -0.044772 0.080208 -0.176409 0.012115 -0.241422 0.095389 0.010832 -0.232181 -0.049475 -0.186055 0.075332 -0.095329 -0.076284 -0.217026 -0.203082 0.096066 -0.275770 0.032794 -0.212124 0.085011 0.200865 0.138980 0.006922 0.005841 -0.232769 -0.224236 -0.098488 0.169881 -0.340163 -0.346608 -0.176803 0.079504 0.113649 0.201508 -0.074263 0.216156 -0.382567
she 0.108123 -0.103823 0.041848 -0.084641 0.105369 0.030713 0.023787 -0.077216 -0.048682 -0.073745 0.157836 -0.189889 -0.145750 -0.201483 -0.141374 -0.045280 -0.024189 0.005060 -0.005424 -0.018373 -0.016849 -0.156080 -0.040463 -0.123533 -0.040439 -0.057735 -0.224226 0.058759 0.048526 -0.044642 0.162557 -0.040719 0.061822 0.110566 -0.012982 -0.072541 -0.044249 0.065802 -0.159695 -0.062221 0.024114 -0.085185 -0.205856 -0.009438 -0.032366 -0.003071 0.094014 0.051484 0.002124 -0.166393
spent -0.160383 0.224715 0.027567 -0.071763 0.213064 -0.104661 0.085374 -0.012340 -0.035540 0.171647 0.242052 -0.139332 -0.028728 0.057391 -0.323027 -0.072910 -0.215293 0.107886 0.003164 -0.206507 -0.381154 -0.315512 -0.004286 -0.016824 -0.034903 -0.267503 0.269853 0.200802 -0.280473 -0.146485 0.067309 0.178593 0.086284 0.218013 -0.135866 0.197203 -0.039054 0.124824 -0.023296 0.083572 -0.057515 0.059501 0.185134 -0.263671 -0.018808 0.106164 0.186020 -0.157680 0.119013 0.048585
so -0.069274 -0.067201 -0.111798 -0.122766 0.019828 -0.100482 -0.087356 0.035480 -0.024550 0.140226 0.073211 -0.218825 0.079062 -0.030942 0.029324 -0.119956 0.070009 -0.100871 0.206471 0.012207 -0.205359 -0.184611 0.030647 -0.104344 -0.116195 -0.032747 -0.051571 0.065980 0.029597 -0.152017 0.051299 -0.107076 -0.123103 0.180875 -0.104294 -0.029940 -0.039271 -0.112995 0.000204 -0.085733 0.053307 -0.053234 -0.071937 -0.165892 0.031476 0.163101 -0.005200 -0.147366 0.092255 -0.186641
her -0.094483 -0.119070 0.054446 0.161037 -0.111026 -0.174561 -0.207672 -0.032071 -0.008940 0.119666 -0.059921 -0.101717 0.006490 0.106895 -0.035522 -0.064979 -0.135226 -0.158261 0.182975 -0.207320 -0.111853 -0.080918 -0.067571 -0.065420 0.161199 -0.137094 -0.035489 -0.270022 0.085785 0.024685 0.130557 -0.132606 0.150863 -0.249580 0.161871 0.050638 0.024516 -0.019770 -0.073590 -0.300001 0.185293 0.031846 -0.012659 -0.019618 0.018420 -0.114826 0.129644 0.018665 -0.078321 -0.027994
time -0.127111 -0.046162 0.020562 -0.009469 0.006673 -0.038015 -0.063669 0.060989 0.014167 0.091929 -0.097816 0.006562 0.060197 -0.010840 -0.105342 -0.087559 0.019792 -0.033170 0.115627 0.008903 0.157364 -0.041326 -0.059720 -0.156146 -0.122433 -0.203374 -0.009105 -0.261340 -0.138477 -0.101214 0.138196 -0.074255 0.009267 -0.130442 0.116563 -0.084344 -0.073023 -0.037878 -0.079347 0.012051 0.105321 0.026552 -0.052932 -0.054251 -0.032584 0.001130 -0.019628 -0.114581 -0.026950 -0.128856
craning 0.247400 -0.028720 0.209093 -0.021090 -0.339706 0.046829 -0.391477 -0.019298 0.209189 0.207147 0.270256 0.069776 -0.115370 -0.240393 -0.129608 0.118443 -0.010809 -0.295202 0.131402 0.048383 0.336425 0.074305 -0.417681 0.336094 -0.124379 0.334889 -0.011338 -0.368052 0.296543 0.015021 -0.408865 0.336675 -0.292992 0.035052 0.247095 -0.376143 -0.171672 0.119494 0.144737 0.208242 -0.003917 -0.435166 -0.298118 -0.309686 -0.166708 0.244961 0.384859 0.124322 0.196965 0.379893
over -0.270024 -0.057318 0.036929 0.051680 -0.153768 -0.058921 -0.106042 0.020498 0.014438 -0.083521 -0.030287 -0.000446 -0.018657 -0.038666 -0.037058 0.012681 -0.089292 -0.124838 -0.011646 -0.002747 0.008472 -0.189633 0.028430 0.062792 0.161862 -0.153382 0.028717 -0.243113 0.117836 0.035415 -0.065495 -0.015398 0.193995 -0.014542 0.124683 0.107885 -0.109410 -0.147453 0.000570 -0.096588 -0.087070 -0.335357 -0.150216 -0.132413 -0.064721 -0.001996 0.064658 0.035183 -0.010410 0.232531
garden 0.010814 0.161464 0.210314 0.412917 -0.105885 -0.217450 -0.119220 -0.036390 0.077136 0.028606 0.127372 -0.317246 -0.134833 0.207484 -0.145348 0.131518 0.283861 -0.002542 0.380863 0.269555 -0.120016 -0.261226 -0.189739 0.481739 -0.251264 -0.176650 0.262353 -0.305891 -0.032938 -0.259760 -0.327242 -0.016383 -0.069370 -0.108239 0.298954 -0.122525 0.122619 -0.101386 -0.053644 -0.308786 -0.225381 0.201824 0.165728 0.138431 0.090724 -0.165790 -0.197214 -0.122973 -0.174913 0.377665
fences 0.371864 -0.059148 -0.418493 0.367511 -0.157360 0.528741 -0.470921 -0.113446 0.094492 -0.279390 0.430239 0.127894 -0.294847 0.192335 0.172416 -0.143069 0.126059 -0.290626 0.079310 0.325186 0.323005 -0.004921 0.398536 -0.257341 0.088406 0.483553 -0.358504 0.437231 0.449533 0.218278 -0.410009 0.102712 -0.203266 0.251013 -0.310795 -0.440225 -0.127722 0.135847 -0.057110 0.325656 -0.336081 0.089078 -0.327460 0.016714 0.365955 0.184508 -0.170655 -0.334518 0.131899 -0.006270
spying -0.272369 -0.082598 0.102009 0.243066 0.066088 0.147793 -0.474810 -0.357162 0.056435 -0.229989 0.044438 -0.319527 0.394984 0.068555 0.123722 0.152399 0.328929 0.229466 0.130364 -0.165820 -0.411532 0.001488 0.007656 0.096321 0.223825 -0.065120 -0.259181 0.082314 0.192827 -0.148692 0.137682 -0.115086 -0.136443 -0.198886 0.110655 0.290895 -0.067458 -0.115423 -0.129953 -0.313404 0.109883 -0.180564 -0.123955 -0.061935 0.058943 -0.289766 0.197519 0.273968 0.054510 0.222066
on -0.177197 -0.239344 -0.104377 -0.001489 -0.379478 -0.230579 -0.150599 0.089762 0.093584 -0.066652 -0.226088 -0.221373 0.046337 0.160938 -0.236308 -0.095955 0.093304 0.045893 0.034225 -0.108221 0.021897 0.059879 -0.006599 -0.076411 0.182611 0.084728 -0.101152 -0.074160 0.152084 0.182296 0.154316 0.013631 0.050655 -0.094292 -0.063716 -0.050226 -0.081571 -0.158858 -0.052439 -0.227017 -0.155774 -0.142855 -0.049332 -0.051525 -0.057560 -0.038303 0.039419 0.077926 0.077402 0.078404
neighbors -0.225000 -0.351929 0.138186 0.077827 0.093528 -0.141683 0.046737 0.178726 -0.047887 -0.060109 -0.126549 0.222051 0.165065 -0.031876 -0.320503 -0.073612 0.031504 -0.264201 0.341828 0.133791 0.038751 0.166496 0.038743 -0.187070 0.113979 -0.289655 -0.075669 0.239600 -0.151453 -0.369939 -0.470441 0.110422 0.148250 -0.589412 -0.109858 -0.013987 -0.169837 -0.166865 -0.246682 -0.324476 0.445359 0.159195 0.147754 0.379925 -0.324563 -0.434668 -0.095714 0.223967 0.036423 0.314804
The 0.037155 -0.192593 0.036914 0.030532 -0.055904 -0.098308 -0.083413 0.013187 -0.033359 -0.135056 -0.037908 0.042243 0.054597 0.030554 -0.186052 -0.081383 0.103231 0.064378 0.014212 0.019959 -0.193114 -0.135938 0.117827 -0.127304 -0.109206 -0.009982 0.041762 -0.005479 0.187401 -0.217025 0.070289 0.067444 0.251134 -0.029587 0.053858 -0.030422 -0.057424 -0.126904 -0.109951 -0.118634 0.003917 -0.075044 0.047327 0.173726 -0.000404 -0.079690 -0.029195 -0.157095 -0.074391 0.054826
Dursleys -0.080905 -0.094752 -0.090055 -0.071799 -0.031197 0.004721 -0.174538 0.140722 -0.149562 -0.047284 0.114036 0.074899 -0.028015 -0.028105 -0.258629 -0.047553 0.153274 -0.005247 0.083489 0.083461 -0.029855 -0.173132 -0.102345 -0.074048 0.012148 -0.089096 -0.023022 -0.112905 -0.047342 -0.231697 -0.011515 0.040191 0.185818 0.051201 -0.064323 0.014250 0.025998 -0.155956 0.022744 0.024742 -0.057465 0.029360 0.048790 0.145458 0.050990 -0.096297 -0.168152 -0.118421 -0.019235 0.044738
small -0.037347 0.087815 -0.031745 0.093320 -0.049708 -0.021964 0.015476 0.066644 0.085746 -0.168712 -0.033527 -0.124155 -0.087178 -0.059630 -0.153410 0.040126 -0.324923 0.164106 -0.035451 -0.318673 -0.082089 0.065528 0.171269 0.111121 -0.013550 -0.087871 -0.038413 0.165929 0.027377 -0.040165 0.147004 0.128864 -0.018389 -0.115984 0.170529 -0.128145 0.010580 -0.090787 -0.023860 -0.110114 0.090517 -0.006042 -0.029589 0.045070 0.050893 -0.191049 0.052976 0.131085 0.118217 0.123706
son -0.037453 -0.102386 -0.194000 -0.269281 0.090700 0.121407 0.193032 -0.303020 0.086566 -0.467953 -0.139147 -0.261212 0.163073 0.131319 -0.175287 -0.006573 -0.166383 0.218955 -0.254268 0.062488 -0.087326 0.027058 0.240336 -0.355873 -0.236657 0.098735 0.391066 0.197986 -0.132488 -0.248005 0.293840 -0.123576 -0.132948 0.151135 0.017996 -0.230687 -0.149114 -0.155027 -0.078168 0.061167 0.050799 -0.171159 -0.086035 -0.228170 -0.140143 0.052700 0.197643 0.238386 0.410291 0.269936
Dudley 0.077058 -0.016294 -0.010012 0.238751 -0.072089 -0.115009 -0.170534 0.197357 -0.127695 -0.081306 0.126728 -0.068286 -0.114855 0.090391 -0.189013 -0.196327 -0.103621 0.146973 0.167248 0.155838 -0.044536 -0.069573 -0.048468 -0.091468 0.006228 -0.118997 -0.073532 -0.088364 0.114761 -0.074057 -0.027590 0.122486 -0.032859 0.197089 0.169224 -0.056506 -0.056734 -0.138356 -0.049904 -0.065307 0.032709 -0.012000 -0.166724 0.111379 0.099133 -0.127160 -0.087767 -0.058244 0.053248 -0.158415
their -0.143323 0.066655 -0.138233 0.154838 -0.199213 0.107656 -0.154185 -0.014665 0.022479 -0.138098 -0.071527 0.058818 -0.091938 0.072818 -0.038290 0.006777 0.159699 -0.083981 -0.107977 -0.243782 0.036885 -0.083598 0.095069 -0.036528 -0.182578 -0.225537 0.094317 0.006248 0.091829 0.066046 0.110964 0.054210 0.061862 -0.001195 0.075094 0.103366 -0.075432 -0.296479 0.006953 0.000903 0.009186 -0.212620 -0.018895 -0.001683 -0.069796 -0.196944 -0.116909 0.098654 0.024583 0.084443
opinion 0.158656 -0.008978 0.188768 0.016959 -0.202614 -0.102952 -0.191260 0.009800 0.225882 -0.069415 0.324856 0.184575 -0.291488 0.490157 -0.226865 0.368320 -0.006697 -0.124398 -0.137597 0.196656 -0.154303 -0.288061 0.233344 -0.016033 0.055033 -0.278540 0.074582 -0.168028 -0.045275 0.077744 -0.066677 -0.127707 0.326293 -0.083834 0.134845 -0.406204 -0.233202 -0.164712 -0.056772 0.043690 0.046431 0.074099 -0.239317 -0.209662 0.113962 0.078256 -0.022840 -0.073453 0.069393 -0.222635
there 0.051159 -0.027857 -0.045811 -0.070080 -0.069181 0.019603 -0.084623 0.047652 -0.006386 0.116967 -0.051372 -0.231997 -0.088626 0.161741 -0.083160 -0.152877 -0.038895 -0.002374 0.015309 0.092742 0.059061 -0.059493 0.146755 0.011372 -0.256342 -0.176534 -0.172878 -0.014422 -0.056323 -0.209889 0.064897 0.032495 -0.041524 -0.303878 -0.080006 -0.150676 -0.021660 -0.094152 0.002792 0.032821 -0.132299 -0.078816 -0.058614 -0.035303 -0.034229 -0.014205 -0.065071 0.028679 -0.092652 -0.002863
no 0.074389 -0.111883 0.156304 -0.209471 0.095037 -0.012376 -0.351365 -0.047532 0.063601 0.207751 0.118088 -0.206827 -0.208583 0.136815 0.065316 -0.112034 0.010344 0.207218 0.004894 0.287311 -0.110699 -0.179524 0.110714 -0.127250 -0.019217 -0.071609 -0.181114 -0.017633 0.122295 -0.171231 0.063830 -0.006494 0.023271 -0.009002 -0.111538 -0.118772 -0.041156 -0.020362 0.006018 -0.033522 -0.271982 -0.045325 -0.107692 -0.235977 0.058739 -0.196888 -0.021650 -0.131858 0.072953 -0.078864
finer 0.287355 0.261591 0.329360 -0.130038 -0.363747 0.030365 0.096380 -0.037751 0.326937 0.072317 0.275710 -0.177685 0.081781 -0.175594 -0.095828 0.238866 -0.314874 0.443592 0.229629 -0.023154 0.037125 -0.292981 -0.366867 0.377529 0.329346 0.073858 -0.249791 0.015769 -0.163496 0.093245 0.120910 -0.304267 0.083333 0.038906 0.404813 -0.401163 0.104732 -0.215216 -0.303475 -0.135483 0.218432 0.173829 0.420536 -0.069919 0.073934 -0.220621 -0.475233 0.283762 0.528675 -0.141025
boy 0.307135 -0.045602 0.002382 -0.098857 0.014189 -0.068121 -0.191146 0.057538 -0.060762 -0.179100 -0.083392 0.075378 -0.062327 0.007772 -0.383986 -0.049881 0.002353 0.162563 -0.066037 0.105510 -0.039107 -0.069328 0.006919 -0.122744 0.040178 -0.073495 -0.106908 0.000229 -0.008168 0.025025 -0.076962 0.005965 0.018122 -0.067948 0.137762 -0.022248 -0.130500 -0.001166 0.182555 -0.152592 -0.025319 0.024903 -0.022992 -0.040025 0.020213 0.040761 -0.049892 -0.052036 -0.105172 0.033765
anywhere 0.065402 -0.280898 0.242814 0.032847 0.045893 -0.100092 0.062072 0.357381 -0.174785 -0.005548 -0.019477 0.390436 0.008641 0.012336 -0.032222 -0.140626 0.104710 -0.381432 -0.125052 0.255078 -0.173940 0.101970 -0.037570 0.418093 -0.001710 -0.181035 -0.163412 -0.009490 -0.291644 0.427616 0.246353 0.136584 -0.384268 -0.194560 -0.211029 -0.285007 0.403682 -0.340744 0.160295 0.132984 0.245778 -0.078046 -0.137283 0.117816 0.354102 -0.118299 -0.254596 0.278987 -0.048811 0.194778
everything -0.056240 -0.001110 -0.035361 -0.201858 -0.141749 -0.070122 0.148586 -0.290215 -0.050405 0.048762 -0.285202 0.012094 -0.061179 0.041672 -0.009397 -0.109879 0.112054 0.169506 0.101398 -0.311190 -0.063447 -0.151554 -0.008580 0.174562 0.247187 0.006960 -0.080882 -0.147560 0.080635 0.044758 0.087226 0.014450 -0.183235 -0.002295 0.039413 -0.157544 0.020967 0.184930 -0.201657 0.029916 -0.036322 -0.047578 -0.163517 0.060262 0.081968 -0.107654 0.067878 0.213583 0.099102 -0.031352
wanted -0.037333 -0.006442 -0.248646 -0.052531 -0.304343 0.066378 -0.213706 -0.008270 -0.099133 -0.172210 0.005146 0.051957 -0.201633 0.142111 0.110184 0.034792 -0.015258 0.075964 0.091429 0.249501 -0.023230 0.036540 0.127233 0.087056 0.114751 -0.088524 -0.075895 0.051366 0.018862 0.044044 -0.239582 -0.045116 -0.331585 0.146335 -0.075127 -0.367649 -0.012571 0.164563 -0.024917 -0.068166 0.112794 0.030562 0.196535 -0.187394 -0.005675 0.038255 -0.127955 -0.004881 0.151725 -0.039147
but -0.062157 -0.054507 -0.019553 -0.052599 -0.060158 0.019404 -0.062338 0.033237 -0.148101 -0.008017 0.107630 -0.222955 -0.073288 -0.146783 -0.047134 0.040892 -0.073455 -0.040609 0.007116 0.155592 -0.071269 -0.121056 -0.011596 0.032097 -0.003015 -0.183406 -0.107416 0.042001 0.045788 -0.149600 -0.042162 -0.126467 -0.107326 -0.030135 0.036017 0.026554 -0.087190 0.098055 -0.117671 0.048013 0.092202 -0.134768 -0.190899 -0.013364 -0.077282 -0.139013 0.069636 0.094726 0.058165 -0.274640
also 0.105775 0.032271 0.050896 0.387345 0.068621 -0.153281 -0.071168 -0.011400 -0.099527 0.067693 0.058252 -0.159770 0.191431 -0.097257 -0.285317 0.087490 -0.047469 -0.078963 0.259589 -0.176532 0.006544 -0.152745 -0.223738 0.135639 -0.174413 -0.423544 0.063502 0.007673 -0.313832 -0.160216 0.222584 -0.071415 -0.166462 0.336213 -0.057177 -0.284781 -0.003985 0.126201 0.108798 -0.258550 0.158170 0.113683 -0.157255 -0.001104 0.163506 0.108352 0.279523 -0.085509 -0.052312 0.050380
secret -0.033650 -0.176196 0.107633 -0.119139 -0.016297 -0.017824 0.010398 -0.251930 -0.270746 0.041050 0.021666 0.263100 0.059471 -0.179317 -0.083847 -0.020505 0.061242 0.067232 -0.018683 -0.299343 -0.121938 0.006534 0.125334 -0.106107 -0.190898 -0.384931 0.085407 0.020673 0.129612 -0.011040 -0.090936 -0.047177 0.306249 -0.104468 -0.068724 0.016668 0.184263 0.199504 0.061957 -0.052150 -0.085215 0.284877 -0.188948 -0.214835 -0.025167 -0.084583 -0.048648 -0.099690 0.136241 -0.024297
greatest -0.269761 0.407638 0.078472 -0.320719 -0.254670 0.279246 -0.356012 -0.088755 -0.351249 -0.276107 -0.076405 -0.157283 -0.263287 0.265960 0.113565 0.138874 0.123028 0.247394 -0.235608 -0.112823 0.374618 0.009319 0.076838 0.052834 -0.269886 0.144790 0.301722 0.372577 0.361459 -0.350409 -0.150213 0.295345 -0.217490 0.380515 -0.129616 0.094009 -0.157531 -0.252070 0.204346 0.252450 0.306656 -0.293314 0.423813 -0.069170 -0.180040 -0.341174 -0.165216 0.265708 -0.153963 0.043452
fear 0.101703 -0.050833 0.003518 -0.217838 -0.344853 -0.062642 -0.120917 0.240952 -0.174766 -0.070243 -0.088246 0.055354 0.075805 0.073284 -0.056269 0.161264 -0.002071 0.053601 0.313197 -0.398399 0.071471 -0.242274 0.195823 0.012095 0.357970 0.079281 -0.028506 0.171206 -0.099148 -0.209293 0.273519 0.035128 0.005870 -0.058337 0.223935 -0.076249 -0.109846 -0.105913 0.165732 -0.073344 -0.231585 0.067269 0.003009 -0.182235 -0.016991 0.220331 -0.206478 0.207085 0.127640 -0.056036
somebody -0.145728 -0.000268 0.098711 -0.095024 0.011385 0.269632 -0.487455 -0.343651 0.397524 -0.244655 0.355332 -0.396843 -0.303727 -0.263801 -0.272552 -0.049230 0.071387 0.254153 0.261781 0.109746 0.338038 -0.164765 0.022738 -0.329355 0.374040 0.047786 0.102967 0.038488 0.227360 -0.044561 -0.320791 0.363752 -0.089497 0.078436 0.049745 0.003059 -0.030107 0.053770 0.176027 -0.339837 -0.275353 0.068643 0.345663 -0.477242 0.094556 -0.181027 -0.377685 0.087418 0.458013 0.352712
would 0.133249 -0.175279 -0.068221 -0.078382 0.069992 0.229926 -0.013570 -0.000875 0.075851 0.243770 0.017898 -0.045201 0.001718 -0.156980 -0.116389 -0.170661 0.133260 -0.215421 0.025357 -0.021857 -0.186089 -0.165704 -0.146710 -0.189512 -0.154480 -0.096215 0.057874 0.229205 0.029375 0.055342 -0.144166 -0.141838 -0.128573 -0.108696 -0.117384 -0.045662 0.006041 0.046881 -0.032432 0.079323 0.100745 -0.108072 -0.154835 -0.036245 -0.070725 0.003305 -0.055416 -0.023989 0.110620 0.104536
discover 0.192634 -0.292419 -0.292392 0.227755 -0.465053 -0.143236 0.072528 -0.074915 0.000869 -0.137479 0.202799 0.000848 0.134826 0.150937 0.389796 0.119346 -0.260401 -0.058468 -0.357305 -0.447263 0.088405 0.084885 -0.070558 -0.184179 0.204770 -0.458257 0.364490 0.458208 0.366954 0.391795 -0.179697 0.255827 0.311208 0.396401 0.425071 -0.004523 0.082030 0.242771 -0.254459 0.075707 -0.500407 0.279445 -0.261129 -0.152508 -0.345446 0.467836 0.391857 0.037546 0.037127 0.442136
it 0.017877 -0.125850 -0.031537 -0.084037 -0.154893 0.083310 0.072511 -0.061107 -0.052988 0.252610 0.053475 -0.291374 0.020205 0.082921 -0.100833 -0.097400 0.022007 -0.054492 0.112821 -0.065995 -0.104155 -0.004782 -0.064085 0.028374 0.088318 -0.212760 -0.211743 0.076825 0.067964 -0.071494 -0.134148 -0.141942 -0.009670 -0.144945 -0.120343 0.196518 0.003518 -0.022356 -0.293500 -0.014360 -0.074589 -0.281814 -0.335319 0.052320 -0.025459 -0.031138 -0.106544 0.050351 -0.024909 -0.138314
think -0.120493 -0.087807 0.004974 -0.233433 -0.046455 -0.059709 0.074121 -0.088782 -0.049468 -0.028138 0.123376 -0.148340 -0.034630 0.005700 0.099095 -0.136091 0.027209 -0.036887 -0.118612 -0.049228 -0.053348 -0.259558 0.028097 0.101194 -0.179562 -0.106935 0.039324 0.208119 -0.253613 0.126654 -0.229178 -0.274808 -0.178630 -0.101068 -0.039464 -0.073889 0.077492 0.194388 -0.250251 0.105115 -0.007934 0.094875 -0.087555 -0.295140 -0.013881 0.198208 -0.001382 0.135337 0.181673 0.071703
could -0.180432 -0.132780 -0.244441 -0.082527 -0.065466 0.198846 -0.080875 -0.207234 -0.113707 0.055167 0.141404 0.155077 -0.135795 0.023861 -0.075248 -0.135541 0.055261 -0.219274 -0.018178 0.184301 -0.138914 -0.192052 -0.012129 0.107694 -0.058750 -0.053642 -0.100897 0.007064 -0.040767 0.099734 -0.023561 -0.189130 -0.200169 -0.003654 -0.085294 -0.083074 0.053225 0.151778 -0.183229 0.066223 0.063306 -0.141014 -0.063636 -0.171255 0.020696 0.070741 -0.013124 -0.014857 0.047447 0.000337
bear 0.094127 -0.306998 -0.447432 -0.072242 -0.265266 0.008403 -0.296390 -0.489051 0.104106 0.008353 0.162227 0.038007 0.098020 -0.103355 -0.349972 -0.016898 0.203611 0.142267 -0.052283 0.213155 -0.373982 -0.018204 0.056510 -0.138857 0.238050 0.187523 0.454310 0.313456 0.201055 0.351476 -0.273813 0.301465 0.003575 -0.441703 -0.059681 0.000921 -0.351727 0.011046 -0.130152 0.082938 0.415073 -0.096040 -0.393855 -0.019751 0.414818 0.133082 0.245797 -0.065891 -0.171348 -0.063639
if -0.168511 -0.176060 -0.070095 -0.064004 -0.155969 0.100238 0.095496 -0.072980 0.021612 0.103753 0.136290 -0.102465 -0.114620 0.027859 0.159597 -0.216354 -0.039696 -0.151306 -0.068541 0.170358 -0.123656 -0.132856 -0.000906 0.058643 -0.157615 -0.141924 -0.119203 0.176012 0.106438 -0.060012 -0.161632 -0.095195 -0.259669 -0.089072 -0.001244 -0.180419 0.102339 0.029330 -0.262477 -0.130323 0.091698 0.018302 -0.170126 -0.076554 0.174539 0.120287 -0.108837 -0.072488 0.076179 -0.113212
anyone 0.069817 -0.073715 -0.147665 0.046478 -0.081910 -0.119881 -0.025724 0.027519 -0.162805 0.010692 -0.071770 0.120330 -0.142445 0.056143 0.010723 -0.367687 0.003192 -0.093841 0.201498 0.208890 -0.091883 -0.030346 -0.191425 0.139121 -0.109021 0.027506 0.194231 0.423418 -0.023728 0.015416 -0.073322 -0.078388 -0.022681 0.091459 -0.001136 0.149930 -0.167819 -0.194008 -0.139079 -0.095247 0.256949 -0.120204 -0.143841 -0.118289 0.100613 0.075738 -0.127310 -0.237561 -0.143121 -0.147838
found 0.000461 -0.175033 -0.123061 0.003937 -0.101266 0.236643 -0.222058 -0.043198 0.061683 0.025454 -0.048489 -0.010765 -0.096574 0.082671 -0.117199 -0.350170 0.001150 0.058873 0.222714 -0.230811 -0.036955 -0.110112 -0.171058 0.031520 -0.111188 -0.001449 -0.086693 0.010450 -0.071669 0.142143 -0.029157 -0.049683 -0.222641 -0.018769 0.144272 -0.008832 0.016800 -0.079532 -0.120859 -0.000058 -0.029597 0.024206 -0.019358 0.037350 -0.095264 -0.038958 0.076282 -0.024383 0.012486 -0.219404
out -0.123427 -0.070990 0.102127 -0.005785 -0.052613 0.017974 -0.157272 0.058609 -0.202294 -0.117390 0.033088 0.063060 0.085548 -0.058370 -0.069723 -0.275459 0.110290 -0.032479 0.044110 -0.245301 -0.222929 0.036778 -0.076965 0.081288 0.097010 -0.049654 -0.165463 -0.009858 0.189005 0.055678 -0.094066 -0.078008 -0.022533 -0.234761 0.045073 0.127892 -0.016524 -0.151098 -0.157129 0.177028 -0.114335 -0.144856 0.042780 0.087976 -0.187228 -0.015197 -0.090536 0.073765 -0.062744 -0.101725
about -0.002510 0.085500 0.017385 -0.111440 0.100046 0.116535 -0.069518 -0.119903 -0.129610 0.201402 -0.088992 -0.021134 -0.031092 -0.070998 -0.017251 -0.178414 -0.171765 -0.101178 0.011941 -0.104045 0.054288 -0.007713 0.117415 -0.141947 -0.137914 -0.150470 -0.107628 -0.057433 0.074451 -0.079984 -0.015615 -0.082591 -0.105419 -0.148439 -0.020351 -0.084651 -0.063477 -0.009174 -0.119939 0.020426 -0.045024 0.019089 -0.138129 -0.086552 0.047575 0.227214 0.019826 0.058636 0.000908 -0.036095
Potters 0.053382 -0.073091 -0.071271 -0.127455 0.110500 0.103579 -0.019580 -0.127156 0.149347 -0.140936 -0.231681 -0.004832 0.176690 -0.041247 -0.134933 -0.019279 0.201079 0.187712 -0.103536 0.246022 -0.148486 0.113496 0.166049 0.109489 -0.215719 -0.224968 -0.017748 -0.059183 0.026251 0.162448 0.198991 0.328937 0.218529 -0.090755 0.112768 -0.234069 0.051317 0.209112 -0.201081 0.121025 -0.142423 -0.243453 -0.449949 -0.112073 -0.055740 -0.075714 0.276936 -0.159199 0.051087 0.006913
sister 0.000163 -0.006944 0.048638 0.250929 0.125008 0.078635 -0.445075 -0.242213 -0.101266 -0.247657 -0.071284 -0.222770 -0.054897 -0.173807 -0.005037 -0.070273 -0.215107 -0.006666 0.281653 -0.251769 -0.357505 -0.410176 -0.012087 0.258730 0.094920 0.014898 0.162950 -0.146229 -0.063446 0.103765 0.087644 -0.229347 0.243672 0.066984 0.111789 0.114726 0.119351 -0.095118 -0.058093 -0.062912 -0.037913 0.337786 0.130338 0.331180 -0.223336 -0.395342 0.226703 -0.067970 0.261029 0.208291
hadnt 0.007333 -0.171166 -0.115943 -0.062477 -0.075977 -0.011796 -0.196028 -0.035184 -0.151034 0.091949 0.025865 0.126137 -0.293240 0.013230 -0.101433 0.123758 0.129910 -0.038234 0.217802 -0.114787 -0.005878 -0.183981 -0.124275 0.012895 -0.332676 -0.020782 -0.066568 0.131695 0.142741 -0.136217 -0.090726 -0.038662 -0.054331 0.261960 0.017312 -0.053690 -0.001466 0.085480 0.080972 -0.097356 0.039134 -0.142594 -0.204764 0.033972 -0.078463 -0.047508 0.021197 -0.053700 -0.041731 -0.037371
met 0.091948 -0.201526 -0.269222 0.132884 -0.228886 -0.131406 0.005243 -0.196565 0.228901 0.208196 0.026548 0.208931 -0.176911 -0.294977 0.196429 -0.143690 -0.068904 0.095652 0.217277 -0.138300 -0.006517 -0.086434 0.128120 -0.010613 -0.010079 -0.407973 0.207991 0.052173 -0.032538 0.154723 0.104887 -0.118373 0.089759 -0.066468 -0.090464 -0.269855 -0.066007 0.081633 -0.004239 0.153246 -0.146181 0.218337 -0.052237 0.104961 0.183493 0.215203 -0.168160 0.062891 -0.035751 -0.136612
for -0.087764 0.003435 -0.203219 -0.080180 0.020961 -0.120440 -0.134175 0.087343 0.011351 -0.000935 0.042176 0.016658 -0.192925 -0.135605 0.023882 -0.109857 0.107583 -0.226800 0.004175 -0.076530 0.016451 -0.092387 0.098608 -0.168251 -0.198812 -0.116955 -0.169420 -0.017104 -0.050880 -0.082529 0.087401 -0.087677 -0.023455 -0.050638 -0.149947 0.032953 -0.041235 -0.195289 0.039039 -0.034590 -0.177700 0.027138 0.007337 -0.033344 0.173247 0.036106 -0.025576 0.066137 -0.007902 0.097594
several 0.095071 0.044116 -0.002974 -0.124127 0.035718 -0.309385 -0.282539 -0.010369 0.302549 -0.495267 0.075596 0.121436 -0.059770 -0.004022 0.070047 0.163315 0.055131 -0.038558 0.279521 -0.467743 0.256504 -0.221555 -0.089781 0.005856 -0.099193 0.206914 -0.043416 -0.098294 0.012366 -0.261932 0.105673 0.235614 0.239079 -0.039979 0.052442 -0.036661 -0.028426 -0.070271 0.033016 -0.288888 -0.265385 0.305539 0.087937 -0.358568 0.261456 0.067106 0.098105 0.206868 0.029344 0.050586
years -0.012212 0.000802 -0.104334 -0.084067 0.168514 -0.043610 -0.263783 0.002374 0.028896 -0.274652 -0.158732 0.125738 -0.383377 -0.131589 0.055464 -0.077727 -0.140253 -0.022277 0.097641 0.100932 0.076305 0.106583 -0.083325 -0.023637 -0.201821 -0.228223 0.138890 0.027822 -0.100610 -0.077019 -0.097140 -0.005092 0.028245 -0.126672 0.030547 0.075638 -0.182730 0.007942 0.378883 0.032465 0.047507 0.223315 -0.106208 -0.017631 0.181603 0.091682 -0.057556 0.004537 0.017652 0.070843
fact 0.262032 -0.238702 0.005626 -0.006012 0.132653 -0.002479 -0.387235 0.065455 0.293539 0.103892 0.040579 -0.139395 -0.409338 -0.004465 -0.128972 -0.023052 -0.103710 0.078195 0.288561 -0.058907 0.035255 -0.057549 0.061843 -0.206081 -0.127042 -0.023780 0.108015 0.243067 0.026576 0.302054 -0.047454 0.016770 0.032294 0.012419 0.344813 0.071258 -0.162321 0.174358 0.120455 -0.091652 -0.070531 0.022609 -0.161653 -0.202198 0.013041 0.117605 -0.230429 -0.108670 -0.316051 0.096752
pretended -0.436649 0.243758 -0.125258 -0.160798 0.143251 -0.324907 -0.005963 0.218337 -0.243496 0.297263 -0.099111 -0.381477 -0.386741 -0.256703 0.024082 0.136835 0.077762 -0.145482 0.336182 0.222127 0.005425 0.054104 -0.297522 0.117753 -0.246067 -0.053747 -0.424883 0.038488 0.087952 0.060007 -0.070319 -0.287446 0.492332 -0.286585 0.097788 0.019656 -0.235462 -0.116331 -0.161964 -0.314239 0.291006 0.007967 0.042220 -0.224242 -0.145309 0.304221 0.336686 0.075462 0.146249 0.357651
goodfornothing 0.124839 0.143316 0.193420 0.317361 -0.342839 0.218692 0.138391 0.194722 0.097316 0.350758 -0.028417 -0.130704 0.201902 -0.091939 0.197322 0.278393 -0.046041 0.224052 -0.233548 -0.304263 -0.370168 0.037277 -0.183578 0.456256 -0.195229 0.116172 -0.281423 -0.421210 0.380152 -0.472746 -0.019378 0.430541 0.017416 0.205559 0.393168 0.061202 0.207896 0.401624 -0.501513 0.076317 0.249104 -0.126937 -0.081146 0.490057 0.390695 -0.077919 -0.189863 0.252310 0.265628 0.477418
husband 0.119277 -0.100432 0.178263 0.428905 0.349938 -0.298609 0.418507 -0.325179 0.311726 -0.139296 0.264820 -0.303120 -0.468070 -0.052965 -0.085392 0.290048 -0.003909 -0.134377 -0.107225 0.134186 0.033323 -0.241901 -0.028899 0.291786 -0.255517 -0.098743 -0.277970 -0.294107 -0.475840 -0.003783 0.118667 -0.299784 0.116688 -0.280883 0.124308 -0.176139 0.448886 0.263617 -0.279225 -0.297167 0.246261 0.548094 0.429812 0.457182 0.496065 0.157106 -0.281406 -0.355949 0.113231 0.264922
unDursleyish -0.344075 -0.314695 0.451490 -0.120732 0.114166 -0.189611 -0.331623 0.230845 0.121261 0.495555 -0.412165 0.078890 -0.189756 -0.017715 -0.025366 0.095838 0.356741 0.455670 0.139270 0.123041 -0.494531 -0.092326 0.249082 -0.001434 0.162930 -0.147050 -0.174790 -0.438657 -0.173234 -0.345500 0.105202 -0.057099 -0.378558 0.511592 0.208734 -0.226804 -0.035854 0.161865 0.436033 0.296382 0.370975 -0.346526 -0.363087 0.168566 0.309661 0.030226 0.174226 -0.361423 0.139435 0.308485
possible -0.118978 0.110021 -0.013339 0.106147 -0.096143 0.246782 -0.168466 0.083977 0.138437 0.099987 0.051086 0.217904 -0.211199 0.075713 -0.087129 -0.014067 0.035467 -0.067203 0.254321 -0.036295 0.065902 0.151107 -0.042955 -0.019592 -0.203119 -0.201409 -0.002082 -0.224080 0.213874 0.164338 -0.046606 -0.286503 -0.040785 0.094827 0.295781 -0.048184 0.043088 -0.211536 0.208709 -0.038636 0.081738 -0.470332 -0.085931 -0.219915 -0.028904 0.278775 -0.122815 -0.058989 0.131980 -0.055652
shuddered 0.068097 -0.303740 -0.236631 0.190906 -0.425469 0.003291 0.343114 0.111093 -0.031781 -0.542485 -0.027366 0.119753 -0.164274 -0.174841 -0.244032 -0.306017 0.345748 -0.275318 0.218241 0.205620 0.072994 -0.261118 -0.250853 0.020487 -0.145362 0.154935 0.251833 -0.172184 -0.300500 0.168338 0.373275 -0.195588 0.059460 -0.089093 -0.019947 -0.123076 -0.065940 0.146429 -0.222442 0.125450 -0.082190 -0.171004 0.214506 0.347343 -0.014439 0.358730 -0.029546 0.117698 -0.176438 0.413033
what -0.050395 0.049462 -0.181846 -0.265823 0.037133 0.191816 -0.060128 -0.248228 -0.111810 0.153175 0.047176 -0.237962 -0.068919 0.009264 0.011183 -0.085409 -0.055960 -0.081909 0.096004 -0.084872 -0.063646 -0.186384 0.098373 0.037719 -0.037239 -0.151773 -0.134773 0.115124 -0.029855 -0.034181 -0.186774 -0.195216 -0.165007 0.093190 -0.103977 -0.141920 -0.007848 0.120514 -0.210563 0.013770 -0.042939 0.008889 -0.142850 0.030139 0.067359 0.146364 -0.119452 0.048394 0.001005 -0.049436
arrived -0.071616 0.101848 -0.042111 0.256766 0.184419 -0.116396 -0.191648 0.077626 0.036858 -0.155012 -0.234940 0.151879 0.005480 -0.128621 -0.399897 -0.031196 0.482330 0.111067 0.111402 0.193278 0.114289 -0.070313 0.120920 0.176432 -0.135945 -0.322361 -0.184422 -0.192388 0.003371 -0.046636 0.268464 -0.107437 -0.078461 -0.127498 0.032705 -0.330528 -0.028590 -0.098243 -0.198558 -0.090703 0.231019 0.039456 -0.079950 0.141560 0.042515 0.110365 -0.148133 -0.271087 -0.255415 -0.308332
street 0.165380 0.070771 0.038228 0.042663 -0.198276 0.218771 -0.032654 -0.117715 0.147704 -0.170331 0.033472 -0.216384 -0.216101 0.249049 0.022857 0.014953 0.024831 0.027029 0.065631 -0.231136 -0.139254 -0.023574 0.210646 0.146863 0.030278 -0.120792 0.127227 0.010421 -0.197902 -0.123527 0.001423 0.031165 0.258481 -0.198204 0.314279 -0.059813 -0.236146 0.007630 -0.126410 -0.151173 -0.100651 -0.109215 0.016141 -0.233329 0.183083 -0.089203 -0.280699 -0.018404 -0.280528 0.054104
knew 0.033832 0.087583 -0.054716 -0.285371 -0.109340 0.013188 -0.013164 -0.047060 -0.162617 0.252921 -0.025435 -0.093203 0.020561 0.029585 -0.029204 -0.113903 0.154979 -0.101200 0.031936 0.190062 -0.183502 -0.211025 -0.096941 0.209538 -0.019068 -0.178289 -0.140506 -0.064213 -0.021152 -0.171690 -0.126512 -0.000961 -0.167036 -0.035016 -0.040199 -0.016941 -0.103717 0.115555 -0.217680 0.063232 0.153668 -0.149203 -0.225549 0.068688 0.005386 -0.032550 0.036621 0.098361 -0.056687 -0.134657
too -0.001386 -0.028315 -0.198491 -0.075125 0.126065 -0.063470 0.030756 -0.110222 0.086598 0.122139 -0.009529 -0.163732 -0.001642 -0.050399 -0.055531 -0.129196 0.005898 -0.185654 -0.104767 0.116041 -0.013890 -0.210121 -0.126092 0.007896 -0.039490 -0.229993 0.256721 -0.009011 -0.030195 -0.175033 -0.195833 0.089206 0.052980 -0.039328 0.157710 -0.057842 -0.109528 -0.174033 0.040101 0.027474 -0.025429 0.052958 -0.075991 0.017124 0.069675 -0.148176 -0.069165 -0.154449 -0.002921 0.007534
never -0.068491 -0.154340 -0.235205 -0.065322 0.074047 -0.085976 -0.122893 -0.144519 -0.114370 0.292785 -0.134201 -0.149361 0.049996 -0.042897 0.035987 -0.008824 0.170518 -0.082348 0.283410 -0.063262 -0.018334 -0.303838 -0.100893 -0.221022 -0.027146 -0.185745 -0.007142 0.227070 -0.089859 -0.009502 -0.166688 0.094980 -0.187337 0.199831 -0.078998 -0.154537 0.102606 -0.058158 -0.032682 0.091189 0.290860 0.098502 -0.068492 -0.042984 -0.174791 -0.059126 -0.197537 0.056684 0.001330 0.000415
even 0.078677 -0.251080 0.055170 -0.110206 -0.086871 0.076052 0.017999 0.059885 -0.014005 0.176138 0.005214 -0.109055 -0.237685 0.007996 -0.072094 0.045965 0.016695 -0.115772 0.103088 -0.053476 0.006557 -0.079207 -0.052520 -0.105317 -0.112834 -0.270752 -0.069489 0.036815 -0.017789 -0.135265 -0.083862 -0.017756 -0.174293 -0.043219 0.028955 0.099256 -0.053458 0.097572 -0.023671 0.058003 -0.018436 -0.025444 -0.038277 0.008666 0.101070 -0.036771 -0.206093 0.060060 0.049712 -0.135572
seen -0.005398 -0.049909 -0.179496 -0.085780 0.000095 -0.158228 -0.196723 -0.050334 -0.117283 0.087472 -0.132574 -0.018495 0.026876 -0.112883 -0.125386 0.056188 0.138763 -0.037757 0.152445 -0.120955 -0.053352 -0.259832 -0.102698 0.017770 -0.017688 -0.055075 0.031057 0.338683 0.057269 0.068946 -0.105752 0.105427 -0.103739 0.254321 -0.007201 -0.226272 0.029728 0.099039 -0.078529 -0.049502 0.255114 0.088549 -0.067585 -0.204243 -0.179546 -0.113381 -0.221095 -0.141774 -0.113224 -0.133287
him 0.015726 -0.176325 0.002556 -0.168354 -0.139205 -0.198453 0.116100 -0.092267 -0.144186 -0.038971 -0.176528 0.017294 -0.161970 -0.134833 0.008448 0.004774 -0.202730 -0.013276 0.042552 -0.163582 0.015486 -0.225312 0.019988 -0.073619 0.018865 -0.009750 -0.128697 0.047596 -0.065294 0.038577 0.063111 0.033828 -0.024490 0.178873 -0.058537 -0.055780 0.083555 0.031863 -0.160944 0.109511 0.249991 -0.176980 -0.117371 -0.025874 0.004018 0.075329 -0.022998 -0.034712 -0.127955 -0.039022
This 0.137858 0.062171 0.118709 -0.173865 -0.007783 -0.066296 0.019423 -0.158034 -0.085872 0.039986 -0.238857 -0.011008 -0.338209 0.138895 -0.082542 -0.200111 0.004069 0.002272 0.095023 0.073647 -0.100596 0.137530 -0.002265 0.157590 -0.098599 -0.233065 0.202010 0.071507 0.298900 -0.102933 -0.046060 -0.126992 0.292966 0.024348 -0.056689 -0.142869 0.045513 -0.060085 -0.046218 -0.192664 -0.171161 -0.150350 -0.128378 0.096276 0.108571 -0.028317 0.160739 -0.073811 -0.038218 -0.231541
another 0.150202 0.067580 -0.050590 -0.009907 0.018305 -0.189304 -0.063549 0.015968 0.002355 -0.062727 -0.050796 0.052939 -0.240506 0.260156 -0.255824 0.054170 0.077461 -0.112828 0.036354 -0.027940 -0.097194 -0.075001 0.290977 -0.067784 -0.101408 -0.086072 0.115166 0.037443 -0.018827 0.019762 -0.010622 0.011763 0.084937 -0.095267 -0.195760 -0.060075 -0.038241 -0.137926 -0.011671 -0.166460 -0.059409 -0.033085 -0.021431 -0.070512 -0.078975 -0.268604 -0.135058 0.107761 0.101413 0.069973
good -0.005556 -0.114022 0.032158 -0.169968 0.018734 -0.032593 0.046899 -0.148554 -0.006613 0.262935 0.014089 0.004223 -0.015999 -0.066904 -0.141048 -0.348459 0.050415 -0.026793 0.067397 0.051005 0.107861 0.075661 0.074492 -0.106399 -0.155594 -0.204141 0.134944 0.014396 0.060436 -0.046197 0.038084 0.047711 -0.126435 -0.111846 -0.170903 -0.052370 -0.017101 -0.244824 0.175689 -0.115733 -0.046698 0.131988 -0.013512 -0.117938 0.142333 0.012422 -0.027538 -0.127664 0.113566 -0.139301
reason 0.123095 0.166626 0.146153 -0.003620 0.139102 -0.254180 -0.335839 -0.263965 0.086514 0.225350 -0.010609 -0.073084 0.003781 -0.016507 -0.175234 -0.094210 0.223327 -0.016265 -0.047978 -0.020540 0.040679 -0.137498 0.013767 -0.049156 -0.318380 -0.148194 0.016417 -0.163987 0.076946 -0.006983 0.258837 -0.131438 -0.089884 -0.024518 -0.201163 0.051481 0.208376 0.016659 -0.235801 0.014192 -0.156848 -0.098191 -0.021818 -0.197637 0.149143 -0.007788 -0.142725 -0.096894 0.092291 -0.002796
keeping -0.123364 -0.020849 0.065459 -0.244459 -0.018102 -0.090936 -0.382351 0.145896 -0.135533 0.174310 -0.223027 0.328544 -0.128778 -0.149297 -0.179391 0.005538 0.211752 -0.064955 -0.055966 -0.281115 -0.107235 0.221355 0.012999 -0.027781 -0.001437 0.037131 -0.287549 0.146618 0.392332 -0.203216 0.175855 -0.052618 0.009625 -0.323018 -0.070733 0.093197 0.242812 -0.099887 -0.048154 0.249139 0.246858 0.245193 -0.188894 0.156102 0.158341 -0.169743 -0.012696 -0.152421 -0.043054 -0.094106
away 0.044642 -0.120327 -0.047779 -0.061052 -0.071120 -0.148010 -0.259308 0.077576 0.091548 -0.112922 -0.013486 0.213900 -0.046633 -0.121188 -0.190461 0.100731 -0.027623 0.027834 0.004043 -0.049533 -0.107675 -0.003493 -0.121490 -0.084034 -0.076081 -0.085011 -0.195760 0.134896 0.005622 0.209981 -0.030800 0.214668 0.180846 -0.118864 0.039063 -0.016462 -0.124425 -0.121830 -0.124519 0.012265 0.124941 -0.088002 -0.000769 -0.030367 -0.051789 -0.087373 -0.032566 0.102535 -0.080658 0.059583
want 0.027012 -0.041947 -0.053366 -0.285654 0.169352 0.135961 -0.040154 -0.109132 -0.107330 0.146210 -0.041464 0.103112 -0.179471 0.102246 0.311619 -0.234765 -0.223877 -0.241341 0.054370 0.069512 -0.202936 0.032361 -0.128168 -0.038551 0.001869 -0.132131 -0.018424 0.183018 -0.223357 -0.103056 -0.217059 -0.177355 -0.226905 -0.045470 -0.144529 -0.042745 -0.035035 0.370612 -0.058127 -0.074858 0.102187 0.154440 -0.113582 -0.273117 0.051666 0.207641 -0.062671 0.178904 0.261457 0.107250
mixing 0.154002 -0.312760 -0.393521 0.460679 -0.473610 -0.493009 0.185335 -0.229424 -0.006814 -0.307749 0.026111 0.215013 -0.046905 -0.160009 0.371322 -0.139445 0.033749 0.007431 0.266494 0.526438 -0.020067 -0.280289 0.270132 -0.347255 0.545472 -0.138748 0.224433 -0.048601 0.062861 0.047944 -0.117543 0.082297 0.091577 0.139546 -0.352775 -0.324454 -0.233286 -0.015049 -0.076308 0.267304 0.268632 0.005994 0.190120 -0.405761 -0.047995 0.235196 -0.215122 -0.195836 -0.145184 0.178316
child -0.025260 0.139944 0.141851 -0.251942 -0.092545 0.313473 -0.315560 0.426723 0.304027 -0.446681 0.193662 -0.394465 0.128276 -0.140091 0.199969 -0.615460 0.046457 -0.224723 0.172429 0.174812 -0.053545 -0.017464 -0.338715 -0.086681 0.278015 -0.326276 -0.375215 0.308446 -0.487816 0.015860 -0.191129 -0.013537 -0.071893 -0.143889 0.088143 -0.107449 -0.385111 -0.204459 -0.032753 -0.359757 0.206700 0.122427 0.018761 0.412536 0.392501 -0.025324 0.030919 0.166141 -0.190492 0.078687
like -0.036926 -0.051357 -0.157538 -0.249884 -0.059523 -0.057413 0.064164 0.183730 -0.034677 -0.088930 0.073324 0.079338 -0.049813 0.103173 -0.188359 -0.022334 -0.001737 -0.105706 0.096726 -0.071743 0.009753 0.118042 0.008740 0.062902 0.027302 -0.077999 0.112286 -0.047264 -0.117226 -0.121513 -0.271001 -0.150796 -0.078507 -0.035267 0.065000 -0.070697 0.028585 -0.042611 -0.074958 -0.088824 0.034510 -0.095551 0.060771 -0.107384 0.148759 0.050531 0.029116 0.025910 -0.006155 -0.075247
When -0.026289 0.047557 -0.229995 -0.164882 -0.177119 -0.018032 -0.003200 -0.148412 0.160838 0.040502 0.040282 0.202350 0.066230 -0.002223 -0.188708 -0.265426 0.300188 0.163576 0.112497 0.083090 -0.221709 0.033932 -0.196389 -0.008450 0.077502 -0.102603 0.126278 -0.149648 -0.014740 -0.086846 0.081458 -0.107007 0.067866 0.018737 0.042098 0.084502 -0.048545 0.022944 -0.083778 0.075900 0.017228 0.063219 -0.054336 0.137294 0.089548 0.156190 -0.085730 -0.077992 0.145893 -0.195502
woke -0.176548 -0.115059 0.160994 -0.011641 -0.010579 0.008174 -0.234241 -0.000945 0.053393 0.003725 -0.025669 -0.273280 0.392565 -0.233724 -0.048979 -0.240569 -0.090810 0.137794 -0.070661 0.026407 -0.100135 0.075445 0.020676 -0.017878 -0.131706 -0.160391 0.193938 -0.134115 0.157595 0.328793 -0.303453 -0.200489 0.361572 -0.423461 0.021955 0.099876 -0.025533 -0.243534 0.140205 0.059661 0.131385 0.195241 -0.068419 0.057059 0.150198 0.188299 -0.251703 -0.258145 0.196982 0.173564
up -0.112800 0.144575 -0.050276 -0.121391 -0.047111 -0.039985 -0.044818 -0.182989 0.148914 -0.139865 0.100214 -0.166509 -0.035437 -0.168566 -0.051804 -0.202067 -0.012917 -0.067939 -0.048304 -0.081939 -0.072773 -0.094197 -0.077917 -0.174037 -0.004785 -0.080125 -0.158184 -0.176492 0.133058 0.157294 -0.017140 -0.012419 0.044896 -0.091687 0.140418 0.081907 -0.153489 0.050665 0.149696 -0.080061 -0.051553 -0.151109 0.146507 -0.050425 -0.097044 -0.137851 -0.104279 0.062739 0.020664 0.054731
dull 0.302768 0.110436 -0.226282 0.396616 -0.170100 -0.096172 -0.173960 0.453918 -0.274961 0.332453 0.070058 -0.450495 -0.364871 -0.170695 -0.251687 -0.185692 -0.459655 -0.262387 -0.008258 0.293073 -0.158661 -0.135506 -0.027294 -0.216055 -0.015222 0.005876 -0.037412 0.255713 -0.189563 0.463249 0.271354 0.167069 0.269250 0.255954 -0.324274 0.033041 -0.454514 -0.082661 0.087899 0.107171 0.119217 -0.152239 0.213050 0.131846 -0.329733 -0.198677 0.457979 0.434821 0.301683 0.252842
gray 0.011909 0.038420 -0.319744 -0.042317 -0.009649 0.423427 -0.049585 0.333245 -0.002882 -0.209172 -0.086745 0.165374 0.130021 -0.149972 -0.101301 -0.263090 -0.060812 -0.177424 0.197577 -0.121041 -0.092665 0.233679 -0.202373 -0.054065 0.011321 -0.071694 -0.109368 0.390209 -0.014033 -0.016066 0.231976 0.033976 -0.001102 -0.043683 -0.154732 -0.149672 -0.118930 -0.010446 -0.103234 -0.233608 -0.030982 0.022211 0.074625 0.100087 -0.213842 0.001545 0.421466 0.120631 -0.036071 0.097578
Tuesday -0.140905 0.129912 -0.292385 -0.192552 -0.381518 0.118634 -0.171300 0.434158 -0.273650 -0.275810 -0.246603 0.121773 -0.290349 -0.114630 -0.108735 -0.023802 -0.120597 -0.175060 -0.146320 -0.188716 -0.353621 0.345344 0.035667 0.179178 -0.245522 0.068351 0.214559 0.304171 0.148270 -0.129807 0.328236 0.219256 0.292945 -0.082209 -0.025902 0.105213 -0.212162 -0.246524 0.284459 0.118917 -0.252783 0.313714 -0.195061 -0.034697 0.446670 -0.117624 0.264599 -0.146077 0.042481 0.265041
our -0.058927 -0.004498 0.016511 0.013811 0.064811 0.223720 -0.253167 -0.065181 -0.025648 0.080831 -0.131384 0.235795 -0.111730 0.192680 0.178025 0.020165 -0.032514 -0.104406 -0.062742 0.000011 -0.034299 -0.021178 0.099783 -0.001650 -0.257144 -0.224689 0.087840 -0.025619 -0.117826 -0.124252 -0.043573 -0.142976 0.114233 -0.327245 -0.084158 -0.100279 -0.227002 -0.102203 0.007512 -0.058029 0.096386 0.176428 0.208459 -0.041457 0.130790 -0.176495 0.007376 0.160739 0.099634 0.315309
story -0.133194 -0.035569 -0.281187 -0.214391 -0.242929 0.023937 0.242489 0.171372 -0.144837 -0.261808 -0.042319 0.196901 0.140748 -0.048502 0.187433 -0.170803 -0.235338 -0.068452 -0.182321 0.397786 0.145404 0.364432 -0.110854 -0.347294 -0.052647 -0.158267 0.006183 -0.142100 0.029795 -0.235695 -0.034447 -0.130426 0.120745 -0.133529 0.315853 -0.289981 0.107250 -0.087268 -0.111786 -0.133214 0.091907 -0.130987 0.138360 -0.217110 0.293703 -0.100257 0.253185 0.225218 0.097060 0.268760
starts 0.297291 -0.238148 -0.075191 0.245331 0.056312 0.221064 -0.196100 -0.171462 0.131045 -0.122142 0.092616 -0.202468 0.435793 0.125104 -0.304618 -0.039996 -0.277335 -0.154422 -0.106894 -0.086619 -0.074543 0.270954 0.305007 -0.147693 -0.171403 -0.242298 0.331172 -0.053762 -0.334714 0.223671 0.410180 0.211581 -0.031353 0.125145 -0.239598 -0.045000 0.124396 0.171371 0.104461 0.103400 0.146902 0.010635 -0.082952 -0.318411 -0.091795 -0.090550 -0.027095 0.050901 0.314432 -0.178646
nothing 0.118399 0.050218 -0.072516 -0.009959 0.156855 0.016648 -0.047872 0.054470 -0.156741 -0.077264 0.098070 -0.159544 -0.084293 0.054663 -0.010133 -0.267032 0.049885 -0.039337 -0.134305 0.045571 -0.235711 -0.147316 0.047465 0.029805 -0.136740 0.030085 0.109581 0.015110 0.012693 -0.301460 0.099050 -0.065312 -0.224601 0.055588 0.073340 0.068804 0.190675 -0.060365 0.020451 0.003461 -0.146792 -0.154743 -0.150441 0.055601 0.044622 -0.140523 -0.138016 0.065463 0.055453 -0.019808
cloudy 0.263180 0.123866 -0.045238 -0.105202 -0.294584 -0.122689 -0.241132 0.270687 0.088272 0.134325 0.180405 0.222907 -0.296817 0.184049 0.286771 -0.333507 -0.327076 -0.362151 -0.105216 0.141074 -0.169313 0.083447 -0.056279 -0.335773 0.196452 -0.333462 0.386172 -0.273286 0.301282 -0.133600 0.089515 -0.316556 -0.003094 -0.101691 0.266139 0.168770 0.325096 0.029551 0.016999 0.019417 -0.084268 -0.180265 0.425064 -0.297736 0.130119 -0.149237 -0.061969 0.284541 -0.152709 -0.072401
sky 0.314080 0.152220 -0.106872 -0.137841 0.146986 -0.305340 0.159940 0.042290 0.068813 -0.155491 -0.003208 0.153327 0.137215 0.160527 -0.152537 -0.021075 -0.244304 -0.247870 -0.115319 -0.170170 -0.163776 -0.185845 0.262056 0.051379 -0.485413 -0.031767 0.116718 0.085012 -0.014294 0.062518 -0.071764 0.225705 0.103064 0.275129 -0.088381 -0.038525 -0.082457 -0.148386 0.101518 -0.000054 -0.199217 -0.337837 0.056053 0.098229 0.140461 0.078401 0.110032 0.059224 0.053189 -0.110854
outside 0.070212 0.010500 -0.280712 0.051663 0.174373 0.112865 -0.058542 -0.169201 0.023289 0.052547 0.005232 -0.019044 -0.029783 -0.192087 -0.190257 -0.089185 0.006126 -0.028441 -0.022957 -0.061998 0.064036 0.140800 0.121415 -0.208785 -0.099045 -0.019506 0.171876 -0.085639 -0.126591 -0.096525 0.029887 0.206676 0.257559 0.066924 -0.070437 -0.088413 -0.128392 -0.088321 -0.061300 -0.066186 0.098933 -0.178089 0.246379 -0.127514 0.109071 -0.046843 -0.139314 0.211783 0.052282 0.075826
suggest 0.284021 -0.182186 0.037209 -0.093498 0.031192 0.253086 0.300483 -0.156626 -0.447499 -0.285125 0.160531 0.423946 0.215890 0.123843 0.204773 0.078344 0.186025 -0.220413 -0.210612 0.291834 0.248591 -0.088586 -0.149484 0.209129 0.000247 -0.526724 -0.362425 0.381250 0.038630 -0.019849 0.096469 0.043924 -0.008258 -0.072968 0.342011 -0.304801 -0.165633 0.211366 0.245655 -0.155363 -0.354267 0.139674 -0.325174 -0.355127 -0.307044 0.234451 -0.310422 0.401622 0.203381 -0.072814
things -0.126129 -0.013529 0.085497 -0.131519 0.051405 0.081962 -0.025711 -0.040820 0.131998 -0.130421 -0.095004 0.022271 -0.118362 0.107775 -0.033453 -0.222535 0.011996 -0.007226 0.224713 -0.032747 0.043219 -0.062913 -0.090674 -0.018035 0.073309 -0.160665 0.021116 0.116580 -0.120096 0.019064 -0.084270 -0.002498 0.000657 -0.025677 0.043472 -0.120450 -0.035752 -0.135198 -0.218752 -0.111698 -0.007294 0.123772 0.134847 -0.135485 -0.059184 0.135133 -0.036360 -0.024612 0.019140 0.040161
soon 0.059286 0.239071 -0.056107 -0.163664 0.137895 0.140791 -0.031525 0.305819 -0.161799 -0.054781 -0.234038 0.315089 -0.158525 -0.028778 -0.291745 -0.331895 -0.142860 -0.307676 -0.269454 0.102576 -0.204260 0.096029 0.088490 0.312341 -0.271684 0.004460 0.073094 0.045859 0.028366 -0.009289 0.097125 0.175760 0.204959 -0.142568 0.222469 -0.335931 -0.099534 0.017790 -0.204485 0.034661 -0.088134 -0.241396 -0.387425 -0.184396 0.103549 0.370627 0.351304 -0.114036 -0.094068 0.173103
happening -0.235164 -0.030915 -0.252561 -0.039835 -0.074976 0.002554 0.163566 0.283781 -0.005437 -0.160025 -0.451051 -0.426830 -0.092806 -0.240410 -0.434901 -0.279297 -0.065312 0.240509 -0.252829 -0.040845 0.336855 -0.154153 -0.398218 0.225420 -0.215298 0.150446 -0.283560 -0.014509 -0.237440 0.191274 0.184898 0.193276 -0.193889 -0.231389 0.496865 -0.357624 0.284275 0.304035 0.382565 -0.020004 0.387082 0.345543 -0.080851 0.122750 0.470736 0.271477 0.172398 -0.546016 -0.169945 0.263797
all -0.197062 0.067766 0.004471 0.077531 0.005145 -0.055173 0.006062 -0.062645 -0.066567 0.127520 -0.146511 -0.031395 -0.065535 -0.160419 0.066959 -0.179783 -0.028116 -0.100080 -0.169885 -0.179425 -0.172023 -0.228199 0.203574 -0.099093 0.010994 -0.275540 -0.359273 -0.075163 0.066886 -0.038354 0.064128 0.167591 -0.000335 0.012070 -0.061605 -0.076297 -0.083751 -0.011057 0.001379 0.082565 0.071069 -0.033199 -0.088048 -0.018624 0.147757 0.051453 -0.079556 -0.052299 0.030213 0.069700
country 0.013363 0.011465 -0.186098 0.364598 -0.262988 0.165196 0.188684 0.083656 0.085237 0.215040 -0.326586 -0.132257 -0.340230 0.153938 0.174399 -0.069620 0.341203 0.115274 -0.224109 0.386849 -0.344217 -0.170689 -0.029265 0.449424 -0.252163 -0.371235 -0.107450 0.449491 -0.212836 0.169002 0.084002 -0.025745 0.160409 -0.120274 0.315331 -0.199057 0.135956 -0.231088 -0.079383 -0.079286 -0.121966 0.140447 0.277427 -0.543364 0.027729 -0.450385 0.297739 -0.406621 0.333912 -0.030607
hummed 0.009514 0.328317 0.127225 -0.102892 0.319742 -0.199554 -0.235951 0.254146 0.242827 0.381193 -0.328381 -0.079176 -0.081451 0.036309 0.108542 -0.199273 0.008149 -0.414930 0.087198 0.023241 0.137548 0.144336 -0.134497 0.256308 0.034780 -0.474171 0.320941 -0.158176 -0.336593 0.428864 -0.070976 0.280937 -0.051991 0.083756 -0.113099 0.259309 -0.425060 0.040720 0.141415 -0.022424 0.212900 -0.151232 0.039063 -0.470074 -0.224880 0.087207 0.323964 0.140052 -0.141090 0.149703
picked -0.084722 0.114538 -0.114567 0.024266 0.044300 0.250397 0.088927 -0.012145 0.226246 -0.161632 0.042987 -0.141101 0.094785 -0.392142 0.070200 -0.209524 0.046226 -0.044583 0.082176 0.285839 -0.187610 0.171927 -0.168756 -0.052930 0.282195 -0.335597 -0.225407 0.032341 -0.151669 -0.094887 0.153274 0.077625 0.106158 -0.035616 -0.013408 0.248110 -0.285873 0.190112 -0.226547 0.093681 -0.322157 -0.034592 0.275662 0.031127 -0.083690 -0.317371 -0.070671 0.235732 0.218713 0.335960
his -0.314923 -0.327799 -0.043053 0.177422 -0.427031 -0.367720 -0.454507 0.229496 -0.123679 -0.165018 -0.070616 -0.142109 0.168065 -0.187352 -0.025652 0.119876 -0.241872 0.051564 0.246943 -0.193494 0.111422 0.062002 -0.189264 -0.028160 0.416490 0.090623 -0.043559 -0.136101 0.387478 -0.239600 0.131435 0.007497 0.090312 -0.359448 -0.160173 0.237774 -0.074208 -0.177957 -0.043119 0.080447 0.159059 -0.414938 -0.114848 -0.163264 -0.090777 0.081322 -0.208232 0.218854 0.019360 0.276472
most -0.066220 0.111601 -0.060301 0.054579 0.156243 -0.027544 -0.071218 -0.134788 -0.029107 -0.027229 -0.258247 -0.238661 0.053328 -0.060805 -0.092611 -0.169114 -0.037375 -0.003148 0.093298 0.035409 -0.165715 0.046539 0.117128 0.152136 0.061057 -0.109599 0.309809 -0.059774 0.045318 -0.021078 -0.072041 0.054491 0.128496 -0.132355 0.039147 0.119937 -0.144688 -0.012960 0.090581 -0.126069 -0.040945 0.056462 0.060725 -0.122656 0.269606 0.134979 -0.206638 -0.127812 -0.119554 0.086724
boring -0.247782 0.434837 -0.316154 0.107859 0.542645 -0.430574 0.247220 0.099704 0.017746 0.185495 -0.367431 -0.140281 -0.032513 -0.233233 0.030386 -0.071970 -0.242369 -0.161310 0.108195 0.223288 -0.072836 -0.150135 0.238283 0.038979 0.173058 -0.581546 0.172879 0.141501 0.335439 -0.122554 -0.085976 -0.449174 0.391156 -0.370768 0.150347 0.090738 -0.177315 0.152246 0.064536 -0.351848 0.122915 -0.193506 -0.424545 0.258406 0.345510 0.255835 0.053461 0.063931 -0.330137 0.299436
tie 0.298783 0.101574 0.390711 0.190279 0.510284 -0.148471 -0.275193 -0.033003 -0.067047 -0.289646 0.247341 -0.059838 -0.349849 0.154395 0.200615 0.505974 -0.153586 -0.129467 -0.152370 0.304248 0.277568 0.225099 0.317100 0.094026 0.162878 -0.074770 0.077527 0.312017 0.199846 0.386005 0.348232 0.044550 0.168470 -0.192683 -0.282287 0.663221 0.188632 0.255241 -0.233444 0.054082 0.283543 -0.014710 0.183252 -0.135083 0.670893 0.226932 -0.063026 0.628617 -0.032521 -0.063973
work -0.013164 0.069718 -0.055037 0.069411 -0.028169 -0.012804 -0.053093 0.042040 0.013803 0.031393 -0.102606 -0.119044 -0.239786 0.041589 -0.047339 -0.245171 -0.123004 0.048891 0.194332 -0.138524 0.036471 0.059799 -0.237205 -0.051329 0.069516 0.051044 0.060303 -0.104773 -0.156014 0.074311 -0.103783 0.130376 -0.172355 -0.077739 0.096236 0.140041 0.175875 -0.073408 -0.025710 0.132454 0.112589 -0.058178 -0.220512 -0.211172 0.060349 0.107442 -0.139234 0.206971 0.262144 0.006470
gossiped 0.356483 -0.341385 -0.215388 0.259486 -0.272724 0.369276 -0.150522 0.424891 -0.080526 -0.374019 0.087266 0.437470 0.391183 -0.251444 0.335836 0.075678 -0.153367 -0.021838 0.321207 0.502962 -0.196472 0.124158 0.382396 0.240625 0.130795 -0.546475 0.010059 0.246533 -0.274707 0.404482 0.050239 -0.282051 0.049358 -0.130626 -0.165305 -0.351572 -0.153710 0.140683 0.392218 0.109822 0.332503 -0.061098 -0.370158 0.078125 -0.179760 0.149926 -0.339224 0.043900 -0.274969 0.049597
happily 0.040902 -0.254024 -0.013526 0.298335 -0.247846 -0.045982 0.150676 0.063972 -0.265121 -0.114067 0.212682 0.006774 0.349520 -0.088476 0.337001 0.052930 -0.171964 -0.169505 0.383844 -0.094560 -0.255962 -0.066184 -0.129102 0.097518 -0.315649 -0.379181 0.087301 -0.119615 -0.181905 -0.434903 0.343279 -0.145037 0.315703 -0.122336 0.330730 -0.376959 0.219455 0.001064 0.336719 0.168831 -0.232143 0.132984 -0.031978 -0.147035 -0.202365 -0.071690 0.434087 0.051759 0.051614 0.256964
wrestled 0.195117 0.210942 -0.110166 -0.113290 0.408105 -0.446630 -0.021260 -0.212412 -0.190353 -0.032556 0.171484 0.302991 0.252648 0.079160 -0.164754 0.198110 0.362976 0.499079 -0.257085 0.443003 0.033763 0.165521 0.256419 -0.164097 -0.093821 -0.209663 0.020621 0.286231 0.213301 -0.096228 0.473188 0.068648 0.203377 0.523156 -0.025997 -0.275907 -0.271203 -0.274308 -0.185109 0.363537 -0.051717 -0.323490 -0.298688 -0.017075 0.536051 0.388616 0.181866 -0.136076 0.054473 -0.205507
screaming 0.132112 0.242170 0.035525 -0.246895 -0.177950 -0.384511 -0.062842 -0.370078 0.204905 -0.173683 0.230816 -0.114581 0.251638 0.424294 -0.136720 -0.025742 0.521976 -0.204326 -0.079364 -0.046142 -0.155191 -0.005746 0.363295 0.108020 -0.230148 0.027198 -0.130732 0.350777 0.454995 -0.238784 -0.079766 0.377795 0.075109 0.229559 0.038173 0.465041 -0.338782 -0.127838 -0.040482 -0.190540 -0.175733 -0.266075 -0.484308 0.306044 0.245257 -0.158153 -0.100466 0.015943 -0.191145 -0.060697
into -0.048192 0.012062 -0.094345 0.225973 -0.311053 -0.086306 -0.054214 -0.076561 0.056665 -0.166846 -0.033028 0.189431 -0.012089 -0.132008 -0.207981 -0.207966 -0.086515 0.188736 0.019060 -0.121481 -0.150423 -0.072152 -0.059499 0.113951 -0.034246 -0.032700 0.075922 -0.017904 0.037678 -0.073373 -0.038777 0.032492 0.076388 0.007789 0.079700 0.129136 -0.176641 -0.091261 -0.040773 -0.094885 0.052291 -0.167848 -0.067588 -0.011966 -0.154774 -0.138853 -0.080944 0.018100 0.072813 0.145325
high -0.015348 0.154816 -0.043154 0.399358 -0.223500 -0.165582 -0.077313 -0.116101 0.042761 -0.067763 0.086142 -0.070198 0.089729 0.031015 -0.286150 0.014216 -0.169054 -0.118278 0.295869 -0.149050 -0.103201 -0.022568 -0.123319 0.085897 0.123744 0.105759 0.271720 -0.020706 0.076001 -0.076213 -0.142488 0.033874 0.014512 -0.179617 0.134487 -0.070703 -0.370733 -0.082521 0.000640 -0.055033 0.231139 -0.021750 0.183560 -0.126138 0.125812 -0.227296 0.157773 -0.007442 0.059070 0.121228
chair 0.466202 0.177477 0.365962 -0.324137 -0.305184 -0.042536 -0.236831 0.141250 0.431828 0.148296 -0.257072 -0.153725 -0.138427 -0.227827 0.030277 -0.021552 -0.061696 0.160601 -0.045310 0.039812 0.223382 -0.072206 -0.311573 -0.058076 -0.316340 0.158231 -0.092907 0.246145 0.021640 -0.160855 -0.229971 0.274691 -0.216696 -0.313979 0.287185 -0.128849 -0.249611 -0.102304 0.310162 0.304955 0.273546 0.037684 -0.127766 -0.349775 0.162802 -0.373394 0.109935 -0.103057 0.315062 -0.205866
None -0.142785 -0.137347 -0.216506 -0.217800 -0.253392 -0.016958 -0.167442 0.351107 0.040591 0.001439 -0.181660 -0.337130 0.216445 -0.097365 0.020660 -0.300645 -0.297476 -0.026831 -0.222639 -0.168422 0.013541 0.399591 0.176803 0.477174 -0.153560 0.485027 -0.104380 -0.160393 0.093668 0.410118 -0.092107 0.086560 0.200237 0.516597 0.550592 -0.322894 -0.247913 -0.176801 0.144239 0.314718 0.361980 0.538919 0.471694 0.358068 0.416847 0.403298 -0.054355 -0.060180 -0.084904 0.208212
them -0.194685 0.015265 -0.035955 -0.024731 0.077217 -0.147690 -0.006957 -0.091588 -0.128694 -0.034769 -0.181232 -0.160698 -0.014883 0.034585 0.014371 -0.059557 0.052403 -0.164234 -0.027387 -0.132001 -0.007216 -0.281751 0.153058 0.063997 0.042960 -0.056056 -0.241252 -0.087035 -0.009807 0.044356 -0.074514 0.026423 -0.118215 -0.019911 0.116692 -0.107934 -0.158169 -0.141752 -0.014665 0.095685 0.125192 -0.268498 0.260861 -0.136967 -0.171689 -0.039647 -0.073494 0.111118 0.002145 -0.032631
noticed 0.135017 -0.036033 0.081786 -0.457306 0.017736 0.146987 -0.099132 0.017939 0.059073 0.056403 0.287834 0.084463 -0.032370 0.025979 -0.162837 0.071473 0.202678 -0.193706 0.113059 -0.124001 -0.020726 -0.172402 -0.161298 -0.015608 -0.071582 -0.012020 -0.146403 0.022254 -0.090457 -0.047614 -0.048634 -0.350176 0.043412 0.259917 0.019262 -0.121876 0.034330 -0.120143 0.249597 -0.066421 0.230155 -0.028137 -0.118387 0.044073 -0.248843 -0.030835 0.144656 -0.010573 0.002440 -0.063216
tawny 0.444506 0.203350 0.137229 0.095447 -0.194496 -0.480044 0.022952 -0.055318 0.374987 0.172567 -0.207369 0.070025 0.312233 0.486843 -0.244674 -0.018929 -0.219310 -0.328108 0.110562 -0.472328 -0.324966 0.323087 0.122259 -0.218156 0.229646 -0.414079 0.525025 0.038916 0.097749 0.028849 -0.232551 0.307596 0.414634 -0.025749 -0.047309 -0.004945 -0.281276 -0.460134 0.142541 0.164373 -0.014593 0.186303 0.353848 0.192422 0.029374 0.125672 0.035786 0.302000 0.498918 0.096977
owl 0.041617 -0.202670 -0.117343 0.143404 -0.079357 -0.209745 0.012270 0.026094 -0.078217 0.207971 -0.166041 -0.138684 -0.244529 -0.034930 -0.021132 -0.119567 0.276396 -0.284823 0.001429 -0.159152 0.022168 0.004333 -0.202935 0.195651 0.007104 -0.216591 0.151304 -0.090066 -0.170589 -0.207045 0.092433 -0.023640 0.158880 0.025934 0.062324 0.132040 0.094325 -0.028015 -0.021027 -0.127569 -0.024025 0.222672 0.108372 -0.155270 0.239390 -0.037684 -0.131627 -0.041614 0.133015 -0.104865
flutter 0.158654 0.017568 -0.011698 -0.289359 -0.131868 0.399077 -0.013502 0.498808 -0.145868 0.243378 -0.370841 0.058743 -0.079149 -0.198486 0.018147 -0.019767 0.233082 -0.308315 0.267340 0.247250 -0.270283 0.540769 -0.029101 -0.114766 0.101414 -0.276088 0.217477 0.229721 0.306798 -0.277554 0.255904 -0.280630 0.206089 -0.142220 -0.028956 0.106466 -0.079630 -0.184140 -0.062140 -0.037306 -0.066748 -0.144304 0.290800 -0.155424 -0.180420 -0.246384 0.080554 -0.021776 0.087334 -0.260514
past 0.313259 -0.142622 -0.005606 -0.245783 0.014545 0.092577 -0.109764 0.135284 -0.032880 0.019748 -0.090845 0.291549 0.075945 -0.090907 -0.196822 0.061656 0.105835 -0.131949 0.191867 0.059928 0.031776 -0.023724 -0.079445 -0.206747 0.074492 -0.108515 -0.111059 0.016274 -0.069069 0.086153 -0.065665 0.051543 -0.229592 0.089242 -0.043480 -0.154729 -0.165425 -0.207606 -0.154313 -0.025526 0.002058 0.088672 0.104538 0.138582 0.034046 -0.150059 -0.184914 0.077802 -0.065325 0.007198
window 0.157589 0.005106 0.106377 -0.129876 0.031187 0.018985 -0.291665 -0.000184 0.108506 0.069453 -0.352717 -0.129415 -0.114282 0.114229 -0.173349 -0.124489 -0.002797 0.135718 -0.060765 0.129411 0.023161 0.019139 -0.142035 -0.117627 0.072618 -0.094815 -0.068694 0.234346 -0.054700 -0.096333 -0.012425 -0.059846 0.100598 -0.079552 0.093207 0.028057 -0.122392 -0.353623 -0.083187 0.103588 0.093593 -0.038064 0.220798 -0.059623 -0.136450 -0.140719 -0.087227 -0.137667 0.017904 0.014980
At 0.126367 -0.088324 0.097715 -0.165997 -0.140124 0.040582 0.156889 0.185479 0.055896 -0.059214 -0.198571 0.038582 -0.000169 -0.077262 -0.195475 0.000390 0.084814 -0.117841 0.088342 -0.084992 -0.053041 -0.174342 0.085960 0.062220 -0.108912 0.120173 0.226040 -0.093689 -0.119351 -0.075896 0.093001 0.154642 0.021189 0.000466 0.265182 -0.310992 -0.391440 0.056190 -0.044947 0.143606 -0.162600 0.042456 0.011932 -0.010998 0.013185 -0.102377 -0.028088 0.032186 0.047568 0.007744
half 0.084947 0.061266 0.097502 -0.213626 -0.176128 0.007903 0.080600 0.120356 0.131974 0.004311 -0.264974 -0.084528 -0.093064 0.048481 -0.260428 -0.104079 0.134481 0.171519 0.112336 -0.304756 -0.080966 -0.011322 -0.174771 -0.050802 -0.179453 0.027291 0.079730 -0.017472 -0.005377 -0.295143 0.119296 -0.075975 -0.055091 -0.076058 0.019081 -0.072601 0.189497 -0.261143 -0.000097 0.006610 -0.109627 0.260158 -0.047135 0.360938 0.084473 -0.239025 -0.058322 0.022763 0.279904 0.118893
eight 0.418684 0.075955 -0.341863 0.162010 0.275364 -0.141354 -0.280475 0.012244 -0.195742 -0.369354 -0.523963 0.165393 0.004051 -0.147354 -0.333870 0.031893 0.085448 0.107751 -0.090018 0.208495 -0.123786 -0.178043 0.205189 0.378272 -0.260984 -0.307963 0.163424 -0.181716 0.035162 -0.186923 0.105440 -0.017187 -0.052221 -0.313484 -0.190787 0.083636 0.403203 -0.064105 0.020861 0.393606 -0.071842 -0.044912 -0.160044 0.091475 0.002888 0.238349 0.293243 -0.226985 0.270052 -0.413516
briefcase 0.245636 0.319946 -0.020491 0.077141 -0.152972 -0.379339 -0.216648 0.419647 0.167485 -0.108143 -0.552330 0.331025 -0.004395 0.398865 0.173616 -0.111805 -0.367857 0.202961 0.237964 -0.345274 0.362613 0.150128 -0.365096 0.292928 0.111166 0.272549 0.399244 -0.087591 0.075688 0.077435 0.168828 -0.361610 0.066944 -0.044657 0.145946 0.067736 -0.294155 0.032674 -0.161907 0.299180 0.132750 0.097625 -0.094512 0.248409 -0.036753 -0.139695 0.440702 0.268039 0.310401 -0.177472
pecked 0.006143 0.339316 -0.104905 0.238462 -0.049227 0.154809 -0.203358 -0.063882 0.285301 -0.021385 -0.084877 -0.021594 -0.085918 0.312679 -0.362001 0.295867 0.369963 -0.227191 0.055505 -0.519185 -0.029716 0.046037 0.262902 -0.342803 0.084265 0.049358 -0.008322 -0.070910 0.603689 -0.126969 0.024867 -0.561336 0.107151 -0.246924 0.245431 0.204781 -0.241918 0.290448 0.017714 -0.366044 0.245527 0.028781 0.298414 -0.273236 0.123625 0.368897 0.237314 0.065278 0.510783 0.115123
cheek -0.172164 -0.286605 -0.324858 -0.239094 -0.023997 -0.385738 0.281024 -0.127510 -0.053057 -0.016758 0.155843 0.465441 0.134074 0.506001 0.104097 -0.122662 -0.231670 0.373674 0.421926 0.174542 -0.119131 -0.298385 -0.280037 -0.225400 0.368405 -0.229755 -0.276752 0.215290 -0.357464 -0.084324 -0.156333 0.480491 0.274032 -0.024817 0.406873 -0.314434 0.178632 -0.114838 0.066345 0.099455 -0.213235 0.089419 -0.317627 -0.437022 -0.187062 0.568701 0.288708 -0.243906 -0.380514 -0.051058
