77573 50
harry -0.480326 -0.634764 -0.072332 -0.466881 -0.188256 -0.323383 -0.055979 -0.210133 0.257946 -0.126106 -0.408818 -0.670182 -0.626011 -0.917092 0.275640 0.374360 0.996866 0.543578 0.013057 -0.265744 0.177307 -0.168831 -0.423433 -0.554811 -0.726213 -0.687340 -0.602690 -0.259332 0.336137 -0.169951 -1.250477 -0.295366 -0.688307 0.132089 -0.331919 -0.013325 -0.410276 -0.290287 -0.477706 0.565232 0.151545 -0.399089 0.413365 -0.037114 -0.001969 -0.601055 -0.165124 -0.489673 -0.672074 -0.065547
potter -0.848730 -0.829516 -0.429309 -0.540550 -0.311348 -0.188951 0.320194 0.111101 -0.194219 -0.533975 -0.851390 -0.848052 0.249815 -1.235660 0.852111 0.435410 0.150512 0.765938 -0.012514 -0.519005 -0.536024 -0.656528 -0.435009 -0.111885 -0.178481 -0.856661 -0.442946 -0.450902 0.255615 0.182005 -0.854471 -0.364910 -0.518263 0.450921 -0.801129 -0.323234 -0.081663 0.108759 -0.916025 0.926653 0.128762 -0.247746 -0.646205 0.210305 -0.480340 -0.565114 -0.394614 -0.035470 0.110428 0.178097
and -0.284777 -0.693048 -0.343730 -0.538510 -0.497923 -0.135611 -0.245787 -0.039755 0.388231 0.440742 -0.663728 -0.658832 -0.412250 -0.638378 -0.155291 0.218160 0.067368 0.519679 0.309855 -0.166605 -0.056043 -0.806511 -0.171404 -0.799027 -0.315609 0.035702 -0.482552 -0.145756 0.445586 -0.050178 -0.534772 -0.038598 -0.751769 0.426491 -0.746433 -0.109126 -0.773832 0.096790 -0.527908 0.543653 -0.011376 -0.289012 -0.176658 0.321658 0.204895 -0.301496 -0.158108 -0.179102 -0.114952 0.178714
the -1.166824 -0.513474 0.220181 -0.591656 -0.834884 0.275338 0.127748 0.169099 0.678455 0.234605 -0.955233 -0.757780 -0.287992 -0.326449 0.473998 -0.036438 0.061823 0.725127 -0.176511 -0.251928 -0.592189 -0.251153 -0.700321 -0.610120 -0.275673 -0.062287 -0.380674 -0.577838 -0.119916 0.089744 -0.337764 -0.297775 -0.437356 0.070691 -0.330160 -0.516784 -0.679120 -0.558459 -0.032772 0.320701 0.061485 -0.244635 -0.090451 -0.302898 0.177423 -0.590232 -0.561148 0.507905 -0.535228 0.888500
sorcerers -1.062176 -0.196665 -0.492651 -0.608742 -0.450875 -0.060961 0.001730 -0.203408 0.312523 0.005077 -0.690201 -0.681113 -0.021181 -0.799181 0.101464 0.292914 0.091885 0.502702 -0.462712 -0.528796 -0.051234 -0.154875 0.142269 -0.229034 0.030777 0.305774 -0.592346 -0.298526 0.218750 0.008537 0.168130 -0.390291 -0.106703 0.505126 0.022218 0.118252 -0.952855 -0.489375 -0.764102 0.571771 0.498898 -0.394623 -0.223152 -0.216478 0.607066 -0.290201 -0.727496 -0.281287 -0.423576 0.742021
stone -0.628564 -0.088594 0.300916 -0.728108 -0.864480 -0.041018 -0.028119 -0.361583 0.300198 -0.811005 -0.724347 -1.213136 0.134692 -0.829155 0.005542 0.026955 -0.137514 0.209952 -0.082008 -0.079485 -0.479496 -0.352114 -0.376189 0.131158 -0.281054 -0.340385 -0.624889 -1.059557 -0.256282 0.136001 -0.497089 -0.293570 -0.243554 0.503000 -0.856462 0.156465 -0.791571 -0.235056 -0.931808 0.757861 0.441088 -0.062616 -0.166386 0.019693 0.326133 -0.752030 -0.192088 -0.172217 -0.624384 0.431654
chapter -0.528352 -0.522738 0.118024 -0.341120 -0.046987 -0.296653 -0.428860 -0.431506 0.497546 0.046238 -0.585609 -0.519081 -0.378252 0.193788 0.329307 0.239075 0.351517 0.542646 0.535211 -0.411899 -0.301789 -0.089583 -0.277355 0.429742 -0.432135 0.489615 -0.022045 0.041930 0.548234 0.189537 0.184390 -0.193801 -0.293560 0.238767 -0.410913 -0.207623 -0.463537 -0.434929 0.268201 0.277475 -0.224480 0.433227 0.188517 0.571215 -0.126840 -0.480316 -0.175779 0.096961 -0.163447 0.468899
one -1.041540 -0.374806 0.028122 0.089830 -0.907386 -0.147040 -0.562646 -0.398289 0.764866 -0.623607 -0.815969 -1.092311 0.447786 -0.897796 -0.153087 0.010623 0.416763 0.843168 -0.057298 -0.397756 -0.133284 0.007206 -0.428944 -0.738810 -0.977767 0.012571 -0.529754 -0.025594 0.384564 -0.021526 -0.546122 -0.339392 -0.184268 0.109165 -0.641068 -0.296056 -0.365686 -0.129295 -0.766550 0.642713 -0.256022 -0.196802 -0.531296 -0.277589 -0.141430 -0.805471 -0.443901 -0.471180 -0.084019 0.081940
boy -0.531779 -0.666332 0.138808 -0.458620 -0.581429 -0.478613 -0.146868 0.116617 0.017006 -0.515460 -0.367414 -0.705693 -0.203221 -0.270635 0.278287 0.502932 0.609784 0.970140 -0.369526 -0.765100 -0.763506 -0.397247 0.015261 -0.079530 -0.595189 -0.413865 -0.251544 -0.202884 0.222395 -0.318885 -0.496943 -0.648324 -0.064300 0.384854 -1.123038 -0.280984 -0.403988 -0.190476 -0.459501 0.730554 0.234483 0.198162 0.013871 -0.533787 0.162151 -0.949086 -0.192251 -0.469355 -0.362340 0.290840
who -0.189633 -0.507266 -0.025236 -0.426217 -0.723140 -0.786441 0.116167 -0.307108 0.418803 -0.464173 -0.676003 -0.832065 0.509688 -1.222484 0.079720 0.247537 0.540191 0.318735 0.170733 -0.343800 -0.035907 -0.077661 -0.229770 -0.425147 -0.591763 -0.404480 -0.614602 -0.017502 -0.024108 -0.162215 -0.409889 -0.662192 -0.968400 -0.140873 -0.888629 -0.074537 -0.661128 -0.196974 -0.338338 0.937655 0.332215 -0.265487 -0.178036 -0.051449 -0.214488 -1.057706 -0.134917 0.012736 -0.404078 -0.113313
lived -0.533421 -0.246276 0.243548 -0.977229 -0.405762 -0.002351 -0.373093 0.014843 0.243851 -0.319893 -0.432296 -0.815121 0.439024 -0.449704 0.349383 0.334081 0.485860 0.521898 0.309018 -0.334957 -0.328225 -0.257305 -0.045257 0.170889 0.010489 -0.465456 -0.212062 -0.125675 0.711034 -0.178354 -0.536037 0.029328 -0.688825 0.181881 -0.669199 -0.415857 -0.538531 -0.123546 -0.457817 0.229616 -0.269047 -0.039817 -0.395216 -0.358046 -0.413813 0.005333 -0.013616 -0.085416 -0.594065 0.212194
mr -0.811670 -0.571151 -0.306893 -0.867681 0.075669 0.212880 -0.450904 0.009741 0.215026 -0.686849 -0.787398 -0.862141 -0.253783 -1.247083 0.786974 0.511462 0.279490 0.686455 0.129991 -0.147181 -0.331497 -0.754170 -0.455784 -0.213074 -0.233872 -0.237035 -0.616721 -0.249638 -0.160365 -0.181013 -0.631565 -0.009738 -0.714162 -0.423596 -0.195660 -0.389674 -0.931919 0.682797 -0.713194 0.700245 0.358116 0.019026 -0.183249 0.408742 0.134896 -0.296272 -0.080101 -1.107887 -0.628668 0.250994
mrs -0.627575 -0.594662 -0.039474 -0.092833 -0.494214 -0.390200 -0.669327 0.311290 0.783893 -0.321158 -0.825877 -0.598529 -0.748208 -1.146845 -0.219968 0.203678 0.125671 0.842572 0.079291 -0.382191 0.123038 -0.207024 -0.252312 -0.553485 0.101252 -0.320858 0.250230 -0.089868 0.680304 -0.057938 -0.902749 -0.482003 -0.393507 -0.418011 -0.101991 -0.283790 -1.018271 0.204385 -0.247086 0.549316 0.435168 0.124073 -0.268446 0.226784 -0.119271 -0.765439 -0.254455 -0.237233 -0.232384 0.372351
dursley -0.186892 -0.871140 0.007054 -1.011837 0.051098 -0.072420 -0.273677 -0.281586 0.393776 -0.657762 -0.848923 -0.575481 -0.314848 -0.959998 0.849468 -0.451381 0.331424 0.345356 0.568025 -0.116372 -0.183303 -0.593503 -0.058713 -0.057352 -0.303830 -0.831527 -0.375671 -0.282086 0.218262 -0.106996 -0.962195 -0.470372 -0.604680 -0.013832 -0.674846 -0.290721 -0.598487 0.507609 -0.770598 0.782864 0.122380 -0.480625 0.082547 0.002334 0.229998 -0.441247 -0.615102 -0.508083 -0.196544 0.822645
of -1.535928 -0.409268 0.062882 -0.693505 0.047382 -0.084027 0.259664 -0.969329 0.199402 0.024702 -0.902394 -1.096723 -0.423749 -0.091034 0.287629 0.373450 0.062197 1.026085 -0.672056 -0.191971 -0.075460 0.290304 -0.521154 -0.846464 -0.764773 0.004935 -0.136959 -0.493577 -0.165208 -0.032987 0.619220 -0.065613 -0.638580 0.282781 -0.434158 -0.344688 -0.752764 0.026416 -0.460806 0.494069 -0.375145 0.458507 -0.411891 0.271041 0.395423 -0.901953 -0.223528 0.330654 -0.238953 0.625569
number -0.366519 0.172147 0.093275 -0.881169 -0.379956 0.022643 0.016064 0.187918 -0.053423 -0.609427 -0.872669 -1.164552 -0.260520 -0.924062 -0.358264 0.414251 0.290402 0.670900 0.072837 0.154572 -0.082926 -0.629339 -0.140859 -0.263305 -0.417624 0.039333 -0.399985 0.002277 -0.120217 0.147494 -0.068704 -0.594034 -0.169737 0.046880 -0.172152 -0.133296 -0.895819 -0.471682 -0.617564 0.807558 0.129914 0.056677 -0.645076 -0.020739 0.322784 -0.491361 -0.375611 -0.179059 -0.416830 0.477414
four -0.474267 -0.795626 0.279137 -1.290323 -0.342745 -0.410160 -0.339635 -0.077944 -0.015745 -0.210665 -0.535781 -1.445581 0.282653 -0.554354 0.215973 0.061358 0.226545 0.483226 0.364625 -0.012995 -0.463514 -0.498239 0.016584 -0.502377 -0.380625 -0.022523 0.122034 -0.155889 0.359368 -0.597690 -0.226671 -0.119379 -0.743029 0.437459 -0.312730 -0.178765 -0.415124 0.215578 -0.343150 0.163068 0.245825 -0.157528 -0.152840 0.379424 0.147455 -1.071537 -0.161250 -0.064754 -0.551757 -0.041628
privet -0.440936 -0.349101 0.232666 -1.245467 -0.326882 -0.509533 -0.575573 -0.588661 0.397271 -0.422826 -0.837634 -0.288801 0.200179 -0.939880 0.134015 -0.069625 0.344347 0.379194 0.219299 -0.255760 0.240542 -0.409178 -0.223135 0.158116 -0.403053 -0.340918 -0.184680 -0.283798 -0.389587 -0.474559 0.225681 -0.116647 -0.412686 0.111319 -0.807831 0.290058 -0.178388 -0.171054 -0.616815 1.027394 -0.042180 0.000150 -0.354221 -0.508630 0.261377 -0.923716 -0.274572 -0.271379 -0.844594 0.690563
drive -0.525307 -0.695656 -0.148917 -0.616580 -0.237767 -0.452934 -0.452385 -0.034826 0.164186 -0.180498 -0.300923 -0.889219 0.529513 -1.073367 -0.349658 0.311785 -0.015722 1.230432 0.261676 -0.062390 -0.155687 -0.493009 -0.198625 -0.354238 0.110798 -0.144268 -0.435613 -0.362470 0.468735 -0.540552 -0.700307 -0.021216 -0.128030 0.313617 -0.643678 -0.438050 -0.374907 0.059883 -0.603791 0.261340 0.357410 -0.242063 -0.677270 -0.395866 -0.180370 -1.041390 -0.556257 -0.237631 -0.366302 0.607489
were -0.256247 -0.764105 -0.417552 -1.561604 -0.553864 -0.391578 0.018581 -0.090468 0.494256 -0.342358 -1.172645 -1.159647 0.162655 -0.335444 -0.693214 1.056685 -0.097675 1.008139 -0.381782 -0.023284 0.215309 -0.230842 0.236666 -0.130867 -0.377742 -0.358746 -0.060002 0.388175 0.688385 -0.159131 -0.423882 0.393153 -0.483392 -0.078502 -0.433953 -0.741307 -0.430655 0.071876 -0.446101 0.087050 -0.040822 -0.784656 -0.185423 -0.095386 -0.097198 -0.594957 -0.136540 -0.244688 -0.916443 0.233696
proud -0.636429 -0.030263 0.403345 -0.685731 -0.539745 0.221478 -0.425336 -0.438778 0.216122 0.278383 -0.600068 -0.057441 -0.075535 -0.691161 -0.222252 0.424246 0.409879 0.721269 0.106715 -0.054446 -0.474186 0.125799 -0.366135 -0.239001 -0.444376 -0.391094 -0.288862 -0.054942 0.270554 -0.349294 -0.498688 -0.371410 -0.073625 -0.036421 -0.265759 -0.346495 -0.445748 -0.116576 -0.509840 0.780359 -0.282464 -0.193999 0.259720 -0.053565 -0.058449 -0.610712 -0.471053 -0.109867 -0.523408 0.424479
to -0.789477 -0.871537 -0.263289 -0.939077 -0.769929 -0.311747 0.302537 -0.109466 -0.127036 -0.405239 -0.366873 -0.198484 0.009375 -0.690227 0.142206 1.005109 0.288067 -0.001639 0.266249 -0.142063 -0.234918 -0.252188 -0.166690 -0.410711 -0.760278 -0.843839 -0.703434 -0.688044 0.626517 -0.083588 -0.811597 -0.757626 -0.218504 0.481810 -0.283219 0.361496 -0.733980 0.588146 -0.289143 0.136919 0.487443 -0.453186 -0.931729 -0.410190 0.100126 -0.890904 -0.556721 0.103646 -0.953984 0.507431
say -0.398910 -0.820749 -0.253315 -0.593451 -0.989184 -0.433294 -0.179076 -0.776515 0.602264 -0.199389 -0.818815 -0.371704 0.390354 -1.153447 0.153584 0.732495 0.630713 0.406202 0.225836 -0.352705 -0.233129 -0.190720 -0.474043 -0.403723 -0.336128 -0.586432 -0.884896 -0.240280 0.177176 0.033339 -0.295683 -0.799090 -0.763652 0.321850 -0.583462 -0.049180 -0.148869 -0.012991 -0.667992 0.507565 -0.184929 -0.087445 -0.805018 0.227357 -0.514211 -0.912635 -0.024334 -0.266476 -0.828493 0.245097
that -0.933959 -0.031476 -0.369552 -0.608130 -0.874791 -0.392420 -0.105886 -0.483373 0.554927 -0.313564 -0.364103 -0.129484 -0.238013 -0.858578 0.251813 0.199125 0.447182 0.852348 0.017536 -0.150936 -0.234954 -0.275392 -0.033768 -0.150010 -0.565463 -0.398666 -0.578857 -0.145370 0.163851 -0.261076 -0.453435 -0.680203 -0.377287 -0.119869 -0.424934 -0.072549 -0.415588 -0.272830 -0.609576 0.469910 -0.004033 -0.203132 -0.149450 0.418883 -0.263749 -0.904714 -0.768907 0.010083 -0.807595 0.317338
they -0.141826 -0.680894 -0.645500 -0.383026 -1.027522 0.011842 -0.360971 -0.593930 0.318160 0.031937 -0.893189 -0.597078 -0.445558 -0.195190 0.230056 0.639421 0.495349 0.396640 -0.134314 -0.162251 -0.141153 0.129956 0.036561 -0.410282 -0.326030 -0.675874 0.067762 0.151260 0.221937 -0.388878 -1.671670 -0.349518 -1.356783 0.539872 -0.414216 -0.005231 -0.586166 -0.135834 -0.346369 0.567246 0.143298 -0.846036 0.015666 0.230042 -0.248729 -0.961473 -0.717001 0.113619 -1.095921 0.351914
perfectly -0.254871 -0.214784 -0.558148 -0.883476 -0.412030 -0.489760 0.264810 -0.130852 0.440039 0.185573 -0.184125 -0.646997 0.082373 -0.486118 -0.329337 0.222469 0.826068 -0.006834 0.417525 0.182670 -0.146020 -0.321176 -0.008781 -0.358478 -0.253729 0.024818 -0.280947 -0.182846 0.487505 -0.208482 -0.529662 -0.671355 -0.941842 -0.094914 -0.319177 -0.006643 -0.701179 -0.154283 -0.535886 0.957649 -0.407942 -0.113790 -0.141572 0.092313 0.092951 -0.527752 -0.292356 0.383721 -0.119907 0.163202
normal -0.363014 0.037008 0.146150 -0.393770 -0.603265 -0.256119 -0.006792 -0.084673 0.037202 0.268797 -0.571350 -1.090950 0.092626 -0.767140 0.219347 0.484188 0.658286 0.483290 0.168518 -0.569552 0.252423 -0.412651 0.107881 -0.380629 -0.593441 0.006377 0.092791 0.138264 0.698922 -0.447623 -0.706673 0.112355 -0.176235 0.428585 -0.521028 -0.155595 -0.560028 0.047904 -0.447764 0.255152 -0.225534 -0.650968 -0.252341 -0.598576 -0.145531 -0.312292 -0.617338 -0.499057 -0.504245 0.094091
thank -0.377438 0.245358 0.159749 -0.223397 -1.000082 -0.463736 0.163491 -0.589139 0.327239 -0.179634 -0.452562 -0.286233 -0.100159 -0.918516 0.143640 0.376903 0.861931 0.175440 0.471406 -0.559887 0.420731 -0.028687 -0.373784 -0.142692 -0.355782 0.164740 -0.585260 0.158486 0.542535 -0.138251 0.087676 -0.228098 -0.414048 -0.224641 -0.496572 -0.016404 -0.394312 -0.106672 -0.611668 0.425304 -0.070081 0.266719 -0.485209 -0.205170 0.302805 -0.203069 -0.246001 0.255215 -0.497331 -0.051316
you -0.497821 -0.626316 -1.018044 -0.361101 -0.867890 0.068903 -0.407433 -0.720585 0.115055 -0.517086 -0.210745 -1.168252 0.334117 -0.991668 0.319624 0.802605 0.714954 0.315487 0.088432 -0.266526 -0.117284 -0.588888 -0.018164 0.018252 -0.405139 -0.624308 -0.444640 -0.256821 0.428595 0.175542 -0.484966 -0.485969 -0.786551 -0.064805 -0.021763 -0.065459 -0.211657 -0.259829 -1.098065 1.023748 -0.103808 -0.469908 -0.619379 0.125435 -0.219669 -1.230622 -0.408967 0.022821 -0.989891 0.225488
very -0.913574 -0.221071 0.169326 -1.300583 -0.539677 -0.484249 -0.106966 -0.289471 1.000623 0.379443 -0.446969 -1.056397 -0.051946 -0.324816 0.209109 0.398661 0.185904 0.350383 -0.234813 -0.333216 -0.050822 -0.231350 0.159530 0.389991 -0.695354 -0.457919 -0.422210 0.057042 -0.119278 -0.226945 -0.713208 -0.392410 -1.006119 0.147274 -0.347676 -0.179701 -0.741362 -0.006033 -0.284892 0.337676 -0.324499 0.151235 0.042136 0.196721 -0.032693 -0.387786 -0.525355 -0.525286 -0.479389 0.022895
much -0.488676 -0.939023 -0.079482 -0.925872 -0.919174 -0.581599 -1.044277 -0.560306 0.400791 -0.178642 -0.632313 -0.828689 0.251958 -0.189595 0.305788 0.329484 0.281185 0.082440 0.138571 -0.152018 0.221970 -0.236737 -0.164801 -0.353483 -0.470342 -0.902037 -0.820272 0.031938 0.578122 0.046744 -0.923821 -0.568223 -1.030269 0.430870 -0.526625 0.164935 -0.582189 0.127902 -0.776033 0.012618 0.258497 -0.846502 -0.199389 0.142508 -0.338949 -0.823500 0.098730 -0.439889 -0.759130 0.609180
last -0.875766 -0.211684 -0.411639 -1.385466 -1.111760 -0.404293 -0.136722 -0.270469 0.648392 -0.091427 -0.730643 -0.650090 -0.340345 -0.789157 -0.083830 -0.173270 0.364440 0.490451 0.108012 -0.264143 -0.524722 -0.066230 -0.216876 -0.131174 -0.815862 0.067848 -0.785602 -0.094827 0.301928 0.415015 -0.275654 -0.151217 -0.171840 -0.129797 -0.969473 0.023039 -0.785222 -0.232240 -0.461887 0.563542 -0.049768 -0.221917 0.120417 0.036727 0.059388 -0.558418 -0.557274 -0.220657 -0.608218 0.069717
people -0.768295 -0.361967 -0.636024 -0.722479 -0.953576 -0.279682 -0.313327 -0.661119 0.433838 -0.554533 -0.836056 -1.114572 0.085363 -0.394580 -0.150256 0.198211 0.119380 0.737712 0.118403 -0.407695 -0.872488 0.125937 -0.326532 -0.235332 -0.454761 0.037394 -0.212949 -0.048237 0.313063 -0.157538 -0.713236 0.163470 -0.477841 0.727017 -0.122567 0.012276 -0.405920 -0.027794 -0.346294 0.640157 0.344434 -0.353159 -0.271329 0.063270 -0.271725 -0.792938 -0.488384 -0.223041 -0.353990 -0.014724
youd -0.459531 -0.750135 -0.091989 -0.046149 -0.891150 -0.275606 -0.230602 -0.415324 0.385566 -0.052457 -0.201950 -0.755613 -0.217804 -0.765485 -0.041852 0.560453 0.588340 0.629553 0.071940 -0.520521 -0.054863 -0.601458 0.141146 0.219401 -0.403236 -0.680480 -0.850702 -0.456174 0.380997 -0.233427 -0.222131 -0.549005 -0.562656 0.508709 0.022519 -0.080756 -0.569742 -0.151438 -0.301747 0.942790 -0.188806 -0.566537 -0.600221 -0.407060 0.084447 -0.387451 -0.418938 -0.353095 -0.926933 0.216315
expect -0.599039 -0.703167 -0.624184 -0.552752 -0.910918 -0.319475 0.079628 -0.275645 0.645793 -0.616613 -0.711890 -0.214454 -0.136933 -0.682233 0.636931 0.457874 0.403314 0.033482 0.305419 -0.108922 0.125884 -0.750486 0.075171 0.181673 -0.014503 -0.299107 -0.737444 -0.409234 0.040813 0.129248 -0.800955 0.152747 -0.231722 0.297219 -0.230351 0.077441 -0.518950 -0.470352 -0.482827 0.764605 -0.057265 -0.280113 -0.667232 -0.290503 -0.033526 -0.725813 -0.315508 -0.673566 -0.731883 0.507229
be -0.963274 0.083339 -0.627670 -0.960751 -0.633165 -0.193787 -0.593532 -0.127877 0.594234 -0.816348 -0.368119 -0.748399 0.246664 -1.199045 0.034529 0.792412 0.456057 0.104223 -0.185849 -0.725457 0.231591 0.287247 -0.010414 0.070261 -0.083074 -0.246102 -0.389605 -0.567478 0.774697 -0.198273 0.038356 0.098718 -0.213992 0.678002 0.427445 -0.416391 -0.267554 0.211775 -0.855752 0.344376 -0.373310 -0.481007 -0.325520 -0.116777 0.155263 -1.154840 -0.633507 -0.874426 -1.874812 0.270146
involved -0.456454 -0.408498 0.225026 -0.626767 -0.160036 -0.573460 -0.534568 -0.347653 0.575854 -0.095319 -0.149501 -0.225997 -0.134655 -0.203572 -0.115739 0.013257 0.319213 0.441607 -0.023285 -0.477381 0.263058 -0.240282 0.061479 -0.262142 -0.499453 -0.114453 -0.349374 -0.318749 0.673943 0.437209 -0.326005 0.274366 -0.239244 0.233992 -0.516795 0.197601 -0.550910 0.240260 -0.193913 0.453385 -0.272697 -0.163173 -0.438317 -0.181384 0.145775 -0.382704 -0.500613 -0.050273 -0.141002 0.055450
in -0.517770 -0.392280 0.347297 -0.871968 -0.566325 -0.462479 0.080358 -0.160976 0.661716 0.260014 -0.766327 -0.578337 -0.440452 -0.331290 0.801686 -0.016065 -0.137475 0.885576 -0.144895 -0.180337 -0.094815 -0.172236 -0.360312 -0.498042 -0.444493 0.103617 -0.398248 -0.486945 0.047936 0.384096 0.065976 -0.119363 -0.684828 0.398548 -0.234314 0.014558 -0.987753 -0.206698 -0.475516 0.186283 -0.238552 0.139570 -0.681023 -0.473614 0.189178 -0.654389 -0.952716 0.137998 -0.429184 0.060312
anything -0.385259 -0.388837 -0.027685 -0.554402 -1.224604 -0.288811 -0.718770 -0.749118 0.480818 -0.651717 -0.523579 -0.698551 0.013763 -1.566752 0.188601 0.320367 0.243760 0.442582 0.059805 -0.032482 -0.171663 -0.004506 -0.464514 -0.088335 -0.370936 -0.754467 -0.923843 -0.352946 0.529761 0.057981 -0.661953 -0.321464 -0.250935 0.069378 -0.173162 0.238585 -0.667217 -0.275004 -0.728671 0.478542 -0.033094 -0.569912 -0.276836 -0.426390 0.096364 -1.061976 -0.469894 -0.526824 -0.732752 0.442892
strange -0.764233 -0.234187 -0.056725 -1.059513 -0.470056 -0.411923 0.110262 -0.413416 0.863002 0.031027 -0.286996 -0.875830 -0.125508 -0.484836 0.318996 -0.081285 0.327034 0.184839 -0.220137 -0.211638 0.127373 -0.005096 -0.080215 -0.580971 -0.584980 0.148141 -0.777773 -0.332696 0.290764 -0.455106 -0.606467 0.255969 -0.629502 0.293881 -0.323740 0.414941 -0.519172 -0.427214 -0.079474 0.509956 -0.387678 -0.146785 0.014536 0.108472 0.012324 -0.619499 0.140192 -0.488268 -0.615932 0.311866
or -0.540904 -0.842870 0.008714 -0.626060 -0.387163 0.142652 -0.601817 -0.352205 0.650076 -0.350196 -0.742978 -0.498142 0.093962 -0.738915 0.236887 0.756737 -0.199485 0.655373 -0.098471 -0.418182 0.186218 0.160408 0.300939 -0.179538 -0.295267 -0.879066 -0.136597 -0.296444 0.549032 0.214853 -0.233387 -0.189811 -0.664681 0.106226 -0.663906 0.318336 -0.637318 -0.224079 -0.398232 0.435733 -0.278767 -0.538584 -0.225422 -0.181973 -0.009555 -0.324234 -0.294401 -0.516310 -0.491731 0.157721
mysterious -0.331978 -0.108890 -0.011283 -0.730912 -0.328438 0.038710 -0.230407 -0.082447 0.323302 -0.335617 -0.502088 -0.233360 -0.025338 -0.791451 -0.234775 0.366456 0.628490 0.486289 0.489244 -0.378353 -0.360288 -0.379769 0.306250 0.159391 -0.628818 -0.490121 -0.006029 -0.588681 -0.002264 0.227993 -0.536398 -0.377769 -0.354599 0.245391 -0.610772 0.352356 -0.071826 -0.428377 -0.058921 0.524250 -0.174263 -0.161856 -0.233035 0.044204 0.113239 -0.609404 -0.355918 -0.136003 -0.614552 0.350194
because -0.503699 -0.446660 0.189527 -0.877036 -1.145607 -0.938217 -0.009128 -0.435122 0.801784 -0.015429 -0.676287 -0.687010 -0.084829 -0.877634 0.214189 0.280449 0.334373 0.415996 0.112039 -0.283362 0.370742 -0.253882 -0.203507 -0.340677 -0.457334 -0.262092 -0.128830 0.278785 0.227182 -0.051570 -0.566019 -0.235265 -0.846666 0.101515 -0.468413 -0.131700 -0.317848 -0.237457 -0.721570 0.068823 -0.253380 -0.321987 -0.121605 -0.330182 0.173282 -0.413268 -0.581659 -0.623430 -0.692314 0.040013
just -0.652697 -0.569966 0.206603 -0.563501 -0.856923 -0.757083 -0.116665 -0.569094 0.400809 -0.242146 -0.445577 -0.537770 -0.207644 -0.625060 0.177532 -0.118505 0.559481 0.713644 -0.231216 0.028413 -0.084546 -0.062254 0.075192 -0.220648 -0.739049 -0.550010 -0.757114 -0.232127 0.130152 0.195011 -0.603165 -0.331014 -0.540171 0.673873 -0.252878 -0.305077 -0.171222 -0.161290 -0.566229 0.519190 0.028215 -0.127561 -0.473088 -0.344749 -0.501148 -0.964978 -0.222145 -0.474156 -0.681442 0.235452
didnt -0.685568 -0.498203 -0.154725 -1.273100 -1.278370 -0.132277 -0.491540 -0.796978 0.034683 -0.620924 -0.730503 -0.639482 0.026175 -0.978265 0.137712 0.388821 0.544611 0.323271 -0.270267 -0.024052 0.048681 -1.327085 -0.340202 0.398402 -0.472813 -0.983100 -0.226618 -0.763155 0.611006 0.244729 -0.723970 -0.666610 -0.893682 0.227862 -0.397535 0.271347 -0.377354 0.500750 -0.965564 0.751777 -0.084414 -0.628785 -0.094498 -0.141554 -0.305118 -0.132726 -0.473965 -0.299620 -0.483392 0.325553
hold -0.525217 -0.648086 0.167498 -0.392670 -0.479496 -0.526392 -0.152740 -0.379111 0.408571 -0.278554 -0.084466 -1.064585 -0.086770 -0.526948 0.425198 0.120585 0.421680 0.482871 -0.227096 0.031320 0.397015 -0.672958 -0.058218 -0.354309 -0.547097 -0.064797 -0.326666 -0.387968 -0.060329 -0.336510 -0.440527 -0.204386 -0.383134 0.351297 -0.075473 0.278671 -0.295715 -0.043268 -0.021034 0.593151 0.302345 -0.282547 -0.319232 0.009647 0.016042 -0.458003 -0.426105 -0.088071 -0.632980 0.256357
with -0.491890 -0.795682 0.372939 -0.849310 -0.224679 0.047202 0.011818 -0.092717 0.539225 -0.201822 -0.430720 -0.524752 0.059743 -0.321143 0.298013 0.246069 0.072474 0.946452 -0.407224 -0.246468 0.162356 -0.388139 -0.234458 -0.435067 -0.329444 -0.329563 -0.601960 -0.324485 0.186578 -0.024861 0.101779 -0.051601 -0.880304 0.018035 -0.771128 0.073872 -1.024658 -0.111629 -0.444858 0.346936 -0.286008 -0.132836 -0.569798 -0.454678 0.257703 -0.359809 -0.040074 0.115268 -0.288850 0.397663
such -0.838508 -0.028180 0.318744 -0.600462 -0.641617 -0.602953 -0.534210 -0.792245 0.553946 -0.500675 -0.304593 -0.307445 -0.329516 -1.027907 0.269505 -0.045225 0.668399 0.296344 0.165452 -0.060386 -0.215008 -0.391503 0.396098 -0.254395 -0.072219 -0.378711 -0.756580 0.231695 0.237518 -0.253090 -0.308409 -0.216482 -0.882853 0.580432 -0.267234 0.385356 -0.408678 -0.309198 -0.652705 0.442505 -0.248878 -0.002076 -0.385900 -0.211575 0.365074 -0.326532 -0.097930 -0.305368 -0.609983 0.325634
nonsense 0.004691 -0.120838 -0.243844 -0.601384 -0.394193 -0.067905 -0.001646 0.250120 0.425814 -0.400971 -0.457692 -0.470028 -0.014876 -0.089588 0.620751 0.130449 0.280559 0.549703 0.486341 -0.519839 -0.345431 -0.465955 0.099802 0.262305 -0.548961 0.350015 0.192387 0.140645 0.174223 0.478859 -0.703043 0.049991 -0.436638 0.317196 -0.065045 0.202823 -0.551661 -0.090916 0.125563 0.010577 0.043896 -0.363136 -0.033239 -0.429885 0.287374 -0.299253 -0.141309 0.036058 -0.324078 -0.127301
was -0.990152 -0.005440 -0.119297 -1.370030 -0.761924 -0.573288 -0.342015 0.121340 0.805844 0.153756 -0.127611 -0.851124 0.284158 -1.006218 -0.139605 0.805238 0.131529 1.317710 -0.780355 -0.174167 -0.039320 -0.296199 -0.200373 -0.395593 -0.414027 -0.245266 -0.406071 -0.008457 0.433879 -0.356501 -0.256351 -0.158740 -0.885112 0.303307 -0.150814 -0.180880 -0.390053 -0.278360 -0.646920 -0.168764 -0.233368 -0.062738 -0.074528 -0.312892 -0.460504 0.376166 -0.323524 -0.263651 -1.028791 0.182944
director -0.748580 -0.247381 -0.194102 -0.239110 -0.359183 0.203903 0.434803 0.122185 0.022855 0.266471 0.105766 -0.333513 -0.307496 -0.716142 -0.060724 0.602110 0.003391 0.019585 -0.351978 -0.330927 0.219360 -0.034264 -0.304907 -0.340832 -0.415401 -0.058421 0.323828 0.243528 0.404456 0.373587 0.047716 -0.196905 -0.586630 0.140727 -0.393566 -0.018634 -0.477114 0.298787 -0.401641 0.575857 0.014325 -0.099594 0.192261 -0.249761 0.326859 -0.658813 -0.546943 -0.231589 -0.538303 -0.045527
a -1.444041 -0.554272 0.147560 -0.494467 -0.005732 -0.403333 -0.281871 -0.671041 1.543042 -0.133737 -0.433536 -0.636780 -0.396629 -0.490082 0.125772 -0.284034 -0.194415 0.509047 0.172889 -0.097479 -0.165639 -0.517221 -0.213292 -0.222767 -0.443939 -0.163113 -0.286551 0.181970 0.320868 -0.024637 -0.120257 -0.466559 -1.124504 0.699410 -0.211350 -0.006753 -0.455987 0.252778 0.318940 0.445221 -0.156972 -0.305190 -0.634054 0.016942 -0.072321 -0.632071 -0.496022 0.092292 -0.340453 0.197338
firm -0.470192 -0.255004 -0.115903 -0.196560 -0.043233 -0.232335 -0.413506 0.067910 -0.176144 -0.065359 0.112456 -0.730826 -0.001699 -0.574983 0.200375 0.010641 0.663329 0.187653 0.019263 -0.406022 0.011082 0.401512 0.576580 0.401777 -0.009343 0.406635 -0.247483 -0.147689 0.378696 0.129580 0.175794 -0.258079 -0.339729 -0.148435 -0.048616 -0.337250 -0.575561 -0.313495 0.076796 0.729005 0.269596 -0.045955 0.036947 0.406209 -0.055810 -0.056593 0.173455 0.359553 -0.619175 0.445061
called -0.386974 -0.373836 -0.448559 -0.911293 -0.714748 -0.635145 0.002632 -0.394882 0.608702 -0.522808 -0.534483 -0.665406 0.049557 -0.801935 -0.131309 0.226577 0.376222 0.637738 -0.234604 -0.172945 -0.323670 -0.232937 -0.166339 -0.365841 -0.106935 0.224278 -0.380486 -0.356110 0.386067 -0.242298 -0.318124 -0.260971 -0.592546 0.439552 -0.838095 0.234370 -0.670898 0.348159 -0.559104 0.113951 -0.130051 0.136550 0.051507 -0.060070 -0.326773 -0.569197 -0.252254 -0.080756 -0.675154 -0.006702
grunnings -0.326682 -0.657032 0.229285 -0.450296 -0.689321 0.081557 -0.298362 -0.129640 0.547504 -0.406281 -0.509161 -0.025409 0.141402 -0.264669 -0.026360 0.220952 -0.237233 0.623250 -0.130184 0.214178 -0.392456 -0.547054 -0.306783 -0.163285 -0.044287 -0.020707 -0.636785 -0.022815 0.038529 -0.062961 0.208262 -0.434256 -0.425960 0.559846 -0.612353 0.021359 -0.334629 0.435190 -0.299007 0.427161 0.398010 -0.134408 -0.284791 0.047878 -0.261836 -0.144795 -0.538561 0.018836 -0.059706 0.029212
which -0.956596 0.074313 -0.237437 -0.757472 -0.631346 -0.407198 0.168260 -0.171460 0.561622 -0.108205 -0.041403 -0.550335 -0.176913 -0.524373 -0.160433 0.230971 0.272824 0.428909 0.194159 -0.178846 -0.131742 -0.191007 -0.273626 -0.519932 -0.093076 -0.413405 -0.455017 -0.070986 0.190458 -0.188412 -0.460103 -0.560640 -0.465396 0.145285 -0.665026 0.320561 -0.668253 0.025290 -0.694636 0.386517 -0.267421 0.149450 -0.211734 -0.409972 0.099153 -0.837494 -0.685911 0.102953 -0.366149 0.485463
made -0.883744 -0.558140 -0.160674 -1.072143 -0.943062 -0.557793 -0.206933 -0.691848 0.339755 -0.017246 -0.901324 -0.546968 -0.153997 -0.668881 -0.191609 0.182799 0.480206 0.857356 -0.349638 -0.373612 0.034290 -0.914440 -0.145627 -0.778767 -0.460316 -0.390095 -0.110678 0.024525 -0.203230 0.063510 -0.637704 -0.212450 -0.850505 0.434986 -0.045669 0.187005 -0.541456 0.537755 -0.639527 0.468822 -0.084365 -0.261734 -0.282396 0.224547 0.221215 -0.161416 -0.403471 0.004989 0.039897 -0.107338
drills -0.783973 -0.089533 0.437311 -0.796548 -0.563823 0.160240 -0.011324 -0.286911 0.590820 0.371083 -0.138533 -0.818679 0.338048 -0.533352 -0.292948 0.208874 0.510203 0.436624 0.037680 -0.019677 0.380664 -0.264207 -0.175165 -0.358566 0.056062 -0.492109 0.035621 -0.059650 0.418390 -0.486434 -0.581748 -0.430696 -0.587145 0.296012 -0.645697 0.156378 -0.048239 -0.316902 -0.493271 -0.195599 0.449338 -0.027344 -0.538431 -0.282589 -0.414001 -0.576215 -0.548125 -0.193149 -0.312213 0.689644
he -0.360433 0.013445 -0.145239 -0.358516 -0.334288 -0.526461 -0.376444 -0.285461 0.542232 -0.116678 -0.485462 -0.457634 -0.295829 -0.625632 -0.000106 0.255434 0.732696 0.181774 -0.176353 0.155042 0.332827 -0.251043 -0.339153 -0.651056 -0.892188 -0.807405 -0.472880 -0.031993 0.272188 -0.092734 -1.080327 -0.519764 -1.109835 0.280295 -0.235586 0.147886 -0.629156 -0.082792 -0.826239 0.539425 0.234009 -0.465030 0.184376 0.012645 -0.141921 -0.741626 -0.446966 -0.596300 -0.996333 0.575478
big -1.009586 -0.644058 -0.000613 -0.693371 -0.579421 -0.585250 0.004023 -0.330349 0.293515 -0.293771 -0.272390 -0.831370 0.035805 -0.288651 0.303507 -0.068769 0.252127 0.431783 0.121119 -0.468364 0.340070 -0.351737 0.369056 0.114761 -0.168519 -0.232694 -0.488889 -0.186697 0.294125 -0.034309 -0.683562 -0.461693 -0.321515 0.040522 -0.782051 0.002037 -0.946461 0.040916 0.133082 0.208388 0.284438 0.071780 -0.493024 0.073659 0.360430 -0.779010 -0.183281 -0.316850 -0.739842 0.399290
beefy 0.180712 0.098942 0.213503 0.361002 -0.139725 -0.171975 0.181178 0.429517 0.361913 0.272727 0.156586 -0.477704 0.535696 0.104647 0.453809 0.535655 -0.064842 0.350666 -0.329425 0.359144 0.392266 -0.049032 0.460012 -0.395368 0.307701 -0.341253 -0.271439 -0.387724 0.487525 0.039739 0.312648 -0.226457 -0.052043 0.418777 0.110744 0.195381 -0.231066 -0.476131 -0.336371 0.446001 0.064865 -0.340816 -0.089743 0.597414 -0.224738 -0.362319 -0.379027 0.094639 0.110203 -0.231267
man -0.951700 -0.393467 0.010902 -1.050274 -0.145255 -0.216495 -0.015886 -0.311332 0.434764 -0.561764 -0.710105 -0.763578 0.126736 -0.749773 -0.231011 -0.021452 0.243216 0.581588 -0.157184 -0.487123 -0.428893 -0.696122 0.094982 -0.101801 -0.479824 -0.072302 -0.427894 0.390150 0.560786 -0.212360 -0.733974 -0.606290 -0.512427 0.388053 -0.290941 -0.257329 -0.972672 -0.317011 -0.161626 0.322711 0.180874 0.015519 -0.042810 0.075813 0.018468 -0.694603 -0.437512 -0.130618 -0.434969 0.467734
hardly -0.466207 -0.382146 0.071278 -0.388477 -0.859375 -0.832649 -0.435374 -0.691214 0.426491 -0.278535 -0.900446 -0.546279 0.047699 -0.693285 -0.078515 -0.093276 0.887213 0.716721 -0.027885 0.187614 -0.175319 0.010456 0.207970 -0.216237 -0.663117 -0.403993 0.023581 -0.289619 0.657069 -0.164995 -0.597111 0.002640 -0.776019 0.034141 -0.508787 -0.231916 -0.035538 -0.425545 -0.216439 0.923619 -0.343791 -0.072196 -0.115463 -0.123658 0.082628 -0.715520 -0.391838 -0.255584 -0.493690 -0.040925
any -0.979479 -0.476307 -0.210058 -0.985981 -0.658086 0.102972 -0.656214 -0.317602 0.685757 -0.283592 -0.348194 -0.683302 0.011885 -0.544538 -0.163945 0.390941 0.513370 0.575038 0.329688 -0.201108 -0.629151 -0.137384 0.126317 -0.644767 -0.098434 -0.354842 -0.932370 -0.593734 0.318270 -0.294513 -0.241626 -0.521289 -0.624396 0.023925 -0.349084 -0.110147 -0.251253 -0.138104 -0.557262 0.887686 -0.533739 -0.574479 -0.077150 -0.462231 -0.214658 -1.159406 -0.373837 -0.123323 -0.434740 0.194522
neck -0.676956 -0.339730 0.040056 -0.468543 -0.907988 -0.112242 -0.579685 -0.386484 0.186484 0.336326 -0.797066 -0.725746 -0.434330 -0.440378 -0.185608 0.047788 0.710828 0.327853 -0.129244 -0.481742 -0.069565 -0.540387 -0.187710 -0.822113 0.171009 0.037831 -0.088942 -0.089879 0.387321 0.412170 -0.350745 0.174089 -0.576276 0.372286 -0.545828 0.064893 -0.891846 -0.110078 -0.703588 0.067523 0.437198 0.220997 -0.224088 -0.043155 -0.169339 -0.713407 -0.048020 -0.390345 -0.724423 0.665641
although -0.218177 -0.114186 -0.121788 -0.598601 -0.378911 -0.433451 0.118895 -0.733546 0.289350 -0.652454 -0.051554 -0.899318 0.108320 -0.607042 0.143382 0.107689 0.315828 0.536107 0.375379 -0.293487 0.222199 0.014419 0.044573 -0.160857 -0.265294 -0.681214 -0.193963 0.110945 0.151676 0.110172 -0.876009 -0.168993 -0.269093 0.099335 -0.440942 -0.452735 -0.575472 0.050734 -0.526048 0.738107 0.117352 -0.309422 -0.357530 0.210406 0.136251 -0.407725 -0.657203 -0.177632 -0.701362 0.372456
did -0.293761 -0.303115 -0.506520 -0.868918 -1.399806 -0.153362 0.181916 -0.884947 0.489417 -0.418576 -0.810389 -0.540735 -0.051581 -0.869143 0.401505 0.370898 0.034765 0.780587 0.062013 -0.017394 -0.148167 -0.854143 -0.089773 -0.099153 -0.523469 -0.862924 -0.187404 -0.419116 0.481204 0.020510 -0.414468 -0.571666 -0.925499 0.396161 -0.906284 -0.347651 0.151382 -0.142357 -0.988880 0.234115 -0.033772 -0.058834 -0.380435 0.129828 -0.310758 -0.586738 -0.579210 0.106643 -1.044444 0.248893
have -0.626337 0.093405 -0.251445 -0.321745 -1.064725 -0.203854 -0.340325 -0.777152 0.796840 -0.931254 -1.256979 -0.100717 -0.102338 -0.979508 0.403680 0.744314 0.978402 0.206321 -0.112428 -1.068729 0.409390 -0.306602 0.034538 -0.138321 0.191679 -0.505206 -0.823455 -0.218915 0.255646 0.179927 -0.528168 -0.374352 -0.301204 0.487946 0.208469 -0.584850 -1.029085 0.124936 -0.657243 0.333003 0.042649 -0.264231 -0.306326 -0.398786 0.349938 -0.921226 -0.244820 -0.449104 -1.101861 -0.210177
large -1.357397 -0.821710 0.051691 -0.947240 0.016207 -0.161987 -0.259456 -0.514488 0.467188 -0.251645 -0.276000 -1.159624 0.011249 -0.090670 -0.289885 0.132789 0.967233 0.715091 -0.530072 -0.235594 -0.095203 -0.124313 0.443422 -0.232967 0.113132 0.016040 -0.504209 -0.183247 -0.204925 0.046140 -0.391465 -0.169471 -0.480794 0.627423 -0.605184 0.291854 -1.144811 0.237654 0.006342 0.594487 -0.198532 -0.447105 0.011094 -0.334959 -0.178225 -0.082112 -0.242758 0.018533 -0.243694 0.430708
mustache -0.382112 -0.590105 -0.006279 -0.934288 -0.698599 -0.444688 -0.079937 -0.442289 0.184207 0.061868 -0.054004 -0.319332 -0.303198 -0.020278 0.388080 0.062562 0.771440 0.271663 0.039004 -0.243453 0.147297 -0.317418 0.074228 -0.371018 -0.420766 0.289091 -0.198919 0.074819 0.380542 0.497809 -0.275126 -0.525366 -0.497919 -0.164177 -0.098385 -0.224600 -0.506211 -0.427663 -0.403076 0.842085 0.197960 0.210814 -0.490561 0.397304 0.285458 -0.758053 -0.798741 -0.292280 -0.679931 -0.181801
thin -0.661323 0.006655 -0.524106 -0.897178 -0.413287 -0.196673 -0.097728 -0.305468 0.706723 -0.282860 -0.243210 -0.618734 0.091202 -0.866532 -0.033460 -0.408066 0.017244 0.931204 -0.365294 -0.338434 0.296143 -0.581002 -0.443009 0.050576 -0.261888 0.027586 -0.745178 -0.282191 0.391059 -0.382170 -0.271140 -0.275521 -0.606046 0.465273 -0.414656 0.139560 -0.267322 0.016203 -0.390234 0.508063 -0.389096 0.278778 -0.027951 0.168379 0.464377 -0.326482 -0.268209 -0.230478 -0.082198 0.417608
blonde -0.711964 0.041300 -0.249736 -0.232355 -0.011203 -0.248028 -0.464874 -0.232866 0.138108 0.206015 -0.360692 -0.057917 0.226041 -0.399609 -0.100077 0.151836 0.455537 0.837739 -0.167878 0.211963 -0.322920 -0.386218 0.109904 0.222288 -0.298511 -0.046779 -0.285194 -0.046573 0.435731 -0.410490 -0.021302 -0.348006 0.145584 0.707412 -0.431472 -0.032747 0.218567 0.543844 -0.327099 0.588380 -0.231356 -0.310640 0.469011 -0.374058 -0.302854 0.038246 -0.125216 0.525146 -0.486458 0.435999
had -0.570719 -0.370659 0.504927 -1.033523 -0.909997 -0.937279 -0.640894 -0.846746 0.580172 -0.469006 -0.993213 -0.147864 -0.240399 -0.740730 0.243739 -0.040644 0.632949 0.720712 -0.208197 -0.508212 0.486451 -0.274631 0.326304 -0.690871 -0.454854 -0.124500 -0.143099 -0.364911 0.736428 -0.593634 -0.663230 -0.573546 -0.338343 0.161040 0.109456 -0.551819 -0.896036 -0.258775 -0.411449 0.784228 0.410560 -0.402009 -0.217920 -0.572604 -0.129465 -0.217251 -0.132269 0.064154 -0.929502 -0.054379
nearly -0.367149 -0.521925 -0.160932 -0.965184 -0.758566 -0.518308 -0.160892 -0.439208 0.068566 -0.572317 -0.088033 -0.628880 -0.135958 -0.430554 0.253184 0.009731 0.130629 0.626740 -0.098762 -0.115025 0.312303 -0.418890 -0.019959 0.183170 -0.598897 -0.737931 -0.220266 -0.234803 0.763317 -0.394829 -0.601066 -0.029870 -0.477916 0.015171 -0.630939 -0.083665 -0.498705 0.140155 -0.529565 0.440591 0.503636 -0.281310 -0.388255 0.171564 -0.164702 -0.978603 -0.335611 -0.018127 -0.683013 0.337126
twice -0.579817 -0.039829 -0.136245 -0.515451 -0.836345 -0.761223 0.277169 -0.281186 0.281020 0.051899 -0.688243 -0.564359 -0.531995 -0.306823 -0.009032 -0.129628 0.677910 0.458690 0.308701 0.033735 0.146893 0.006121 -0.465412 -0.462739 -0.270261 -0.635276 -0.800873 -0.211583 0.388874 0.222425 -0.931805 -0.293397 -0.680256 0.533089 -0.034970 -0.154072 -0.516887 -0.116611 -0.327186 0.252510 0.067274 -0.052935 -0.076733 -0.388862 0.304615 -0.412749 -0.403748 -0.251508 -0.713567 0.066261
usual -0.612987 -0.180267 -0.265492 -0.464578 -0.993691 -0.435313 -0.204951 -0.060273 -0.011027 -0.067020 -0.548701 -0.969088 -0.366100 -0.268013 -0.120839 -0.201251 0.618255 0.802792 -0.233386 0.049349 -0.069226 0.095670 0.021176 -0.438955 0.105751 -0.025406 -0.573829 -0.505836 0.234217 0.312834 -0.559635 0.067407 -0.798729 0.502728 -0.308654 0.439545 -0.329592 -0.285384 -0.217438 0.591665 -0.126334 -0.635382 0.038773 -0.058500 0.030326 -0.919267 -0.314703 -0.104554 -0.602287 0.232968
amount 0.036361 -0.585590 0.090822 0.080245 -0.486094 0.397638 -0.515303 0.401737 0.346054 -0.392717 -0.497750 0.038883 0.022784 0.244280 0.104155 0.540854 -0.005077 0.466877 0.033437 0.367537 -0.351912 -0.332788 0.115444 -0.339708 -0.229610 -0.140755 -0.137829 0.319078 0.352074 0.125002 0.242438 -0.155416 -0.451879 0.189582 -0.456805 0.107862 0.223263 -0.105473 0.419851 0.011556 0.343166 -0.307121 0.418858 0.191520 -0.265348 0.197370 0.330655 0.102503 0.326347 0.190504
came -0.790972 -0.495484 -0.227283 -0.779629 -0.362528 0.069254 0.162403 0.011031 0.137676 -0.215801 -0.602198 -0.940186 -0.264227 -0.884021 -0.204626 -0.110510 0.354225 0.761759 -0.163724 -0.261868 -0.183188 -0.377322 -0.153549 -0.243448 -0.239107 0.118290 -0.331919 -0.509684 0.436952 0.083204 -0.243685 0.005819 -0.726164 0.270758 -0.668612 0.091358 -0.740154 0.023741 -0.248992 0.178152 0.125559 -0.555899 -0.185414 -0.207311 -0.017644 -0.700989 0.374677 -0.074738 -0.850730 0.504966
useful -0.448851 -0.175603 0.140336 -0.534217 -0.601923 -0.418625 -0.295065 -0.365369 0.444080 -0.198921 -0.326245 -0.575159 -0.230803 -0.643598 0.239278 -0.190273 -0.204535 0.022364 -0.349676 -0.182002 0.522858 -0.574495 -0.271907 -0.155777 0.119579 0.266263 -0.534921 -0.232321 0.609604 0.279761 -0.428084 0.209529 0.104991 -0.092552 -0.587752 0.055255 -0.043751 0.226755 -0.071888 0.494402 0.276457 -0.302078 0.034299 0.165668 0.083148 -0.599941 -0.162321 0.200134 -0.604578 0.657053
as -0.583920 -0.122325 0.183533 -0.494534 -0.760462 -0.975034 -0.822223 0.016693 0.534777 -0.197762 -0.766518 -0.392541 -0.488271 0.087875 0.781628 0.178832 0.522980 0.509717 -0.364636 -0.454181 -0.193667 0.008935 0.129242 -0.163474 -0.353056 -0.491228 -0.373477 -0.577195 0.109520 -0.472323 -0.928680 0.596355 -1.972829 0.353113 -0.698834 0.346267 -0.454676 0.130230 -0.332601 0.441543 -0.065290 -0.405163 0.285351 -0.234926 -0.055204 -0.854320 -0.243656 -0.796594 -0.907387 0.516544
she 0.049812 -0.946640 -0.107852 -0.666287 -0.506443 -0.755924 -0.264693 -0.105158 0.256575 -0.229273 -0.311103 -0.717682 -0.436443 -0.893879 0.293881 0.348296 0.638166 0.482859 -0.037531 -0.308002 0.231469 -0.087091 -0.345122 -0.500578 -0.806920 -0.663898 -0.404527 -0.122245 0.181578 -0.449720 -1.215729 -0.580360 -0.554319 0.310335 0.164392 0.471728 -0.723177 -0.040721 -0.762049 0.414323 0.222121 -0.315409 0.079709 -0.065699 0.082739 -0.596406 -0.399701 -0.675113 -0.500275 0.639615
spent -0.209238 -0.356711 0.292094 -0.643014 -0.597324 -0.755816 -0.349787 -0.416461 0.543097 -0.154669 -0.621923 -0.461373 -0.193312 -0.427757 0.248678 -0.013787 0.214684 1.085223 -0.250976 -0.289658 -0.076149 -0.057422 0.007768 0.226732 -0.390564 -0.132056 -0.490492 -0.519398 0.667942 -0.011698 -0.442007 -0.311609 -0.166490 -0.124274 -0.563872 -0.052977 -0.793527 0.038234 -0.003328 0.598332 -0.237068 -0.515536 -0.230004 -0.269866 -0.228776 -0.930443 -0.672229 0.119182 -0.091648 0.189119
so -0.199455 -0.405955 -0.186676 -0.857842 -1.026700 -0.606122 -0.620596 -0.184272 0.735529 -0.621749 -0.270921 -0.611018 -0.128625 -0.782142 0.599693 0.409476 0.149477 0.313608 -0.028722 0.347212 0.161150 -0.301056 -0.029676 -0.050791 -0.717930 -0.760947 -0.398267 -0.427176 0.298716 -0.266287 -0.726895 -0.149844 -0.688507 0.209784 -0.666264 -0.512478 -0.854454 -0.219063 -1.125599 0.454174 -0.038649 -0.061497 -0.218973 0.325015 -0.088475 -0.760413 -0.108419 -0.686023 -0.446061 0.299260
her -0.462976 -0.189691 -0.259160 -0.651188 -0.691857 -0.452251 -0.391902 0.266134 0.701157 0.074260 -0.557727 -0.936286 -0.731020 -0.906847 0.160524 -0.051034 1.010525 0.619567 0.696417 0.131976 0.329657 -0.201900 0.357536 -0.521569 -0.305690 0.050494 -0.447983 -0.742229 -0.047968 -0.087029 -0.478046 -0.685408 -0.417918 0.117861 -0.376424 0.317033 -0.697203 -0.136250 -0.371802 0.353667 -0.479481 -0.683917 -0.921342 -0.374705 -0.278280 -0.363299 0.026442 0.208083 -0.554656 0.271739
time -0.593588 -0.082507 -0.069198 -1.570996 -0.500715 -0.073046 -0.715532 -0.085484 0.469223 -0.606369 -0.780968 -0.899024 -0.160323 -0.798825 0.299106 0.421608 0.411318 0.574296 0.008263 -0.138211 -0.414406 -0.536627 0.075017 -0.331648 -0.330665 -0.725278 -0.866191 -0.099747 -0.064088 0.580892 -1.008807 -0.477826 -0.601323 0.469466 -0.302494 -0.730142 -0.411859 0.089269 -0.472639 0.182998 -0.264049 0.148569 -0.298066 -0.222774 -0.121199 -0.855143 -0.864683 -0.493913 -0.540238 0.032330
craning -0.313611 0.305082 0.382281 -0.067006 -0.555164 -0.258557 -0.020969 0.271259 0.173550 -0.214594 -0.426714 -0.730509 -0.261812 -0.711862 0.058211 -0.087236 0.468351 0.071584 0.473833 -0.424462 -0.409834 0.097956 -0.033018 0.149608 -0.150365 0.192438 -0.488444 0.020035 0.144727 0.162182 -0.077037 -0.010241 0.189375 0.588540 -0.062524 0.204381 0.266099 0.217311 -0.473692 -0.056276 0.149904 -0.246487 -0.161243 0.083455 0.128207 -0.367938 0.309263 0.214118 -0.463359 0.242367
over -0.555615 -0.175073 0.226380 -1.004492 -0.716446 -0.357475 0.230227 0.361788 0.679996 0.270007 -0.913046 -1.081398 -0.787146 -0.495615 0.198179 0.576396 -0.006405 0.348296 -0.301913 -0.289108 -0.093022 0.171240 -0.325754 -0.979697 -0.389085 -0.009120 -0.476000 -0.723457 0.087873 -0.203065 -0.568799 -0.113027 -0.871993 0.283119 -0.410551 0.207386 -0.958678 0.189027 -1.027716 0.107108 0.232676 0.051438 -0.193020 0.096453 -0.012026 -0.486386 -0.263353 0.117919 0.072660 0.072283
garden -0.739378 -0.369869 0.227265 -0.454881 -0.327517 0.240392 -0.588146 -0.178262 0.033745 -0.291130 -0.563814 -0.260163 -0.435210 -0.236557 0.468971 -0.163673 0.279734 0.948099 -0.297683 -0.021130 0.082276 -0.340327 0.084764 -0.480073 -0.093254 -0.128569 -0.456880 -0.000036 0.061684 0.532939 -0.604968 -0.415771 -0.348108 0.374672 -0.179822 -0.022509 -0.658880 0.385344 -0.567124 0.381579 0.259341 0.076300 0.188374 0.155102 0.449198 -0.573655 -0.548653 -0.342016 -0.614992 -0.021440
fences -0.154981 0.079419 0.577347 -0.020715 0.171132 0.289061 0.195941 0.217622 0.199238 0.080819 0.062271 0.260943 -0.230958 -0.480604 0.412259 -0.016047 0.120551 0.741820 0.102621 -0.182180 0.055481 0.037719 0.416402 0.163982 -0.055561 0.034448 0.114534 -0.096305 0.176922 -0.322171 -0.527847 -0.207353 -0.390862 -0.056821 -0.459824 0.473286 0.457319 0.031638 -0.371217 0.036529 0.230975 0.154322 0.130283 -0.386311 0.499726 0.004823 -0.238088 0.060086 0.084777 0.699565
spying -0.500957 0.147495 0.371629 -0.054912 -0.777381 -0.428001 0.028171 0.183196 0.206476 0.073741 -0.276538 -0.076244 -0.261324 -0.679591 -0.005406 0.434906 0.311403 0.362229 0.127675 -0.048725 0.302150 -0.520427 -0.277088 -0.096970 0.207943 0.121266 0.096263 -0.104006 -0.059074 0.391271 0.023875 -0.144615 -0.137004 0.387203 -0.372728 -0.010915 -0.652802 -0.387588 -0.027982 0.281768 -0.116419 -0.387589 -0.314903 0.147314 0.219589 -0.494814 0.124713 -0.003627 -0.171371 0.135198
on -0.675513 -0.709876 0.496991 -0.803798 -0.619808 -0.054425 0.695587 -0.055517 0.322176 0.299939 -0.718145 -0.440227 -0.245343 -0.456515 -0.018136 0.363129 0.226413 0.802690 0.010123 -0.086974 0.434739 0.080499 -0.310132 -0.648351 -0.216012 -0.478240 -0.508675 -0.590347 0.139764 -0.185932 -0.414011 -0.327949 -0.705752 0.253509 -0.541500 -0.108226 -0.821962 -0.159745 -0.782314 0.115402 -0.241265 -0.246364 -0.782752 -0.403519 0.425681 -0.319924 -0.911458 0.419799 -0.401542 0.327946
neighbors -0.080217 -0.576212 0.207031 -0.234372 -0.861724 0.168721 -0.107343 -0.111625 0.477525 -0.293274 -0.134039 -0.217284 -0.102291 -0.427435 0.508093 -0.036387 0.151085 0.454439 0.034376 -0.199105 -0.001546 -0.298464 -0.311638 -0.267220 -0.253000 -0.519245 -0.640955 -0.560976 -0.035750 0.038420 -0.526226 -0.355064 -0.757175 0.144467 -0.375420 -0.254641 -0.497993 0.055172 -0.232924 0.486617 0.316153 0.131053 0.293745 0.362409 0.210005 -0.196197 -0.363479 0.023747 -0.862957 0.041346
dursleys -0.377662 -0.587982 -0.104140 -1.082631 -1.074350 -0.141470 -0.628546 -0.141290 0.037853 -0.246914 -0.580471 -0.689350 -0.084444 -0.786492 0.388612 -0.238074 0.549203 0.592976 -0.337256 -0.025846 -0.370126 -0.084217 0.006922 -0.013249 -0.641583 -0.090259 -0.486759 -0.084235 0.059671 0.444049 -0.674867 -0.425613 0.260868 0.116657 -0.686166 -0.495775 -0.654846 -0.412895 -0.801128 0.516785 0.064648 -0.199703 0.195063 0.064577 0.059113 -1.369748 -0.596664 -0.111090 -0.679042 0.672584
small -1.197055 -0.871281 0.565045 -0.974117 -0.355248 -0.379282 0.044780 -0.344243 0.353643 -0.537710 -0.062948 -0.715007 -0.305652 -0.553652 -0.039633 0.200613 0.324493 0.768642 0.151843 -0.519938 -0.039739 -0.141637 0.499983 0.004672 -0.643511 0.040657 -0.033589 -0.145132 -0.019107 0.213362 -0.364931 -0.644432 -0.181818 0.060799 -0.587839 0.101128 -0.404518 0.009958 -0.044391 0.571984 -0.049451 -0.143988 -0.020005 -0.187504 0.316629 -0.486823 -0.487509 0.003303 -0.817974 -0.113145
son -0.510607 -0.422016 -0.397927 -0.905448 -0.370840 -0.374421 -0.258577 -0.057636 0.256159 -0.112935 -0.756667 -0.568783 0.072534 -0.988009 -0.288264 -0.246828 -0.020063 0.631239 0.230863 -0.328856 -0.275018 -0.173794 0.310978 -0.668137 -0.133153 -0.534685 -0.117221 0.043370 0.352426 -0.006670 -0.201597 -0.327638 -0.456329 0.429381 -0.520680 -0.399802 -0.253015 0.082826 -0.939978 0.776613 -0.036698 0.163106 0.085459 -0.151028 -0.005836 -0.654537 -0.151371 -0.310156 -0.159437 0.312852
dudley -0.211293 -0.679833 0.150493 -0.937205 -0.450372 -0.648459 -0.350533 -0.082464 0.723232 -0.336254 -0.798994 -0.504203 -0.155196 -0.633488 -0.491357 0.102776 0.444569 0.437059 0.085316 0.004317 -0.203900 -0.048242 -0.125047 -0.102396 -0.524001 -0.519865 -0.560414 0.084748 0.193649 -0.351876 -0.914237 -0.243332 -0.243634 -0.131563 -0.588103 -0.072697 -0.559670 0.240148 -0.800821 0.844810 0.368285 -0.607327 0.178491 -0.141025 0.103327 -0.673545 -0.302182 -0.047763 -0.406754 0.348366
their -0.645146 -1.096381 -0.199805 -0.707060 -0.773475 0.001469 -0.012956 -0.050272 0.889501 -0.095366 -0.644346 -1.063852 -0.752956 -0.363648 0.050785 0.177447 0.650774 0.648691 0.589693 0.513127 -0.078052 0.102114 -0.493698 -0.242523 -0.089724 0.298859 -0.017328 -0.165124 -0.289075 -0.311068 -0.602114 -0.139530 -0.967999 0.235261 0.036391 -0.350146 -0.706489 0.221227 -0.133975 0.339081 0.212682 -0.540778 -0.717822 -0.277336 -0.246808 -0.347825 -0.094962 0.481369 -0.641033 0.306867
opinion -0.597725 -0.254693 0.193069 -0.465313 -0.541556 -0.239782 0.196076 -0.016296 0.476964 -0.392697 -0.075141 -0.749780 -0.348275 -0.643211 0.024671 0.038485 0.158006 0.320638 -0.443638 0.263469 0.448729 0.110096 -0.428180 0.244916 -0.390319 0.071682 0.093617 -0.344072 0.590738 0.055612 -0.794524 0.106266 -0.671316 0.139056 -0.253774 0.321112 -0.166484 -0.334197 -0.319314 0.310939 0.208085 0.004955 -0.019688 0.212730 -0.386752 -0.422681 -0.593534 0.092363 -0.449705 0.052942
there -0.587643 -0.307218 -0.325778 -0.605664 -1.032382 -0.769256 -0.047021 -0.596708 0.876157 0.035065 -0.385995 -0.977513 0.141956 -0.885617 0.125093 0.092773 -0.297146 1.212034 -0.394533 -0.341157 -0.016786 -0.497702 0.079563 -0.223193 -0.703349 -0.431575 -0.504253 0.375332 0.442817 0.209487 -1.222805 -0.231365 -0.341437 -0.344704 -0.694274 0.204496 -0.867274 -0.336270 -0.805338 0.186392 -0.235201 -0.373872 -0.756725 0.253269 0.178895 -0.727568 -0.673006 -0.373369 -0.653878 0.130320
no -0.763859 -0.405761 -0.173975 -0.548664 -0.393492 -0.323818 -0.379221 -0.354076 1.099533 0.052250 -0.633159 -0.939679 0.194618 -1.666173 0.209918 0.179895 0.366370 0.853410 -0.075730 -0.339546 -0.205666 -0.122406 0.059379 -0.450335 -0.935411 -0.622587 -0.279167 -0.038993 0.713965 -0.543756 -0.547605 -0.419723 0.237740 -0.017150 -0.196045 -0.133013 -0.183877 -0.121077 -0.691376 0.327858 -0.608593 0.360079 -0.327255 0.627358 0.038820 -1.007645 -0.603185 -0.557809 -0.544330 -0.375912
finer -0.474789 -0.494669 0.094081 -0.670603 -0.118858 0.094512 0.250700 0.047044 -0.066807 -0.312175 -0.550513 -0.744278 -0.113010 -0.374425 0.506836 -0.040546 0.382651 0.551643 0.120013 0.061825 -0.355175 -0.335453 0.016651 -0.424725 -0.144521 0.089198 0.024856 -0.252896 0.186833 0.050964 -0.332091 0.445896 -0.313877 -0.135265 -0.335601 0.135272 0.219369 0.066090 0.062781 0.351484 0.078863 0.357662 -0.065336 -0.209028 0.253504 -0.268410 -0.136832 0.382433 -0.137558 -0.160099
anywhere -0.516907 -0.016823 -0.045792 -0.313058 -0.843823 -0.270238 0.082134 -0.257516 0.325889 0.239964 -0.262721 -0.411933 0.052747 -0.626281 0.085747 -0.002253 0.733801 0.294348 -0.000094 0.095212 -0.220919 0.093055 -0.235870 -0.300943 -0.039733 0.135396 -0.041373 -0.578438 0.379391 0.142161 -0.094231 -0.408998 -0.580248 0.185749 -0.495233 -0.178303 -0.075412 0.182144 -0.624628 0.266656 0.058561 0.102143 -0.036570 -0.391648 -0.287916 -0.139537 0.004746 0.239579 -0.057251 0.651979
everything -0.874546 -0.131246 -0.084318 -0.763628 -0.844573 -0.316646 0.062609 -0.721064 0.452326 -0.502221 -0.457246 -0.869208 -0.581891 -0.730090 0.310572 -0.211383 0.434322 0.189023 -0.007956 -0.260261 -0.037392 -0.662033 -0.134511 -0.772217 -0.529247 -0.366414 -0.547071 0.209369 0.338607 0.215713 -0.392047 -0.155017 -0.291699 0.150509 -0.002273 -0.384561 0.002778 0.240050 -0.781258 0.458918 0.247308 -0.138058 -0.179259 0.223869 -0.516415 -1.069346 -0.334782 -0.248292 -0.748640 0.583046
wanted -0.975346 -0.170352 0.033122 -1.018689 -0.833914 -0.267970 -0.509260 -0.706073 0.923056 -0.509913 -0.239341 -0.346406 0.364292 -0.821563 0.058197 0.230998 0.268930 0.441738 -0.330793 -0.239384 -0.150555 -0.496456 -0.069013 -0.169157 -0.597619 -0.940314 -0.868886 -0.683328 0.451842 0.161258 -0.640837 -0.306175 -0.261202 0.186655 -0.559230 -0.090547 -0.326214 0.580853 -0.787442 0.232361 -0.039338 -0.605277 -0.766040 0.061191 -0.296930 -0.930900 0.079218 -0.388492 -0.793896 0.574038
but -0.348197 -0.405246 0.112441 -0.648076 -0.650799 -0.749018 -0.063903 -0.343010 0.434063 -0.155653 -0.623796 -0.664203 0.031565 -1.012702 0.354698 0.273378 0.334291 0.745352 -0.337549 -0.079326 0.049041 -0.265091 -0.176381 -0.361289 -0.269823 -0.593895 -0.600154 -0.326842 0.199977 0.098134 -0.654864 -0.486736 -0.839932 0.455725 -0.466520 -0.079323 -0.290669 -0.420121 -0.622963 0.133588 -0.159761 -0.286289 0.119581 0.240151 -0.217723 -0.654966 -0.455034 -0.534649 -0.372663 0.253602
also -0.655281 -0.530978 -0.391506 -0.561026 -0.788485 -0.460558 -0.484848 -0.247860 0.258412 -0.524332 -0.609458 -0.138550 0.232601 -0.636167 -0.110599 0.125296 0.460634 0.310255 0.391347 -0.349816 0.503301 -0.122467 0.027891 -0.140947 0.238054 -0.418774 -0.433246 -0.170061 0.141658 -0.021547 -0.850256 -0.428435 -0.638767 0.671438 -0.592143 -0.301088 -0.506051 0.137343 -0.330697 0.620627 0.029144 0.064487 0.243417 0.159535 -0.013300 -0.768499 -0.044120 -0.169609 -0.281265 0.296833
secret -0.782051 -0.380083 0.218372 -0.562412 -0.423691 -0.603388 -0.357056 -0.688868 0.796074 -0.257126 -0.461623 -0.744973 -0.076054 -0.605805 0.069603 -0.109585 0.363064 0.300080 -0.273878 -0.384489 -0.358950 0.046979 -0.006597 -0.042924 -0.515315 -0.051428 -0.641044 0.157815 0.444101 -0.223372 -0.341869 0.242908 -0.411775 0.147868 -0.297433 -0.263430 -0.548939 -0.129266 -0.441933 0.598237 0.138968 0.313090 -0.293151 0.371129 0.043837 -0.703448 -0.632403 0.123028 -0.374000 0.259575
greatest 0.101138 -0.320403 -0.145913 -0.726171 -0.643761 -0.300650 -0.391416 -0.408623 0.369226 -0.349868 -0.557650 -0.779240 0.428754 -0.280722 0.499593 0.059946 0.361101 0.467801 -0.089276 -0.324715 0.346189 0.061938 -0.352312 -0.013585 -0.446194 -0.313967 -0.333610 -0.397585 -0.083333 0.371993 -0.480963 0.027496 -0.252222 0.445208 -0.601273 0.128231 -0.234164 -0.393374 -0.205834 0.423027 0.490037 0.139065 0.244287 0.086441 0.117602 -0.510739 0.154733 0.069232 -0.385450 0.009322
fear -0.723819 0.052447 0.231052 -0.779104 -0.705150 0.082985 -0.431982 -0.166166 0.407077 -0.124566 -0.593602 -0.519003 0.078563 -0.580323 0.263460 0.313256 -0.039927 0.552166 -0.150946 0.291946 -0.375074 -0.504226 0.155951 -0.081605 -0.722659 0.196134 -0.183904 -0.375317 0.157666 0.463500 0.008974 -0.203070 -0.651881 0.581140 -0.712529 -0.167368 0.000454 -0.074024 -0.469767 0.708644 -0.416754 -0.122726 -0.589767 -0.334081 0.112849 -0.354205 -0.391131 -0.363933 -0.380613 0.400253
somebody -0.374648 0.158620 -0.424507 -0.624448 -0.822618 -0.108118 -0.447876 0.009877 0.326022 -0.340894 -0.414281 -0.372339 0.372330 -0.571094 0.222174 0.136809 0.133572 0.407094 0.201879 0.193299 0.180289 0.159480 0.189167 0.077738 -0.421689 0.298252 0.241844 0.116421 0.326972 0.582967 -0.117114 -0.169425 -0.287914 0.557820 0.094890 -0.057468 -0.060217 0.447054 -0.550274 0.335470 -0.156521 -0.342543 0.045816 -0.215034 -0.087295 -0.083460 -0.338253 0.037284 -0.807403 0.176584
would -0.131796 -0.351428 -0.206344 -0.715190 -1.566407 -0.145182 0.197771 -0.728311 0.104407 -0.189540 -0.430425 -0.539170 0.377115 -0.971939 0.286136 -0.070214 0.033338 0.765565 -0.164681 -0.185452 0.286952 -0.768025 0.007637 0.092632 -0.237897 -0.786832 -0.676311 -0.655560 0.409728 0.043432 -0.019117 -0.208439 -0.700335 0.348767 -0.219454 0.388036 -0.836320 0.047400 -0.579517 0.907789 0.025868 -0.867195 -0.042737 -0.527024 0.072164 -0.728370 -0.439249 -0.333239 -0.877640 0.085913
discover 0.201476 -0.099206 -0.170062 -0.069173 0.243690 -0.522782 0.353280 -0.144841 0.055856 0.164532 0.324694 0.221367 0.486699 -0.441635 -0.024204 0.057672 0.513082 0.222033 0.268987 -0.470477 -0.270904 -0.199820 0.247381 -0.329817 0.265711 -0.420589 0.191824 -0.364632 0.693762 -0.336333 0.240596 -0.259058 0.100883 0.617214 -0.204466 -0.266395 -0.012149 0.076682 0.047633 0.599953 0.490668 -0.464446 -0.010964 0.342752 0.365409 -0.281188 -0.447919 -0.473112 -0.326311 0.186988
it -0.800747 -0.528669 -0.194896 -0.321811 -0.836196 -0.652721 -0.114478 -0.067035 0.759068 0.001447 -0.181535 -0.685484 -0.172130 -0.681157 -0.173554 0.068809 0.475278 0.408338 -0.180114 -0.069500 0.053075 -0.177030 -0.187974 -0.223113 -0.267159 -0.799549 -0.936710 -0.089606 0.167376 -0.051224 -1.050260 -0.250280 -0.344573 0.337724 -0.113390 0.236866 -0.563495 -0.259724 -0.568397 0.579964 -0.043571 -0.160717 0.032634 -0.036649 -0.188359 -0.841856 -0.458840 -0.302165 -1.206401 0.115921
think -0.912291 -0.211232 -0.479884 -0.372727 -1.437768 -0.782163 -0.090622 -0.622012 0.613738 -0.966528 -0.803311 -0.703853 -0.051095 -1.516054 0.400326 0.750361 0.356617 0.252957 0.004614 -0.342981 -0.057682 -0.259797 0.010804 -0.003881 -0.252537 -0.858401 -0.701322 -0.594242 0.207985 0.326188 -0.491068 -0.025637 -0.389149 0.185160 -0.297777 0.314578 -0.278406 -0.473317 -0.561912 0.658633 -0.302693 -0.123055 -0.408099 0.325549 -0.053336 -1.571434 0.020948 -0.636361 -0.684353 0.080944
could -0.675971 -0.912887 -0.594501 -0.278974 -1.200999 -0.189407 -0.396170 -0.916985 0.081663 -0.293168 -0.760445 -0.489306 0.279521 -0.763750 0.591981 0.095834 0.213802 0.827935 -0.228102 0.198723 0.459643 -0.565186 -0.102856 -0.264968 -0.802036 -1.064650 -0.275723 -0.601301 0.282527 0.237047 -0.425347 -0.227015 -0.682020 0.692055 -0.735811 -0.334855 -0.053608 0.212720 -0.941951 0.440899 -0.296807 -0.036734 0.164334 0.017709 0.091319 -0.606104 -0.275011 -0.315232 -1.156735 0.332737
bear -0.409938 -0.557813 -0.035533 -0.637002 -0.339590 -0.301990 -0.275680 -0.116934 0.529757 -0.475767 -0.364099 -0.969706 0.026848 -0.955223 0.354884 -0.050447 0.527033 0.446533 -0.420743 -0.193235 0.171861 0.038068 0.450128 -0.009564 -0.219432 -0.359822 -0.412248 -0.418437 0.342447 -0.287676 -0.609407 -0.148622 -0.419881 0.150075 -0.434367 0.276422 -0.043034 -0.505421 -0.293019 0.051712 0.381705 0.098198 -0.177099 -0.363969 0.176883 -0.140466 0.025660 -0.501605 -0.778086 0.403637
if -0.351188 -0.945187 0.198968 -0.414440 -1.354825 -0.401355 -0.078690 -0.763706 0.759615 -0.694072 -0.686409 -0.784090 0.260334 -0.836918 0.218489 0.042892 0.691439 0.200600 0.161348 -0.028061 0.275978 -0.375599 0.066257 0.204840 -0.295847 -0.922225 -0.290639 -0.502060 0.134221 -0.297858 -0.658180 -0.334064 -0.967569 -0.068717 -0.734951 0.229125 0.131227 -0.005973 -0.420527 0.639985 -0.431464 0.009677 -0.251396 -0.015637 -0.297811 -1.431481 -0.290502 -0.530734 -0.886120 0.246509
anyone -0.581847 -0.615186 -0.079780 -0.373783 -0.958234 -0.231400 -0.466948 -0.497405 0.463436 -0.456795 -0.280814 -0.768607 0.109118 -1.296791 0.390213 0.415829 0.125568 0.072178 -0.537255 0.092959 -0.167178 0.074674 -0.158951 -0.110999 -0.412514 -0.675425 -0.680337 -0.043058 0.231098 -0.248047 -0.682677 -0.269751 -0.658631 0.489746 -0.200603 -0.053030 -0.839065 -0.301650 -1.022368 0.592685 0.325199 -0.396544 -0.011003 0.011219 -0.024794 -0.944762 -0.235233 -0.844932 -1.002551 0.400651
found -0.812110 -0.299824 -0.265686 -1.015332 -1.108285 -0.788274 -0.089573 -0.633902 0.135686 -0.298420 -0.585325 -0.598994 0.125661 -0.443507 -0.229706 0.253406 0.459741 1.123794 -0.140927 0.124364 0.248478 -0.695863 0.094554 -0.639787 -0.986778 -0.854342 -0.017352 -0.500014 0.351080 -0.151610 -0.311985 -0.161074 -0.708867 0.539206 -0.261003 -0.221554 -1.034749 -0.337186 -0.225677 0.574932 -0.156515 -0.264830 -0.605808 -0.196103 -0.388780 -0.824371 -0.184388 0.026336 -0.788288 -0.207254
out -1.152706 -0.073387 0.103698 -0.153249 -0.766964 -0.540083 0.206571 -0.958120 0.331818 -0.142342 -0.238815 -0.924594 -0.346127 -0.277388 -0.412906 0.305775 0.528609 0.334077 0.168944 -0.247808 0.238378 -0.384731 -0.159113 -1.410776 -0.339022 0.011852 -0.177678 -0.477223 0.048653 0.135121 -0.182544 -0.455083 -0.994987 0.834398 -0.779013 -0.269622 -0.466276 -0.084516 -0.678375 0.684164 -0.073554 -0.498262 -0.639405 -0.160816 0.249920 -0.908072 -0.485924 0.102459 -0.556039 0.157145
about -0.415985 -0.312777 0.027585 -1.050617 -0.700935 -0.437213 0.340005 -0.331275 0.462588 -0.437374 -0.880028 -0.962264 -0.087620 -0.669919 -0.021500 0.938310 0.335771 0.385074 -0.112000 -0.260000 -0.096440 -0.391460 0.155806 -0.029309 -0.389443 -0.827239 -0.403800 -0.262215 0.301857 -0.104129 -0.220710 -0.951315 -0.800488 0.239019 -0.229133 -0.201279 -0.098899 0.098730 -0.405727 0.339034 0.164720 -0.034822 -0.005906 -0.009828 -0.009400 -0.744353 -0.746238 -0.526221 -0.406239 -0.126175
potters -0.784478 -0.423214 0.115607 -0.758380 -0.720883 -0.318115 -0.551139 -0.255927 0.055705 -0.234769 -0.541513 -0.369475 -0.338935 -1.082482 0.423853 0.149895 0.486207 0.470113 -0.105030 -0.387892 0.033168 -0.383613 -0.480731 -0.479599 -0.020787 -0.116249 -0.522434 -0.156142 0.019490 0.038634 -0.670406 0.026587 -0.476707 0.277737 -0.424578 -0.243662 -0.481121 -0.399542 -0.540182 0.414048 0.045657 0.308386 -0.230522 0.044652 0.240339 -0.419518 -0.779200 0.127901 -0.898436 0.238780
sister 0.007931 -0.312736 -0.269467 -0.819302 -0.175940 -0.200145 -0.100715 -0.501057 0.145585 -0.175303 -0.714132 -0.979307 -0.029192 -0.723845 0.216637 0.309621 0.734334 0.477224 -0.422817 0.022378 0.123978 -0.269314 -0.050430 -0.465837 0.064053 -0.228692 -0.566235 -0.276784 0.275904 0.263773 -0.419641 -0.134783 -0.653414 0.530220 -0.530614 -0.069508 -0.855513 0.226011 -0.873034 0.166079 -0.298783 -0.246308 -0.043259 0.087755 0.204134 -0.217162 -0.559533 -0.353407 -0.824300 0.168009
hadnt -0.307328 -0.250582 -0.256391 -0.767905 -1.388458 -0.506440 -0.625729 -0.799063 0.340440 -0.581100 -0.866032 -0.458148 -0.533229 -1.151658 0.353764 0.428109 0.464460 0.681361 0.076793 -0.754714 0.292313 -0.723620 0.220333 -0.613093 -0.834346 -0.637620 -0.239465 -0.603149 0.526781 -0.154312 -0.845452 0.032271 -0.959394 0.097432 -0.274754 -0.188744 -0.401538 0.033392 -0.267618 0.657308 0.485822 -0.308318 0.447656 -0.346045 -0.419384 -0.309184 -0.486345 -0.204230 -1.193569 -0.112533
met -0.518782 -0.224295 0.094741 -0.983285 -0.556403 -0.200122 -0.275234 -0.308952 0.345184 -0.371553 -0.704487 -0.623068 0.278999 -1.147826 0.574398 -0.062494 0.233984 0.359072 0.120905 0.008255 0.073252 -0.360695 -0.214680 -0.274527 -0.028518 -0.600637 -0.115437 -0.117534 0.070991 0.244553 -0.494659 -0.425430 -0.219911 0.877934 -0.722017 -0.235563 -0.118755 -0.354564 -0.762268 0.708816 -0.115285 -0.050656 -0.304533 -0.595662 -0.153144 -0.532836 0.231613 -0.592567 -0.256357 0.074041
for -0.787853 -0.877084 -0.470148 -1.333602 -0.476995 -0.277120 -0.168353 -0.364442 0.612745 0.113656 -0.808827 -0.651810 -0.130674 -0.187959 0.487461 0.315492 0.009521 0.686863 -0.058550 -0.621712 -0.155512 -0.177484 -0.114128 -0.311532 0.055782 0.056755 0.143865 -0.513385 0.368321 0.189134 -0.342250 -0.304780 -0.868263 -0.045015 0.197556 0.142484 -0.741300 -0.289923 -0.459821 0.637640 0.045159 0.061545 -0.474649 -0.219003 -0.195597 -0.748355 -0.858295 -0.469417 -0.539104 -0.078606
several -0.648165 -0.535582 0.560367 -0.632967 -0.763369 0.073714 -0.250911 -0.441829 0.454776 0.355209 -0.425281 -0.379432 -0.227672 -0.783792 0.084307 0.423822 -0.091093 0.285385 0.324889 -0.259744 -0.022295 -0.374626 0.325213 -0.438331 -0.403679 0.166279 0.220972 -0.446010 0.186589 0.060964 -0.272469 0.163670 -0.098170 0.113497 -0.896994 0.135019 -0.818962 -0.038251 -0.448952 0.863440 -0.195176 -0.125192 -0.414702 0.177060 0.163719 -0.516999 -0.370615 -0.353450 -0.115858 0.013325
years -0.293194 -0.214745 -0.476247 -1.519284 -0.488804 0.112710 -0.313444 0.038650 -0.175299 -0.096974 -0.649875 -1.006183 -0.179337 -0.626723 0.547913 0.309228 0.303710 0.820653 0.033637 -0.063516 -0.424855 -0.734243 -0.311444 0.076356 -0.343613 -0.450959 -0.354860 -0.123554 0.259020 0.249708 -0.846621 0.161891 -0.586320 0.335116 -0.187165 -0.551884 -0.605026 -0.405077 -0.248245 0.749536 -0.148415 -0.381336 -0.768242 -0.359143 -0.225812 -1.305316 -1.070537 -0.543296 -0.706876 0.177631
fact -0.698502 -0.069235 0.196852 -0.779043 -0.467650 -0.513642 -0.327498 0.009270 0.021995 -0.205454 -0.926629 -0.985479 -0.173503 -0.942884 0.106910 -0.071521 0.253073 0.590964 0.036597 -0.481867 -0.162034 0.231857 0.144071 0.191260 -0.653440 -0.052281 -0.311855 -0.294917 0.274588 0.086229 -0.744437 -0.242123 -0.324350 0.315214 -0.092615 0.015556 -0.685189 0.261296 -0.209898 0.783445 -0.389455 -0.257168 0.039042 0.220112 0.034866 -1.071151 -0.451875 -0.678850 -0.547630 -0.048585
pretended -0.737456 -0.060536 0.246657 -0.406514 -0.216884 -0.393198 0.151687 -0.062701 0.350412 0.163195 -0.664045 -0.809541 -0.382512 -0.692756 0.516263 0.506622 0.336979 0.256200 0.264847 -0.636463 0.198072 -0.650277 -0.066394 -0.088166 0.078948 0.179511 -0.318752 0.306240 -0.159829 -0.169825 -0.592452 0.221398 -0.250907 0.614145 -0.164898 0.309990 0.083857 0.091438 -0.694414 0.085046 -0.396452 -0.473665 -0.476891 0.253285 0.038946 -0.680708 0.239469 -0.563892 -0.187304 -0.165781
goodfornothing 0.241573 0.319103 0.459980 0.084262 -0.469796 -0.371414 0.311487 0.272883 0.433968 0.219351 -0.542328 0.044663 0.015092 0.009202 -0.210329 0.021486 0.174203 0.138466 0.225367 0.251473 -0.238759 0.248513 -0.088635 -0.489049 -0.081256 0.217157 -0.234282 0.089088 0.248025 0.166424 0.215891 -0.047307 0.230657 0.123401 -0.049912 0.203550 0.397265 0.366364 -0.070317 0.514331 0.104055 0.038952 -0.196517 0.147275 -0.204660 -0.567807 -0.247637 0.510050 0.321535 0.621158
husband -0.158848 -0.024674 -0.443480 -0.163730 -0.211949 -0.393370 0.463610 0.199411 0.143869 0.407096 -0.057460 0.349143 -0.275687 -0.241172 0.292927 0.440440 -0.029721 -0.102591 0.220098 0.207285 0.379357 0.482211 -0.202792 -0.338484 0.123266 0.022309 0.129413 -0.322302 0.577848 0.281782 0.063030 0.387053 0.365437 0.040718 -0.190731 -0.399981 -0.184044 0.012972 -0.396965 0.693313 0.560460 -0.296146 0.529083 0.142223 0.552527 -0.159628 -0.063536 0.064367 -0.162042 0.139786
undursleyish -0.126341 0.055777 0.409071 -0.141728 0.095433 -0.151527 -0.201752 0.443439 0.610610 0.123185 -0.193263 0.137539 -0.114613 0.356543 0.555747 -0.195018 0.721108 0.080093 -0.259920 -0.308822 -0.185937 0.265185 0.084600 0.363720 -0.156386 -0.473484 0.227565 0.155995 0.280168 0.534391 0.122037 -0.381151 -0.215337 0.351550 -0.190295 -0.306128 0.451443 0.510471 0.092960 0.153883 -0.069585 0.323019 -0.038989 0.387715 -0.176251 -0.097790 0.147371 0.277704 0.363584 0.433310
possible -0.732600 -0.747334 -0.072356 -0.352647 -0.689687 -0.607366 -0.692673 0.184878 0.145390 0.093544 -0.666561 -0.601996 0.395923 -0.195255 -0.323337 0.547462 0.406723 0.764747 -0.036319 0.178676 0.198694 -0.317243 0.132342 0.057802 0.094056 -0.058130 -0.144881 0.034379 -0.119277 -0.524028 -1.003076 0.382899 -0.379960 0.486895 -0.802339 -0.226281 -0.343614 -0.160482 -0.670161 0.461636 0.390227 -0.565653 -0.444318 -0.392677 -0.242091 -0.691671 -0.199849 -0.334211 -0.917007 0.697985
shuddered -0.025766 -0.600326 -0.174223 -0.316799 -0.289337 0.324518 0.337417 -0.444511 0.281020 -0.064543 -0.583245 0.024898 0.025444 -0.124727 -0.155492 0.477431 0.415684 0.128194 -0.005884 -0.343863 0.062483 -0.008575 -0.381699 0.306531 -0.430338 -0.346678 -0.187376 -0.470963 0.240345 0.440127 0.044384 -0.113870 -0.103040 0.544544 -0.379766 0.124198 -0.379920 -0.244833 -0.157714 0.540369 -0.408562 -0.044815 -0.486498 0.165582 0.532977 -0.020048 -0.361358 0.209722 -0.329634 0.428937
what -0.836954 -0.286461 -0.310945 -0.634714 -0.992577 -0.881777 -0.089111 -0.796525 0.301747 -0.793287 -0.534730 -0.672344 0.226428 -1.317066 0.373963 0.517212 0.762536 0.076419 0.144553 0.042011 -0.375461 -0.024074 -0.079350 0.313217 -0.082292 -1.020824 -0.738549 0.178109 -0.026841 0.234876 -0.758005 -0.408465 -0.415048 -0.031563 -0.723916 -0.295213 -0.209051 0.033239 -1.013742 0.635556 0.118448 0.075622 -0.196336 0.236435 -0.395444 -0.878099 -0.294253 0.186537 -0.592463 0.374463
arrived -1.057646 -0.611442 0.275834 -1.035105 -0.940728 -0.104953 -0.084149 -0.489435 0.813501 -0.745200 -0.984595 -0.431377 0.090678 -0.540060 0.032875 0.354538 0.294279 0.087344 -0.196008 -0.133814 0.418009 -0.237584 -0.398285 -0.446458 -0.236789 -0.191152 0.176189 -0.008678 0.405343 0.141193 -0.817701 0.095475 -0.282587 0.249841 -0.496436 -0.453577 -0.849104 -0.405091 -0.458078 0.209520 -0.187479 0.328886 -0.271971 -0.453530 -0.009925 -0.934065 0.009672 0.045656 -0.453187 0.021301
street -0.459496 -0.650977 0.230356 -1.082970 -0.506046 -0.162429 -0.001035 0.195211 -0.080968 -0.771582 -1.250160 -1.060153 0.363100 -0.383457 -0.256400 0.023071 0.318994 0.758268 -0.295600 -0.289929 -0.539364 -0.295534 -0.168367 -0.295871 -0.662820 0.353250 -0.365475 -0.504742 0.074348 0.115537 -0.757711 0.056270 -0.450071 0.369576 -0.367299 -0.321602 -0.190667 0.076156 -0.123066 0.754852 -0.146235 -0.230517 -0.522719 -0.236859 0.108998 -0.907585 -0.013587 0.125355 -1.094288 0.794076
knew -0.337354 0.002091 -0.014764 -1.114425 -1.188361 -0.904422 -0.158451 -0.829501 0.628339 -0.337576 -0.649388 -0.542791 0.412444 -1.361245 -0.105960 -0.059208 -0.117380 0.947830 0.031459 0.094683 -0.150701 -0.457333 0.006400 -0.623847 -0.546969 -0.884104 -0.874148 -0.726735 0.546975 0.007210 -0.690487 -0.411853 -0.818891 -0.078960 -0.394473 -0.383864 -0.411879 -0.161696 -1.017526 0.508623 -0.201916 -0.010628 0.206067 0.289047 0.041833 -0.681027 -0.076520 -0.328839 -0.606046 0.283550
too -0.555090 -0.676389 0.449765 -0.632561 -1.024308 -0.662567 -0.311809 -0.077549 0.911081 -0.009349 -0.520865 -0.896268 -0.173751 -0.927256 0.268764 0.202579 -0.050591 0.163107 0.020552 -0.528772 -0.242895 -0.398757 -0.096879 0.318662 -0.026396 -0.626770 -0.418288 -0.074486 0.918595 0.236068 -0.718010 -0.321934 -0.476993 -0.096440 -0.671001 -0.127787 -0.636395 0.006830 -0.430834 0.290380 -0.246483 0.037886 -0.530881 0.101949 -0.226886 -0.567378 -0.415591 -0.870895 -0.915854 0.167215
never -0.389806 -0.078563 0.058597 -0.941526 -1.209619 -0.488741 -0.814517 -1.057963 0.371835 -0.286547 -0.897845 -0.177652 -0.452407 -1.238187 0.724320 0.282551 0.540502 0.553822 -0.067674 -0.530344 0.135979 -0.332254 0.151842 0.082951 -0.373937 -0.809884 -0.613319 -0.347898 0.455522 0.069821 -0.560102 -0.999447 -0.154896 0.429100 -0.132640 -0.491716 -0.658361 -0.509598 -0.559557 0.603046 -0.342993 -0.045764 -0.215323 -0.210960 -0.685993 -1.219826 -0.408708 -0.273313 -0.839141 0.653957
even -0.707854 -0.564338 -0.115391 -0.727208 -1.003827 0.051968 -0.675188 -0.817295 0.592625 -0.202597 -0.400151 -0.690998 0.143581 -0.724818 0.250869 0.532162 0.248171 0.495407 0.348497 -0.019004 -0.320402 -0.081541 0.252033 -0.483198 0.035507 -0.462728 -0.785896 -0.114938 0.288391 0.199107 -0.752937 -0.207761 -0.451065 0.309720 -0.581999 -0.087228 -0.664212 -0.176745 -0.830552 0.669514 -0.500207 -0.153640 0.159363 -0.555687 -0.459898 -0.428987 -0.094550 -0.530084 -0.916701 -0.146462
seen -0.615238 -0.565924 -0.186639 -0.724240 -1.090225 -0.447382 -0.633789 -0.656003 0.360545 -0.698032 -0.581324 -0.492235 0.352910 -1.223760 0.701791 -0.026623 0.138345 0.324721 -0.021575 0.245265 0.443896 -0.194733 0.033008 -0.822355 -0.494298 -0.382770 -0.732251 -0.433666 0.636752 -0.096614 -0.786836 -0.362794 -0.342456 0.647160 -0.468182 -0.340001 -0.672868 -0.276165 -0.790584 0.825274 -0.064772 -0.084750 -0.173152 -0.524401 -0.663990 -0.929824 -0.546777 -0.056245 -0.924179 -0.006413
him -0.521041 -0.864309 -0.266317 -0.754196 -0.768366 -0.249859 -0.405051 -0.692278 0.406503 -0.336303 -0.244611 -0.867052 -0.928914 -0.760396 0.182717 0.118043 1.045461 -0.081729 0.171926 -0.270021 0.147494 -0.111804 0.082926 -0.475329 -0.492195 -0.173411 -0.779246 -0.451944 0.046272 0.496800 -0.844062 -0.343765 -0.346044 0.541200 -0.306004 -0.299566 -0.292529 -0.168809 -0.216617 0.569392 0.417989 -0.493986 -0.378324 0.463219 -0.082440 -0.850788 0.244413 -0.606127 -0.871962 0.093259
this -0.853316 -0.101183 -0.356831 -0.722214 -0.270995 -0.639090 -0.340498 -0.200326 0.723387 -0.082961 -0.436103 -1.224688 -0.034982 -0.791769 0.600278 0.496448 0.622192 0.927310 0.233903 -0.230869 0.030528 -0.626990 -0.255674 -0.027905 -1.003648 -0.817974 -0.762380 -0.480192 0.072614 -0.214078 -0.371899 -0.134414 -0.076319 -0.139284 -0.266978 -0.171621 -0.550342 -0.269106 -0.699429 0.074865 -0.139225 -0.158289 0.069423 -0.062385 -0.388196 -0.680757 -0.886954 -0.565946 -1.188736 0.039234
another -0.650980 -1.169241 -0.483269 -0.790739 -0.607204 0.075943 -0.243724 -0.041194 0.971563 -0.152686 -0.703502 -0.838475 -0.351887 -1.005464 -0.098818 0.048042 0.181294 0.700873 0.114262 -0.142268 -0.186289 -0.723187 -0.518494 -0.607031 -0.720091 -0.244393 -0.381273 -0.238036 0.048500 0.129769 -0.380494 -0.489658 -0.184920 0.386937 -0.106814 -0.490803 -0.729281 -0.031014 -0.368047 0.764360 -0.092603 -0.166183 -0.412971 -0.111714 -0.337170 -0.972407 -0.405958 0.052492 -0.316915 -0.124946
good -0.675451 -0.600637 -0.301926 -1.007872 -0.762030 -0.618656 -0.142152 -0.803210 0.406595 -0.098933 -0.125403 -1.253112 0.228520 -0.861386 0.374944 0.366379 0.257718 0.392131 -0.114450 -0.360665 -0.230385 -0.156189 -0.143543 -0.203467 -0.761612 -0.596722 -0.645563 0.280285 0.615042 0.067164 -0.536549 -0.663386 -0.691237 0.066942 -0.319672 0.323125 -0.713696 0.003892 -0.468381 0.376629 -0.351412 -0.259026 0.044887 -0.101032 0.256564 -0.601407 -0.242456 -0.177215 -0.500583 -0.116324
reason -0.625407 -0.525730 0.121786 -0.943151 -0.552690 -0.104151 -0.114086 -0.339709 0.466120 -0.280268 -0.703075 -1.023323 0.330970 -0.584219 0.108137 0.122803 0.250538 0.583959 -0.494914 -0.288976 0.037431 -0.449638 0.068512 -0.300695 -0.500868 -0.612360 -0.592711 -0.006002 0.246793 0.399529 -0.576751 -0.561160 -0.715195 0.186148 -0.557618 0.072956 -0.620612 0.194797 -0.477621 0.422114 -0.679139 -0.408594 -0.806642 -0.496004 0.275808 -0.615342 -0.495675 -0.173732 -0.213583 0.257784
keeping -0.480398 -0.655236 0.094178 -0.678747 -0.126743 -0.559435 -0.025338 0.056375 0.073999 -0.024134 -0.776631 -0.844598 0.367258 -0.434312 0.535346 0.221777 0.226515 0.146577 0.144080 0.028427 0.140718 0.297805 0.343685 -0.498921 -0.353511 -0.335403 -0.047410 -0.248461 -0.086612 -0.099027 -0.288584 -0.320559 -0.830229 0.719245 -0.636765 -0.186586 -0.195990 -0.580752 -0.631213 0.233534 -0.209091 -0.124083 -0.194410 0.155559 0.275386 -0.853099 -0.280853 0.364718 -0.395405 0.356683
away -0.649004 -0.525982 0.221043 -0.631367 -0.841468 -0.170940 -0.226547 0.223141 0.163549 -0.566870 -0.669840 -1.185096 -0.206150 -0.226510 0.159142 -0.027979 0.331003 0.716378 -0.233482 -0.328112 -0.344906 -0.451973 -0.120150 -0.328284 -0.534246 -0.641092 -0.491455 -0.553108 0.497694 -0.223419 -0.351488 -0.346936 -0.778661 0.731482 -0.258026 -0.154879 -0.286377 -0.105643 -0.212078 0.536167 0.386739 0.163474 -0.581593 0.091043 -0.318618 -0.626686 -0.109657 -0.250227 -0.245007 0.050703
want -0.583429 -0.542956 0.025232 -0.693909 -0.791256 -0.028560 0.268058 -0.563622 0.660914 -0.665014 -0.470832 -0.414035 0.068350 -1.408603 0.367948 0.958639 0.470999 0.462987 -0.274663 -0.458844 -0.293429 -0.632896 -0.389758 -0.024041 -0.610463 -0.835043 -1.213295 -1.088250 0.398802 0.334595 -0.394338 -0.376597 -0.432158 0.383848 -0.470101 0.187309 -0.119403 0.005475 -0.811039 0.258313 -0.370237 -0.234136 -0.822044 0.009235 0.387293 -1.354958 0.022053 -0.926412 -0.959073 0.371230
mixing -0.260075 0.129040 0.298199 -0.355166 -0.473986 -0.265436 0.475471 -0.291444 0.000015 0.063491 -0.012514 -0.259826 0.031743 -0.122651 0.262094 -0.284223 -0.087005 0.466812 0.032990 0.295216 0.520951 -0.234978 0.350272 -0.370740 0.245451 -0.347595 -0.155623 -0.212115 0.300119 -0.166702 -0.210819 -0.237110 0.219909 0.843542 -0.207091 0.277339 0.013421 0.106962 0.088495 0.781806 -0.246639 -0.395579 -0.348368 -0.412637 0.730790 -0.479155 -0.102323 -0.059399 0.002162 -0.053027
child -0.059265 -0.245839 0.220554 -0.882208 -0.077714 -0.092031 -0.447210 -0.472604 0.281222 -0.005857 0.103511 -0.196509 -0.569888 -0.380807 0.421543 0.242696 0.533845 0.581378 -0.393638 -0.095345 -0.006895 0.213794 -0.193867 0.261116 0.050189 -0.519987 -0.637643 -0.145654 -0.195393 0.424969 -0.854251 -0.058050 0.119045 0.157486 0.026438 0.243411 -0.001276 0.216267 0.084733 0.356371 -0.156003 0.262077 -0.138068 -0.206639 0.399327 -0.451411 -0.570981 -0.155169 -0.396492 -0.083521
like -0.798842 -0.729457 0.422703 -0.685711 -0.592380 0.029789 0.186752 -0.674240 0.680165 -0.569082 -0.629204 -0.649926 -0.132747 -0.602341 0.615090 0.443585 0.222560 0.121996 -0.092482 0.132925 -0.330598 -0.424736 0.090845 0.035738 -0.295200 -0.569086 -0.984582 -0.019600 0.206224 0.006389 -0.134280 -0.329118 -0.904681 0.418837 -0.669145 0.463575 -0.678657 0.163492 -0.444362 0.222620 0.009428 0.003237 0.230465 -0.134580 -0.307672 -0.170122 -0.292578 -0.163501 -0.168616 0.120049
when -0.645667 -0.539668 -0.028054 -0.430284 -0.903096 -0.762573 0.252754 -0.474320 0.137370 -0.701499 -0.751790 -0.302810 -0.606648 -1.020331 0.488110 0.275398 0.441131 0.485017 0.249201 -0.007711 0.387443 -0.450166 -0.073151 -0.150668 -0.512322 -0.161596 -0.061647 -0.315944 -0.327073 -0.089417 -0.762321 -0.195877 -0.926476 0.195029 -0.739680 -0.150553 -0.410918 -0.115311 -0.535742 0.417602 0.060553 0.381637 -0.349572 -0.296355 -0.007140 -1.106253 -0.320285 0.262668 -0.360945 0.247546
woke -0.705392 -0.394863 -0.107777 -0.524506 -1.054429 -0.510109 -0.221829 -0.056020 0.303080 -0.367887 -0.522087 -0.221179 -0.150027 -0.710530 0.007192 -0.090642 0.416568 0.219650 0.373497 -0.222501 -0.543630 -0.743809 -0.002424 -0.398873 -0.142252 0.167255 -0.317927 0.009017 0.108995 0.500409 -0.424658 -0.463228 -0.409468 0.030179 -0.155927 0.239859 -0.368241 0.206111 -0.116791 0.935845 0.498761 -0.320582 -0.688461 -0.212906 0.014941 -0.500342 -0.078238 0.240200 -0.335832 0.475635
up -0.699048 -1.078774 -0.136738 -0.708640 -0.549997 -0.425261 -0.253278 0.035204 0.387641 -0.406148 -0.386465 -0.620769 -0.586399 -0.383052 0.268183 0.266500 0.082955 0.277875 0.277423 -0.067620 -0.467211 -0.387603 -0.248139 -0.602690 -0.382752 -0.141648 -0.954720 -0.612493 0.627164 0.463017 -1.092933 0.071968 -0.275945 0.332217 -0.651758 -0.071974 -0.757682 -0.196386 -0.301832 0.772127 0.353815 0.102065 -0.584183 -0.227478 -0.098518 -0.141689 -0.218084 0.087009 -0.569570 0.068851
dull 0.052429 -0.257826 0.461041 -0.097687 -0.136985 -0.389432 -0.387602 0.364962 0.216133 -0.564043 -0.342593 -0.869503 -0.084262 0.187850 -0.251985 0.534027 0.235641 0.258957 -0.250362 -0.274740 -0.015346 -0.113288 0.324197 0.024077 -0.586225 0.212490 -0.156829 -0.048000 0.343789 0.383987 0.131713 -0.150360 -0.544913 0.108677 -0.138368 0.234478 -0.041795 -0.162761 -0.414337 0.702664 0.406532 0.130926 0.222187 -0.155405 0.225232 0.119361 0.394689 -0.163468 0.083097 0.344902
gray -0.719349 -0.264619 0.073268 -0.683032 -0.697049 -0.209522 0.056829 -0.256296 0.105292 -0.119121 -0.384540 -0.838358 -0.345930 -0.048922 0.155803 0.013460 0.702074 0.401312 0.049502 0.050759 -0.356252 -0.477441 0.312996 0.196190 -0.510957 0.117432 -0.137364 -0.585506 0.214596 -0.027431 -0.277959 0.235031 -0.397757 0.311683 -0.579731 0.192142 -0.549079 -0.056872 0.064508 0.723588 0.048818 -0.406350 -0.369832 0.288576 0.101912 -0.766241 -0.102710 -0.035287 -0.590469 0.082016
tuesday -0.011087 0.151103 0.254370 -0.292976 -0.047563 -0.407078 -0.275295 -0.121699 0.228765 0.231300 -0.202693 -0.342141 -0.167876 -0.177507 0.522476 0.095759 0.112160 0.645606 0.080806 -0.236531 -0.061727 -0.288831 0.006296 -0.164245 0.081327 -0.228883 0.349317 -0.198386 0.430075 -0.144731 -0.336371 -0.244333 -0.049311 0.364773 -0.250918 0.450919 -0.290469 -0.162764 0.014155 0.295870 0.037691 -0.301663 -0.058936 0.240442 0.393988 -0.945422 -0.371624 -0.187545 0.155599 0.078608
our -0.804728 -0.371270 0.011459 -0.817431 -0.363160 -0.144481 0.354572 -0.370719 0.890478 -0.588392 -0.815581 -1.376112 -0.379523 -0.604771 0.222119 0.386884 0.149943 0.501171 0.115420 0.074776 -0.293771 -0.395003 -0.324809 -0.121783 -0.526441 -0.405998 -0.134718 -0.110499 -0.249574 -0.100866 -0.224513 -0.096204 -0.039128 0.094993 -0.392423 -0.171476 -0.451575 0.198096 -0.187214 0.441372 -0.596249 -0.324634 -0.729702 0.290529 -0.361733 -0.658726 -0.080082 0.090347 -0.543200 0.668144
story -0.694457 -0.315467 -0.436236 -0.574371 -0.377799 -0.396592 0.126360 -0.106650 0.100773 -0.367426 -0.312552 -0.289465 0.070120 -0.446767 0.348590 0.503908 0.355632 0.826502 -0.080784 -0.563556 -0.184742 0.114281 -0.225869 -0.704460 -0.343859 -0.175595 -0.219468 -0.203908 0.379016 0.093379 -0.230824 -0.245944 -0.332174 0.025757 -0.682668 0.054605 -0.063560 0.328874 -0.564390 0.427144 0.094916 -0.400712 0.223326 -0.168903 0.224753 -0.799324 -0.644277 -0.400867 -0.123823 0.436814
starts -0.484514 -0.274184 0.370032 -0.066697 -0.486230 0.115616 0.477669 -0.388852 -0.011669 0.491243 -0.382776 -0.340625 0.499552 -0.329967 0.376836 0.407663 0.247548 0.228740 0.172449 -0.033649 0.105965 0.288722 0.313313 -0.123747 0.169255 0.253960 -0.168847 0.073472 -0.122708 -0.365645 -0.302587 0.074298 -0.140195 0.633905 -0.036095 0.182259 -0.297122 0.167425 0.179664 -0.046780 -0.304245 -0.275754 -0.405611 -0.075694 0.544218 -0.612129 -0.147622 -0.403993 -0.238536 0.513872
nothing -0.819505 -0.656434 -0.537054 -0.693206 -0.960841 -0.634156 -0.327150 -0.407281 0.654053 -0.246251 -0.401096 -0.997795 0.040153 -1.101466 -0.020306 0.285578 0.317356 0.606581 -0.101722 -0.198656 -0.195498 0.141324 -0.496534 -0.465708 -0.193536 -0.478736 -0.565897 0.030092 0.455774 -0.049000 -0.530898 -0.404493 -0.877129 -0.030705 -0.086702 0.171966 -0.768262 -0.282587 -0.755983 0.563334 -0.746448 -0.173596 -0.028484 -0.249448 -0.308462 -0.793887 -0.414438 -0.061058 -0.263387 0.362495
cloudy -0.172633 -0.227982 0.195686 -0.221599 0.253894 -0.066457 0.024641 -0.052030 -0.039902 0.015282 -0.173968 -0.531938 0.473936 -0.588907 0.170753 0.376350 0.415712 -0.037007 -0.035418 0.001104 -0.060469 -0.360351 -0.235839 -0.447319 -0.035876 0.502452 -0.074117 -0.203575 0.238005 0.385776 -0.155077 0.394029 -0.542002 0.154465 -0.018522 0.096739 -0.517882 -0.376861 -0.283291 0.125817 0.067207 0.408803 -0.386869 -0.290038 0.128221 -0.495427 0.232038 -0.071183 -0.457481 0.512517
sky -0.925810 -0.590031 0.242068 -0.557737 -0.874960 0.026954 -0.341377 -0.022240 0.220283 -0.119422 -0.071995 -0.671063 0.438305 -0.386104 0.452048 -0.110317 0.860449 0.379779 -0.226855 0.063034 -0.328721 0.161142 0.088521 -0.064296 -0.476372 -0.190757 -0.599683 -0.332270 -0.179041 0.216967 -0.452792 -0.415356 -0.401788 0.406184 -1.072415 0.370876 -0.356329 -0.546766 -0.594433 0.543301 0.484628 0.192765 0.144763 -0.181938 -0.056534 -0.960919 -0.409366 0.062385 -0.617988 0.090759
outside -0.937982 -0.325864 0.140062 -1.201395 -0.560810 -0.043778 0.276880 -0.113496 0.256161 0.354112 -0.479617 -0.656780 0.237803 -0.365212 0.319063 -0.035196 -0.318927 0.955924 -0.406698 -0.005231 -0.056419 -0.319555 -0.060338 -0.577196 -0.294051 0.121417 -0.740358 -0.418638 -0.103654 0.365540 -0.593538 -0.151366 -0.364797 -0.010195 -0.456800 0.477408 -0.387201 -0.216462 -0.665131 0.418245 0.074547 -0.316634 -0.178521 -0.217786 -0.340631 -0.831391 -0.436317 -0.135298 -0.473576 0.682824
suggest -0.585558 -0.242678 -0.476556 -0.379994 -0.510801 -0.139538 0.114899 -0.498544 0.774709 0.270036 -0.795908 -0.633517 0.234965 -0.062001 0.022205 0.309806 0.397880 0.290325 0.015831 -0.397213 0.335792 0.279402 -0.347357 -0.579215 -0.338933 0.059745 -0.133672 -0.007265 0.524385 -0.451358 0.048138 0.174225 -0.332515 0.059043 0.008943 -0.006377 0.132796 -0.305905 -0.671657 0.172741 0.171379 0.169211 -0.281490 0.238557 0.368350 -0.673257 0.288259 -0.042143 -0.393049 0.069282
things -0.297516 -0.443550 -0.006838 -0.812896 -0.852599 -0.112944 -0.401397 -0.751177 0.309469 -0.370568 -0.308254 -1.291978 0.197913 -1.028255 0.197173 0.049609 0.319702 0.221992 -0.098088 -0.105791 -0.472393 -0.296609 -0.134022 -0.007878 -0.449887 -0.536751 -0.365112 -0.327784 0.311534 -0.111116 -0.475558 0.003236 -0.506134 0.077814 -0.409522 -0.052556 -0.122156 -0.126389 -0.145587 0.583006 -0.263144 -0.066616 -0.416272 0.057821 0.118429 -0.958906 -0.294723 -0.017339 -0.567023 0.710328
soon -0.372728 -0.171407 -0.153979 -0.674236 -1.124567 -0.311489 -0.315195 -0.630315 0.643527 -0.085763 -0.171947 -0.435475 0.033729 -0.519418 0.184729 0.066764 0.556235 0.564467 -0.165432 -0.201128 0.438752 -0.032357 -0.214172 -0.452942 -0.485205 -0.697670 -0.758431 -0.444790 0.296332 0.320617 -0.296398 0.304865 -0.662923 -0.266085 -0.488084 -0.209021 -0.687117 0.010213 -0.299549 0.082887 0.065694 -0.064082 0.147859 0.086224 -0.208377 -0.936377 -0.136553 0.018015 -0.685528 0.097883
happening -0.744711 0.135070 -0.378883 -0.682156 -0.222929 -0.508516 -0.181410 0.018637 0.452940 0.316644 -0.039737 -0.371954 -0.225295 -0.471249 0.137867 0.455140 0.257316 0.358087 -0.072779 -0.016950 -0.448834 -0.223608 -0.367996 0.291301 -0.243704 -0.499082 -0.378393 -0.211398 -0.006562 0.150755 -0.700105 -0.450210 -0.585282 0.327531 -0.562289 -0.377418 -0.655727 0.160810 -0.049945 0.792062 0.292057 0.240604 0.012072 0.262389 0.145722 -0.309941 -0.051450 -0.185097 -0.518011 -0.092882
all -0.598640 -0.332466 -0.370779 -0.768651 -0.993293 -0.162953 -0.170848 -0.590664 0.326125 -0.592228 -0.645476 -1.315715 -0.543062 -0.669764 0.071058 0.454437 0.612449 0.869837 -0.032394 -0.272133 -0.745888 0.247824 0.429125 -0.152062 -0.835439 -0.376603 -0.330724 -0.683284 0.124525 0.074220 -0.835697 0.585162 -0.416232 0.057443 0.283700 -0.301072 -0.017984 -0.189457 -1.215224 0.258613 0.287693 -0.313290 -0.669665 0.123683 -0.091948 -0.845863 -0.778054 -0.098829 -0.103290 0.388887
country -0.663966 -0.272906 -0.035217 -0.755309 -0.151672 -0.352936 -0.524860 0.069081 -0.036178 -0.255759 -0.481825 -0.698882 0.302478 -0.207402 -0.343450 0.323921 0.114915 0.469233 0.130337 0.099614 0.118718 0.359470 0.316026 -0.638564 0.219317 -0.391656 -0.073575 -0.295307 0.248553 0.267834 -0.509004 -0.312958 -0.213737 0.218054 -0.622992 -0.310235 -0.420452 0.078449 -0.664571 0.589287 0.037796 0.249317 -0.069663 0.061553 0.046718 -0.322750 -0.309994 0.034223 -0.304039 0.363976
hummed -0.777164 -0.576356 0.092202 -0.785428 0.048504 0.122924 -0.233397 -0.253036 0.345533 0.157883 -0.298456 -0.148551 0.355513 -0.304716 -0.063268 0.140065 0.636644 0.340878 0.298585 -0.373623 -0.353005 -0.075252 -0.211191 -0.310395 0.112939 0.203879 0.259281 -0.091283 0.088006 0.066276 -0.115652 -0.096553 -0.658503 0.730692 -0.357516 -0.150719 -0.155399 0.104504 -0.279839 0.202357 -0.200588 -0.302718 -0.216741 0.465331 -0.088757 -0.136531 0.163731 -0.246847 -0.198830 0.385181
picked -0.606960 -0.543072 0.276596 -0.903857 -0.947072 -0.327058 0.229346 0.376841 -0.032951 -0.149888 -0.346731 -0.879044 -0.330201 -0.611102 -0.181871 -0.194545 0.539307 0.772381 -0.236704 -0.527143 -0.145307 -0.502416 -0.109742 -0.623759 0.015809 -0.102233 -0.016175 -0.073731 0.588126 0.313289 -0.197355 -0.443228 -0.617006 0.238942 -0.882508 -0.169989 -0.570671 0.595416 -0.795352 0.300522 0.203717 -0.234579 -0.327478 -0.065628 -0.167931 -0.814378 0.064180 0.090447 -0.522664 -0.000891
his -0.627605 -0.061755 0.196777 -0.858692 -0.286202 -0.366237 -0.346042 -0.092295 0.924188 0.515509 -0.250443 -1.356801 -1.143633 -0.895505 -0.065785 0.024339 0.939581 0.696701 0.305014 0.331255 0.655430 -0.260659 -0.124688 -0.502653 -0.435919 0.030566 -0.330493 -0.797436 -0.275773 0.032202 -0.415849 -0.355036 -0.828705 -0.083079 -0.157822 0.381315 -1.078389 0.127875 -0.622578 0.115440 -0.263078 -0.548497 -0.917869 -0.253922 -0.453273 -0.428055 0.124637 0.447087 -0.645128 0.253909
most -0.932365 -0.515299 -0.185964 -0.895506 -0.407594 -0.256241 0.014690 -0.376535 0.062750 -0.166990 -0.371446 -0.516091 0.094836 -0.568985 0.113005 -0.079745 0.206769 0.623496 0.409335 -0.397721 0.120357 -0.185635 -0.106173 -0.487149 -0.684140 -0.065600 -0.093673 -0.021735 -0.101175 0.442271 -0.018585 0.372760 -0.116610 0.435264 -0.390878 0.014027 -0.808927 -0.110631 -0.521911 0.612454 0.288296 0.246175 -0.576961 0.113874 0.033099 -0.871102 -0.205479 -0.080813 -0.744066 0.383140
boring -0.020154 0.084154 -0.111181 -0.731525 -0.055091 0.136315 -0.451332 -0.250445 0.387025 -0.018447 -0.171023 -0.828280 0.247991 -0.596033 0.087124 0.035854 0.135251 -0.030951 -0.270384 -0.103816 0.427743 -0.624745 0.125333 -0.586525 0.228523 -0.418285 0.167004 -0.068743 0.377134 0.571528 0.045080 0.275286 0.193536 0.517310 -0.463284 0.142257 -0.277504 -0.403485 -0.428205 0.451751 -0.010561 -0.158621 -0.425006 0.200717 0.026580 -0.419434 -0.404593 -0.297432 -0.325559 0.604780
tie -0.354362 0.370366 -0.191184 -0.461060 -0.023246 -0.413708 -0.325513 -0.018548 0.216613 0.056784 -0.129657 -0.259440 0.040333 -0.208995 -0.018980 0.645502 0.685610 0.333435 0.481167 0.483754 0.603030 0.098052 -0.186846 -0.414326 -0.154506 -0.359896 0.296816 0.157921 -0.157252 0.400640 -0.043002 -0.395991 0.093181 0.117576 0.289621 -0.127081 0.023218 0.045969 0.212026 0.304977 -0.169694 -0.360464 -0.321119 0.031890 0.358008 -0.161569 0.211336 -0.177842 0.063197 -0.246317
work -0.646968 -0.645894 0.154748 -0.890562 -0.583925 -0.595453 -0.461881 -0.366627 0.211981 -0.156207 -0.493798 -0.448686 -0.376545 -0.788290 -0.245227 0.234131 0.328099 0.401726 0.509872 -0.486881 -0.443825 -0.377852 -0.111862 -0.100957 -0.306585 -0.343088 -0.447803 -0.212417 0.364791 -0.476662 -0.389512 0.003518 -0.423922 0.553656 -0.283196 0.085313 -0.617840 0.208154 -0.588582 0.301713 -0.116165 -0.105898 -0.323351 -0.172359 0.317324 -0.885208 -0.498662 -0.297598 -0.338251 0.542648
gossiped -0.402640 -0.376218 0.543358 0.337700 0.344819 -0.066353 -0.067627 -0.476979 0.599994 0.071820 -0.548245 -0.526638 -0.221720 -0.506989 0.051817 0.040005 0.285225 0.132942 0.375097 0.227058 0.151252 0.138002 0.126777 0.449611 -0.477653 -0.036447 -0.214338 0.099476 0.496338 -0.095377 0.048187 0.373828 -0.163218 -0.221441 -0.359964 0.314874 0.170692 0.413132 0.153813 -0.362027 0.231611 0.233101 0.101162 0.289573 0.095114 -0.390397 -0.282905 0.032483 0.100430 0.094960
happily -0.800466 0.205117 0.002049 -0.055464 0.058525 -0.444195 0.173565 0.264074 0.622918 0.132554 -0.136308 -0.627807 -0.137405 -0.146101 0.060964 0.152151 0.200183 0.556988 -0.160842 -0.287258 0.181400 0.034868 0.196776 0.188449 -0.500291 -0.066996 -0.058308 -0.438596 0.097644 0.343378 -0.566739 0.382053 -0.570217 0.159246 -0.669262 -0.219349 -0.600125 0.304912 -0.586746 0.771244 0.185184 0.139327 -0.276518 -0.222496 0.147702 -0.763074 -0.126279 -0.037059 -0.376008 -0.186123
wrestled -0.054997 0.325512 0.308103 0.178445 0.196951 -0.237098 -0.102927 0.330298 0.495976 0.190791 -0.390097 -0.113235 -0.330585 -0.307944 -0.077556 0.091093 -0.207661 0.467292 0.263658 0.143073 0.330374 0.003694 0.301524 -0.221805 -0.240162 0.050438 -0.189828 -0.317850 0.392539 -0.210936 0.031973 -0.188245 -0.532556 0.179647 0.019935 0.083367 -0.288629 -0.216625 0.026846 0.230381 0.513217 -0.077008 -0.039804 0.170399 0.406212 0.169373 0.117433 0.451355 0.149745 0.471892
screaming -0.161016 -0.467449 0.578463 -0.476986 -0.421816 -0.584021 0.373562 -0.333282 0.077467 0.298586 -0.309017 -0.810693 -0.124157 -0.474181 -0.098722 0.515539 0.193473 0.210623 -0.299198 -0.553788 -0.144769 -0.260848 0.296854 0.319479 0.214562 -0.176580 -0.422273 -0.345445 0.222633 0.409511 -0.323547 -0.444440 -0.429358 0.356830 -0.233309 -0.366088 -0.746111 0.237750 -0.561649 0.258252 0.463800 0.194582 0.033122 -0.358784 0.383095 -0.237252 -0.362270 0.459415 -0.423081 -0.065294
into -1.034764 -0.471974 0.511978 -0.770193 -0.689126 -0.316236 0.779469 -0.279894 0.692415 -0.036722 -0.593986 -0.405503 -0.785078 0.391428 0.412949 0.152758 -0.166406 0.406254 -0.596753 -0.129630 -0.023856 -0.621700 0.091649 -0.684394 -0.241770 0.015083 -0.275184 -0.541837 0.326437 -0.376800 -0.290281 0.074117 -0.653420 0.370845 -0.833495 -0.172736 -1.075823 0.445742 -0.567334 0.314751 0.257493 0.121340 -0.454107 -0.133139 0.133434 -0.529687 -0.678420 0.168453 -0.606586 0.639202
high -0.706155 -0.424110 0.549261 -0.602182 -0.580942 0.007961 0.214440 0.130176 0.511775 0.059187 -0.706195 -1.110960 -0.416133 -0.345036 -0.335474 -0.045100 0.381416 0.549700 -0.033623 -0.572625 0.254874 -0.377434 0.490481 -0.022970 -0.627413 0.001807 -0.521824 -0.117219 0.323892 0.352701 -0.009768 -0.121555 -0.505792 0.040535 -0.473050 -0.217438 -0.821024 0.154712 -0.205051 0.150455 0.338103 -0.492329 -0.038827 -0.544387 -0.133088 -0.813236 -0.524140 -0.196421 -1.130309 0.356441
chair -0.327053 0.114001 0.243583 -0.512087 -0.097179 -0.692652 0.059305 -0.470825 0.397259 -0.151187 -0.603642 -0.986620 -0.475157 -0.427792 0.104657 0.002546 0.324931 0.635454 -0.219791 -0.369413 0.242736 0.091022 -0.002576 -0.492764 -0.127882 0.031536 -0.655014 -0.614634 -0.103389 0.115437 -0.213934 0.100625 -0.135605 0.546152 -0.052533 -0.015075 -0.763007 -0.412426 -0.639800 0.512725 -0.070823 0.039497 -0.116752 -0.117273 -0.247395 -0.688492 -0.233053 -0.063077 -0.320522 0.697000
none -0.746509 -0.569052 -0.156952 -0.634857 -0.298927 -0.232821 -0.131408 -0.575221 0.499091 -0.446217 -0.263673 -0.607748 -0.172356 -0.551037 0.140738 0.069862 0.182798 0.900261 -0.281918 0.047421 -0.297728 -0.227134 0.106063 -0.639710 -0.818519 -0.317979 -0.180689 -0.077938 -0.057223 0.091716 -0.289700 -0.203685 0.058105 0.121010 -0.311496 0.044128 -0.150273 0.046963 -0.227618 0.595318 0.312876 0.171648 -0.197247 0.059321 0.190301 -0.532856 -0.499204 -0.221555 -0.602052 0.585657
them -0.624930 -0.545375 -0.368056 -0.646179 -0.793407 -0.326731 -0.374780 -0.699349 0.251159 0.015412 -0.174386 -1.344887 -0.584676 -0.669839 -0.243437 0.475323 0.513505 0.202840 -0.177663 -0.072377 -0.131524 -0.147598 -0.035289 -0.761862 -0.879045 -0.226484 -0.571774 -0.695268 0.154139 0.040450 -0.754001 -0.374565 -0.715039 0.085784 -0.313448 -0.283446 -0.031358 0.033676 0.023609 0.752240 0.163483 -0.139612 -0.068323 0.374587 0.212346 -0.855886 0.166995 -0.038516 -0.460393 0.524622
noticed -0.881828 0.054634 -0.131334 -0.966524 -1.079524 -0.374567 -0.589296 -0.376210 0.429397 0.000585 -0.543991 -0.643953 0.282338 -1.097290 -0.063790 -0.064944 0.308719 0.355985 -0.385947 -0.252428 -0.239819 -0.691144 -0.236236 -0.229868 -0.363616 -0.059656 -0.339665 0.116326 0.362503 0.211180 -0.737729 -0.615728 -0.954394 0.716264 -0.316155 0.034876 -0.167278 0.241519 -0.629063 0.896306 -0.321342 -0.462895 0.101305 -0.234232 -0.330653 -0.570634 -0.204576 0.029851 -0.838239 -0.242438
tawny -0.203704 -0.502740 0.569940 0.121660 -0.010354 0.372730 -0.168163 -0.442085 0.535850 -0.166756 -0.276140 -0.287379 0.358373 -0.354968 0.436427 0.446686 0.062435 0.593916 -0.331713 0.190890 -0.124129 0.177096 0.318548 -0.167838 0.128234 -0.413433 0.300496 -0.197359 0.022132 0.541673 -0.477737 0.106693 -0.212728 0.391923 -0.322883 0.345872 -0.473537 -0.049715 0.078996 0.013853 -0.222566 0.276418 0.302942 0.255125 0.019008 -0.272995 0.061889 -0.182712 -0.581912 -0.103235
owl -0.754540 -0.865347 -0.172956 -0.531588 -0.246140 0.317751 -0.401886 -0.031337 0.297248 -0.712559 -0.821928 -1.043685 0.365360 -0.346739 -0.363789 0.557889 0.678438 0.380260 -0.543019 0.194093 0.100816 -0.557748 0.306846 -0.168774 -0.382890 -0.221639 -0.246488 -0.107848 -0.210376 0.242026 -0.571123 -0.269388 -0.475104 0.598465 -0.281895 0.286724 -0.581003 0.118662 -0.530876 0.909834 -0.451442 0.170573 -0.714501 -0.644273 -0.267020 -0.949390 -0.311335 -0.273384 -0.449432 0.306756
flutter -0.015192 0.128596 0.346622 0.242859 -0.409970 -0.308275 0.355403 0.166033 -0.096893 0.169176 -0.418815 -0.467591 -0.274184 -0.401150 -0.267701 0.100269 0.345882 0.401378 0.431144 -0.340007 -0.159230 0.058148 -0.210877 -0.449385 -0.197705 -0.370145 -0.408040 0.268841 0.137014 0.583479 -0.147268 -0.202302 -0.527992 0.655439 0.154710 0.140434 0.214311 0.254737 -0.304988 0.120990 0.078607 0.492461 0.077807 0.119962 0.375339 -0.666558 0.080618 0.171140 -0.623666 0.351871
past -0.916656 -0.440435 -0.032464 -0.639746 -0.507183 -0.444216 0.074583 -0.468505 0.209336 -0.278706 -0.841976 -0.840288 -0.634159 -0.235184 0.056928 0.411568 -0.092189 0.380925 -0.572828 0.031202 0.100305 -0.484690 -0.208889 -0.322455 -0.462203 -0.573869 -0.422737 -0.507231 0.763910 0.096366 -0.377763 -0.461690 -0.752085 0.888815 -0.772549 -0.211438 0.126662 -0.184307 0.151197 0.283922 0.248563 -0.150578 -0.668180 0.207901 0.187283 -0.757986 0.129624 0.173327 -0.943581 0.241767
window -0.795077 -0.225294 0.068553 -1.229784 -0.609563 -0.754499 -0.386533 -0.518312 0.204822 -0.603985 -0.317942 -1.278214 0.048380 -0.960610 -0.191596 0.470329 0.209877 0.399409 0.050497 -0.208003 0.264344 -0.149898 -0.658659 -0.218361 -0.084305 0.271491 -0.398274 -0.483526 0.060332 -0.409878 -0.815058 0.092810 -0.380524 0.257543 -0.999587 -0.247361 -0.353866 -0.206109 -0.264623 0.472128 0.004412 0.210807 0.138993 -0.349259 0.463298 -0.831229 -0.521816 0.001550 -0.450465 0.305055
at -0.396341 -1.224300 0.004978 -1.409098 -1.030525 -0.082409 0.194579 0.125449 1.019931 -0.299605 -0.701055 -0.828872 -0.676272 -0.272099 0.220893 0.317161 0.694090 0.282146 -0.331318 -0.713964 0.257470 -0.203520 -0.465940 -0.826389 -1.010902 -0.323363 -0.106790 -0.249884 0.615219 0.185372 -0.438758 -0.510586 -1.250598 -0.709240 -0.216327 -0.150666 -0.622386 0.221050 -0.659893 0.417661 0.249261 0.369001 0.152345 -0.314114 -0.378819 -0.172049 -0.739700 -0.389173 0.053239 0.343877
half -0.152355 -0.218071 -0.434216 -0.820719 -0.267525 -0.375368 -0.357013 -0.441097 0.407221 -0.407244 -0.403827 -1.138942 0.042651 -0.875218 0.170154 0.007062 0.232834 0.782864 -0.324849 -0.150394 -0.246676 -0.509565 0.029452 -0.487171 0.132127 -0.205475 0.007591 0.060962 0.433868 0.522782 -0.569850 -0.611509 -0.604846 0.383867 -0.855495 -0.612549 -0.170312 0.068914 -0.523061 0.215478 -0.275523 -0.102010 0.105525 -0.265748 -0.028907 -0.464279 -0.094320 0.048544 -0.558139 0.504224
eight -0.598787 0.110680 0.232204 -0.449481 0.054780 0.162648 -0.070712 -0.590481 0.730918 -0.101882 -0.220123 -0.597458 -0.349325 -0.567805 0.044139 0.148288 -0.076689 0.826820 -0.326206 0.224909 -0.164663 -0.674899 0.076660 -0.027026 -0.413382 -0.494017 -0.147816 0.041483 0.335394 0.080002 -0.139358 -0.190760 -0.426297 0.067447 -0.350361 -0.249774 -0.349406 -0.253723 -0.308537 0.081786 0.370095 -0.318370 -0.191060 -0.005696 0.035852 -0.654717 -0.481685 0.428936 -0.212827 0.434698
briefcase 0.224958 -0.163938 -0.292541 -0.555982 -0.122332 0.066988 0.070505 0.335662 0.556376 0.423291 -0.048186 -0.221052 -0.088588 -0.123909 0.274294 0.039596 0.160434 0.443890 -0.053916 0.173718 0.505356 0.516156 -0.074887 -0.140861 -0.125179 0.244767 -0.467791 -0.123144 0.564075 -0.143114 -0.169810 -0.074279 -0.295832 0.007655 0.238800 -0.318237 0.013011 -0.057169 -0.320918 0.580375 0.556167 0.346420 0.076009 -0.112172 -0.249871 0.377550 0.042439 0.386496 -0.153867 0.080149
pecked 0.001454 -0.154591 -0.056174 0.093811 0.041122 0.320537 -0.036420 0.484410 -0.029732 0.555153 -0.292454 0.119828 0.305695 -0.330566 0.707217 0.247493 0.044621 -0.002639 0.458921 0.008340 0.343064 -0.257869 0.527199 -0.003491 -0.233872 -0.036418 0.009380 0.538869 0.094472 -0.091321 0.092101 -0.211929 -0.034638 0.200650 -0.383684 0.251578 -0.257720 0.123693 -0.332400 0.733309 0.482154 0.514798 0.236600 0.089173 0.594556 0.190370 0.248143 -0.112577 -0.127787 -0.128275
cheek -0.218443 -0.013941 0.455550 -0.744184 -0.575080 -0.037386 -0.075593 -0.295111 -0.006499 0.088191 -0.076378 -0.314589 -0.510532 -0.748203 0.198733 0.266905 0.571365 0.345335 0.367459 0.204416 -0.098942 -0.551980 -0.534300 -0.460341 -0.335956 -0.190212 0.170453 0.019578 0.429524 -0.119417 -0.726111 -0.056586 -0.435484 0.095919 -0.315521 0.211162 -0.105512 -0.015621 0.102918 0.798004 0.239164 -0.091592 0.071306 0.149930 0.002291 -0.230622 -0.672192 0.205522 -0.254814 -0.171439
tried -1.108246 -0.129344 0.112393 -1.041710 -1.224850 -0.472012 -0.152961 -0.528148 0.630321 -0.410318 -0.396624 -0.675229 -0.719512 -0.776173 0.205077 0.372306 0.174875 -0.003980 0.619117 -0.349701 0.273405 -0.551815 -0.548293 -0.542031 -0.255863 -1.001037 -0.499203 -0.457570 0.972519 -0.113974 -1.150493 -0.500573 -0.237825 0.548844 -0.698965 -0.443570 0.298060 0.485744 -0.094932 0.382859 -0.253769 -0.110561 -0.453816 0.229891 -0.044787 -0.346285 -0.028892 -0.326610 -1.116417 0.378081
kiss -0.168944 0.204798 -0.068231 -0.322082 -0.138784 -0.250704 -0.332023 0.076577 -0.076500 -0.222745 -0.488209 -0.321133 -0.076575 -0.745457 0.070001 0.440444 0.442863 0.473621 0.260445 -0.055177 0.078520 -0.279972 -0.441975 0.088774 -0.549406 -0.417165 0.157202 0.205309 -0.113031 0.332509 -0.223053 -0.516416 -0.593810 0.606239 -0.655887 -0.128254 0.030490 -0.251828 0.049914 0.454835 0.588225 -0.073828 -0.361352 -0.440596 -0.218913 -0.602861 0.207491 0.204193 0.058465 0.318469
goodbye -0.096430 -0.299930 0.481592 -0.915148 -0.047766 -0.439385 0.313780 -0.431400 0.070175 -0.034252 -0.063725 -0.139324 0.224556 -0.481741 0.176602 0.585561 0.472797 0.330305 -0.191673 -0.226275 0.096269 -0.258462 0.080107 -0.440474 -0.380102 0.004998 0.110156 -0.091674 0.070628 0.002441 -0.376859 -0.478604 -0.616562 0.456396 -0.804300 -0.324447 -0.805762 0.492689 -0.451114 0.182348 0.024007 -0.577284 0.104979 -0.070346 0.212460 -0.912949 0.192231 -0.467834 -0.457245 0.422867
