6022 50
harry -0.007290 -0.291834 -1.114554 -0.309987 -0.774296 -0.446074 -0.758046 -1.241436 -0.043853 -0.300241 -0.227593 -0.184931 -0.350780 0.420479 -0.275153 -0.177404 -0.108883 -0.704365 0.004039 0.341376 -0.168474 -0.618088 0.058650 -0.271057 -0.108750 -0.339122 -0.011599 0.140643 -0.322687 -0.164937 -0.121702 0.487450 -0.295185 0.228522 -0.536063 -0.291323 0.075415 -0.428650 -0.716569 -0.103445 -0.723811 -0.753118 -0.224743 0.364550 -0.425740 -0.008445 0.138564 0.346468 -0.405925 0.082075
potter -0.447603 -0.309666 -0.773755 -0.196361 -0.454452 -0.016783 -0.807762 -0.890749 -0.045899 0.085752 -0.212818 -0.233384 -0.677552 0.604183 -0.551566 -0.066049 -0.411034 -0.523059 0.112309 -0.071601 0.048789 -0.311775 0.159280 -0.645498 0.019701 -0.190976 0.381061 0.202109 -0.510565 -0.367066 -0.410194 -0.068514 -0.381814 0.123869 -1.110587 -0.437098 -0.152992 -0.102870 -0.382218 0.097122 -0.614371 -0.541595 0.243839 0.256312 -0.639770 0.144431 0.201961 -0.312318 -0.116527 0.516788
and 0.030782 -0.096108 -0.813628 -0.200197 -0.663010 -0.170782 -0.664374 -0.957501 -0.408246 -0.335230 -0.088777 -0.421619 -0.282126 0.409841 -0.149178 -0.211863 0.058107 -0.686294 0.137669 0.173821 -0.415527 -0.421772 -0.102516 -0.415441 -0.122979 -0.287194 0.334514 0.352299 -0.360774 -0.118056 -0.201629 0.399835 -0.342373 0.051238 -0.540614 -0.238004 -0.188468 -0.583811 -0.446004 -0.021060 -0.612666 -0.277711 0.059658 0.310332 -0.493346 -0.169305 0.011894 0.386737 -0.372956 0.339991
the 0.181605 -0.598665 -0.759491 -0.332592 -0.226518 0.102256 -0.711850 -0.736083 -0.772080 -0.052628 -0.015393 -0.458961 -0.397952 -0.074184 -0.011251 -0.088100 -0.105523 -0.814443 0.070127 0.627495 -0.063654 -0.624463 -0.219544 -0.259540 0.190710 -0.090905 0.607152 0.145531 -0.168536 -0.401330 -0.371959 0.049326 -0.337807 0.329935 -0.945434 -0.472809 -0.188596 -0.966072 -0.395973 -0.028256 -0.700038 -0.364251 0.098294 0.461112 -0.375546 0.123961 -0.302615 0.163943 -0.396262 0.226102
sorcerers 0.051738 -0.229563 -0.317928 -0.205878 -0.162322 0.003771 -0.351326 -0.617991 -0.091174 0.011376 0.155987 -0.286330 -0.141424 -0.026505 0.379298 -0.448973 -0.367584 0.028993 0.191930 0.384758 0.146420 0.367346 0.041438 -0.367577 -0.298868 0.003346 0.036138 -0.160471 -0.150467 -0.023845 0.057931 0.711077 0.176666 -0.274946 -0.645134 -0.111221 0.338554 -0.579455 -0.442179 0.472083 -0.122553 0.056280 0.468335 -0.097083 -0.413845 0.119788 0.140175 0.030626 -0.003216 0.186990
stone 0.356993 -0.734586 -0.474930 -0.151099 -0.328625 -0.226482 -0.053972 -0.658556 -0.303052 -0.258036 -0.173435 -0.294499 0.027189 0.568044 -0.437117 -0.055642 -0.459308 -0.842820 0.299011 0.073366 0.015338 -0.223773 -0.132526 -0.519913 0.360285 -0.071564 0.598989 0.686824 -0.384544 -0.454666 -0.157486 -0.285528 -0.747244 -0.499804 -0.232808 -0.021256 -0.172187 0.145438 -0.420727 -0.285034 -0.560513 -0.390759 -0.142870 0.494440 -0.088542 -0.135155 -0.163766 0.123995 -0.582609 0.791329
chapter 0.545381 0.260636 0.190581 -0.099500 -0.331603 0.298864 0.145757 -0.280566 -0.184505 0.087602 0.149122 0.239496 -0.208737 0.227612 0.524444 0.094896 -0.163609 -0.009231 -0.118882 0.476263 0.076712 0.104028 0.166671 0.406114 0.322601 -0.217752 -0.176057 -0.010794 -0.237737 0.044070 -0.185272 0.662689 -0.112320 0.486082 -0.236198 0.307545 0.428196 0.051160 0.209833 0.120282 0.130095 -0.119261 0.344746 0.188473 -0.096834 0.589465 -0.078671 0.165823 0.054131 0.246668
one 0.049610 -0.532632 -0.759070 -0.231558 -0.419835 -0.024386 -0.900471 -0.842080 -0.602722 -0.390901 -0.089156 -0.284518 -0.470927 0.343081 -0.420133 -0.127330 -0.160551 -0.887733 -0.197765 0.091367 -0.380374 -0.662997 -0.061985 -0.149113 0.161331 0.229945 0.013147 0.292987 -0.262736 -0.386162 -0.090594 0.075300 -0.504663 0.175739 -0.686485 -0.531301 -0.070102 -0.874636 -1.006338 -0.069893 -0.824242 -0.406260 0.045189 0.201893 -0.543244 -0.046906 -0.042761 0.235434 -0.295248 0.278426
boy 0.176938 -0.556269 -0.300188 -0.463499 -0.639150 -0.279564 -0.432566 -0.572014 -0.207514 0.102435 -0.033758 -0.297584 0.031983 0.321886 -0.004051 -0.180377 0.288122 -0.902166 0.044551 0.245366 -0.380749 -0.670239 -0.233744 0.028607 0.293138 -0.295653 0.156789 -0.006689 -0.128244 -0.475445 -0.515753 0.272528 -0.318986 0.153298 -0.938035 -0.746711 -0.418128 -0.280721 -0.942866 0.101972 -0.885389 -0.532996 0.435182 0.229924 -0.537410 0.216135 -0.041520 0.236197 -0.228109 -0.094868
who 0.034879 -0.162454 -0.537611 -0.066679 -0.822633 -0.338456 -0.922892 -0.927781 -0.456835 -0.419990 -0.016149 -0.463051 0.012569 0.078915 -0.432080 -0.363674 0.025176 -0.442194 0.249265 0.304801 0.129916 -0.264995 0.307197 -0.390222 -0.116042 -0.022643 0.480327 -0.021115 -0.608812 -0.678100 -0.098345 0.559508 -0.377463 0.010581 -0.753068 -0.522789 0.088133 -0.363022 -0.565392 -0.168336 -0.735496 -0.776426 -0.186747 0.323698 -0.551527 -0.477649 0.171255 -0.160405 -0.422115 0.245188
lived -0.350005 -0.621592 -0.212841 -0.332905 -0.394269 0.273985 -0.299463 -0.423228 0.041130 -0.347406 0.220439 -0.087002 0.227416 0.074174 0.277441 -0.354723 0.160877 -0.479850 0.055597 -0.131579 -0.596552 0.243843 -0.133509 -0.150375 -0.091101 0.088581 -0.165060 0.000793 -0.174887 -0.460392 -0.282213 0.005478 0.152607 0.279894 -0.277964 0.203727 -0.407623 0.206026 -0.359129 -0.117001 -0.752914 -0.520106 -0.199429 -0.194409 -0.399854 0.021973 0.086959 -0.402008 -0.352601 0.450146
mr 0.138665 -0.442692 -0.247483 -0.068614 -0.542418 -0.217321 -1.004765 -0.672709 0.109414 0.168251 -0.389968 -0.287738 -0.189916 0.605222 -0.135376 -0.281119 -0.238806 -0.371023 0.166419 0.584345 -0.138357 -0.536947 0.129361 -0.252938 0.272128 -0.320493 0.077473 -0.193017 -0.211548 -0.778608 0.242899 0.192878 -0.404240 0.255940 -0.776565 -0.339685 -0.538401 0.008491 -0.281840 0.372968 -1.120506 -0.377616 -0.490923 0.077551 -0.686879 -0.310521 -0.270108 -0.300338 -0.543766 0.307535
mrs 0.498986 -0.120147 -0.779496 -0.143393 -0.277618 -0.114326 -0.887367 -0.684267 -0.056481 0.203017 -0.192884 -0.319659 0.127382 0.501091 -0.327811 0.387174 0.066775 -0.423330 0.349541 0.227206 -0.223409 -0.245006 -0.302983 -0.461293 0.016945 0.329091 0.478645 -0.060575 -0.162154 -0.714533 0.168082 0.409278 -0.697841 -0.369687 -0.224783 -0.413122 0.028266 -0.370853 0.136168 -0.343849 -0.750151 -0.519681 -0.352725 0.430449 -0.591904 -0.171639 -0.040467 -0.431800 -0.472322 0.176233
dursley 0.082204 -0.073419 -0.490630 -0.332276 -0.203619 -0.452334 -0.112885 -0.680113 -0.111684 0.202921 0.070945 -0.321458 -0.065825 0.354903 -0.684030 -0.172133 -0.376592 -0.550094 0.371796 0.558518 -0.267211 -0.347687 -0.019417 -0.255278 -0.155560 -0.320134 -0.330862 0.569241 0.045160 -0.140412 -0.397258 0.299873 -0.663786 -0.037292 -0.731226 -0.453378 -0.064754 -0.044102 -0.798219 -0.146137 -0.695230 -0.406272 -0.106268 -0.259872 -0.225430 -0.194367 0.239744 0.266430 -0.648273 0.255242
of 0.196031 -0.614622 -0.554712 -0.351131 -0.581525 -0.172909 -0.991374 -0.479732 -0.877943 0.149751 -0.503500 -0.602871 -0.343864 0.467750 -0.184993 0.002849 0.220310 -0.407416 0.258964 0.198930 -0.495572 -0.660536 -0.313583 -0.406058 -0.070453 0.096122 0.136364 0.365951 0.089174 -0.409967 0.173104 0.050992 -0.076085 -0.032986 -0.871065 -0.451332 -0.218463 -0.460974 -0.580855 0.280703 -0.697781 -0.186703 0.427740 0.115719 -0.490380 0.024256 -0.271412 0.074129 -0.231424 0.738364
number 0.092027 0.131741 -0.663687 -0.449533 -0.365014 -0.456325 -0.196563 -0.585748 -0.353871 -0.158575 0.143399 -0.400624 -0.010031 0.461379 -0.200612 -0.194725 -0.330959 -0.440281 0.543917 0.147862 0.114104 -0.378874 0.321499 -0.425055 -0.335913 -0.108384 -0.334199 -0.089870 -0.179000 -0.171351 0.187850 0.452989 -0.298532 -0.357356 -0.652396 -0.306373 0.221193 -0.117892 -0.233578 -0.049905 -0.506057 -0.118564 0.194195 0.527476 -0.353543 0.250565 -0.027055 -0.209258 -0.492227 0.139896
four 0.350811 -0.445856 -0.390634 0.093891 -0.190310 0.198212 -0.566896 -0.778274 -0.346192 -0.280068 -0.315227 -0.050360 -0.420922 -0.236313 -0.682863 0.030406 0.047288 -0.570417 0.227956 0.249457 -0.207484 -0.461665 -0.117091 -0.380164 0.205403 -0.281699 0.287721 0.575058 -0.490156 -0.554414 -0.571819 0.413594 -0.675207 0.091878 -0.762874 -0.448399 0.143485 -0.389855 -0.417759 0.250526 -0.210288 -0.183901 0.031545 0.135326 -0.693605 -0.424067 0.153209 0.223151 -0.166233 0.550816
privet -0.192262 -0.504642 -0.077432 -0.292002 -0.894122 -0.031443 -0.176541 -0.037731 -0.233579 0.032970 -0.480422 -0.266797 -0.151907 0.528974 0.017760 0.331796 -0.308170 -0.342286 0.016948 0.012146 -0.620432 -0.322173 0.143969 0.151570 0.278928 -0.254399 -0.369078 0.009676 0.187663 0.018975 -0.471538 0.514826 -0.581469 0.498075 -0.629480 -0.564824 0.282101 -0.030908 -0.454450 0.070807 -0.850810 -0.349523 0.144515 -0.179212 -0.973591 -0.040419 -0.397143 -0.470838 -0.241994 0.204768
drive -0.352069 -0.464169 -0.341594 -0.438587 -0.140231 0.183191 -0.663523 -0.798129 -0.360177 0.311949 -0.006091 -0.245442 -0.340995 -0.059016 -0.720434 -0.520567 0.302335 -0.300670 0.451917 -0.076707 -0.009757 0.039290 -0.067143 -0.204259 0.441110 -0.080049 0.319196 0.517681 -0.345572 -0.535894 -0.183678 0.024072 -0.681551 -0.451668 -0.299560 -0.390546 -0.244761 -0.526151 -0.248625 0.304956 -0.518848 -0.278693 -0.333817 -0.158759 -0.652704 0.266840 0.043671 -0.015023 -0.056664 0.310489
were -0.323804 -0.177239 -0.753664 -0.086662 -0.353584 0.089938 -0.615851 -0.718870 -0.417160 0.005407 -0.066213 -0.159043 -0.326141 0.420889 -0.007956 -0.264107 0.061150 -0.725409 0.288138 0.166716 -0.416178 -0.548936 0.395439 0.101191 -0.265303 -0.467980 0.453208 0.175010 -0.132372 -0.463011 -0.498388 0.234581 -0.705962 -0.190392 -0.960274 -0.029790 -0.343781 -0.039123 -0.876044 -0.074699 -0.672298 -0.536603 -0.226869 0.284278 -0.831065 0.012187 -0.117798 -0.303257 -0.516171 0.564962
proud 0.162028 -0.570563 -0.161772 0.029558 0.061444 0.151217 -0.363319 -0.008589 -0.540743 -0.231858 -0.401933 -0.622738 -0.240814 0.596480 -0.369757 -0.322435 -0.007915 -0.434976 0.364581 0.166727 0.088312 0.208365 0.148683 -0.350737 -0.166196 0.231449 0.362186 0.424156 0.001716 -0.116494 0.092321 -0.308721 -0.593538 -0.411842 -0.432539 -0.234588 0.282598 -0.075130 0.269425 0.250844 -0.071616 -0.570079 -0.375177 0.144424 -0.486009 -0.350869 -0.446997 -0.427628 -0.502130 0.202943
to 0.012667 -0.620998 -0.265278 0.066312 -0.964087 0.162379 -0.486557 -0.930217 -0.216775 -0.300082 -0.455071 -0.383671 0.016514 0.325947 -0.036638 -0.213560 -0.428620 -0.796233 0.359308 0.294594 -0.281854 -0.683251 0.539420 -0.527947 -0.148026 -0.218574 0.353796 0.175514 -0.495440 -0.278671 -0.371618 0.635565 -0.577820 -0.111601 -0.522560 -0.747670 -0.334331 -0.647749 -0.517856 -0.011880 -0.643735 -0.485563 -0.079868 0.048961 -0.860938 -0.212245 -0.310393 -0.108884 -0.696623 0.421421
say 0.118837 -0.775244 -0.529050 -0.494407 -0.407030 -0.570972 -0.783291 -1.127626 -0.484615 0.194926 -0.249555 -0.394371 -0.074416 0.008566 -0.454768 -0.537987 0.033573 -0.694005 0.350724 0.406552 -0.434664 -0.189460 0.401559 -0.589637 0.142419 -0.398011 0.282729 0.104269 -0.169672 -0.507017 -0.577304 0.051667 -0.668797 -0.168246 -0.255855 -0.417543 -0.144554 -0.057085 -0.525995 -0.041851 -0.762502 -0.474110 -0.132407 0.175378 -0.506441 0.007252 -0.133345 -0.110329 -0.783361 0.634071
that -0.017723 -0.443369 -0.874617 -0.066839 -0.665308 -0.373793 -0.812099 -0.926952 -0.229867 -0.299914 -0.296399 -0.561915 -0.240222 0.266804 -0.564094 -0.245133 0.010103 -0.711214 0.060437 0.028638 -0.015921 -0.434787 0.182010 -0.191269 0.023628 -0.227927 0.141635 0.550308 -0.341032 -0.058159 -0.094010 0.343192 -0.456070 0.191273 -0.836573 -0.432187 -0.045129 -0.222618 -0.652006 -0.181365 -0.835928 -0.450089 -0.351624 0.134163 -0.513657 -0.111568 0.102774 -0.134511 -0.290466 0.300058
they 0.036376 -0.502266 -0.404912 -0.293181 -0.579201 -0.222053 -0.826485 -0.744510 -0.158375 -0.254835 -0.159831 0.126575 -0.548893 0.297557 -0.528034 -0.286087 -0.153353 -1.154553 0.305153 0.639376 0.111754 -0.770375 0.054279 -0.458889 -0.140277 -0.103409 -0.052199 0.310397 -0.493544 -0.244102 -0.748975 0.384754 -0.594493 -0.203881 -0.520465 -0.466148 0.217972 -0.186699 -0.786038 -0.293846 -0.874545 -0.730107 -0.037273 0.413959 -0.654538 0.141883 -0.070262 -0.083270 -0.526099 0.269623
perfectly 0.002909 -0.739843 -0.217690 -0.168192 -0.211223 -0.009360 -0.434423 -0.833458 -0.193913 -0.683002 -0.412206 -0.452954 0.263617 0.104484 -0.080305 -0.707343 -0.454468 -0.070203 0.194451 -0.087122 -0.309144 0.139323 -0.140423 0.103152 -0.446850 0.250408 -0.181935 0.311593 -0.244273 -0.512289 -0.031981 0.233792 -0.640073 -0.629992 0.013954 -0.325547 -0.046227 -0.147103 0.139883 0.213172 -0.260868 -0.310280 -0.350176 0.179547 -0.643199 -0.014712 -0.514779 0.248861 -0.763861 0.135736
normal -0.384204 -0.562098 -0.316842 -0.391047 -0.223219 -0.538550 -0.490245 -0.350938 -0.567262 -0.430574 -0.010469 -0.565710 0.093778 -0.284330 0.261970 -0.224150 -0.176576 -0.069458 -0.341518 0.173716 -0.088201 -0.460131 -0.126363 -0.341085 0.263311 -0.176208 0.410918 -0.381561 -0.025360 -0.483184 0.021987 0.334521 -0.429855 -0.251112 -0.108225 0.069953 -0.281950 0.129572 0.216650 0.267606 -0.705913 -0.684351 0.164075 0.165824 -0.675433 0.023113 0.332163 0.246035 -0.387773 0.342681
thank 0.442748 -0.611904 -0.136590 0.362849 -0.022361 0.095731 -0.519841 -0.592945 -0.165164 -0.307973 -0.214072 0.153786 -0.454097 -0.257828 0.072134 0.215649 0.242578 -0.305946 0.504357 0.001460 -0.440823 -0.099760 -0.410621 0.058163 -0.167243 -0.459534 0.111182 -0.066920 -0.251665 -0.462109 0.049847 0.399643 -0.480134 0.348275 -0.246294 -0.334732 -0.030297 0.163096 -0.375352 -0.409354 -0.554828 0.177570 -0.365423 0.436069 0.026323 -0.029625 0.307639 -0.278482 -0.175044 0.280199
you -0.099167 -0.772732 -0.152918 -0.512611 -0.571453 -0.657483 -0.851649 -1.003922 -0.627808 -0.647082 -0.515082 -0.493367 -0.143020 0.505253 -0.192686 -0.119800 -0.482375 -0.606474 0.325347 0.148618 0.166519 -0.201381 0.566174 -0.173006 -0.083628 -0.615185 0.288182 0.132588 -0.468771 -0.533410 -0.387795 0.439850 -0.668301 -0.038836 -0.759605 -0.550041 0.247512 -0.446147 -0.297830 0.017398 -1.271531 -0.724621 -0.118303 -0.006063 -0.892890 0.112475 -0.122166 -0.065300 -0.652075 0.365781
very -0.038182 -0.434710 -0.704152 -0.291423 -0.510050 -0.107461 -0.659596 -0.832806 -0.332019 0.011375 -0.031887 -0.284454 0.024156 0.482455 -0.475558 0.006673 0.024846 -1.117836 0.366504 -0.209052 -0.356911 -0.377436 0.358280 -0.087143 -0.101122 0.310734 0.043414 0.057289 -0.002864 -0.518326 0.014369 0.272291 -0.338003 -0.083971 -0.755977 -0.639956 -0.076793 -0.416929 -0.770600 -0.368463 -0.810310 -0.430833 -0.388142 0.024026 -0.404576 -0.430950 0.029264 0.167932 -0.167002 0.469535
much -0.022937 -0.614205 -0.495693 -0.205347 -0.883858 -0.471163 -1.017249 -1.077258 -0.081135 -0.179241 0.123483 -0.083207 0.054659 0.734847 -0.245845 0.067867 0.223179 -0.660883 0.207221 0.344118 0.144749 -0.349964 0.058643 -0.121807 -0.171547 -0.188078 -0.116678 0.206640 -0.326014 -0.190782 -0.229402 0.033792 -1.004820 -0.261180 -0.660666 -0.381908 -0.344003 -0.139908 -0.356464 -0.386027 -0.592552 -0.830149 -0.214980 -0.269862 -0.403123 -0.031409 0.239182 -0.006505 -0.245456 0.286834
last 0.096465 -0.615228 -0.264045 0.090579 -0.858737 -0.011185 -1.072896 -0.545012 -0.134835 -0.101816 0.111249 -0.474722 0.102958 0.751639 -0.580918 0.121804 -0.274679 -0.741950 -0.169767 0.293819 -0.502488 -0.171049 -0.107619 -0.187550 -0.089263 -0.261902 0.026293 0.294722 -0.176970 -0.400935 -0.318307 0.171015 -0.361637 0.078723 -0.473541 -0.268315 -0.544560 -0.366690 -0.839436 0.064635 -0.474566 -0.747892 -0.270731 0.258484 -0.422673 -0.075710 -0.243571 0.264754 -0.144513 0.550034
people -0.076328 -0.585999 -0.787036 -0.475728 -0.855195 0.087194 -0.814652 -0.943463 -0.543841 0.229206 0.242719 -0.186263 -0.451594 0.355227 -0.019070 -0.395211 -0.352601 -0.371848 0.277964 0.134004 -0.310694 -0.203326 -0.081069 0.225519 0.112924 0.067019 0.073412 0.145114 -0.239019 -0.629454 0.160786 0.177452 -0.654608 -0.331846 -0.895397 -0.206017 0.253715 -0.209783 -0.797035 -0.071076 -1.036200 -0.614536 0.175531 0.087062 -0.244264 -0.187491 -0.315855 -0.175002 0.035138 0.422360
youd -0.192328 -0.545786 -0.214322 -0.017204 -0.503268 -0.470560 -0.250257 -0.350375 -0.468897 -0.334116 -0.628053 -0.081507 -0.454725 0.469963 -0.138036 -0.201065 0.074160 -0.456875 0.107203 0.471859 -0.009370 -0.210953 0.189923 0.119018 0.324344 -0.303107 0.471159 0.103043 0.048303 0.067313 -0.317743 -0.128612 -0.304404 0.011647 -0.270920 -0.606365 0.279474 -0.310558 -0.739465 -0.236204 -0.605676 0.076168 -0.147415 0.333979 -0.144444 0.068521 -0.261150 -0.156572 -0.539731 0.351083
expect -0.458206 -0.196477 -0.523740 0.227551 0.043243 -0.542562 -0.544352 -0.250395 0.052917 -0.208516 -0.247903 0.128652 -0.485355 0.671885 -0.078938 0.286078 0.040099 -0.909155 -0.163508 0.165970 0.137472 -0.188837 0.168574 -0.326570 0.194740 0.164661 0.115479 0.194347 -0.425150 -0.682639 -0.282486 0.327891 -0.211964 0.140048 -0.905277 -0.000019 -0.174134 -0.604701 -0.434797 -0.323767 -0.162267 -0.415006 -0.091508 0.100323 -0.270299 -0.010635 0.153823 0.051633 -0.194481 -0.192155
be 0.321100 -0.805855 -0.265586 -0.603988 -0.609217 0.031362 -0.369080 -1.231285 -0.264813 -0.357871 -0.184589 -0.467473 0.083434 0.581386 -0.721031 -0.533834 -0.063996 -1.050835 0.098674 0.015103 -0.221257 0.012960 0.275912 0.079918 -0.255421 -0.175517 0.229306 0.261559 -0.332865 -0.569653 -0.548397 0.708604 -1.043796 0.220563 -0.512464 -0.155338 -0.246096 -0.352568 -0.533646 -0.225500 -0.248671 -0.262183 -0.424744 0.005603 -0.644034 -0.071042 -0.156801 -0.082624 -0.814150 0.445028
involved -0.286715 -0.091662 -0.325134 -0.289763 0.211641 -0.247617 0.197745 -0.638163 0.398267 -0.119366 -0.235841 -0.456427 0.404484 0.561901 -0.077445 -0.210733 -0.082421 -0.032075 0.352292 -0.247647 0.132374 -0.378868 -0.390014 0.131645 -0.005738 0.235953 -0.064242 0.413754 -0.371631 -0.312677 -0.075976 -0.348130 0.082014 0.191395 -0.424783 -0.584212 -0.326098 -0.387817 -0.434138 -0.234635 0.309404 -0.502651 -0.292790 0.428655 -0.279422 0.013632 -0.304277 -0.139139 -0.377365 -0.119182
in 0.096481 -0.329016 -0.617709 -0.237036 -0.841256 -0.067477 -0.773115 -0.781850 -0.629243 -0.048149 -0.094235 -0.292761 -0.151934 0.318086 -0.122540 -0.148164 0.271907 -0.476977 0.124733 0.103045 -0.363186 -0.513015 -0.022662 -0.273985 0.165182 -0.189359 0.335568 0.344842 -0.264685 -0.426540 0.155689 0.206162 -0.469171 -0.012205 -0.905118 -0.393945 -0.392831 -0.303831 -0.485086 0.021288 -0.584679 -0.333813 0.228918 0.062780 -0.488706 -0.135957 -0.412255 -0.134662 -0.222371 0.597989
anything 0.340309 -0.788203 -0.347942 0.027829 -0.500409 -0.639960 -0.480961 -0.768736 -0.345557 -0.268351 -0.087997 -0.444342 -0.369681 0.677576 -0.216875 -0.435858 -0.411538 -1.132353 0.176577 0.336186 0.115854 -0.209028 -0.129980 -0.059183 -0.184789 -0.105266 0.150348 -0.130162 -0.191173 -0.597295 -0.154941 0.620865 -0.710100 0.003467 -0.980523 -0.134738 0.089743 -0.671220 -0.447147 -0.379895 -0.395703 -0.131547 -0.293588 -0.052080 -0.877516 -0.259777 -0.010194 0.104366 -0.320295 0.111553
strange 0.124200 -0.485816 -0.704161 -0.145969 -0.268476 -0.289121 -0.264767 -0.659248 0.058654 0.241961 0.187967 -0.169512 0.163620 0.351552 0.123023 -0.507554 -0.314296 -0.499279 -0.054247 0.485981 0.005762 0.146306 0.122983 -0.497476 -0.163792 -0.115398 0.488285 0.039513 -0.327580 -0.301614 0.078849 -0.012719 -0.762806 -0.112976 -0.267437 -0.157261 -0.205308 -0.158993 -0.690896 0.045648 -0.909205 -0.278447 0.156467 -0.007464 -0.528607 -0.221762 -0.386842 -0.034027 -0.488444 0.443170
or 0.348057 -0.439323 -0.438493 -0.199217 -0.408443 -0.610365 -0.467929 -0.869843 -0.099472 -0.063229 -0.004795 -0.386032 0.087691 0.420316 -0.036045 -0.375766 -0.102509 -0.607412 0.302575 0.474507 -0.407898 -0.341599 -0.045319 -0.022721 -0.452983 -0.391306 0.323820 0.563786 -0.136108 -0.593905 -0.089134 0.262208 -0.543786 -0.251837 -0.781136 -0.296473 -0.245626 -0.311345 -0.351308 -0.180014 -0.439461 -0.445897 -0.121091 0.475262 -0.474420 -0.328926 -0.061993 -0.026836 -0.548410 0.391238
mysterious -0.396295 -0.374988 0.034981 -0.555394 0.155668 0.140309 -0.124818 -0.738006 -0.179374 0.077416 -0.488904 -0.578219 -0.019791 -0.151016 -0.223059 0.297146 -0.471739 -0.495770 0.511621 0.282469 0.234244 -0.336090 0.171827 -0.276586 -0.386145 -0.589503 -0.135737 -0.026903 0.062912 -0.205252 -0.630989 -0.141162 -0.263815 -0.533800 -0.462490 -0.148021 0.274693 0.154063 -0.700447 0.209288 -0.718479 -0.219340 0.236655 0.323535 -0.319046 0.281067 -0.080596 -0.356755 -0.452940 -0.365582
because -0.215648 -0.605743 -0.301530 -0.061002 -0.420003 -0.548137 -0.709869 -0.827529 -0.312344 -0.212629 -0.584661 -0.233966 -0.467218 0.586684 0.034175 0.025502 -0.339258 -0.682939 0.355363 0.219216 -0.259390 -0.242263 -0.105767 0.174600 -0.234621 0.029900 0.233145 -0.175236 -0.531703 -0.224420 -0.075000 0.381465 -0.721363 -0.525922 -0.605734 -0.257794 -0.465290 -0.127126 -0.796730 -0.053580 -0.834330 -0.779760 0.170712 0.404196 -0.477453 0.124984 -0.109240 -0.093418 -0.001517 0.554248
just -0.205454 -0.333296 -0.599421 -0.381482 -0.803970 -0.141439 -0.776220 -0.837180 -0.551704 -0.095259 0.017300 -0.552072 -0.295932 0.626712 -0.065506 -0.136442 0.350307 -0.682334 0.293093 -0.123023 -0.486213 -0.383542 0.342104 -0.484732 -0.090717 -0.122337 0.038705 -0.007113 -0.198731 -0.136503 -0.117346 0.027274 -0.483970 0.116188 -0.809240 -0.359247 -0.248066 -0.424718 -0.577911 0.125785 -0.714632 -0.315868 -0.444798 0.057174 -0.731127 -0.007192 0.026897 -0.171178 -0.652141 0.524660
didnt -0.394048 -0.597023 -0.638688 -0.444330 -0.945872 -0.431521 -0.633529 -0.996116 0.083815 -0.090282 -0.301113 -0.547471 -0.320737 0.820884 -0.443050 -0.342446 -0.228501 -0.900401 0.097545 -0.181838 -0.459412 -0.554328 0.638060 -0.276996 -0.190506 -0.153590 0.386445 0.141332 -0.595991 -0.012915 -0.624598 0.427072 -0.981027 -0.226389 -0.785200 -0.329982 0.049589 -0.293332 -0.150577 -0.047121 -0.478646 -0.805360 -0.114706 0.059444 -0.823292 0.024326 -0.416802 -0.027539 0.081141 0.376428
hold -0.333354 0.215855 -0.651727 0.288863 -0.183077 -0.374900 -0.673405 -0.667740 -0.402416 -0.389048 -0.177090 0.290700 -0.018177 0.444163 -0.099736 -0.349638 0.352353 0.010492 -0.042446 0.433014 0.252452 -0.119591 -0.344495 -0.311759 0.004025 -0.304679 0.166260 -0.218897 -0.180194 0.089755 -0.444449 -0.230988 -0.596026 0.336072 0.109098 0.172628 0.140135 -0.409790 -0.441380 0.159498 -0.432647 0.018240 0.127457 0.338107 0.131587 0.367382 -0.046509 0.045866 -0.252869 0.472201
with 0.237239 -0.258679 -0.483915 -0.076381 -0.638590 -0.170064 -0.719415 -0.842925 -0.496912 -0.108084 -0.401342 -0.595787 -0.199805 0.512707 -0.009335 -0.012323 0.282727 -0.767268 0.269256 -0.039069 -0.350100 -0.372147 0.079959 -0.327021 -0.069522 -0.089991 0.132677 0.436201 -0.189726 -0.352722 -0.124940 0.116392 -0.388240 -0.279519 -0.551299 -0.206521 -0.255401 -0.395514 -0.532698 0.290651 -0.587694 -0.209209 0.226597 -0.021123 -0.611468 -0.314819 -0.146397 -0.004786 -0.245663 0.622426
such 0.243412 -0.003605 -0.569379 -0.390859 -0.128295 -0.113892 -0.496167 -0.577451 0.059604 -0.327847 -0.704228 -0.055593 -0.487398 0.744225 -0.205690 -0.537939 -0.153753 -0.533039 0.078539 0.153593 0.151762 -0.366261 0.031114 -0.126607 0.281329 0.256206 0.209147 -0.059154 0.267192 -0.056106 -0.142089 0.610545 -0.508851 -0.530154 -0.329931 -0.279573 0.263457 0.119285 -0.265609 -0.385843 -0.670151 -0.578943 -0.282558 0.449226 -0.436795 -0.201673 -0.526152 0.128019 -0.181347 0.556471
nonsense -0.119262 0.443628 -0.148723 0.224910 -0.129985 -0.440373 -0.450697 -0.397722 0.286486 0.369212 -0.096882 -0.028286 0.413261 0.034584 0.409453 -0.062490 0.342108 -0.083143 0.239235 0.027531 0.060534 0.001909 0.457788 -0.375120 -0.461456 -0.172370 0.122321 -0.143450 0.112695 -0.476226 0.413959 0.317253 -0.286842 0.444075 -0.580842 -0.223744 -0.010415 0.185313 -0.332282 -0.186083 0.261303 -0.406225 -0.539411 0.099224 -0.093925 0.093877 0.093874 -0.466069 -0.297095 -0.416616
was 0.037706 -0.188009 -0.748710 0.126879 -0.532570 -0.562333 -0.680918 -1.033865 -0.339543 -0.061837 -0.329726 -0.738107 -0.118253 0.402747 -0.128430 -0.084116 0.422729 -0.913089 0.041857 -0.258185 -0.525375 -0.593117 0.111337 -0.200301 0.302218 -0.338236 0.292363 0.387592 -0.123133 -0.295451 -0.177671 0.496014 -0.765609 -0.009278 -0.911097 -0.155667 -0.054148 -0.473140 -0.737848 -0.149616 -0.013238 -0.962872 -0.195367 0.277444 -0.583984 -0.182513 -0.145754 -0.043509 -0.246662 0.187726
director 0.033425 0.115180 -0.451785 -0.008409 -0.084664 0.353912 -0.297956 -0.355024 0.052803 -0.529824 -0.225162 0.242534 -0.226410 -0.085408 0.158460 0.114265 -0.273635 0.238739 -0.083348 -0.423507 -0.419452 0.175732 -0.165229 0.442679 -0.450918 -0.027263 -0.149080 0.344626 0.096131 -0.273431 0.223059 0.438569 0.063024 0.207959 -0.240292 0.238149 -0.230443 -0.390587 -0.570504 -0.092378 0.343824 0.034053 0.206271 -0.659317 -0.407590 0.360980 0.395980 0.397269 -0.179010 -0.415573
a 0.332619 -0.239411 -0.580749 -0.138974 -0.598706 -0.259078 -0.844164 -0.983486 -0.777304 -0.194107 -0.309986 -0.288278 -0.537449 0.152126 -0.187211 -0.231054 0.049402 -0.645424 0.338004 0.309037 -0.216111 -0.065884 0.146208 0.062809 0.171926 0.220846 0.280762 -0.101559 -0.075884 -0.385356 -0.087284 0.221602 -0.490081 0.074648 -0.650604 -0.369818 0.054109 -0.410286 -0.688937 0.344654 -0.441034 -0.493070 -0.190399 0.113396 -0.581288 -0.131072 0.009823 -0.026428 -0.352976 0.448633
firm 0.050191 -0.004301 0.139765 -0.076654 0.220906 -0.367957 0.301641 0.503568 0.440028 -0.379962 0.522579 0.430146 0.331367 -0.057163 -0.039047 -0.145282 -0.264671 -0.285786 -0.093628 -0.003213 -0.169725 -0.180792 -0.276460 0.405991 -0.068799 0.130319 0.374380 0.048756 0.453200 -0.399231 0.069714 -0.397693 -0.116512 0.374165 -0.270499 0.027293 0.155489 0.168996 -0.150427 0.501353 0.083746 0.155949 -0.079881 -0.064639 -0.356885 -0.106786 0.320193 -0.357543 -0.412037 -0.409342
called -0.321460 -0.600943 -0.395553 -0.511291 -0.475318 -0.017076 -0.302563 -0.514356 -0.207196 -0.437336 0.039499 -0.400135 -0.455380 0.387175 -0.033889 -0.291743 0.391377 -0.968970 0.460444 0.475264 -0.031904 0.008399 0.185355 -0.368089 0.032896 -0.265684 -0.049883 0.328344 0.041528 -0.942972 -0.568006 0.541285 -0.345815 0.311601 -0.971472 -0.443095 -0.408198 -0.160838 -0.897760 -0.028243 -0.481771 0.024223 -0.379575 0.070585 -0.392738 0.204070 0.102947 -0.361683 -0.412226 -0.007843
grunnings -0.095508 -0.479680 -0.354744 0.212490 -0.528074 -0.150738 -0.244275 -0.055501 -0.277578 -0.355786 0.235850 0.042800 -0.228115 0.005789 -0.200640 0.256468 -0.513642 0.116984 -0.444955 -0.105824 -0.059020 -0.456384 0.256721 -0.086380 -0.530348 -0.682680 -0.447166 -0.748784 -0.084890 0.154632 0.232972 0.170063 -0.503190 0.134467 -0.166518 -0.308594 0.150682 -0.583687 -0.697767 0.155026 -0.407868 -0.559076 -0.114934 -0.166367 0.103581 0.215333 -0.546213 0.001529 0.299154 0.003056
which 0.080331 -0.621622 -0.250249 -0.114281 -0.871807 -0.391545 -0.510449 -1.153676 -0.469141 0.026487 -0.297737 -0.422536 -0.011688 0.229543 -0.223240 -0.062511 0.207369 -0.855073 0.601100 0.288436 -0.430214 -0.672043 -0.090143 -0.358669 0.439278 0.467881 0.231203 0.488287 -0.475135 -0.623447 -0.474354 0.221988 -0.253075 -0.251182 -0.639862 -0.179798 -0.394491 -0.423297 -0.248151 0.101437 -0.275191 -0.251601 0.348744 0.070993 -0.653374 0.126664 0.261748 -0.353927 -0.355623 0.085212
made 0.047490 -0.146688 -0.498833 -0.462723 -0.770836 0.049890 -0.667255 -1.072980 -0.031543 -0.028531 -0.569166 -0.244538 -0.139529 0.499418 -0.371034 -0.513508 0.172195 -0.612670 -0.010139 -0.022538 0.032331 -0.607118 -0.094288 -0.337903 0.008254 -0.351847 0.443402 0.368732 -0.536073 -0.068498 -0.215994 0.542042 -0.468486 -0.305086 -0.538488 0.054478 -0.509986 -0.375800 -0.598474 -0.104049 -0.780994 -0.452364 0.027026 0.269183 -0.252804 0.241878 0.040235 -0.069547 -0.602555 0.183633
drills -0.167329 0.093381 -0.468101 0.167596 -0.171168 -0.091459 -0.434661 0.286697 -0.230787 0.375755 -0.421999 0.129065 -0.412750 -0.097921 -0.348573 -0.176433 0.056426 -0.151490 -0.088471 0.275117 0.086203 -0.265341 0.257222 -0.537380 -0.462231 -0.060075 -0.354547 -0.768655 0.189513 -0.012864 0.189417 -0.295487 0.000706 0.410856 -0.416912 0.308145 0.073948 -0.388103 -0.492488 -0.448970 -0.609755 -0.386776 -0.441393 -0.417865 0.010006 -0.196743 0.104767 0.301072 -0.488563 -0.474045
he 0.030731 -0.463866 -0.924806 -0.245546 -0.801336 -0.369286 -0.764174 -1.103133 -0.112252 -0.164093 -0.280674 -0.358644 -0.199930 0.504282 -0.285322 -0.418697 -0.088425 -0.720043 0.042035 0.421237 -0.106955 -0.773881 0.221963 -0.159059 0.081608 -0.072571 -0.105032 0.252555 -0.188328 -0.264495 -0.262077 0.417161 -0.507024 -0.010141 -0.279776 -0.484246 0.066329 -0.129814 -0.758423 -0.307631 -0.648647 -0.782279 -0.088925 0.378108 -0.392152 -0.141452 0.054808 -0.018725 -0.365747 0.234754
big 0.214329 -0.506584 -0.352266 0.075731 -0.213145 -0.157361 -0.809372 -0.816098 0.143245 -0.022966 -0.253471 -0.157598 -0.126815 0.474739 0.080251 -0.376958 0.041614 -0.198764 0.064546 0.168197 -0.448258 -0.592721 0.245016 -0.136731 0.053248 -0.260302 0.496013 -0.057210 -0.313358 -0.514790 -0.497254 0.641381 -0.220968 -0.002138 -0.580232 -0.325726 -0.207777 -0.381389 -0.732428 -0.081430 -0.856270 0.107623 -0.141757 0.347475 -0.346997 0.095079 -0.393662 -0.061412 0.059979 0.005164
beefy -0.400507 -0.468743 -0.394441 0.152647 0.101354 -0.374205 -0.284475 0.014474 0.421275 -0.014690 0.239511 0.169824 -0.245775 0.119219 0.261234 -0.198793 0.076745 0.279426 -0.458519 0.230184 0.156203 -0.007447 -0.233191 0.348270 0.021724 -0.083898 -0.375502 -0.376469 -0.411920 0.244597 -0.209414 -0.397060 -0.030780 -0.336668 0.339522 -0.124578 -0.460193 0.248980 -0.386400 0.289270 -0.284719 0.478296 0.135017 -0.324298 -0.050999 0.269016 -0.162575 -0.301482 0.064532 0.537898
man -0.136465 -0.447009 -0.796425 -0.419692 -0.679481 0.196538 -0.329715 -0.669849 -0.222731 0.310061 -0.475718 -0.533825 0.297878 -0.029928 -0.560563 0.235239 0.382672 -0.531404 -0.048551 0.378230 -0.669952 -0.384545 0.466346 -0.064976 -0.405499 0.159014 0.350658 0.322005 -0.263305 0.101356 -0.508704 0.221807 -0.536226 -0.013799 -0.733273 -0.628222 -0.302215 -0.121180 -0.458649 0.251532 -0.489822 -0.033947 0.151108 -0.136954 -0.719123 -0.370133 -0.284036 -0.329717 0.028896 0.645812
hardly -0.384755 -0.309807 -0.293380 -0.642066 -0.199025 -0.812071 -0.351673 -1.075800 0.406326 0.099164 -0.443710 -0.109603 -0.584561 -0.124197 0.070826 -0.110952 0.397927 -0.288243 0.238795 0.644523 -0.116414 -0.031408 0.030791 -0.146254 -0.413795 -0.200097 0.418905 0.279018 0.168795 -0.671963 -0.533944 0.540308 -0.015183 -0.359623 -0.269908 -0.610675 0.210518 -0.575415 -0.247535 0.381744 -0.854214 -0.306493 -0.438978 0.018164 -0.406150 -0.243696 0.095281 0.308350 -0.109132 0.558265
any 0.211370 -0.703659 -0.379027 0.053723 -0.364194 -0.128780 -0.608179 -0.637663 -0.043166 -0.103574 -0.395590 -0.283249 -0.081769 0.355900 -0.630471 -0.302596 -0.362984 -1.009883 0.033399 0.031973 -0.081308 -0.560912 0.427112 -0.260750 -0.107821 -0.199255 0.475021 0.025535 -0.002913 -0.659669 -0.280160 0.040883 -0.523651 -0.100731 -0.414598 0.070376 -0.285543 -0.237473 -0.990745 0.217542 -0.566214 -0.380354 0.059164 0.252105 -0.721280 0.087359 -0.215458 -0.076882 -0.067523 0.401020
neck -0.318674 -0.453122 -0.249097 -0.133955 -1.010687 -0.233175 -0.130603 -0.504419 -0.313310 -0.195948 -0.033669 0.065219 -0.409903 0.351962 -0.191543 -0.404799 0.039602 -0.196794 -0.104415 0.186553 -0.504589 -0.404231 0.373817 -0.438993 0.375149 0.373251 0.274168 0.100001 -0.575509 -0.404229 -0.527590 0.215046 -0.338817 -0.162896 -1.036474 0.172685 0.214278 -0.777362 -0.161356 0.082530 -0.563367 -0.473646 0.188400 -0.398215 -0.804317 -0.384004 0.005869 0.089175 -0.231010 0.344094
although -0.508829 -0.312323 0.049091 -0.244060 -0.650213 -0.032350 -0.670890 -0.581603 -0.493901 0.311337 -0.200866 0.245732 -0.485532 0.294677 -0.411866 -0.266965 -0.156941 -0.058984 0.389259 0.207054 -0.066649 -0.334656 0.103158 -0.575488 0.144817 0.167423 0.162747 0.059664 0.081664 -0.309301 0.192670 0.157804 0.101699 0.451066 -0.525483 -0.068145 -0.105525 -0.052965 -0.368840 -0.234087 -0.655077 -0.221157 -0.300884 -0.138537 -0.259857 -0.137655 -0.003944 0.109597 0.036087 0.289808
did -0.335510 -0.347076 -0.614002 -0.553420 -0.391491 -0.338271 -0.724420 -0.823290 -0.033961 -0.218831 -0.125298 -0.324772 -0.571478 0.824567 -0.518568 0.124876 -0.097413 -0.784678 -0.248453 0.221396 -0.336221 -0.631634 0.281651 -0.631563 -0.151830 -0.591646 0.572999 0.142993 -0.013010 -0.178377 -0.114445 0.076235 -0.416881 0.059965 -1.002718 -0.013452 -0.229620 -0.756683 -0.489833 -0.052921 -0.877722 -0.627395 -0.380921 -0.129571 -0.407328 0.022468 0.182175 0.231119 -0.057504 0.363873
have 0.103728 -0.661474 -0.340491 -0.332393 -0.890590 -0.509752 -0.374304 -1.106560 -0.541712 0.067884 -0.368506 -0.514256 -0.277139 0.747415 -0.185923 -0.194319 -0.516933 -0.963244 0.340275 -0.232272 -0.017970 -0.357566 0.297779 0.000903 -0.042589 -0.040534 0.303134 0.161736 -0.318460 -0.810491 -0.050419 0.536996 -0.936794 -0.075290 -0.303409 -0.258855 -0.213666 -0.200353 -0.637642 -0.085647 -1.090717 -0.303444 -0.344751 -0.305222 -0.411525 -0.117434 -0.363739 0.261878 -0.685212 0.216976
large 0.445707 -0.551225 -0.700721 -0.419729 -0.436892 -0.322837 -0.374752 -1.038562 -0.551168 0.487365 -0.222052 -0.404347 -0.243371 0.161145 -0.518837 -0.057742 0.113846 -0.480689 0.254658 0.392278 -0.117281 -0.017789 0.210855 -0.125404 -0.206282 -0.178276 0.283489 0.551721 0.092821 -0.162928 0.247826 0.155387 -0.260200 -0.164467 -0.738875 -0.307784 -0.185622 -0.472935 -0.415672 0.265979 -0.839873 -0.133662 0.382442 0.045038 -0.693267 -0.305698 0.476417 -0.275355 -0.453808 0.230612
mustache -0.252237 -0.136743 -0.139438 -0.465277 -0.642481 -0.275388 -0.794240 -0.319053 0.244598 -0.544032 0.186371 -0.204855 0.269168 0.280929 0.171160 -0.294254 0.332193 0.043022 0.502210 -0.553204 -0.420875 0.027001 0.295943 -0.238883 -0.157285 -0.343733 -0.245882 0.058006 -0.220475 -0.271340 0.218145 -0.393076 0.039084 -0.333077 -0.711383 -0.556066 -0.095309 -0.055648 -0.435506 0.068315 -0.568716 0.067586 -0.345643 0.240383 -0.672886 -0.099550 -0.285174 0.042750 0.195095 0.439525
thin -0.144061 -0.587935 -0.238017 -0.307310 0.006530 -0.418515 0.053388 -0.736008 0.119442 0.247710 -0.053713 -0.112848 0.100482 -0.129760 -0.474795 0.285580 0.045908 -0.715987 -0.333939 0.177403 -0.489369 -0.144420 0.262443 -0.252733 0.436389 -0.003696 0.021331 0.503674 -0.558717 -0.367844 -0.401240 -0.274619 -0.668399 -0.357501 -0.393524 0.176709 0.201068 0.050308 -0.779646 0.257195 -0.328782 -0.446220 0.265375 -0.013017 -0.070694 0.181730 -0.048621 0.233165 -0.473740 0.270600
blonde 0.256864 -0.411950 -0.472504 -0.066982 -0.295523 0.048510 0.234973 0.420843 0.266392 0.053079 0.384629 -0.425405 -0.041600 0.146345 -0.063340 0.045103 0.338763 -0.049498 0.469711 0.055529 -0.382973 0.421572 0.421620 0.041162 -0.108541 -0.066563 -0.067870 -0.260886 0.445457 -0.452739 -0.118702 0.344719 0.422429 0.027822 -0.114371 -0.309361 -0.318122 0.381303 0.331433 -0.202194 -0.349257 0.407241 0.143845 -0.021981 0.031520 0.126407 -0.474305 0.500744 -0.460983 0.284757
had -0.204827 -0.009596 -0.397643 -0.070632 -0.680020 -0.418271 -0.763185 -0.884481 -0.282376 0.092667 -0.412278 -0.557137 0.131495 0.609459 -0.083040 -0.154164 0.151343 -1.260840 0.055148 0.167286 -0.725868 -0.373309 0.223025 -0.569840 -0.290833 -0.056615 -0.134443 0.139901 -0.407697 -0.246487 -0.213504 0.596004 -0.593709 0.119457 -0.506834 -0.150372 -0.355697 -0.359154 -0.770226 -0.447799 -0.750008 -0.556382 -0.113211 0.123724 -0.686688 -0.176945 -0.055284 0.489982 -0.198135 0.266250
nearly -0.461695 -0.241630 -0.259657 -0.462293 -0.183164 -0.137190 -0.550378 -0.671467 -0.007302 -0.318375 -0.605900 -0.001422 0.132452 0.631711 -0.365849 -0.328452 0.115207 -0.189328 0.512475 -0.249138 -0.154084 -0.752726 0.240208 0.032428 -0.224303 -0.530014 0.351058 0.374356 -0.044738 -0.776432 -0.471019 0.269502 -0.502499 0.174603 -0.654294 -0.033734 0.206701 -0.459896 -0.345070 0.036000 -0.792405 -0.170287 0.292343 0.048447 -0.140463 -0.102849 0.180318 -0.023400 -0.133299 0.441338
twice -0.436211 -0.524910 -0.049943 0.100279 -0.207170 -0.298330 -0.121735 -0.138334 0.090276 0.293832 0.214232 -0.126018 0.193681 0.513017 0.084667 -0.542187 0.235914 -0.452014 0.016888 -0.040524 -0.445872 -0.605434 -0.218813 -0.542384 -0.016778 -0.447763 0.015420 0.190376 0.285403 -0.517204 -0.223526 0.277995 -0.322702 0.335695 -0.786222 -0.483791 -0.471198 -0.493623 -0.268203 -0.341961 -0.655500 -0.024111 0.121528 0.276380 -0.129914 -0.310550 -0.239287 -0.088948 0.142247 0.178859
usual -0.417841 -0.117963 -0.132747 -0.249893 -0.100271 -0.294424 -0.894574 -0.373704 0.217065 -0.498668 -0.164845 -0.240151 -0.309025 0.403716 0.095178 -0.014284 0.068256 -0.454110 0.116278 0.394647 0.107617 -0.429840 -0.383696 0.002540 -0.486301 -0.636253 0.379945 0.400172 -0.294268 -0.317541 -0.558962 0.349710 -0.467007 -0.394445 -0.980128 -0.401911 -0.115269 -0.012144 -0.287585 0.121377 -0.670209 -0.257342 0.264908 0.013653 -0.758296 -0.189484 -0.411222 0.325084 -0.291735 0.402439
amount 0.249980 -0.421930 0.225246 0.332842 -0.367121 0.109167 0.297617 0.328898 0.015589 0.415543 0.054497 -0.033717 0.482255 0.555635 0.047229 0.035400 -0.246246 0.344107 -0.140943 -0.178586 0.507569 -0.133799 0.001649 0.395769 -0.151626 0.560050 -0.424509 -0.412279 0.332820 0.501406 -0.256938 0.039821 0.145629 -0.092212 0.365534 0.491909 -0.456059 -0.178622 0.428981 0.491504 -0.240177 -0.207944 0.127080 0.113602 -0.223909 0.348431 -0.383777 -0.239643 0.401613 0.327607
came -0.180888 -0.102080 -0.233557 -0.458128 -0.298677 -0.362575 -0.830291 -0.399046 -0.416982 -0.385912 -0.249633 -0.629424 -0.234388 0.225459 -0.152156 -0.077941 0.178004 -0.671533 0.392207 0.178372 -0.802422 -0.554349 0.127844 0.157143 0.044671 -0.316399 0.260667 0.424212 -0.089151 -0.311607 0.013721 0.581716 -0.832925 -0.105949 -0.986649 -0.612532 -0.150173 -0.500509 -0.396786 0.242901 -0.839701 -0.381589 -0.366367 0.080968 -0.133311 -0.248454 0.202142 -0.180360 0.068842 0.598526
useful 0.530296 -0.103985 -0.485433 -0.446053 0.104717 -0.054553 -0.355918 0.308137 -0.467738 -0.243142 0.320096 -0.270505 0.255464 0.279389 0.370404 0.298265 0.276177 0.364584 -0.068062 0.449151 0.154969 -0.168041 -0.219029 -0.383879 0.434764 -0.385384 -0.074765 0.165147 -0.459241 -0.345938 0.025829 -0.279687 -0.388221 0.452063 -0.205972 -0.420686 -0.123155 0.348726 -0.422424 -0.177444 -0.502218 -0.066652 0.131088 -0.186458 -0.365919 0.203949 -0.271577 0.254146 0.276670 -0.318698
as 0.324411 -0.262990 -0.842193 0.045286 -0.705136 -0.407786 -0.585017 -1.277568 0.083293 0.116137 -0.062108 -0.515024 -0.074994 0.714266 -0.065413 -0.564386 0.202281 -1.346225 -0.297766 0.218915 -0.173416 -0.936593 0.258210 -0.296197 -0.128727 -0.463600 0.087746 -0.251069 -0.058851 -0.197581 -0.551514 0.076042 -0.412509 -0.078123 -0.273860 -0.351668 0.150436 -0.129620 -0.934404 -0.039974 -0.774802 -0.621039 -0.166136 0.233653 -0.569248 -0.311925 -0.118571 -0.074876 0.002665 0.713791
she 0.247975 -0.532389 -0.880757 -0.203845 -0.483669 -0.247786 -0.824512 -1.090281 0.107529 -0.237888 -0.144794 -0.470028 -0.352585 0.844249 -0.405877 -0.230718 -0.077769 -0.374934 0.358055 0.181060 -0.359846 -0.688820 0.205250 -0.035992 -0.042988 -0.095941 -0.156733 0.158076 -0.296645 -0.545662 -0.006282 0.542596 -0.569217 -0.262791 -0.689667 -0.638999 -0.300187 -0.009368 -0.462254 -0.202051 -0.519421 -0.465726 -0.247445 -0.009265 -0.741614 -0.397778 0.302646 -0.107022 -0.488424 0.246413
spent 0.112103 -0.058090 -0.217955 0.206322 -0.366079 -0.271683 -0.499261 -0.243998 -0.077885 -0.011668 -0.548137 -0.143337 -0.129530 0.519689 0.244913 -0.528495 -0.470193 -0.090505 0.346613 0.372413 -0.055517 -0.255567 0.230362 -0.132420 -0.411300 -0.121636 -0.148170 0.371077 -0.315707 -0.151467 -0.150244 -0.256149 -0.007775 0.196002 -0.497291 -0.470531 0.175127 -0.377197 -0.405145 -0.319805 -0.601233 -0.174786 0.331889 0.385004 -0.732268 0.165941 -0.069490 0.105898 -0.014554 0.021804
so -0.245709 -0.160084 -0.739464 -0.215522 -1.026418 -0.674025 -0.784338 -0.906314 -0.278913 0.093664 -0.402413 -0.583566 -0.404053 0.632388 -0.412226 -0.338894 0.130343 -0.634805 0.118984 0.129352 -0.194058 -0.258609 0.357083 -0.088120 0.008543 -0.013465 0.114492 0.157018 -0.154970 -0.136205 -0.304530 0.087816 -0.301383 -0.005598 -0.618880 -0.302162 -0.111062 -0.631712 -0.661517 -0.339785 -0.838488 -0.601933 -0.495622 0.284710 -0.506636 -0.344843 0.227281 -0.232428 -0.549375 0.491073
her 0.281960 -0.523269 -0.498252 -0.493443 -0.522947 -0.022134 -0.992868 -0.775870 -0.165861 -0.293892 -0.106687 -0.435454 -0.323646 0.371499 -0.439166 -0.333822 0.099930 -0.337748 0.242846 0.460753 -0.548598 -0.615452 0.330855 -0.314866 -0.121144 0.122920 0.109171 0.325717 -0.115835 -0.338785 -0.175349 0.014539 -0.514256 0.265634 -0.638338 -0.437649 -0.303669 -0.385950 -0.536806 0.242814 -0.642976 -0.476936 -0.528960 -0.000201 -0.377019 0.044093 0.097450 0.034565 -0.297452 0.564291
time 0.123255 -0.508404 -0.713649 -0.046151 -0.462794 -0.198550 -0.386559 -0.900887 -0.422603 0.243721 -0.501292 -0.072385 -0.141926 0.374377 -0.181603 -0.181113 0.016233 -1.163450 -0.108985 -0.176834 0.160701 -0.583835 0.217787 -0.084678 -0.416523 -0.350644 0.229129 0.495329 -0.232156 -0.229769 -0.053203 0.371236 -0.835339 0.080656 -1.082107 -0.728976 -0.495555 -0.387800 -1.095666 -0.113962 -0.587355 -0.594058 -0.164193 -0.085970 -0.422774 0.025499 0.060510 -0.166638 -0.472030 0.200254
craning -0.353963 -0.131632 -0.494990 -0.219051 -0.440086 -0.056552 -0.433804 -0.100422 -0.216401 -0.076411 -0.155571 0.144319 0.427199 0.441342 -0.413074 0.417461 -0.312129 -0.306384 0.414266 -0.269076 0.169288 -0.036632 0.474950 0.296146 0.357066 -0.169402 -0.207400 -0.087791 -0.084300 -0.027664 0.329515 0.305468 0.096531 0.334389 -0.343715 -0.034466 0.325539 -0.102939 -0.271014 -0.056259 0.286182 -0.044645 -0.084557 -0.390133 0.069324 -0.272445 0.226572 0.043770 -0.062715 -0.240580
over -0.198703 -0.241028 -0.532289 -0.355709 -0.501131 -0.104364 -0.567722 -0.776044 -0.193638 -0.271224 -0.429679 -0.516321 -0.164900 0.551325 -0.359249 -0.054731 0.228226 -0.998652 0.033998 0.265333 -0.716380 -0.763600 -0.006270 0.026973 -0.350841 0.063247 0.351701 0.387679 -0.181765 -0.527541 -0.542925 0.343959 -0.580444 -0.166172 -0.469622 -0.366928 -0.184412 -0.443395 -0.825911 -0.073081 -0.430663 -0.322770 0.008296 0.373366 -0.402506 -0.176412 -0.334602 0.259489 0.049104 0.524871
garden 0.254469 -0.535614 -0.563263 -0.526778 -0.868700 -0.185904 0.084665 -0.615238 -0.214787 0.412900 -0.151892 0.285481 0.260669 0.172501 0.210772 -0.061362 0.366770 -0.161780 0.073302 0.019698 -0.155017 -0.569138 0.133029 0.384779 -0.098178 0.025733 -0.135087 -0.429886 -0.603988 0.106775 0.208285 0.029536 -0.512101 -0.118558 -0.702911 0.059458 -0.280286 -0.213780 -0.648249 -0.423024 -0.425118 0.142284 0.359911 -0.397912 -0.319870 -0.490770 -0.217372 -0.575358 -0.417150 0.298641
fences 0.133993 -0.297407 0.010725 0.281702 -0.431096 0.186080 0.287302 -0.156127 -0.187634 -0.025615 0.128353 0.085744 -0.106402 -0.106384 0.492807 0.470960 -0.175636 -0.288379 0.158257 0.272514 -0.230665 0.372340 0.076420 -0.130156 -0.312233 0.148741 -0.311566 -0.056483 -0.036303 0.075019 0.368385 0.319472 0.307803 0.038483 0.299549 0.294603 -0.158607 0.533072 -0.354448 0.370113 0.539938 -0.113700 -0.322831 0.455648 0.274532 0.139995 -0.295966 -0.168891 -0.238819 -0.259852
spying -0.502198 -0.396663 0.471805 -0.301880 -0.559542 0.109723 -0.062053 -0.254795 0.336287 0.373331 -0.326860 -0.034476 -0.337687 -0.223743 0.162488 -0.437018 -0.346753 0.098017 -0.280260 0.435368 0.429143 0.358976 -0.106796 0.367405 -0.023621 0.252221 -0.435806 0.370588 -0.180848 0.071863 0.421369 0.442564 0.273132 0.209153 -0.087912 0.014645 -0.181288 0.066707 0.127470 -0.217746 -0.150830 0.120788 -0.160538 -0.281265 -0.463597 -0.025693 0.436680 0.230815 -0.122700 -0.360153
on 0.029326 -0.327702 -0.622936 -0.179132 -0.842243 0.089094 -0.567968 -0.855459 -0.437591 -0.128767 -0.134111 -0.624550 -0.200481 0.612080 0.307210 -0.135941 -0.001845 -0.862264 0.252285 -0.078767 -0.455115 -0.768816 -0.154454 -0.122339 0.271865 0.040327 0.316761 0.359701 -0.368955 -0.322651 -0.221894 0.271498 -0.416024 -0.100916 -0.751614 -0.440602 -0.373290 -0.649921 -0.324767 -0.114338 -0.505282 -0.181109 0.200542 0.406659 -0.376228 -0.300796 -0.328858 0.036899 -0.453779 0.233815
neighbors 0.095626 -0.205254 -0.628076 -0.090987 -0.336937 -0.157335 -0.247961 -0.428753 -0.099501 -0.587537 -0.082007 -0.245045 0.132831 -0.484402 -0.639128 0.069312 0.089372 -0.955356 -0.378336 -0.224325 -0.067893 -0.015891 -0.337324 -0.642673 0.267555 -0.173537 -0.590704 0.242248 0.014179 -0.500627 -0.261582 -0.600787 0.071447 -0.508316 -0.197484 -0.547218 0.101809 -0.784298 -0.092015 0.207296 -0.596566 -0.205951 -0.591718 -0.277109 -0.700206 -0.533691 -0.263114 0.011926 -0.194838 0.251972
dursleys -0.206127 -0.449386 -0.460021 -0.450169 -0.495754 0.082020 -0.414068 -0.633786 -0.204941 0.324792 -0.142130 -0.645071 -0.302511 0.508117 -0.386170 -0.049103 0.350766 -0.505127 0.080741 -0.118500 -0.249817 -0.721971 -0.283278 -0.336337 0.309691 0.207650 0.084351 0.401164 -0.548128 -0.297935 -0.292064 0.234984 -0.480147 -0.437276 -0.629835 -0.743407 -0.475163 -0.136770 -0.404310 -0.160703 -1.091888 -0.234915 -0.166267 -0.086343 -0.722909 -0.011135 0.072513 -0.025386 -0.487181 0.582498
small 0.244759 -0.207475 -0.048365 -0.421163 -0.499453 -0.211643 -0.977068 -0.651336 -0.210077 -0.169870 0.244810 0.058005 -0.356891 0.271370 -0.609058 -0.076036 -0.122529 -1.031391 0.094229 0.381322 -0.384396 -0.209194 -0.420435 -0.240323 0.361946 -0.143416 -0.207017 0.216731 0.339000 -0.258858 -0.329823 0.633313 -0.642781 -0.126766 -0.439689 -0.389727 -0.730833 -0.387445 -0.191872 0.327385 -0.687391 -0.092799 0.331866 -0.353134 -0.332404 0.028096 -0.135064 -0.110701 -0.223319 0.619777
son -0.163141 -0.463112 -0.730528 0.082045 -0.549377 0.164661 -0.584631 -0.250809 -0.470286 -0.079297 -0.371610 0.090509 -0.505384 -0.117277 -0.440342 -0.074526 -0.264808 0.060420 -0.203794 -0.325479 -0.429326 -0.592576 -0.121347 0.210160 0.357668 0.209398 0.016861 -0.403457 -0.345012 -0.611017 -0.773773 0.031588 -0.227859 -0.263245 -0.431524 -0.050995 -0.200881 -0.047620 0.029054 0.119649 0.015545 -0.521072 0.303400 0.202479 -0.029920 -0.119338 0.231365 -0.447621 -0.554378 0.449079
dudley -0.141120 -0.002373 -0.448007 -0.487348 -0.708582 0.099065 -0.417139 -0.825266 -0.018177 -0.236679 -0.595156 -0.530423 -0.507196 0.377224 -0.053921 -0.102801 -0.177250 -0.671441 0.408641 -0.078963 -0.377371 -0.375871 0.191431 -0.167371 -0.282107 0.118328 0.117579 0.082652 0.025032 -0.524029 -0.015538 0.553582 -0.521665 -0.362972 -0.761586 -0.541573 -0.268886 -0.381674 -0.550877 -0.184688 -0.876128 -0.803556 -0.142688 0.333163 -0.211368 0.200538 0.455320 -0.119242 -0.450533 0.402519
their 0.378518 -0.480419 -0.698665 0.103273 -0.204765 0.034189 -0.933429 -0.990557 -0.194558 -0.027038 0.108415 -0.187876 -0.335892 0.202415 -0.038758 -0.373369 -0.209867 -0.793375 0.023317 0.563236 -0.401499 -0.273602 0.223234 0.124886 -0.270090 0.202590 0.399814 0.275774 -0.386705 -0.657031 -0.207757 0.311510 -0.403942 0.008609 -0.706011 -0.362262 -0.311685 -0.720288 -0.713990 -0.072134 -0.232000 -0.223774 -0.228366 0.053291 -0.222111 0.070151 0.148242 0.124315 -0.225398 0.535560
opinion 0.090657 -0.259905 0.269564 -0.221457 -0.014536 0.123798 -0.551590 0.208431 -0.228933 0.076042 -0.078586 -0.699705 -0.474839 0.327104 -0.060407 0.219073 0.432034 0.246774 -0.033019 -0.258525 -0.342014 0.101647 0.138486 -0.587308 -0.189723 -0.354387 -0.275314 -0.357478 0.035175 0.219991 0.205078 0.554590 0.208243 -0.244258 -0.075160 -0.010964 0.306941 0.377749 0.005346 -0.188487 -0.460000 0.250459 0.175648 -0.172854 -0.203910 -0.208035 0.185079 -0.267684 -0.106401 0.453503
there -0.109161 -0.387783 -0.741148 -0.470418 -0.932527 -0.591447 -0.830304 -1.083141 -0.172391 -0.216704 -0.427030 -0.242817 0.078292 0.083794 -0.511248 -0.051104 -0.268774 -0.683798 0.155425 -0.034178 -0.177057 -0.700494 0.172339 0.028620 -0.300263 -0.094240 0.151623 0.350475 -0.369805 -0.282559 -0.295661 0.192989 -0.084676 -0.363772 -1.104026 -0.389865 -0.219592 -0.393567 -0.769551 -0.023225 -0.893864 -0.538758 -0.046106 0.301247 -0.411863 -0.401463 0.210813 0.155610 -0.761977 0.632819
no 0.292004 -0.279956 -0.320304 -0.536480 -0.510645 -0.586668 -0.816078 -0.845935 0.065582 -0.317174 -0.152332 -0.327346 -0.260228 0.726164 -0.288717 -0.406211 0.311092 -0.677914 0.181822 0.244637 -0.383623 -0.498545 0.025450 -0.506992 0.087882 -0.013414 0.118763 0.309053 -0.185841 -0.202321 -0.232834 0.322030 -0.210773 -0.304290 -0.727279 -0.055245 -0.188641 -0.094691 -1.139378 -0.016165 -0.505891 -0.844938 -0.517864 0.012965 -0.783646 -0.099008 -0.160833 0.100601 -0.719446 0.229667
finer 0.486161 0.267255 0.426950 -0.256781 0.246137 0.429613 -0.333385 -0.522926 0.281285 -0.176244 -0.103876 -0.313555 0.476520 -0.176662 -0.316807 0.307208 0.217209 0.130365 -0.194197 0.088990 0.458034 -0.069953 0.133320 -0.139467 0.349826 0.007231 -0.149208 0.160044 0.016629 -0.098850 -0.365928 -0.124450 -0.208441 0.087724 -0.039942 -0.441029 0.503036 -0.464282 0.115648 0.034798 0.317330 -0.147654 0.562100 0.567785 0.431320 0.006562 0.455081 0.374274 0.522650 0.029443
anywhere 0.255130 -0.400204 0.291205 0.191765 -0.258738 0.332418 0.025888 0.312268 -0.007105 0.112755 0.335325 0.304722 0.397418 0.462244 0.027693 -0.389241 0.605143 -0.066799 0.513897 0.044235 -0.142503 -0.088204 -0.175938 0.107173 -0.365668 -0.189362 -0.208033 0.005944 0.430997 -0.294673 -0.061861 0.519307 -0.197246 0.174930 0.032227 -0.135610 0.547037 -0.102297 0.201853 0.556628 -0.120243 -0.038431 0.306434 0.644217 0.469599 0.398373 0.434507 0.316848 0.475313 0.423390
everything 0.244787 -0.321078 -0.438564 -0.196757 -0.187753 -0.490291 -0.910055 -0.301991 -0.572008 0.066772 -0.142499 -0.772372 -0.509358 0.077234 -0.141783 0.166500 -0.468506 -0.513695 0.238708 0.034315 -0.529212 -0.131560 0.147411 0.160064 0.233766 -0.193612 -0.156724 0.478406 -0.463486 -0.107864 0.001050 0.579553 -0.136533 0.295782 -0.745803 0.003270 -0.444788 -0.431297 -0.583886 0.126740 -0.691886 -0.298695 -0.319254 0.000669 -0.756918 0.195313 0.214019 -0.374647 -0.078688 0.227624
wanted -0.306194 -0.277830 -0.384510 0.090846 -0.394139 -0.519179 -0.210847 -0.886223 -0.520428 -0.312685 -0.250496 -0.538247 -0.360889 0.739641 0.199991 0.157661 -0.150141 -0.546540 0.363422 0.271658 -0.655485 -0.622911 0.034528 -0.167578 -0.145746 -0.420077 0.156377 0.561871 -0.200334 -0.337776 -0.420366 0.040283 -0.581231 -0.109893 -0.531226 0.151855 -0.082429 -0.720429 -0.529923 -0.260398 -0.673465 -0.733046 -0.355655 0.529420 -0.734081 -0.142521 -0.209468 0.298324 -0.110730 0.261051
but -0.093349 -0.388641 -0.653989 -0.075766 -0.824662 -0.487661 -0.841419 -1.080103 -0.344471 -0.195079 -0.167879 -0.344481 -0.211828 0.648141 -0.342531 -0.332159 -0.169878 -1.071442 0.025197 -0.025655 -0.344986 -0.252019 -0.107737 -0.132177 0.250740 -0.179014 0.116670 -0.042280 -0.340764 -0.376262 -0.358015 0.415670 -0.417140 -0.240061 -0.482250 -0.186899 0.002486 -0.023358 -0.554474 -0.245103 -0.849685 -0.630005 -0.042135 0.176819 -0.459532 -0.032577 0.056654 0.139639 -0.199599 0.417876
also 0.239362 -0.325315 -0.540030 -0.148604 -0.625489 -0.299347 -0.008399 -0.264552 0.212510 -0.522568 0.135205 -0.393374 -0.557807 0.243179 -0.567033 -0.030026 0.084086 -0.408943 0.286571 0.538962 -0.198283 -0.293103 -0.105305 -0.234067 -0.049889 0.238903 0.358352 0.474667 -0.446652 -0.497837 -0.430246 0.268891 -0.773399 0.388992 -0.678680 -0.087991 -0.461516 -0.593074 -0.083879 -0.161314 0.036422 -0.462087 -0.061366 -0.009109 -0.186670 0.379499 -0.457502 0.196332 0.129862 0.302791
secret 0.353220 -0.222534 0.063170 0.141170 0.112379 -0.171370 -0.359887 -0.839428 -0.471534 0.380934 -0.167469 -0.433059 -0.087098 0.225514 -0.330314 -0.502449 0.218521 -0.377437 0.464328 0.416455 0.040650 -0.311566 0.333626 0.015729 0.163560 0.049924 -0.232330 0.055923 0.152178 -0.220060 -0.288347 -0.165583 -0.539230 0.162751 -0.393692 -0.226839 -0.178543 0.161842 -0.473925 -0.443752 -0.000301 -0.440394 0.007117 -0.163701 -0.667779 -0.322516 0.105089 -0.032277 -0.101517 0.431712
greatest 0.122869 0.012155 -0.408544 -0.105299 -0.467709 -0.337274 -0.306356 -0.142692 -0.138249 0.261485 0.522155 0.125103 -0.280509 0.046493 0.314262 0.299050 -0.346293 -0.397987 -0.088209 -0.222865 0.262924 0.268976 -0.059754 0.348679 -0.271787 0.085002 0.365771 0.179221 -0.106900 -0.213127 -0.183091 -0.288937 -0.393945 -0.034158 -0.655351 -0.048459 -0.320306 0.008916 -0.476796 -0.333563 -0.046778 -0.025706 0.491483 0.087830 -0.006931 0.188093 -0.345693 -0.199884 0.055503 0.026851
fear 0.387992 -0.029790 0.159504 -0.427194 -0.304285 -0.401825 -0.049863 -0.314094 -0.060374 -0.009478 -0.530048 -0.662859 -0.309977 0.173738 -0.522403 -0.219017 0.465847 -0.038448 0.272336 0.064831 -0.428225 -0.494214 0.158995 -0.522358 -0.467901 -0.151395 0.256877 -0.335721 -0.206416 -0.062380 -0.525039 0.440219 -0.034353 -0.231273 -0.095588 -0.057703 -0.240475 -0.145137 -0.712335 -0.419802 -0.510803 0.045145 -0.011952 0.347073 -0.539279 -0.111434 -0.025106 -0.019303 -0.284637 -0.098741
somebody -0.058905 0.094387 0.175954 -0.356322 0.156573 -0.146874 0.205588 -0.388143 0.343963 -0.414529 0.341756 -0.256951 0.394512 0.094675 0.275847 0.326373 0.328451 -0.530655 -0.215635 -0.448156 -0.006779 -0.040090 0.476194 0.135893 -0.144201 -0.316575 -0.114907 0.275988 -0.249820 0.082909 0.344558 0.180068 -0.692615 -0.332667 -0.086290 0.390752 -0.289659 -0.165827 0.195255 -0.543891 -0.246483 0.129528 -0.407047 -0.455606 -0.192966 -0.435181 0.188818 -0.481696 0.161979 0.091551
would -0.108661 -0.680169 -0.380298 -0.155816 -1.015890 -0.281162 -0.492349 -0.950845 -0.380523 -0.135829 -0.138573 -0.249618 -0.575185 0.588833 -0.210607 -0.310635 0.221340 -0.838216 0.110914 0.076596 -0.119833 -0.610770 0.228059 -0.428410 0.302169 -0.353056 0.214700 -0.046699 -0.406780 -0.621303 -0.067178 0.159447 -0.354835 0.134713 -0.686726 -0.059302 -0.029879 -0.412312 -0.770397 -0.056277 -0.639071 -0.019219 -0.138542 0.029461 -0.876439 0.236284 0.173705 -0.174767 -0.248489 0.151765
discover 0.186544 0.200664 0.411877 -0.277660 0.465414 0.394413 -0.413770 0.351775 0.603203 0.229132 0.153030 0.359714 0.216452 0.591571 0.581641 -0.269018 0.383489 -0.001605 0.134103 0.251886 0.497329 -0.275370 0.239856 -0.259654 -0.265999 -0.175686 -0.180831 -0.177151 0.148399 0.081824 0.184194 -0.187439 0.499836 0.186696 -0.144558 0.442946 -0.352945 0.455430 0.177752 -0.324310 -0.341899 -0.270529 0.479354 0.590474 -0.067921 -0.315462 0.170397 -0.295151 -0.143670 0.032491
it 0.216585 -0.325623 -0.623736 -0.167944 -0.827682 -0.535937 -0.912141 -1.152834 -0.212604 -0.284384 -0.082892 -0.249530 -0.193895 0.301947 -0.417638 -0.499052 -0.195058 -0.767847 0.123295 0.308985 -0.202383 -0.236758 0.238277 -0.088059 0.019960 -0.041523 0.233147 0.237546 -0.269083 -0.309071 -0.302214 0.353225 -0.388676 -0.248894 -0.755635 -0.802955 -0.209439 -0.270676 -0.734454 -0.183492 -0.528027 -0.719819 -0.097746 0.378228 -0.490526 -0.095920 0.127245 -0.155234 -0.378276 0.133002
think -0.078779 -0.638031 -0.222334 0.023110 -0.987865 -0.747435 -1.046919 -0.788337 -0.457127 -0.382626 -0.011195 -0.500314 -0.422391 0.905149 -0.714695 -0.295137 -0.388069 -0.379142 -0.117637 -0.283107 -0.355198 -0.513969 0.515343 0.170498 -0.064472 -0.101421 0.371629 0.350142 -0.647931 -0.379844 -0.336554 -0.027068 -0.392432 0.108822 -1.042021 0.066154 -0.256902 -0.613887 -0.693892 -0.047017 -0.584656 -0.647436 0.148447 -0.171463 -0.465466 -0.209774 0.187750 -0.193860 -0.500729 0.403182
could -0.284528 -0.535367 -0.225485 -0.203131 -0.513197 -0.457376 -0.630467 -0.970541 -0.304993 -0.080962 -0.558971 -0.605091 -0.263992 0.619872 -0.410554 -0.005055 -0.066167 -0.889704 0.131278 0.083677 -0.196129 -0.827257 0.608130 -0.181047 -0.226975 -0.566698 0.215009 -0.056969 -0.272427 -0.517397 -0.381325 0.506333 -0.295960 0.046023 -0.404535 -0.782788 0.043453 -0.390522 -0.425802 0.179940 -1.031650 -0.344512 -0.381092 0.151170 -0.989609 -0.012487 -0.128363 -0.397580 -0.039484 0.624832
bear -0.329583 -0.553153 -0.201057 -0.590815 0.222381 0.161436 -0.286877 -0.646552 -0.146624 -0.329147 0.197860 -0.708450 -0.300649 -0.461332 -0.147539 -0.085098 -0.130155 -0.297024 -0.170188 -0.044029 -0.139799 0.030089 -0.399062 -0.318791 -0.266891 -0.476669 -0.119142 0.284190 -0.327724 -0.122409 -0.157720 0.364919 -0.670937 0.227775 -0.586849 0.258393 -0.470655 0.244705 -0.416132 -0.126453 -0.081163 0.102005 -0.072914 -0.327069 -0.030240 -0.531863 -0.264997 -0.413787 0.096674 0.269781
if 0.152209 -0.176965 -0.307060 0.057822 -0.622742 -0.324349 -1.010545 -0.876178 -0.405846 -0.163830 -0.042557 -0.616628 -0.345934 0.720056 -0.167960 -0.137549 -0.267682 -0.915647 0.455423 -0.240371 0.151479 -0.628534 0.513332 -0.025194 0.025374 -0.348891 0.101356 0.107221 -0.349548 -0.778381 -0.597811 0.307326 -0.752398 0.010630 -0.664023 -0.520555 0.052591 -0.296677 -0.589708 -0.266551 -0.849206 -0.561103 -0.226316 -0.145188 -0.772432 -0.440449 -0.309869 -0.340877 -0.476440 0.361690
anyone 0.287106 -0.625434 -0.062930 0.181780 -0.749705 -0.420426 -0.792728 -0.848905 0.094089 -0.583040 -0.201749 -0.022494 -0.087517 0.465195 0.024433 -0.370889 -0.018946 -1.043671 -0.360402 0.162736 0.009954 -0.123310 0.070548 -0.360195 0.233029 -0.160456 0.506414 0.130049 -0.393032 -0.523144 -0.610056 0.167221 -0.230265 0.333203 -0.329437 -0.631649 -0.125681 -0.007683 -0.391060 -0.113085 -0.084857 -0.469698 0.072337 0.226441 -0.611102 -0.462151 0.032034 0.191805 -0.664183 0.398769
found -0.455279 -0.067206 -0.202894 -0.259867 -0.572332 -0.639453 -0.443814 -1.061202 -0.169996 0.205497 -0.016909 -0.080176 0.161609 0.847313 -0.232059 -0.491581 -0.348846 -0.462724 -0.178746 0.382194 -0.617651 -0.503413 -0.158660 -0.565839 -0.350342 -0.401170 0.215464 0.133463 0.146279 -0.092533 -0.459310 0.474569 -0.149305 -0.224051 -0.898029 -0.138404 -0.256167 -0.135968 -0.595587 -0.035734 -0.983970 -0.725939 -0.096488 0.365171 -0.717187 -0.235733 0.104162 0.134459 -0.661684 0.515623
out 0.039173 -0.276826 -0.809570 -0.315691 -0.982630 -0.042918 -0.914576 -0.755349 -0.888061 -0.048518 -0.258736 -0.373910 -0.137519 0.446029 -0.296670 -0.024573 0.268832 -0.592470 -0.016328 -0.106522 -0.571065 -0.309352 0.107456 -0.286197 -0.121959 0.359272 0.275155 -0.031078 -0.006427 -0.485174 -0.137213 -0.017797 -0.621436 0.179290 -0.996526 -0.537783 -0.181233 -0.788370 -0.958928 0.054200 -0.863994 -0.099589 0.135427 0.042286 -0.425698 0.048713 -0.202266 -0.329498 -0.351449 0.518358
about 0.305993 -0.566687 -0.663810 -0.291328 -0.725274 -0.385896 -0.688534 -0.989959 -0.510581 -0.051989 -0.389631 -0.476739 0.016096 0.415417 -0.469218 0.108948 0.118548 -0.570902 0.222615 0.205345 -0.463719 -0.504236 0.329644 -0.466380 -0.019140 -0.127512 0.076641 0.273148 -0.219973 -0.437290 -0.334899 0.174642 -0.564152 -0.141746 -0.610151 -0.152073 0.050083 -0.337585 -0.672698 0.082799 -0.766510 -0.616342 -0.178094 -0.092404 -0.407986 -0.068076 0.190077 -0.329209 -0.215921 0.463700
potters -0.322756 -0.155050 0.020708 -0.276356 -0.457192 -0.032221 -0.409695 -0.096290 -0.243495 -0.148575 -0.342370 -0.078834 -0.282949 0.633226 -0.196125 0.255136 -0.231233 -0.796430 -0.216009 0.074265 -0.624585 -0.161042 -0.347389 0.334064 0.161065 0.405905 -0.196357 0.243348 0.307198 0.072253 -0.459241 0.093837 -0.691676 -0.301161 -0.135650 -0.217105 -0.597252 -0.639155 -0.521638 -0.490406 -0.552078 -0.720937 -0.527957 -0.034659 -0.108587 0.310746 0.371329 -0.136902 -0.531111 0.622271
sister -0.130729 0.070654 -0.727450 -0.463837 -0.608160 -0.192237 -0.461590 -0.761221 -0.445581 0.295183 0.321217 -0.140999 0.340735 -0.280510 -0.394674 -0.161221 0.435869 -0.664396 -0.070718 0.064481 -0.497763 -0.239383 0.378192 -0.488727 0.251319 -0.482499 0.269084 -0.391773 -0.532122 -0.624996 -0.478228 0.409610 -0.212369 0.036914 -0.713880 -0.039092 -0.351577 -0.158100 -0.381657 0.355028 -0.022891 -0.702705 0.140736 0.214747 -0.407343 0.032402 -0.549935 0.346314 -0.691903 0.284397
hadnt 0.507764 -0.165889 -0.430181 -0.376093 -0.581938 -0.352934 -0.306299 -0.591928 -0.462443 0.264373 -0.600271 -0.832907 -0.102698 0.258953 -0.294586 -0.148208 -0.262767 -0.665345 0.522949 0.102201 -0.718082 -0.374117 0.371677 -0.154959 0.079870 -0.267640 0.272832 -0.023815 -0.557912 -0.261143 -0.059214 0.133297 -0.587455 -0.133621 -0.940000 -0.122319 -0.410775 -0.754226 -0.906085 -0.046170 -0.474019 -0.750383 -0.190473 -0.079103 -0.593732 0.233998 0.434200 0.125801 0.054522 0.160829
met -0.158520 -0.065855 0.144807 0.129307 -0.649107 -0.150816 -0.621580 -0.496418 -0.419191 -0.253442 -0.450667 0.243941 -0.365157 0.724997 0.144766 -0.309398 -0.319971 -0.673615 -0.153923 0.543188 -0.511685 -0.501475 0.039799 0.065378 -0.210755 -0.210518 -0.139572 0.155958 -0.107500 0.199075 0.318456 -0.123145 -0.689486 0.444146 0.084403 0.008934 -0.154794 -0.483803 -0.492829 0.441450 -0.159146 0.361258 -0.171066 0.217600 -0.631071 0.139135 0.249972 0.250150 -0.490059 0.402828
for -0.015349 -0.551485 -0.478365 -0.427961 -0.598601 -0.135542 -0.682296 -0.978212 -0.326026 -0.011319 -0.484854 -0.445915 -0.143170 0.300098 -0.359952 -0.182308 0.279411 -0.764438 0.187727 0.124829 -0.082694 -0.569501 -0.110878 -0.150061 0.056623 -0.190991 0.499731 0.173918 -0.401609 -0.478021 -0.105227 0.236757 -0.546122 0.213701 -0.687409 -0.457960 -0.030927 -0.164721 -0.664671 0.059628 -0.852088 -0.433573 0.217270 -0.063885 -0.371790 -0.332307 -0.253653 -0.052491 -0.221226 0.340393
several 0.336521 0.106575 -0.246006 -0.497230 -0.346975 -0.405049 -0.380345 -0.015801 -0.126844 0.242219 -0.570916 -0.422896 -0.301983 0.004355 -0.449431 -0.235419 0.485498 -0.308549 -0.256469 0.109130 -0.331717 -0.191811 0.125259 -0.092074 0.145761 0.173202 0.567533 0.177051 0.184349 0.104147 0.018948 -0.131017 -0.444157 0.195050 -0.802066 -0.170874 0.106506 -0.481776 -0.775948 0.079489 -0.467101 -0.363915 0.117451 -0.191374 -0.410474 -0.133744 0.100911 -0.522222 -0.621167 0.759325
years 0.094429 -0.796472 -0.268208 0.000118 -0.996808 0.037585 -0.979975 -1.160327 -0.779055 0.345762 -0.009660 -0.087650 -0.294311 0.180483 -0.358796 0.007668 -0.354558 -0.989125 -0.037514 0.319904 -0.422710 0.038771 0.169940 -0.137592 0.391006 -0.154537 -0.120607 0.371916 -0.485561 -0.592274 -0.461664 0.427782 -0.425859 -0.070126 -0.318457 -0.051769 -0.490144 -0.013693 -0.293668 -0.060725 -0.352457 -0.284693 -0.393638 0.121499 -0.727298 -0.315906 -0.369316 0.194621 -0.358920 0.296833
fact -0.111700 0.072374 -0.224262 -0.135565 -0.577377 -0.128522 -0.294051 -0.697366 0.199530 -0.082848 0.138054 -0.389095 -0.635972 0.050707 -0.061637 -0.001714 0.050289 -0.682799 -0.077703 0.233418 -0.351219 0.080430 -0.148289 -0.474689 0.148726 -0.374657 0.131096 0.004447 -0.166266 -0.746898 0.117893 0.519144 -0.832401 -0.469953 -0.945144 -0.434911 -0.043651 0.120753 0.069625 0.059120 -0.494777 -0.035891 -0.020797 0.522897 -0.120554 0.065152 -0.169311 0.267697 -0.485565 0.436304
pretended 0.484120 0.125953 -0.111206 -0.437564 -0.103024 -0.452836 -0.380614 -0.292970 0.048887 -0.183924 0.328602 -0.490976 0.160158 -0.450705 0.127864 -0.251295 0.071627 -0.307306 -0.231443 -0.004126 0.264212 0.060371 0.037504 0.037915 -0.502415 -0.172587 -0.037451 0.047069 -0.651043 -0.408511 -0.004622 -0.343531 -0.070946 -0.320433 -0.124145 -0.356004 -0.389332 0.152340 0.092022 0.255268 -0.647334 -0.093354 -0.070157 0.240220 -0.642095 -0.452053 0.109678 0.407175 -0.526865 0.450751
goodfornothing -0.136788 -0.136392 -0.219945 0.337428 -0.101849 -0.223197 0.578013 0.462310 -0.198186 -0.050062 -0.311514 0.408147 -0.207062 -0.367310 -0.215994 0.115878 -0.220990 0.228596 0.032408 0.184189 0.347797 -0.291240 -0.301386 -0.066003 -0.323326 0.471539 0.586745 -0.070236 0.100811 -0.238648 0.434261 0.412206 0.174267 -0.119394 -0.088377 0.044123 0.319445 0.323084 0.071460 -0.308021 -0.313425 0.241654 -0.169535 0.573873 0.058848 0.397131 0.129606 -0.168768 0.285996 0.309110
husband 0.348048 0.249331 -0.087047 0.206325 -0.007524 -0.262250 0.508924 0.595115 0.598489 0.191747 0.130077 -0.394950 0.541200 0.352952 0.648339 0.361821 0.524877 0.246114 0.191381 0.172994 0.433912 0.111495 -0.139345 -0.225715 0.235802 0.340818 0.341490 0.525129 -0.255290 -0.089984 0.163108 0.671579 -0.007591 0.100226 0.470567 -0.219317 0.009359 0.358913 0.363484 0.361597 0.525853 0.132090 0.154533 0.152039 0.278151 0.169074 0.069875 0.278885 0.424947 0.007466
undursleyish 0.224711 0.014140 0.527306 0.061247 0.440717 -0.078542 0.299427 -0.422757 0.198287 0.110704 -0.213535 -0.193868 -0.261670 -0.353459 0.462230 0.552885 -0.336086 -0.381788 -0.233939 0.223646 -0.025060 0.337988 -0.362051 0.513650 -0.171264 -0.245423 0.314635 0.542683 0.510566 0.170919 0.305299 0.027490 0.013613 -0.337082 -0.198050 -0.020113 0.020261 0.022542 0.090779 0.316748 0.250017 0.012527 0.434527 0.570440 -0.118656 -0.245456 0.295702 0.516402 0.028910 0.246154
possible -0.402087 -0.148596 -0.194071 -0.086726 0.140518 -0.142150 -0.741320 -0.089372 0.064868 0.127096 -0.580763 -0.372278 0.074705 0.105763 -0.102810 -0.334710 0.222450 -0.876626 -0.164886 0.554472 0.174207 -0.731458 0.433484 -0.135105 0.285306 0.223682 -0.268648 0.244676 -0.610945 0.038368 -0.336276 0.158288 0.036682 0.441595 -0.266245 0.194784 -0.403474 -0.238356 -0.530143 0.015912 -0.860309 -0.148338 -0.428894 0.045850 -0.013202 -0.214813 0.218600 0.152940 0.061837 -0.060304
shuddered 0.565667 0.310855 0.327780 -0.445823 -0.182142 0.173455 -0.457694 0.240492 0.013807 -0.400953 0.254369 0.414888 0.284379 0.054054 0.206195 0.324657 0.070343 -0.539127 -0.255698 -0.104579 0.490933 -0.071091 -0.431783 0.440911 0.049602 -0.054037 -0.205780 0.123076 0.194018 0.387346 -0.373435 0.397078 -0.069148 0.611966 0.354681 -0.331463 0.069786 0.019372 0.324034 -0.445274 0.114730 0.337600 0.328177 0.303607 -0.046496 0.434976 0.190558 0.314229 -0.289904 0.211792
what 0.099812 -0.484931 -0.312066 -0.308578 -0.684131 -0.595248 -0.728672 -1.019237 -0.416607 -0.502173 0.119039 -0.358847 -0.254115 0.646200 -0.513649 -0.041019 -0.019730 -1.023122 -0.056964 0.063738 0.072165 -0.140060 0.388007 -0.269613 -0.351797 -0.289346 -0.066863 0.214266 -0.151672 -0.362522 -0.497727 0.142659 -0.859623 0.044658 -0.803594 -0.422739 0.081977 -0.258387 -0.818293 -0.256500 -0.970909 -0.644877 -0.202996 -0.108207 -0.629174 0.048644 0.005287 0.190017 -0.212655 0.415570
arrived -0.211484 0.210123 0.100632 -0.014838 -0.555985 -0.392649 -0.082257 -0.885385 -0.206460 -0.073456 -0.157770 -0.457451 -0.557781 0.200331 -0.625609 -0.015699 0.000224 -0.808522 0.054856 0.407017 -0.563627 -0.460760 0.450800 0.201847 -0.182387 0.266950 -0.067433 0.544702 -0.434611 -0.740768 -0.124836 -0.014983 -0.174881 -0.424033 -0.214336 -0.072124 0.178404 -0.183261 -0.666370 -0.223684 -0.714441 -0.114671 -0.330140 -0.250470 -0.415713 -0.104387 0.303338 0.414766 -0.437112 0.219565
street -0.256019 -0.458228 -0.417429 -0.141233 -0.221993 0.096896 -0.347209 -0.507750 -0.096912 -0.014017 -0.004116 -0.100507 -0.170257 0.690457 -0.000662 -0.120159 -0.260593 -1.063260 -0.210929 0.109659 -0.201060 -0.579752 0.292925 0.097553 -0.107597 -0.495669 -0.287800 0.191612 -0.351437 -0.673487 0.117613 0.166657 -0.454188 0.367524 -0.574211 -0.769077 -0.504579 -0.180954 -0.947663 -0.292843 -0.394673 0.029124 0.187653 -0.118426 -0.045282 0.135081 -0.308909 -0.099534 -0.123264 0.130939
knew -0.086908 -0.349547 -0.159663 -0.581050 -0.793962 -0.439099 -0.969385 -0.444740 -0.505918 -0.180503 -0.469683 -0.404383 -0.037009 0.652061 -0.285097 0.026978 -0.111130 -0.477823 -0.036676 -0.057769 -0.585531 -0.365079 0.294176 0.001615 -0.034294 -0.366447 0.310006 0.239541 -0.023334 -0.818958 -0.140637 0.015918 -0.885127 0.219030 -0.876016 -0.072178 -0.031790 -0.513727 -0.757751 -0.480779 -0.528660 -0.218615 -0.334468 0.320460 -0.231611 0.175656 0.138932 -0.204670 -0.449014 0.537997
too 0.303017 -0.147092 -0.497568 -0.227144 -0.311358 -0.679896 -0.790962 -0.738201 0.001122 -0.474994 -0.513517 -0.378161 -0.435379 0.425717 -0.557492 -0.518535 -0.417002 -0.827359 0.362137 0.372917 -0.341700 -0.480296 0.277550 -0.319749 0.014383 0.154854 0.145384 0.552986 0.016026 -0.669059 -0.343468 0.187579 -0.774151 -0.361342 -0.948604 -0.201476 -0.310489 -0.334841 -0.262808 -0.138592 -0.383828 -0.165274 0.103346 0.011080 -0.542790 0.046419 -0.227388 0.384399 -0.328448 0.246345
never 0.185612 -0.256149 -0.348136 -0.180361 -0.642048 -0.621199 -1.039596 -0.813669 -0.284720 0.058984 -0.745329 0.019629 -0.246946 0.364338 -0.471289 -0.292784 0.087022 -0.977191 0.353521 0.104514 -0.015387 -0.385273 0.298051 -0.499304 0.243719 -0.490544 -0.098151 0.204252 -0.368629 -0.299145 -0.114587 0.461300 -0.506185 0.145094 -0.731614 -0.401749 -0.450339 -0.433164 -0.692653 -0.206978 -0.780166 -0.500050 -0.507513 0.061318 -0.770247 -0.383306 -0.295696 0.296785 -0.322351 0.032517
even -0.115775 -0.469828 -0.771251 -0.725380 -0.462452 -0.073799 -0.705087 -0.622074 -0.125537 -0.226051 -0.328022 -0.085160 -0.481052 0.404454 -0.040911 -0.043441 0.198834 -1.016582 0.389359 0.369788 -0.645904 -0.305691 0.195015 0.092782 0.338429 -0.321957 0.031007 -0.046336 -0.432133 -0.548507 -0.249318 0.124797 -0.745438 -0.427526 -0.418374 0.009554 -0.232965 -0.345064 -0.368369 -0.117528 -0.665009 -0.548626 -0.387919 0.171018 -0.805117 -0.001521 0.233093 -0.116448 -0.633530 0.616362
seen -0.015056 -0.165428 -0.297560 -0.309866 -0.763096 -0.335781 -0.634766 -0.988761 -0.023044 -0.288339 -0.399187 -0.023911 -0.098716 0.158306 -0.315304 -0.527012 -0.117163 -0.494902 0.506942 0.031727 -0.265565 -0.782529 0.315587 -0.291766 0.135878 0.196765 -0.019953 0.239164 0.098270 -0.431709 -0.497264 -0.031290 -0.225613 0.303319 -0.713635 -0.281846 0.130173 -0.642369 -0.675072 0.161993 -1.030903 -0.737797 0.261788 -0.066989 -0.075459 -0.011118 -0.141588 0.283783 -0.207661 0.066230
him 0.192092 -0.326715 -0.789603 -0.064762 -0.644445 0.058590 -0.797509 -0.929996 -0.298606 -0.061260 -0.110616 -0.382434 -0.187146 0.324801 -0.176031 -0.442837 -0.212267 -0.615536 0.259750 0.365464 -0.436783 -0.176363 0.316859 -0.218287 -0.232190 -0.299416 0.206134 -0.100832 -0.134805 -0.391188 -0.025144 0.343523 -0.735524 0.054442 -0.704642 -0.216734 -0.357179 -0.466758 -0.528653 -0.196288 -0.636684 -0.720030 -0.413398 0.198416 -0.632259 -0.045114 -0.157150 -0.148943 -0.546541 0.551637
this -0.120574 -0.272631 -0.834974 -0.226355 -0.733330 0.027807 -1.133496 -1.107540 -0.289156 -0.050532 -0.266745 -0.286464 -0.641998 0.428613 -0.302858 -0.291041 0.309938 -0.854336 0.288425 0.004726 -0.036757 -0.111951 -0.043928 -0.173053 -0.433389 0.111598 0.356540 0.259853 -0.226229 -0.597743 -0.208201 0.040758 -0.387325 -0.310455 -0.980234 -0.690790 -0.326616 -0.193688 -0.519334 0.173668 -0.570064 -0.957316 -0.315408 -0.054484 -0.485860 -0.376961 0.200290 -0.055021 -0.083045 0.265568
another -0.037766 -0.129447 -0.381070 -0.440032 -0.320854 -0.436397 -0.693677 -0.480626 -0.256868 -0.097419 0.065499 -0.671579 0.000404 0.501069 -0.659621 -0.494845 -0.002481 -0.287761 0.550653 0.006587 -0.419919 -0.261216 0.210575 -0.304632 0.233597 0.012849 0.549618 0.154508 -0.456229 -0.788927 -0.436088 0.316509 -0.236094 0.393915 -0.697720 -0.160930 -0.652179 -0.310684 -0.946165 0.193016 -0.408363 -0.838094 0.292215 0.009114 -0.612190 0.066967 -0.506213 -0.040430 -0.072675 -0.058653
good 0.013086 -0.585996 -0.610563 -0.549598 -0.369305 -0.487689 -0.619422 -0.851275 -0.227396 -0.427692 -0.096915 -0.010346 -0.242012 0.821117 0.026617 -0.334383 0.274793 -0.787282 0.191072 -0.138700 -0.167857 -0.260836 0.092918 0.169773 -0.190289 0.122728 -0.076128 0.271865 -0.339694 -0.643900 -0.006026 -0.005289 -0.733073 -0.307803 -0.634770 -0.008774 -0.418636 -0.353970 -0.468978 0.352974 -0.830863 -0.685666 0.335307 0.203978 -0.533069 -0.113646 0.068463 -0.329741 -0.356121 0.047438
reason 0.355504 -0.308308 -0.524769 -0.035825 -0.570359 0.068018 -0.630898 -0.676006 -0.572801 0.205666 -0.463960 -0.626895 -0.134318 0.088431 0.101054 0.032985 -0.154189 -0.209357 0.367692 -0.117721 0.108879 0.182305 -0.049591 0.221942 0.197612 0.063795 0.107421 -0.084436 0.092291 0.022232 -0.460513 0.269010 -0.020976 -0.083552 -0.896280 -0.325692 -0.146464 -0.634043 -0.252505 -0.477624 -0.980668 -0.094324 -0.428239 0.275313 -0.546684 -0.007564 0.271746 0.028642 -0.455326 0.091367
keeping 0.135274 -0.511615 -0.157496 -0.350131 -0.431335 0.308885 -0.188734 0.223619 -0.391396 -0.497264 -0.423004 -0.255170 -0.286737 0.495181 0.289112 0.171369 0.435819 -0.567870 -0.253735 -0.085259 0.092352 0.244755 -0.375444 -0.059704 0.194642 0.346235 -0.319460 0.324816 -0.377932 -0.642387 -0.447652 0.139279 -0.116363 0.561768 0.087989 -0.419327 -0.073722 -0.174535 -0.113645 -0.385959 -0.270277 0.140690 -0.141854 -0.172135 -0.246279 0.322093 -0.252226 0.444524 0.240478 0.704140
away 0.247088 -0.507840 -0.400933 0.073342 -0.606692 -0.240794 -0.419520 -0.793125 -0.288203 -0.346209 -0.203817 -0.358021 -0.639385 0.683371 -0.572449 -0.212928 -0.189341 -0.706160 0.439812 0.200761 -0.046319 -0.325707 -0.407246 -0.672481 0.299138 -0.073027 0.449905 0.355305 -0.427557 -0.637195 0.092211 0.223988 -0.551021 0.226957 -0.559783 -0.420231 -0.148470 -0.685239 -0.489456 -0.344147 -0.296370 -0.273139 0.372313 0.171104 -0.084309 -0.365094 0.360091 0.008423 -0.653710 0.247128
want 0.010229 -0.536078 -0.347751 -0.376085 -0.428141 -0.682079 -1.101611 -0.486931 -0.441178 -0.406750 -0.314360 -0.460654 -0.171397 0.519798 -0.201587 0.017456 -0.471930 -1.182896 0.272195 -0.078424 -0.277216 -0.000498 0.438275 0.190822 -0.136674 -0.405044 -0.188571 0.543569 0.093969 -0.921237 0.077984 0.305380 -0.834545 0.361262 -0.278197 0.053668 -0.247450 -0.410067 -0.285436 -0.193136 -0.702908 -0.473219 -0.031515 -0.336581 -0.593827 -0.346056 -0.278744 0.083792 -0.466174 0.723876
mixing 0.232553 -0.162601 -0.381425 -0.352736 0.545221 0.303793 -0.286414 -0.525793 0.159494 -0.160945 0.216404 0.451381 -0.286339 0.275336 -0.090180 0.414159 0.261468 -0.330643 0.349843 -0.443268 -0.040409 -0.097194 0.199044 0.460729 0.193097 0.121468 0.385607 0.209445 -0.091170 -0.008475 0.530987 0.166090 -0.128489 0.413074 -0.095643 -0.241958 -0.347680 -0.096986 -0.007660 -0.102561 -0.074715 0.249606 -0.348749 -0.338558 -0.094617 -0.181178 -0.231244 -0.145525 0.332077 0.100639
child -0.486832 -0.369112 -0.124634 0.158344 -0.183593 0.008846 0.295890 -0.028781 -0.593641 -0.639639 -0.488010 -0.020761 -0.160447 -0.555687 0.077166 -0.529791 0.233520 -0.327804 0.466779 -0.224801 -0.268800 -0.264333 -0.406030 0.289355 -0.067315 -0.585136 0.347364 0.339925 -0.106976 -0.526795 0.066109 0.256233 -0.329913 -0.550018 -0.196839 0.010479 -0.360499 -0.095027 -0.403830 -0.221951 0.255896 -0.036669 -0.137712 -0.451123 0.186453 0.145199 -0.329846 0.382435 -0.215492 -0.311260
like -0.118007 -0.164182 -0.477722 -0.108728 -0.486788 -0.389957 -0.833609 -1.013974 -0.235948 -0.331323 -0.399394 -0.518662 -0.219378 0.350218 -0.030556 0.120566 -0.192994 -0.621722 0.196474 -0.179559 -0.253485 -0.200663 0.281215 0.050072 -0.130885 -0.207208 0.407875 0.074568 0.235240 -0.399781 -0.052053 0.461177 -0.621843 -0.321822 -0.495500 -0.084821 -0.149127 -0.457865 -0.790997 0.323639 -1.008500 -0.540027 0.446465 0.199931 -0.272283 -0.298430 0.024945 0.083541 -0.395420 0.237218
when 0.041911 -0.532401 -0.660041 -0.108237 -0.674295 -0.385086 -0.812925 -0.979356 -0.053839 0.228456 -0.243801 -0.267563 -0.522860 0.587008 0.019038 0.079139 -0.163557 -0.804499 -0.040477 -0.073575 -0.568358 -0.567927 0.368131 -0.086465 0.074462 -0.274372 -0.106608 0.251147 -0.522375 -0.453703 -0.318833 0.097116 -0.391772 -0.023804 -0.921572 -0.321870 0.090568 -0.528301 -0.724005 0.015693 -0.859417 -0.209460 -0.192606 0.237745 -0.155333 0.068138 0.045235 -0.008259 -0.149579 0.463267
woke 0.244556 -0.252599 -0.386911 0.373843 0.090812 0.330225 -0.136253 -0.582185 0.059709 -0.398031 -0.377415 0.075257 0.207392 -0.123614 -0.277676 -0.048719 -0.272686 -0.679952 -0.144372 -0.115078 -0.372355 -0.036537 -0.104278 -0.409226 -0.420326 -0.417592 0.564585 0.442960 0.181167 -0.744696 0.053297 0.510848 0.091947 0.518819 -0.476463 -0.118875 -0.475917 0.044072 -0.112318 0.092153 -0.457625 -0.464440 -0.247744 -0.296873 0.044887 0.379638 0.310303 -0.228876 -0.098885 0.457846
up 0.042777 -0.405828 -0.683263 -0.251985 -0.631047 0.066381 -0.475848 -1.101250 -0.118601 0.087700 -0.165861 -0.315704 -0.002882 0.564854 -0.193589 -0.451144 -0.372104 -0.771821 -0.085525 0.051206 -0.671286 -0.214054 0.051593 -0.292191 -0.091261 0.124924 0.330800 0.050699 -0.135898 -0.279978 -0.039037 0.330271 -0.409533 0.150086 -0.833137 -0.279734 -0.223470 -0.582872 -0.815509 -0.309460 -0.831825 -0.335047 0.248606 0.224013 -0.656258 0.155073 -0.069667 -0.113523 -0.510854 0.298523
dull 0.158750 -0.124498 0.504453 0.250353 0.143357 0.107782 -0.347682 -0.418849 0.417497 0.285804 0.003777 0.111796 0.197673 -0.127974 0.270880 0.368243 -0.172093 -0.379960 0.431115 0.444539 -0.003526 -0.129659 0.326147 -0.295702 0.422206 -0.061193 -0.320141 0.588851 0.272144 -0.392408 0.221764 -0.300328 0.287011 0.023563 -0.164610 0.201719 0.025146 -0.123953 -0.469666 0.040287 0.198295 0.421939 0.191798 -0.284854 -0.021604 0.150233 -0.376634 -0.133810 0.035323 0.292788
gray 0.188084 -0.454317 -0.144365 -0.071409 -0.525547 0.141620 -0.366028 -0.336538 -0.141332 0.259771 0.302323 -0.068297 -0.129090 0.247593 0.227379 -0.328611 -0.182891 -0.576519 -0.042542 0.087902 -0.189882 -0.498928 -0.109756 0.095096 0.224218 -0.306929 0.047077 0.251135 -0.166289 0.239584 -0.469709 -0.047865 -0.633183 0.268578 -0.440350 -0.161881 -0.263041 -0.102715 -0.608354 0.520355 -0.492496 -0.437981 -0.134861 0.134391 0.081778 0.324790 -0.350111 0.444938 -0.508113 0.613389
tuesday -0.339200 -0.338436 -0.068446 -0.391340 0.174884 -0.388833 0.373840 0.006307 0.402742 0.039706 -0.004932 -0.537358 -0.369755 0.217568 -0.190343 -0.376288 -0.160265 0.298339 -0.211844 -0.146732 -0.234385 0.054767 0.472367 0.128309 0.127564 -0.282398 0.254556 -0.155315 -0.270623 -0.115800 0.352148 -0.335624 0.147247 0.002503 -0.431677 0.001207 0.151836 -0.142092 -0.326302 0.425405 -0.399855 0.149625 0.105781 0.263706 0.133478 -0.257979 -0.173077 0.338168 -0.284642 0.525589
our -0.035034 0.093012 -0.667907 -0.181129 -0.278485 -0.289240 -0.619317 -0.999584 -0.396087 -0.209545 -0.118374 -0.360380 -0.612614 0.202517 -0.441243 0.068693 0.241752 -0.513549 0.015046 -0.089420 -0.169901 -0.544750 0.231913 0.061885 0.202919 0.158306 0.584854 0.287306 -0.116824 -0.495504 -0.296891 0.389367 -0.486559 -0.159983 -0.498544 -0.618333 -0.314580 -0.085957 -0.388367 0.160589 -0.693545 0.122694 -0.361315 0.197046 -0.149396 0.088811 -0.185321 -0.220407 -0.329561 0.695210
story 0.068690 -0.086657 -0.644703 0.202188 -0.693260 0.083947 -0.478198 -0.099219 0.157375 0.159196 -0.072274 -0.273055 -0.082473 0.233184 0.163626 -0.457033 0.415585 -0.324881 -0.236547 -0.230465 -0.443145 0.150156 -0.256752 0.208824 0.017617 0.319202 -0.041469 0.112684 0.165175 -0.702674 0.133914 0.169213 -0.497316 -0.082830 0.040909 0.344593 0.284057 -0.173421 -0.300706 -0.242095 -0.747319 -0.285512 -0.477677 0.299033 -0.362811 0.331503 -0.011627 0.275356 0.159621 0.011094
starts -0.184544 0.039684 -0.114847 0.126063 0.233566 -0.073040 0.139905 0.379322 -0.046906 0.470419 -0.407917 0.166562 0.167957 0.090766 -0.410266 -0.169002 0.242885 -0.454806 -0.155915 -0.441888 -0.097252 0.193120 0.083384 0.379960 0.046243 0.117997 0.003031 0.480312 -0.205593 0.108159 -0.261219 0.231809 -0.346952 -0.131831 -0.327052 -0.256013 -0.304501 0.022399 0.082360 0.063528 -0.045519 -0.037676 -0.200571 -0.162595 -0.348478 0.367869 -0.394572 0.269997 -0.093246 0.035143
nothing 0.278570 -0.527187 -0.504839 -0.196690 -0.125721 -0.758985 -0.399757 -0.792194 -0.462701 0.411246 -0.018540 -0.557779 0.111487 0.438909 -0.374322 -0.575891 0.194594 -1.038422 0.022658 0.425584 0.216552 -0.602290 0.145431 -0.394189 -0.273707 0.043069 -0.027585 0.553416 0.004152 -0.242193 -0.257578 -0.193239 -0.739446 -0.188940 -0.950312 -0.070161 -0.031462 -0.169086 -0.078302 -0.357154 -0.653392 -0.623587 0.094578 0.368990 -0.496327 -0.015675 -0.441602 -0.050450 -0.487088 0.215958
cloudy -0.134800 0.526052 0.408482 0.242171 0.174785 0.409105 -0.068774 0.520143 0.160491 0.353580 0.339560 0.177541 0.435036 -0.140254 0.316040 0.575735 0.123341 -0.004246 0.349765 -0.103167 0.097209 0.249883 0.260268 0.198938 -0.292176 0.548558 0.278354 -0.067141 0.075459 0.486182 0.015336 0.398333 0.131137 0.383146 0.140209 0.164447 -0.368876 0.126540 -0.056310 -0.240278 -0.157432 -0.160271 0.247590 -0.284418 -0.297541 -0.280554 0.522761 0.369750 0.348191 0.533583
sky 0.045677 -0.316085 -0.622560 -0.184791 -0.706888 -0.226714 -0.015028 -0.563962 -0.385234 0.235299 -0.226730 -0.473267 -0.325354 0.575041 0.256627 0.354275 0.381277 -0.628801 0.449126 -0.293352 0.328113 -0.616271 -0.191937 0.055086 -0.129141 -0.092281 0.043142 -0.124503 -0.102726 0.111453 -0.346115 -0.317434 -0.243403 -0.037749 -0.468579 -0.296463 0.230651 -0.493922 -0.189643 0.153225 -0.655146 -0.543638 -0.015051 -0.298013 -0.479692 0.169046 -0.498885 0.126429 0.143885 0.701394
outside 0.058915 -0.455711 -0.675768 -0.417175 -0.567021 0.027640 -0.405076 -0.497857 -0.188253 0.184141 -0.089705 0.050127 -0.036307 0.369169 0.089478 0.230428 -0.048661 -0.250865 -0.415866 0.308818 -0.055604 -0.386675 0.294169 0.334462 0.218024 -0.422038 0.049569 0.066006 0.227832 -0.721673 -0.528938 0.477929 -0.611041 -0.465636 -0.925477 0.065321 -0.140117 -0.558714 -0.767287 -0.325566 -0.936273 0.022269 0.391651 0.292929 -0.434952 -0.156760 -0.449182 0.227661 -0.677726 0.576266
suggest 0.230534 0.387763 0.253869 0.365917 -0.125447 -0.207630 -0.361363 -0.422355 -0.335208 0.003371 0.191036 -0.101552 -0.319506 -0.240054 0.242660 -0.113107 0.288089 0.091164 -0.106427 -0.224156 0.444971 0.505314 -0.008394 -0.141732 0.603928 0.593958 0.316760 0.502040 -0.384819 -0.129694 0.277988 0.582787 -0.090154 -0.035876 -0.412859 -0.050192 -0.462755 -0.037066 -0.092871 0.328915 -0.320771 0.358963 -0.001040 0.488548 -0.021393 0.354203 -0.307623 -0.080425 0.042469 -0.261446
things 0.227754 -0.652676 -0.234028 -0.557051 -0.478308 -0.340966 -0.894806 -0.726518 -0.516366 -0.074927 -0.196042 -0.586514 0.036347 0.492149 -0.254934 -0.042861 0.148701 -0.713740 0.672470 -0.219927 -0.088750 -0.349912 -0.165124 0.163272 0.137342 -0.162232 -0.203296 0.286547 -0.399643 -0.400583 -0.017188 0.129577 -0.348991 0.005961 -0.645667 -0.345078 -0.076453 -0.234427 -0.222811 -0.164538 -0.938930 -0.777304 0.334465 0.010388 -0.496118 0.207211 0.060778 0.223365 -0.147383 0.010587
soon 0.151056 -0.508021 -0.216469 -0.320682 -0.612057 0.291791 -0.607309 -0.688344 -0.387930 -0.142374 0.237559 -0.111164 -0.041367 0.213251 -0.251030 -0.009354 -0.125308 -0.343913 -0.037639 0.261712 -0.040894 0.188466 -0.134811 -0.415792 0.214502 -0.439284 0.426750 -0.002186 -0.081565 -0.220375 -0.439528 0.455747 -0.209836 0.210792 -0.362861 -0.090205 -0.437589 -0.651525 -0.188827 -0.331384 -0.067408 -0.437239 -0.020752 -0.206034 -0.486654 0.276252 0.389578 0.313785 -0.535766 0.180303
happening -0.020632 -0.187417 0.075515 0.407314 0.294942 0.334832 -0.134262 -0.463318 0.343557 0.157169 -0.241780 -0.429459 0.234376 0.495215 -0.554794 -0.101879 -0.553490 -0.037018 0.216282 0.173585 -0.489207 0.212575 -0.094063 0.396060 0.393366 -0.300350 -0.078755 -0.207561 -0.023493 -0.593911 0.393398 0.165958 0.019330 0.061499 -0.655025 -0.398940 -0.448465 -0.614490 -0.054823 0.252404 0.214730 -0.183076 0.101856 0.225418 -0.131447 -0.410468 -0.244225 -0.222232 -0.534380 -0.313564
all -0.048884 -0.651319 -0.867231 -0.056683 -0.472570 -0.161939 -0.975418 -0.766463 -0.417263 -0.143207 -0.012084 -0.305487 -0.129889 0.346476 -0.495798 -0.473984 -0.138405 -0.814286 -0.137241 0.060861 -0.343606 -0.395746 0.041536 -0.311914 -0.000819 -0.066116 0.611128 -0.110769 -0.230344 -0.366374 -0.347412 0.163360 -0.422764 -0.176344 -1.055478 -0.074668 -0.155316 -0.523260 -0.498274 0.249839 -0.607828 -0.691439 -0.001982 -0.068323 -0.687483 0.285095 -0.190301 0.092240 -0.417814 0.566580
country 0.142875 -0.476290 -0.399009 -0.057377 -0.411576 0.305108 0.262668 -0.360907 -0.437947 -0.031722 0.122977 -0.286822 0.143761 -0.114899 -0.072739 -0.360662 -0.346602 0.257871 0.203980 -0.154841 -0.431211 0.310432 0.371108 -0.277434 0.362818 0.392002 0.059213 -0.175983 -0.401832 -0.341981 0.199336 0.205764 -0.101862 -0.096237 -0.648734 -0.497088 -0.013147 -0.530646 -0.628419 0.325275 -0.282490 -0.548080 0.143064 0.096262 -0.134512 0.006925 0.220156 -0.325822 0.121247 0.274214
hummed 0.069470 0.036853 0.172416 -0.376337 0.372722 -0.106821 -0.156621 -0.319101 -0.262155 -0.031861 0.052287 -0.154880 0.597745 0.069034 0.160927 -0.170753 -0.217891 -0.256855 0.330036 -0.292533 0.405960 0.157376 -0.258812 -0.068947 -0.339568 -0.114439 0.146758 -0.018434 0.460098 -0.198453 0.425454 -0.106006 -0.214443 -0.088846 -0.352394 -0.295679 0.010685 -0.449774 0.393322 0.011727 -0.084931 -0.093369 -0.100677 -0.351217 0.008278 0.017435 0.116884 0.310254 0.211415 -0.116145
picked 0.214398 0.159350 -0.268928 -0.248560 -0.762939 -0.171059 -0.960455 -0.547844 -0.622932 0.189287 -0.748735 -0.772219 -0.465149 -0.031575 -0.391402 0.017446 0.308406 -0.461700 0.194634 -0.111444 -0.131755 -0.833328 -0.203401 -0.223665 0.034477 -0.160578 -0.004077 0.429200 0.039552 -0.036712 0.199010 0.462729 -0.135476 -0.198164 -0.194187 0.239752 0.189203 -0.006041 -0.854851 0.115318 -0.952697 0.047029 -0.403720 0.466846 -0.471996 -0.247929 -0.154788 -0.274532 -0.532428 0.271585
his 0.387592 -0.252942 -0.683086 0.068022 -0.382435 -0.010219 -1.354242 -0.999177 -0.544053 -0.177238 -0.252829 -0.814320 -0.447759 0.331969 0.189434 -0.179158 -0.095384 -0.697258 0.396806 0.097096 -0.464114 -0.282797 0.129977 -0.108853 0.070519 0.176984 0.310369 -0.148319 -0.191912 -0.474166 -0.202989 0.053470 -0.099631 0.220875 -0.623345 -0.292001 -0.030546 -0.898998 -0.450617 0.073308 -0.251548 -0.534531 -0.535054 0.533920 -0.449191 -0.115554 0.111393 0.188005 -0.426947 0.465974
most -0.188461 -0.317137 -0.397928 -0.250265 -0.796349 0.180001 -0.185740 -0.606882 -0.371815 -0.064310 -0.385848 -0.052491 0.007118 0.786925 -0.492202 0.024124 -0.013648 -0.496584 0.450151 0.282684 -0.108027 -0.047969 0.141543 0.313691 0.011941 0.420614 0.197786 0.024847 -0.579747 0.197613 -0.466863 -0.215632 -0.626131 -0.264254 -0.933135 -0.251823 -0.036643 -0.531074 -0.278917 -0.161489 -0.753527 -0.593825 -0.050434 -0.008962 -0.603321 0.291394 0.262095 -0.018556 0.003615 -0.009678
boring 0.344377 -0.351564 0.081321 -0.450302 0.142072 0.327499 -0.500269 0.243930 0.316066 0.438279 0.023093 -0.301950 0.090700 -0.070768 -0.149455 -0.523505 0.001898 -0.133100 0.288689 0.343259 -0.292210 -0.257031 0.121516 0.193893 -0.267458 0.345531 -0.271502 -0.348373 -0.143946 -0.378611 -0.355173 0.557692 -0.448872 0.015105 0.130804 -0.211900 0.294980 -0.230684 0.007939 0.120417 -0.104751 0.183197 0.221843 -0.123251 -0.409028 -0.033864 0.065298 -0.197098 -0.199271 0.160097
tie -0.122689 -0.286351 0.107602 0.610160 -0.284737 -0.198433 0.156018 0.074581 -0.046882 0.006636 0.045073 0.538800 0.266526 -0.244338 -0.041534 -0.326855 -0.238011 -0.092046 0.194239 -0.209670 0.332352 0.436444 -0.082212 0.224587 0.263224 0.294184 0.441555 0.463011 -0.257072 -0.128370 0.152643 0.122146 -0.046105 -0.017485 -0.363242 0.243642 -0.030071 0.544532 -0.303609 -0.299752 0.410705 -0.288001 0.523758 -0.276126 -0.241984 -0.325443 0.468220 0.345991 -0.052092 0.597093
work -0.336527 -0.499996 -0.155166 0.188623 -0.666341 -0.379706 -0.976129 -0.604411 -0.148343 -0.180816 -0.341134 0.049835 -0.352458 0.478677 0.328226 0.030324 -0.139655 -0.152243 0.083572 0.202869 -0.559069 -0.518588 0.065386 -0.355534 -0.135971 0.285202 0.697296 -0.062216 0.060598 -0.163867 0.030539 0.548741 -0.754895 0.274087 -0.309155 0.097548 -0.223541 0.016124 -0.652550 -0.070841 -0.483077 -0.123249 -0.285702 0.526250 -0.600652 -0.355779 -0.406698 -0.303341 -0.168887 0.184644
gossiped -0.009893 0.162191 -0.375779 0.164444 0.494158 0.084807 0.020279 0.066099 0.320178 0.425619 -0.151637 0.143350 0.190260 0.598936 -0.078176 -0.237174 0.609390 -0.248859 0.483739 -0.031419 0.003640 0.055902 -0.240810 0.569845 0.447865 -0.417659 0.160815 0.125645 0.311558 0.049335 -0.291454 0.596846 0.323853 0.005309 -0.255921 -0.330055 -0.099046 -0.284797 0.052738 0.126521 -0.416194 -0.008527 -0.140424 -0.304021 0.191532 0.370383 0.004626 0.367523 0.092699 0.566325
happily 0.411952 -0.055019 -0.102523 -0.210670 -0.214726 -0.296913 -0.239677 0.234455 -0.324196 -0.226712 -0.114229 0.242398 0.207851 0.059777 -0.202604 -0.126127 0.306978 0.002947 0.220169 0.695000 -0.298026 0.306859 -0.123437 -0.325392 0.127503 -0.190064 0.145731 -0.186072 0.228184 0.149558 0.071696 0.279213 -0.383102 0.565113 0.255365 0.148950 -0.255683 -0.235992 -0.137377 -0.345374 0.188430 0.482543 -0.250271 0.196663 0.094940 -0.182758 0.122546 0.117977 0.286088 0.099897
wrestled -0.010949 0.152708 0.460258 0.321772 -0.233161 -0.118528 0.230850 0.448196 0.569387 0.498663 -0.087494 -0.053758 -0.091646 -0.279338 -0.041927 -0.157760 0.054652 0.284750 -0.349181 0.342886 0.572058 -0.175783 -0.009083 0.009674 0.020484 0.136980 -0.265571 0.267822 -0.261485 0.239741 -0.220733 -0.014603 0.148200 0.597059 -0.412298 -0.011999 -0.024201 0.028834 0.276899 0.485469 -0.184065 -0.332871 0.300447 0.250745 0.127323 0.047138 0.365881 0.513106 0.199896 0.430291
screaming 0.327367 -0.288877 -0.561402 0.320562 -0.467412 -0.313906 -0.303681 -0.263215 0.024717 -0.457428 0.069482 -0.372922 0.209822 0.375989 0.441744 0.126423 0.506589 -0.259934 -0.519475 0.255467 0.348851 -0.520354 -0.278372 -0.501224 0.252514 0.423214 0.316595 0.363685 0.189643 -0.359900 -0.172385 0.272474 0.118476 0.135715 0.075427 -0.001157 0.237248 -0.250499 -0.449119 0.259305 -0.707910 0.178219 -0.366120 -0.043431 0.203118 -0.001428 0.003436 -0.131228 -0.005580 -0.118299
into 0.145413 -0.285923 -0.755343 -0.086947 -0.679441 -0.217207 -0.332931 -0.306115 -0.321133 0.211832 -0.232308 -0.233292 0.001047 0.485776 -0.227777 -0.100258 0.147607 -0.659529 0.307898 0.054286 -0.655684 -0.648620 0.026078 -0.450695 0.372569 0.242791 -0.112976 0.571153 -0.015799 -0.302091 -0.251314 0.125074 -0.530711 -0.126272 -0.739570 -0.650241 -0.371957 -0.677289 -0.582706 0.138883 -1.030703 -0.366364 0.105344 0.117667 -0.679582 -0.404039 -0.231151 0.108287 -0.507101 0.627248
high -0.043331 -0.112365 -0.079755 -0.004945 -0.211816 -0.032728 -0.205075 -0.745122 -0.466110 -0.175058 -0.268267 -0.561034 -0.042970 0.748367 0.016175 -0.558080 -0.022130 -0.490401 0.354828 -0.215497 0.309098 -0.640066 -0.070321 -0.024942 -0.455968 -0.258536 0.725849 0.272393 -0.117833 -0.390647 0.004118 0.634652 -0.317071 -0.132338 -0.743322 -0.570259 -0.306182 -0.473378 -0.445414 -0.221687 -0.543748 -0.270657 -0.161239 0.158291 -0.600142 -0.377835 -0.439110 0.245775 -0.169338 0.576947
chair 0.461407 -0.463713 -0.527289 -0.062938 0.037686 -0.319112 -0.342304 -0.320000 -0.586843 0.243023 -0.189711 -0.163176 0.140609 -0.152392 -0.007278 -0.054338 0.189515 -0.571507 0.309269 0.045039 -0.433570 -0.521583 0.270982 0.057223 -0.486181 -0.030478 -0.095248 0.123884 -0.008044 -0.258422 0.090385 0.388673 -0.589333 0.363299 -0.804949 0.156348 -0.162556 -0.011730 0.052004 0.340382 -0.441673 0.093196 0.303825 -0.226258 -0.126887 0.145357 -0.058309 -0.059838 -0.172350 -0.196041
none -0.306887 0.010510 0.003424 0.103582 0.132487 0.026573 0.063272 -0.637756 0.294297 -0.107116 0.003133 -0.139801 -0.283479 -0.170981 0.204045 -0.189959 0.219687 -0.276507 0.407142 0.264117 0.093455 -0.089373 0.282726 0.106926 -0.333277 -0.320231 0.470420 -0.423108 0.204510 0.180139 -0.202889 0.320797 -0.143310 -0.213559 -0.426136 -0.356027 0.259355 -0.672557 -0.599996 -0.138241 -0.630913 0.073266 0.333444 0.535598 0.322315 0.140380 0.188388 -0.113688 -0.483420 0.090153
them 0.222412 -0.188098 -0.650016 -0.007321 -0.037475 -0.174151 -1.043149 -1.090175 -0.473255 0.137565 -0.126735 -0.264459 -0.002446 0.138975 -0.369174 -0.256152 -0.357269 -0.646271 0.075610 0.271574 -0.486448 -0.569220 0.066563 0.100535 -0.053527 -0.088852 0.101862 0.222773 -0.297981 -0.476558 -0.284242 0.374684 -0.536449 0.200422 -0.750755 -0.509565 -0.267365 -0.704093 -0.564780 0.149269 -0.745425 -0.501117 0.143535 0.190799 -0.809695 0.134811 -0.225001 -0.002698 -0.301950 0.232839
noticed -0.095999 -0.454324 -0.540107 -0.141765 -0.400544 -0.533971 -0.164628 -1.004572 -0.272298 0.354186 0.027101 -0.157179 -0.482622 0.117465 -0.305800 -0.183404 0.296176 -0.977188 -0.212971 -0.080671 0.116599 -0.824131 0.162600 0.256673 0.181195 -0.035869 0.359956 0.464492 -0.355884 -0.643646 -0.195522 -0.025785 -0.772711 0.240686 -0.301282 -0.009123 -0.059568 -0.204489 -0.254729 -0.283975 -0.965169 -0.186445 0.156468 -0.249560 -0.543319 0.360289 -0.284725 -0.092608 -0.241806 0.387550
tawny 0.672995 0.368027 -0.071965 0.169639 -0.135496 0.090251 0.207398 -0.557765 0.480432 0.380240 0.233366 0.026024 -0.251148 -0.215815 -0.419052 0.084264 -0.203041 0.367525 0.062002 -0.315324 -0.130370 -0.296063 -0.022082 0.000542 -0.327792 0.011835 0.326152 -0.092441 -0.432844 0.271011 -0.275232 0.065726 -0.135048 0.460690 -0.195921 0.159920 -0.085737 -0.186233 -0.388298 -0.165129 0.130481 -0.152362 0.475564 -0.274687 0.429093 0.395450 0.048187 0.142638 0.514113 -0.162939
owl -0.047065 -0.177178 -0.468958 -0.068430 -0.616441 -0.474321 -0.353557 -0.534201 -0.227220 -0.222736 -0.408450 -0.517221 -0.261097 0.471878 -0.022816 0.104606 -0.237117 -0.631503 0.223529 -0.009758 -0.402215 -0.118379 -0.101493 0.063285 -0.245786 -0.351176 0.309096 0.284764 0.071747 -0.256200 0.102872 0.493019 -0.893650 -0.414132 -0.743587 0.006219 -0.409784 -0.093370 -0.532808 0.293478 -0.818180 -0.332292 -0.136436 0.173647 -0.595243 0.191473 -0.347260 0.367232 -0.052881 0.170283
flutter -0.343604 0.125914 -0.445070 -0.485849 0.073873 0.137934 -0.001252 0.522504 -0.074055 -0.128286 -0.078890 0.442324 0.304107 0.259077 0.447495 0.450943 -0.305261 -0.467228 0.032920 -0.367250 0.562709 0.305495 0.462037 0.441129 0.513186 -0.329182 -0.092799 -0.301945 -0.428830 -0.307620 0.530390 -0.365696 0.462286 -0.267132 0.334230 0.357209 -0.183700 -0.191509 0.091037 -0.207679 0.175376 0.114953 0.545329 -0.196949 0.120286 0.399335 0.350853 -0.022319 0.516772 0.423844
past 0.367020 -0.564853 -0.417230 -0.475776 -0.461434 -0.172988 -0.694646 -0.926164 -0.589104 -0.387975 0.266557 -0.520167 -0.565407 0.570775 -0.116532 -0.428749 -0.418367 -0.603706 0.025581 0.100549 0.011111 -0.437933 -0.196878 -0.534458 0.135070 -0.108893 0.481735 0.212344 -0.390607 -0.599955 -0.001725 0.168056 -0.421406 -0.177833 -0.630014 0.287917 -0.362099 -0.750296 -0.080430 -0.136457 -0.143352 0.156991 -0.094447 0.555820 0.053393 0.133948 0.334938 0.410861 -0.605142 0.374352
window -0.031557 -0.617559 -0.885893 -0.228560 -0.227513 -0.384045 -0.194467 -0.695280 -0.698160 0.146166 -0.014506 -0.113227 0.223368 0.281045 -0.419758 -0.003350 -0.426978 -0.841095 0.342954 -0.042875 -0.570548 -0.607516 -0.085999 0.173257 -0.551151 -0.011806 0.446263 0.127215 0.032402 -0.239096 -0.371972 0.504219 -0.621290 -0.191088 -0.726471 0.082052 -0.338067 -0.301675 -0.443704 -0.381588 -0.966073 -0.164210 -0.064255 0.197906 -0.410708 0.190515 -0.120775 -0.030022 0.248877 0.422014
at -0.190551 -0.460274 -0.789009 -0.070593 -0.552556 -0.057628 -0.704682 -1.026862 -0.368445 -0.091604 -0.213523 -0.732165 -0.377243 0.347874 0.022610 -0.187763 -0.050536 -1.034029 0.032112 0.031144 -0.000274 -0.699102 -0.425064 -0.405011 -0.244650 -0.594556 0.501098 0.572702 -0.359497 -0.152069 0.126654 0.093724 -0.393006 0.034500 -0.584884 -0.195404 -0.284697 -0.650309 -0.443080 0.028493 -0.811220 -0.687044 0.217617 0.339370 -0.677138 -0.133808 0.053665 0.236897 -0.010627 0.304386
half 0.256013 -0.121732 -0.244166 -0.222380 -0.785902 -0.041687 -0.964183 -0.783702 -0.075356 -0.083307 0.112111 -0.015253 -0.056338 0.664927 -0.592223 0.088916 0.340061 -0.423594 0.036316 0.026679 -0.085437 -0.309360 -0.369955 -0.472291 0.008454 0.134071 0.385988 0.553157 -0.369889 -0.037830 0.110206 0.013824 -0.768694 0.276396 -0.372998 0.033447 -0.310131 -0.609424 -0.436259 0.085704 -0.618418 -0.367941 -0.232028 0.212173 -0.124620 0.115932 -0.546340 0.025580 -0.325760 -0.046855
eight 0.346715 0.033502 -0.402601 -0.405228 0.269800 0.455694 -0.565402 0.023631 0.334293 -0.340081 0.332222 -0.339425 -0.168234 0.414466 -0.341863 -0.209217 -0.501687 -0.480608 0.082925 -0.129096 0.366558 -0.525010 0.013335 -0.420771 0.012450 -0.063786 -0.069390 0.510188 -0.148833 0.029464 -0.399209 0.149654 -0.066075 -0.305466 0.126825 -0.273297 -0.229304 -0.519042 -0.287270 -0.438807 0.238322 -0.292051 0.072421 0.487907 0.031623 -0.320676 -0.339050 0.404665 -0.320565 0.493013
briefcase -0.130523 -0.304546 -0.124134 0.164276 0.077881 -0.281045 -0.311164 0.189605 0.437868 0.469552 0.324100 -0.122568 -0.385213 -0.322541 0.056107 0.448488 0.095514 -0.033386 -0.299048 -0.102780 -0.379452 -0.364940 0.159721 0.193615 -0.399260 0.533826 -0.096255 0.506137 -0.186165 0.120131 0.218173 0.233021 0.190876 0.254039 0.402285 -0.298827 -0.067994 0.154437 -0.038455 -0.053345 -0.258656 0.356736 -0.343737 0.151275 0.219259 -0.056015 0.121080 0.279954 -0.225986 -0.095305
pecked 0.168993 0.506362 0.104928 -0.228813 -0.322301 0.327995 -0.245341 -0.469231 -0.011139 0.350265 0.367846 -0.289327 0.081582 -0.183788 0.071538 -0.273514 -0.134098 0.217903 0.037956 0.258456 0.653500 0.064573 -0.070099 0.140366 0.040103 0.092544 0.432782 -0.060560 -0.157613 -0.127575 0.141010 -0.096355 -0.197506 0.255214 0.285551 -0.340909 0.062603 0.563553 -0.353328 -0.059038 0.268092 -0.133867 -0.145352 0.482125 0.236693 0.307004 -0.230057 0.200742 -0.409407 -0.287918
cheek -0.303873 0.482048 -0.072990 -0.177495 -0.303139 -0.443295 -0.447505 0.346971 -0.234590 0.502227 -0.231162 0.360492 -0.145342 0.303061 -0.313207 -0.026805 -0.156695 -0.104405 -0.420768 0.393485 0.228732 -0.037547 0.114245 -0.306211 -0.227602 0.340825 0.298491 0.528759 -0.307601 0.147835 0.436691 -0.291927 0.141549 0.083751 -0.510254 -0.126032 0.430821 -0.412511 -0.466136 0.083064 -0.258856 0.405742 0.099573 0.371246 0.345349 0.067606 0.436300 0.312706 0.370744 0.435466
tried -0.053314 -0.458871 -0.823779 -0.355362 -0.495839 0.076718 -0.144866 -0.838930 0.346969 -0.289156 -0.160788 -0.362735 -0.187849 0.510193 -0.451038 0.003444 -0.023903 -0.667508 -0.035000 0.133799 -0.379069 -0.452011 0.477315 -0.273094 -0.459719 0.217550 0.194859 0.035485 -0.564318 -0.664953 -0.442203 0.273541 -0.703423 0.623415 -0.650744 -0.542390 -0.481726 -0.134187 -0.709757 0.270653 -0.728285 -0.298641 -0.198771 -0.115520 -0.462366 -0.080345 0.130956 0.305800 -0.486061 0.497871
kiss -0.142613 -0.125666 0.027877 -0.083882 0.143681 0.335872 -0.434103 -0.277872 -0.008931 0.194256 -0.201062 -0.468594 -0.398564 0.396849 -0.310740 0.025874 -0.152359 -0.490913 0.275794 -0.325728 -0.132502 -0.146513 -0.171309 0.339475 0.242041 0.402981 0.271164 0.050824 -0.403437 0.041043 -0.395984 0.031336 -0.310703 0.143979 -0.254472 0.316066 -0.474489 -0.040296 -0.372374 -0.331468 0.109403 0.123212 0.322064 -0.120081 -0.332931 0.089384 0.399611 0.453311 -0.586098 0.309752
goodbye -0.118477 -0.390042 -0.617381 -0.184225 0.263565 -0.027679 0.114273 0.153867 -0.084742 -0.258585 -0.468901 0.110248 -0.390093 0.625215 0.216364 0.332655 0.324137 0.027465 0.038308 0.571197 -0.642740 -0.008636 0.416367 -0.240098 0.135438 -0.056115 -0.332698 -0.442435 -0.552813 -0.324008 -0.453776 0.537237 -0.507924 0.091191 -0.592746 0.139169 -0.183900 -0.353399 -0.067315 -0.411095 -0.013124 -0.016429 -0.477340 -0.534919 -0.465990 -0.419123 -0.078978 0.392450 -0.178863 0.176826
